0.0002

3

784 20 10 
-0.114 -0.085 -0.665 -0.508 0.421 -0.973 -0.941 0.926 0.426 0.736 0.368 -0.571 0.53 0.123 0.135 0.802 0.058 -0.833 -0.544 -0.958 0.373 -0.081 -0.463 -0.676 -0.63 0.526 -0.02 0.873 0.17 0.281 -0.075 -0.673 -0.495 0.729 0.857 0.895 -0.455 0.367 -0.636 0.75 -0.192 0.178 0.584 -0.349 -0.601 0.06 0.368 -0.988 -0.414 0.539 -0.43 -0.622 -0.399 -0.098 -0.508 -0.244 -0.72 0.441 0.689 -0.381 -0.271 -0.883 0.771 -0.325 -0.073 0.856 -0.647 -0.035 -0.317 -0.376 -0.129 -0.171 -0.981 0.368 -0.285 -0.851 -0.277 -0.755 0.451 0.555 0.488 -0.772 -0.65 0.5 0.764 -0.086 0.856 -0.509 -0.635 0.936 -0.449 0.228 0.407 -0.879 -0.605 0.237 0.793 -0.572 0.011 0.529 -0.596 0.763 -0.462 -0.16 -0.182 -0.312 0.917 -0.004 0.743 -0.817 0.499 -0.275 0.59 -0.861 0.786 -0.918 -0.536 0.507 -0.196 -0.389 0.828 0.343 0.568 0.422 0.81 0.801 0.73 0.305 -0.264 -0.374 0.465 0.416 0.258 0.637 0.624 -0.964 0.899 0.55 -0.929 0.131 -0.07 0.894 -0.837 0.981 -0.004 0.773 0.668 0.095 -0.534 0.34 0.684 0.542 0.107 0.756 -0.582 0.412 -0.828 -0.991 0.21 0.587 0.301 0.372 0.255 -0.401 0.904 0.811 0.667 -0.772 0.15 -0.342 0.224 0.269 -0.919 -0.916 0.972 0.85 0.385 0.299 -0.958 -0.287 -0.81 -0.41 -0.419 0.336 0.155 -0.996 -0.231 0.776 0.255 -0.858 0.884 0.205 0.567 -0.387 -0.246 -0.741 -0.798 0.506 -0.979 -0.132 0.189 0.908 -0.502 -0.192 -0.752 0.333 0.648 0.754 0.746 0.529 -0.954 0.797 -0.01 0.033 -0.503 -0.108 0.125 0.996 0.188 0.729 -0.54 0.921 -0.696 -0.973 -0.252 -0.098 0.697 0.043 -0.998 -0.597 -0.319 -0.462 0.151 -0.866 0.692 -0.873 0.629 -0.036 -0.571 -0.665 -0.1 0.971 -0.711 0.988 0.795 0.144 -0.61 0.34 -0.431 -0.768 -0.958 0.117 -0.239 -0.691 0.425 -0.633 -0.766 0.626 -0.943 0.168 -0.642 0.386 -0.654 -0.006 -0.448 0.529 -0.71 -0.03 0.08 -0.407 -0.373 0.886 -0.645 -0.91 0.479 -0.031 -0.726 0.641 0.433 0.888 -0.434 0.284 -0.583 -0.74 -0.763 0.059 -0.482 -0.217 -0.542 0.637 -0.517 -0.522 0.314 0.729 0.459 0.438 0.388 0.233 0.681 -0.642 -0.301 0.839 -0.637 -0.206 0.847 0.462 0.39 0.791 0.115 -0.843 0.491 -0.049 0.021 0.74 -0.97 0.325 0.516 0.002 -0.861 0.404 -0.42 0.021 0.862 0.379 -0.315 0.904 0.483 0.759 0.744 0.911 0.95 0.56 0.105 -0.951 -0.289 0.934 0.375 0.614 0.768 -0.082 -0.118 -0.018 -0.97 0.574 -0.407 -0.747 0.074 -0.287 -0.623 0.775 -0.081 -0.268 0.017 -0.765 0.691 0.943 -0.672 0.291 -0.982 -0.164 0.055 0.858 -0.096 -0.339 0.685 0.073 -0.149 0.25 -0.497 0.006 -0.361 0.12 -0.774 0.677 0.981 0.56 0.955 0.518 -0.658 0.196 0.321 -0.016 -0.573 -0.96 -0.928 0.83 -0.653 -0.97 0.714 0.522 -0.076 0.435 0.204 -0.557 0.486 -0.722 -0.738 0.683 0.848 -0.676 0.122 0.335 0.457 -0.253 0.776 0.218 0.703 0.933 0.959 -0.194 -0.28 0.308 -0.302 -0.624 -0.285 0.171 0.559 -0.99 -0.776 -0.461 0.378 0.053 0.114 0.989 -0.933 0.223 -0.769 -0.878 0.875 -0.821 -0.746 0.131 0.857 0.181 -0.397 -0.567 -0.819 0.415 -0.175 -0.278 -0.449 -0.968 0.181 -0.585 0.708 0.999 -0.703 0.776 -0.023 -0.413 0.382 -0.734 -0.14 0.211 0.086 -0.07 -0.417 0.476 0.82 0.525 -0.161 0.49 0.36 0.643 -0.072 -0.379 0.955 -0.775 -0.43 -0.147 0.722 -0.65 0.097 0.126 -0.929 0.149 -0.472 -0.602 -0.39 -0.423 -0.024 -0.448 -0.913 -0.901 -0.434 0.017 -0.265 0.298 0.195 0.805 0.428 -0.472 0.593 -0.803 0.672 -0.555 -0.675 -0.717 -0.873 0.421 0.334 0.334 -0.841 -0.043 0.761 -0.028 0.716 0.85 0.482 -0.783 0.173 -0.494 -0.636 -0.737 0.172 0.537 -0.172 0.28 0.856 -0.659 0.352 0.511 0.517 0.083 -0.888 -0.494 -0.333 0.489 -0.846 0.875 -0.859 -0.462 -0.364 0.956 -0.24 -0.186 -0.686 0.886 -0.961 0.535 -0.379 0.79 -0.891 -0.327 0.735 -0.705 -0.687 0.198 0.355 0.793 -0.844 -0.067 0.286 0.358 -0.86 -0.819 0.99 -0.95 0.954 -0.636 0.624 0.919 0.844 0.238 -0.024 -0.981 -0.657 0.956 -0.525 -0.989 -0.088 0.729 -0.132 0.002 0.207 0.216 -0.623 0.472 -0.043 -0.875 -0.203 0.418 -0.847 0.474 0.393 0.948 -0.97 0.559 -0.84 -0.576 -0.72 -0.098 0.48 0.583 -0.86 -0.277 -0.443 -0.569 -0.78 0.69 0.391 -0.73 0.667 -0.329 -0.257 0.899 0.088 -0.614 -0.768 0.71 -0.97 0.663 0.279 0.649 -0.649 0.464 0.33 0.515 0.915 0.881 0.634 -0.613 0.287 0.643 -0.258 -0.756 -0.861 -0.937 -0.647 0.269 0.404 -0.201 -0.181 -0.565 -0.147 -0.55 -0.198 0.562 0.61 0.96 -0.089 0.829 -0.184 -0.179 0.605 -0.421 0.528 -0.553 -0.955 0.787 0.551 0.386 0.426 -0.206 -0.494 -0.908 0.664 -0.18 -0.834 -0.646 -0.563 0.484 -0.688 0.017 0.165 0.608 0.745 0.422 -0.705 -0.441 0.676 -0.429 -0.075 -0.828 -0.911 0.566 0.812 0.196 0.333 0.186 0.37 0.568 -0.859 -0.361 -0.737 0.59 -0.798 0.631 -0.743 -0.429 -0.317 0.225 0.54 -0.028 -0.366 0.725 -0.048 0.472 0.339 0.883 0.661 0.542 -0.661 0.344 0.33 0.294 -0.243 -0.14 0.292 0.876 0.99 -0.365 0.598 -0.259 -0.43 -0.46 -0.199 -0.2 0.609 -0.56 -0.237 0.304 -0.394 -0.477 -0.651 -0.47 -0.296 0.986 0.625 0.591 -0.593 0.131 -0.081 0.053 -0.573 0.819 0.581 0.768 0.639 -0.562 0.394 -0.32 -0.514 -0.248 -0.902 0.01 0.179 -0.934 -0.575 -0.022 -0.034 -0.252 -0.728 0.086 0.159 0.9 0.197 0.003 0.951 -0.502 0.154 -0.094 -0.997 -0.216 -0.203 0.633 -0.44 0.014 -0.103 0.097 -0.671 0.313 -0.366 0.914 -0.225 -0.014 -0.374 -0.384 0.569 0.409 0.515 -0.167 0.776 0.613 
-0.7 0.786 -0.237 -0.492 0.416 0.982 0.54 -0.174 0.565 0.499 0.546 0.853 -0.697 0.842 -0.466 0.81 -0.131 0.815 -0.304 0.382 
0.451 0.361 0.037 0.861 0.981 -0.912 -0.38 0.293 -0.372 0.708 


0.162 -0.058 0.87 0.996 -0.837 0.466 0.811 -0.5 -0.485 -0.513 -0.766 0.332 -0.71 0.95 -0.307 0.633 0.339 -0.12 0.494 -0.707 
0.213 -0.146 -0.618 0.444 0.475 -0.677 -0.262 -0.249 -0.049 0.873 -0.189 -0.535 0.168 -0.319 -0.187 0.683 -0.501 -0.023 -0.465 0.014 
0.464 -0.231 -0.654 -0.893 0.072 0.391 0.74 -0.589 -0.377 0.587 0.057 0.836 -0.207 0.439 0.281 -0.38 -0.886 -0.629 0.371 0.418 
-0.404 -0.466 0.883 0.764 0.567 -0.303 0.8 -0.933 0.674 -0.665 0.433 0.49 0.457 -0.868 0.949 -0.471 0.523 0.69 0.292 -0.853 
0.629 -0.651 -0.665 -0.578 -0.86 0.968 0.043 -0.745 -0.661 -0.234 -0.975 -0.064 0.653 -0.74 0.052 0.22 -0.043 0.204 0.287 -0.017 
0.54 -0.279 -0.174 -0.003 0.205 0.127 0.878 -0.272 0.169 0.17 0.227 -0.202 0.52 0.563 0.221 0.66 0.883 -0.384 -0.733 -0.777 
0.382 -0.708 0.511 0.035 -0.447 -0.437 -0.392 0.862 0.768 0.895 0.198 0.66 -0.032 -0.624 0.009 -0.827 0.503 -0.113 0.254 -0.327 
-0.943 -0.519 0.823 0.929 -0.604 0.044 0.942 -0.72 -0.988 -0.791 -0.145 0.747 -0.146 -0.634 0.134 0.759 0.281 0.742 0.973 0.401 
0.638 0.171 0.413 -0.042 0.899 -0.578 0.484 0.755 0.661 0.09 -0.22 -0.929 0.923 -0.397 -1 -0.68 -1 0.942 -0.048 -0.988 
-0.496 0.807 0.759 0.358 -0.475 -0.106 0.117 -0.842 -0.364 0.09 0.56 -0.374 -0.386 -0.027 0.937 -0.135 0.748 0.421 -0.38 0.409 
-0.137 0.4 0.832 -0.214 -0.996 0.833 0.458 -0.644 -0.873 -0.59 -0.632 -0.369 -0.431 -0.872 -0.659 0.446 0.374 0.458 0.605 -0.99 
-0.099 0.165 -0.011 0.867 -0.51 -0.074 -0.268 -0.762 -0.301 0.705 -1 0.562 0.457 0.832 -0.652 0.461 -0.983 0.807 -0.831 -0.503 
-0.431 -0.462 0.128 0.139 0.018 0.47 -0.415 -0.608 0.28 -0.458 -0.246 -0.467 0.707 0.743 -0.6 -0.45 0.021 0.485 -0.212 0.72 
0.19 0.14 0.634 -0.353 0.325 0.983 -0.539 0.694 -0.858 -0.37 -0.809 0.063 0.52 0.32 -0.446 -0.462 0.142 0.492 -0.07 -0.578 
-0.966 0.685 0.308 -0.906 0.78 0.708 -0.356 -0.198 0.545 0.784 -0.478 0.087 -0.075 -0.843 0.735 -0.398 -0.508 -0.452 -0.704 -0.014 
0.53 -0.16 -0.951 0.051 -0.488 -0.044 0.589 0.654 -0.552 -0.128 -0.572 -0.518 -0.443 -0.912 -0.424 -0.663 0.797 0.22 0.139 0.694 
0.005 -0.986 -0.218 -0.718 -0.477 -0.131 0.236 0.015 0.417 0.884 -0.647 0.299 -0.276 -0.246 -0.65 0.236 0.71 -0.708 0.242 -0.842 
0.164 -0.977 -0.359 0.721 -0.889 0.569 -0.59 -0.74 -0.21 0.902 0.955 -0.853 0.916 0.089 -0.219 -0.561 0.958 -0.983 0.806 0.375 
0.901 -0.489 -0.326 -0.022 0.265 0.377 -0.434 -0.024 0.669 -0.839 0.134 -0.167 -0.464 -0.873 -0.094 -0.001 0.697 0.316 0.26 -0.161 
0.57 0.567 -0.014 0.486 0.008 0.767 -0.723 -0.034 -0.864 -0.565 -0.307 -0.963 -0.054 0.719 0.367 -0.788 0.096 0.934 0.54 0.117 
-0.905 -0.326 0.95 -0.369 -0.198 0.208 0.63 -0.149 -0.475 0.242 0.69 -0.553 0.161 -0.324 0.934 -0.831 -0.205 -0.437 0.135 -0.069 
0.351 -0.82 0.32 -0.703 0.9 -0.312 -0.139 -0.004 -0.026 -0.599 -0.886 0.069 0.428 -0.584 -0.948 -0.418 0.625 0.682 0.433 -0.498 
0.277 0.123 -0.051 -0.21 -0.849 0.235 -0.04 -0.054 0.799 -0.553 -0.771 0.502 -0.372 0.549 0.799 -0.472 -0.411 0.013 0.876 0.563 
0.766 0.99 -0.016 0.194 -0.241 0.036 0.776 -0.616 0.071 0.209 0.238 -0.3 -0.316 -0.461 0.49 -0.165 0.775 -0.55 0.781 0.926 
0.25 -0.638 0.428 0.878 -0.736 0.579 -0.242 -0.147 -0.056 -0.366 -0.231 -0.289 -0.023 -0.895 -0.743 0.736 0.142 -0.966 -0.528 -0.435 
0.595 0.71 0.265 -0.368 -0.751 0.107 0.467 -0.624 0.558 0.601 -0.698 0.16 0.963 -0.918 0.038 -0.773 -0.986 0.796 0.433 -0.042 
-0.57 -0.446 0.669 0.407 -0.341 0.927 0.495 0.801 -0.687 0.967 -0.282 -0.74 -0.971 -0.665 -0.108 -0.369 0.443 -0.288 0.007 0.353 
-0.687 0.662 -0.487 -0.372 -0.904 0.551 -0.144 -0.89 0.699 -0.359 0.069 -0.519 0.195 0.09 0.889 0.854 0.369 0.736 -0.992 0.682 
0.704 -0.274 -0.705 0.733 0.414 0.187 -0.636 -0.143 -0.749 0.724 -0.79 -0.436 0.738 -0.277 0.193 0.834 -0.374 -0.599 0.945 -0.675 
0.394 0.366 -0.194 -0.411 -0.544 0.047 -0.205 0.826 -0.216 -0.197 0.86 -0.16 0.882 -0.845 -0.427 0.648 0.695 0.29 -0.495 0.946 
0.366 0.067 -0.137 0.104 0.79 -0.592 0.29 -0.232 0.161 0.235 0.093 -0.445 -0.399 -0.749 0.144 0.41 0.651 -0.709 0.588 -0.565 
0.447 0.448 0.275 0.681 0.956 -0.8 0.329 0.651 0.842 0.834 0.949 0.56 -0.099 0.164 -0.336 0.043 0.572 0.955 0.811 -0.267 
0.542 0.256 0.64 -0.504 0.859 0.136 -0.742 0.51 0.428 0.846 -0.703 -0.125 0.294 0.924 -0.444 0.25 -0.875 0.885 0.253 -0.681 
-0.929 0.555 0.88 0.324 -0.281 -0.104 -0.633 -0.356 0.203 -0.47 0.729 -0.254 0.786 0.37 0.594 0.645 -0.142 0.852 0.508 -0.714 
0.698 0.805 0.513 0.344 0.73 -0.579 -0.053 -0.793 -0.342 -0.8 -0.122 -0.271 -0.893 -0.242 -0.947 0.179 -0.993 -0.228 -0.825 0.21 
0.302 0.904 -0.692 0.44 0.626 0.902 0.086 -0.515 -0.894 -0.054 0.123 0.804 -0.249 -0.363 0.501 -0.167 0.41 -0.552 0.392 -0.931 
0 -0.729 0.15 0.108 0.381 0.556 -0.713 0.388 -0.672 -0.538 -0.049 0.983 -0.282 0.259 0.423 -0.655 0.514 -0.139 0.182 0.972 
0.807 -0.343 -0.871 -0.089 0.294 0.63 0.744 0.057 -0.922 0.137 0.126 0.078 0.76 -0.372 -0.814 0.141 -0.816 -0.175 -0.118 -0.135 
0.639 0.833 -0.152 -0.642 0.444 -0.377 0.055 0.31 0.485 -0.411 0.283 0.644 0.246 0.412 -0.445 -0.107 0.042 -0.7 0.95 0.12 
0.789 0.428 -0.45 0.549 -0.944 -0.263 0.042 -0.759 0.914 0.924 0.458 0.554 -0.891 -0.342 -0.736 0.554 0.281 0.319 0.216 0.118 
-0.74 -0.501 -0.237 0.506 -0.737 0.318 -0.601 0.305 0.97 -0.299 -0.223 -0.889 -0.871 0.328 -0.988 -0.814 -0.583 0.055 -0.221 -0.317 
-0.021 -0.411 -0.763 0.089 0.247 -0.147 -0.005 -0.12 -0.476 -0.789 0.999 -0.216 -0.289 0.114 -0.357 0.326 -0.216 0.042 -0.368 0.107 
-0.904 0.761 0.218 -0.775 0.441 0.231 -0.237 -0.79 -0.714 0.894 -0.106 0.617 -0.165 0.483 0.058 -0.918 -0.663 -0.947 0.315 0.213 
-0.383 0.314 0.998 0.68 -0.22 -0.359 0.006 0.564 -0.965 0.638 0.023 -0.869 0.752 -0.758 -0.291 0.545 0.825 0.824 0.756 -0.537 
-0.929 0.002 -0.92 -0.094 -0.515 0.491 -0.011 0.174 0.544 -0.344 -0.612 -0.839 0.97 -0.262 0.841 0.102 0.379 -0.152 0.018 0.766 
-0.162 -0.958 -0.75 -0.058 -0.716 -0.041 -0.512 -0.539 0.135 -0.404 -0.076 0.206 0.598 0.356 -0.887 -0.565 -0.153 0.454 0.962 -0.256 
-0.89 -0.298 0.257 -0.568 0.44 0.451 0.886 0.171 -0.701 -0.096 0.289 0.489 -0.054 0.539 -0.216 0.582 -0.15 0.272 -0.957 0.986 
0.868 0.319 0.192 0.818 -0.324 0.657 -0.747 0.875 0.463 -0.785 -0.381 0.925 0.269 0.877 -0.291 -0.291 0.68 -0.405 -0.768 -0.669 
0.5 0.522 0.82 -0.554 0.413 -0.044 -0.971 -0.736 -0.772 -0.576 -0.75 -0.552 0.744 0.794 -0.382 -0.228 0.804 -0.128 -0.353 0.267 
0.439 0.619 0.193 -0.291 0.848 -0.746 0.77 0.528 -0.15 -0.645 0.859 -0.65 -0.771 -0.969 0.148 0.642 -0.012 0.177 0.906 0.568 
0.954 -0.492 -0.631 0.698 -0.697 -0.013 -0.53 -0.893 -0.789 0.469 0.726 -0.997 0.44 0.271 0.064 0.288 0.526 0.186 -0.184 -0.624 
0.541 0.027 0.078 -0.878 0.059 -0.774 0.765 -0.601 0.404 -0.977 0.967 0.358 -0.468 -0.312 0.408 0.187 0.676 -0.77 0.294 -0.761 
-0.949 0.372 -0.758 0.492 -0.356 0.306 -0.22 -0.478 -0.507 0.949 -0.102 -0.614 0.328 0.976 -0.491 -0.613 -0.798 -0.374 0.138 0.958 
-0.351 0.458 0.668 0.181 -0.854 0.428 -0.28 -0.826 0.658 -0.986 -0.586 -0.938 0.739 -0.344 0.554 -0.265 -0.685 -0.666 0.257 0.16 
-0.365 -0.493 0.546 0.964 -0.517 -0.945 -0.297 0.037 0.033 0.842 0.348 0.683 0.3 0.368 0.216 0.446 0.149 0.937 0.621 0.159 
-0.697 -0.613 0.221 -0.958 0.043 -0.225 -0.223 0.71 0.462 -0.614 -0.13 -0.903 -0.107 -0.583 -0.939 0.728 -0.176 0.117 -0.234 0.858 
-0.041 -0.534 0.893 -0.741 -0.814 0.109 -0.943 0.335 0.046 -0.97 -0.505 0.702 -0.583 0.716 -0.904 0.813 -0.508 -0.126 0.523 -0.694 
0.26 -0.606 -0.597 -0.494 0.163 -0.183 -0.766 -0.661 0.934 0.352 -0.451 -0.107 0.818 -0.558 0.504 -0.995 0.904 0.913 0.692 0.302 
0.944 -0.813 0.004 -0.639 -0.744 0.101 -0.474 -0.252 -0.673 -0.95 0.054 0.939 -0.204 0.809 -0.555 -0.689 -0.374 -0.32 0.002 -0.088 
-0.968 0.552 -0.843 -0.797 -0.654 0.661 -0.44 -0.75 0.927 -0.748 0.553 0.871 -0.56 -0.443 -0.416 0.048 -0.99 0.111 -0.852 -0.663 
0.513 0.554 -0.723 -0.339 0.363 0.074 0.324 -0.658 0.754 -0.674 0.254 -0.861 0.878 0.764 -0.658 -0.775 0.777 -0.098 -0.173 0.704 
0.154 -0.62 0.575 0.946 0.29 -0.84 -0.006 0.3 0.623 0.142 0.99 0.488 -0.304 -0.381 -0.851 -0.588 0.693 0.825 -0.246 0.448 
-0.849 -0.64 0.587 -0.618 -0.876 0.929 -0.041 0.902 0.183 0.786 0.606 -0.663 -0.833 0.534 -0.364 0.809 -0.954 0.63 0.109 0.669 
0.125 0.451 0.157 -0.827 -0.93 0.658 -0.415 0.764 0.483 0.339 0.564 0.986 -0.948 0.503 -0.632 -0.824 0.432 0.327 -0.57 -0.033 
0.466 -0.963 0.304 0.633 0.571 -0.708 0.794 0.617 -0.725 0.255 0.638 0.4 -0.293 0.147 0.573 -0.223 0.157 -0.841 -0.107 -0.008 
0.85 -0.543 -0.022 0.902 0.96 0.347 -0.569 0.744 0.026 -0.139 -0.289 -0.508 -0.102 -0.632 -0.523 -0.179 -0.34 -0.729 -0.21 0.287 
0.879 -0.22 -0.313 -0.414 -0.721 -0.387 0.363 0.436 0.124 -0.391 -0.572 -0.026 0.066 0.759 0.229 0.027 0.458 0.66 -0.229 -0.516 
-0.127 0.835 0.329 -0.876 -0.797 -0.842 -0.055 0.215 -0.218 -0.912 -0.497 -0.339 -0.132 0.542 0.247 0.5 -0.845 -0.038 -0.064 0.631 
0.571 0.717 -0.042 -0.362 0.476 -0.813 -0.983 -0.066 -0.801 0.14 0.77 0.072 0.327 0.451 0.196 0.882 0.61 -0.506 0.098 -0.608 
-0.418 0.953 0.053 0.802 0.847 -0.348 0.654 -0.645 0.614 -0.409 0.986 0.538 -0.34 -0.056 -0.472 -0.512 0.483 -0.455 0.422 -0.966 
-0.963 0.544 0.107 0.365 -0.004 -0.345 0.247 -0.394 0.149 -0.303 0.35 -0.917 0.002 -0.597 -0.762 -0.15 0.055 0.892 0.205 0.021 
-0.165 0.191 -0.089 0.495 -0.512 0.439 0.983 -0.677 -0.664 0.757 -0.642 -0.274 0.302 0.465 -0.909 -0.35 -0.88 0.69 0.608 0.622 
-0.612 -0.042 -0.943 0.39 0.361 -0.705 -0.76 -0.232 -0.46 0.797 -0.859 0.375 0.341 0.053 0.223 0.829 -0.156 0.558 -0.848 0.533 
0.316 -0.49 -0.741 -0.03 -0.673 -0.65 0.972 -0.2 -0.96 0.58 -0.226 -0.22 -0.462 -0.169 -0.829 0.899 0.479 -0.237 0.019 -0.981 
-0.439 0.512 0.746 -0.746 -0.083 -0.031 -0.917 0.762 -0.472 -0.413 0.295 -0.804 0.45 0.554 0.166 -0.871 -0.744 0.138 -0.071 -0.704 
-0.282 -0.945 0.429 0.608 -0.113 0.6 0.507 -0.282 -0.285 -0.122 -0.263 0.628 -0.61 -0.165 0.882 0.308 0.805 -0.683 0.422 -0.315 
0.257 0.069 -0.119 -0.293 -0.377 -0.601 -0.164 -0.121 0.889 -0.882 0.527 -0.393 -0.827 -0.044 -0.785 0.412 -0.092 -0.926 -0.87 0.976 
0.304 0.219 0.956 -0.954 -0.945 0.839 0.706 -0.788 -0.492 0.128 -0.103 0.765 -0.803 -0.87 -0.528 0.172 -0.471 0.661 -0.597 -0.582 
-0.869 -0.717 0.377 -0.344 0.591 0.944 -0.931 -0.148 -0.63 -0.449 -0.172 -0.974 -0.877 -0.216 -0.928 -0.47 -0.025 0.779 0.094 0.484 
0.259 0.991 0.249 0.809 -0.527 -0.926 -0.019 0.002 0.735 0.737 0.772 0.866 -0.98 0.501 -0.126 0.611 0.445 -0.057 -0.185 -0.833 
0.847 0.643 -0.807 -0.678 -0.22 -0.383 0.204 -0.893 -0.604 -0.702 0.591 -0.992 -0.711 0.193 0.817 -0.238 0.267 0.15 -0.884 0.354 
-0.113 -0.76 0.572 0.259 0.741 -0.554 0.223 0.538 0.742 -0.962 0.705 0.589 0.682 -0.75 -0.737 -0.186 -0.133 0.467 -0.079 0.616 
0.765 -0.135 0.624 -0.594 -0.942 0.441 0.52 0.325 -0.409 0.988 -0.321 0.831 -0.772 -0.749 0.09 0.969 -0.303 -0.687 0.859 -0.209 
-0.648 0.916 -0.268 -0.614 -0.834 -0.005 0.2 0.385 -0.186 -0.527 0.001 -0.421 0.338 -0.023 0.337 0.396 -0.582 -0.143 0.073 0.362 
-0.155 -0.896 0.193 0.425 -0.293 -0.365 0.746 0.405 -0.051 0.605 -0.452 0.653 0.873 0.281 -0.961 -0.961 -0.724 0.591 0.777 0.091 
-0.936 0.13 -0.978 0.755 -0.892 0.36 0.151 -0.474 -0.431 -0.423 -0.76 0.415 -0.319 0.433 0.192 0.389 -0.931 -0.061 0.146 0.37 
-0.104 0.694 0.023 -0.23 -0.025 0.414 0.161 0.604 0.005 -0.062 -0.305 0.421 -0.931 0.069 0.176 -0.823 -0.571 -0.32 0.055 -0.001 
0.257 0.296 -0.234 0.938 0.081 0.958 0.679 0.502 0.249 -0.175 0.224 -0.854 -0.128 -0.753 -0.084 0.847 0.661 -0.923 0.451 0.018 
0.016 -0.502 -0.56 0.437 0.568 0.616 0.966 -0.651 -0.704 0.021 0.348 0.905 -0.331 -0.534 -0.804 0.751 -0.223 0.875 0.605 -0.974 
0.053 -0.17 -0.828 0.925 0.429 0.088 0.772 0.443 0.518 0.576 -0.539 -0.114 -0.574 -0.099 -0.677 0.994 -0.13 -0.711 -0.304 0.518 
0.662 -0.604 0.424 -0.668 -0.137 0.62 -0.565 0.64 0.847 -0.608 -0.982 -0.1 0.222 -0.457 -0.175 0.004 0.983 -0.05 -0.553 0.501 
-0.122 -0.092 -0.613 0.304 -0.838 0.062 0.651 0.032 0.351 -0.653 -0.098 0.366 -0.257 -0.674 -0.95 0.958 -0.702 -0.163 0.95 -0.502 
0.229 0.969 0.398 -0.196 -0.488 -0.424 0.808 -0.153 0.878 -0.745 -0.651 0.108 0.163 -0.264 -0.236 0.677 -0.849 -0.585 -0.291 0.854 
0.114 0.612 0.22 -0.79 -0.71 0.27 -0.832 -0.059 -0.893 -0.529 0.439 0.689 -0.56 0.189 -0.507 0.304 -0.883 -0.347 -0.849 -0.653 
-0.092 -0.148 0.455 -0.577 0.941 -0.428 -0.899 -0.908 0.339 0.162 0.946 -0.546 0.126 0.519 0.016 0.769 -0.211 0.184 -0.29 0.249 
0.655 -0.499 0.29 -0.553 -0.958 0.783 -0.897 -0.488 -0.212 -0.393 0.211 0.696 0.811 0.019 -0.529 0.752 0.591 -0.076 -0.804 -0.07 
-0.913 -0.857 0.736 0.565 0.662 -0.248 0.334 -0.197 -0.711 -0.604 -0.596 -0.704 -0.103 0.694 0.096 0.292 0.829 0.199 -0.844 -0.383 
-0.842 0.367 -0.335 -0.678 -0.614 0.137 -0.926 0.977 -0.939 -0.729 -0.092 -0.5 -0.234 -0.004 -0.934 -0.22 0.749 0.4 0.935 -0.962 
0.797 -0.66 -0.666 0.046 -0.614 0.43 -0.31 -0.784 -0.018 -0.154 0.185 0.492 -0.786 0.851 0.814 -0.048 0.34 -0.759 -0.07 0.753 
-0.136 -0.81 -0.746 0.63 0.186 -0.328 -0.238 0.287 -0.928 -0.303 0.325 -0.779 0.389 0.66 0.62 0.776 0.442 -0.69 0.992 -0.576 
0.509 0.529 -0.731 -0.925 0.38 -0.917 0.027 -0.28 -0.676 -0.691 -0.526 0.188 -0.501 0.08 0.17 -0.962 0.752 0.932 0.325 -0.824 
-0.018 -0.349 -0.602 -0.629 -0.337 -0.63 -0.853 -0.543 0.032 -0.509 0.234 -0.459 -0.979 0.503 -0.384 0.753 0.938 0.996 -0.174 -0.737 
-0.695 0.652 0.803 0.157 -0.268 0.326 0.195 -0.164 0.258 -0.48 0.012 -0.408 0.523 0.762 -0.036 -0.462 -0.868 0.463 0.348 0.165 
-0.693 -0.418 -0.942 -0.672 -0.563 0.027 -0.567 -0.625 0.023 0.259 -0.01 0.328 -0.089 0.146 -0.515 0.995 -0.528 -0.968 -0.169 -0.918 
-0.095 -0.804 -0.325 -0.572 0.958 0.639 0.319 -0.557 0.454 -0.333 0.96 0.761 0.601 -0.63 -0.559 -0.962 0.397 -0.125 -0.587 -0.58 
-0.514 0.756 -0.899 0.398 -0.098 -0.062 0.745 0.374 0.323 -0.071 0.456 -0.772 0.125 -0.869 0.008 0.435 -0.878 -0.321 -0.77 0.577 
0.346 -0.81 0.69 -0.053 -0.087 -0.868 0.337 -0.69 0.007 0.751 0.083 0.493 0.507 0.536 0.243 -0.591 -0.174 -0.011 -0.865 -0.851 
0.918 0.591 -0.623 0.395 0.723 0.738 -0.17 -0.803 -0.583 0.413 0.774 -0.884 0.955 0.465 0.415 -0.132 0.949 -0.247 0.179 -0.044 
-0.144 -0.386 -0.199 -0.285 -0.85 -0.603 0.476 -0.024 0.738 0.611 0.126 -0.992 0.202 0.855 0.403 0.277 0.593 -0.415 0.475 -0.989 
0.998 0.601 -0.873 -0.694 0.418 0.542 0.174 0.367 -0.353 -0.647 -0.677 0.503 -0.033 0.477 -0.782 0.469 -0.774 0.694 -0.554 0.964 
0.305 0.924 0.972 -0.14 0.779 0.727 -0.863 0.725 -0.336 0.964 0.736 0.015 0.566 -0.785 0.321 -0.016 -0.891 -0.505 -0.648 -0.243 
0.201 0.027 -0.74 -0.48 -0.144 -0.169 0.99 0.082 -0.475 -0.212 0.046 -0.817 -0.288 0.37 0.043 -0.509 0.449 0.532 -0.784 -0.534 
0.497 -0.696 0.481 0.063 -0.129 0.154 -0.601 -0.019 -0.999 -0.249 -0.91 0.202 -0.869 -0.298 -0.925 -0.013 0.533 -0.935 -0.93 -0.589 
0.205 0.468 -0.054 0.917 0.191 0.989 -0.24 -0.008 0.873 0.329 0.458 0.37 0.633 0.291 -0.215 -0.143 -0.203 0.537 -0.81 -0.201 
-0.712 -0.72 -0.647 -0.229 0.334 -0.572 0.759 0.22 -0.155 -0.819 0.983 -0.95 -0.999 -0.071 -0.681 0.192 0.27 0.08 -0.463 0.143 
-0.591 -0.653 -0.134 -0.606 0.639 -0.997 0.603 -0.212 0.54 0.793 0.587 -0.819 -0.575 0.941 -0.048 -0.888 -0.279 0.063 0.332 0.567 
0.244 0.315 0.969 0.246 -0.756 -0.711 -0.21 0.514 0.721 0.327 0.009 -0.87 0.675 0.875 -0.124 0.666 -0.769 -0.52 -0.546 0.771 
-0.375 -0.958 -0.696 0.403 -0.665 0.257 0.515 0.056 -0.328 -0.153 -0.025 0.917 -0.486 -0.055 0.163 -0.242 0.586 0.953 -0.376 0.307 
0.281 0.633 0.789 0.308 0.861 0.017 -0.026 -0.908 0.849 0.428 -0.785 -0.525 0.822 -0.128 -0.77 -0.843 -0.519 0.745 0.566 0.153 
-0.408 -0.459 0.07 0.458 0.838 -0.415 -0.784 0.424 -0.461 0.192 0.083 -0.828 0.177 -0.128 0.832 0.038 -0.758 -0.194 0.482 -0.909 
-0.414 -0.95 -0.082 -0.591 -0.078 0.148 -0.082 0.755 0.245 -0.516 -0.092 -0.811 0.378 0.979 0.647 0.216 -0.436 -0.785 -0.007 0.455 
0.407 -0.924 0.979 -0.415 0.301 0.811 0.975 0.895 -0.031 0.81 0.986 0.556 -0.788 0.257 -0.683 0.486 -0.243 0.235 0.241 -0.997 
-0.928 -0.851 -0.808 0.45 -0.52 0.84 0.018 0.397 -0.945 -0.989 0.204 0.815 -0.56 0.184 -0.6 -0.907 0.347 -0.273 0.988 -0.683 
-0.463 0.974 0.873 0.101 0.583 -0.81 -0.413 -0.659 0.777 0.828 -0.304 -0.799 -0.67 -0.112 -0.997 -0.19 0.08 0.022 -0.441 0.136 
0.385 0.764 0.303 -0.823 0.3 -0.945 -0.73 -0.353 -0.218 -0.742 -0.036 0.672 -0.415 -0.163 -0.227 -0.832 0.379 0.361 -0.139 0.509 
0.189 0.557 0.71 0.519 -0.554 -0.934 -0.318 0.878 0.088 0.241 0.366 -0.175 0.357 -0.331 0.003 -0.343 -0.276 0.625 0.305 0.507 
0.884 -0.731 0.531 -0.531 0.459 -0.696 -0.011 0.19 0.665 0.851 0.051 0.207 0.408 -0.238 0.078 -0.794 -0.172 0.76 -0.915 -0.732 
0.354 0.451 0.445 -0.289 -0.879 -0.2 0.369 -0.155 -0.574 0.026 -0.296 -0.338 0.295 -0.765 0.131 0.106 -0.46 -0.88 -0.351 -0.443 
-0.677 0.7 -0.884 0.732 -0.186 0.195 -0.71 0.642 0.307 -0.625 -0.738 0.013 -0.821 -0.94 -0.923 -0.7 -0.14 0.446 0.497 0.638 
-0.176 -0.446 -0.7 -0.529 -0.211 0.431 0.578 0.681 0.904 -0.421 -0.409 -0.773 -0.721 -0.293 -0.689 0.094 -0.746 -0.398 0.088 0.914 
0.329 0.703 0.279 0.508 0.763 0.356 -0.84 -0.025 0.154 -0.99 -0.386 0.978 -0.436 -0.086 -0.55 0.353 -0.302 -0.62 0.387 -0.046 
-0.041 0.978 0.533 0.238 0.037 0.845 -0.316 0.644 -0.201 0.773 0.558 -0.872 0.828 -0.163 0.989 0.591 -0.454 -0.851 -0.082 0.7 
-0.841 0.532 0.679 -0.277 -0.201 -0.871 -0.571 0.497 -0.491 0.816 -0.197 0.82 -0.854 -0.664 0.058 0.183 -0.467 -0.905 -0.173 0.332 
-0.78 -0.263 0.813 -0.952 0.927 0.802 0.991 -0.527 -0.697 -0.091 -0.475 -0.537 -0.558 -0.796 0.538 0.593 -0.315 -0.681 0.442 0.546 
-0.513 -0.755 0.366 -0.367 -0.419 -0.223 -0.831 0.115 -0.128 0.348 -0.201 0.092 -0.562 -0.388 0.14 -0.635 -0.586 0.131 0.19 0.07 
-0.608 0.715 0.533 0.186 -0.728 0.423 -0.221 -0.043 -0.905 -0.779 -0.496 -0.418 -0.182 -0.778 0.568 0.752 -0.001 -0.911 0.219 0.871 
0.789 -0.982 0.315 -0.773 -0.017 -0.545 -0.056 0.749 0.938 -0.866 -0.181 -0.317 -0.798 -0.296 0.869 -0.526 -0.872 -0.351 0.783 -0.777 
0.222 -0.361 0.157 -0.607 -0.138 -0.275 -0.855 -0.787 0.166 0.364 -0.563 -0.044 0.734 0.752 0.183 -0.283 -0.44 -0.52 -0.533 -0.15 
-0.034 0.286 0.533 0.168 0.991 0.403 0.994 -0.529 -0.596 0.778 0.046 0.978 -0.583 -0.445 -0.629 0.279 0.633 -0.132 0.493 -0.201 
-0.416 -0.718 0.755 -0.681 -0.966 0.291 0.388 -0.406 0.771 -0.793 0.797 0.089 0.494 0.33 -0.742 0.837 0.085 -0.396 -0.34 0.489 
-0.618 -0.942 0.82 -0.2 -0.387 -0.809 -0.569 -0.754 0.412 -0.724 0.046 0.996 -0.442 0.153 -0.333 -0.055 -0.556 -0.944 0.891 -0.433 
-0.737 0.688 -0.991 -0.891 0.019 -0.381 -0.702 -0.544 0.223 -0.042 -0.702 0.606 0.016 -0.882 -0.242 0.982 -0.339 0.541 -0.772 -0.927 
0.818 0.626 -0.93 -0.272 -0.22 -0.263 0.673 0.576 0.145 0.565 -0.504 0.409 0.253 -0.495 0.87 -0.376 0.124 -0.831 0.433 -0.653 
0.127 0.731 -0.695 -0.504 0.849 0.063 -0.522 -0.49 -0.043 0.058 -0.064 -0.225 -0.315 0.358 0.503 0.465 -0.553 0.529 0.041 0.593 
0.094 0.537 0.354 -0.301 -0.606 0.224 0.676 0.518 0.745 0.109 -0.782 0.225 0.192 -0.477 0.721 0.041 0.939 -0.449 0.903 -0.104 
0.609 0.191 -0.977 -0.706 -0.451 0.878 -0.889 -0.003 0.759 0.153 -0.41 -0.147 0.042 -0.704 0.905 0.789 0.872 0.933 0.307 0.618 
0.394 0.877 -0.157 -0.414 -0.247 -0.084 0.979 -0.308 0.467 0.882 0.94 0.428 0.074 -0.685 0.723 0.975 -0.455 0.834 -0.028 -0.695 
0.339 0.914 0.51 -0.266 -0.79 0.415 -0.477 -0.565 0.7 -0.818 -0.947 0.094 -0.94 -0.104 -0.968 -0.187 0.812 -0.989 0.857 0.631 
0.894 -0.851 0.059 0.32 -0.184 0.134 0.295 0.361 0.321 -0.38 0.666 0.012 -0.114 0.177 0.746 0.449 -0.056 -0.379 0.884 -0.355 
0.156 0.937 -0.909 0.216 0.185 -0.876 -0.619 0.349 -0.513 -0.41 -0.02 -0.619 0.091 -0.609 -0.947 0.907 0.526 0.701 0.268 -0.153 
-0.327 0.287 -0.789 0.559 -0.536 -0.69 0.008 0.76 -0.069 0.244 -0.243 -0.913 0.533 -0.151 0.655 -0.282 0.325 -0.612 -0.933 0.812 
-0.022 0.399 -0.454 -0.931 0.791 -0.049 -0.672 0.669 0.004 0.597 -0.132 0.677 -0.116 0.079 0.589 0.7 0.389 -0.051 0.46 -0.327 
-0.806 -0.782 0.112 0.727 0.419 0.12 -0.554 0.096 0.508 -0.135 0.26 -0.161 -0.383 0.806 0.26 -0.592 0.11 0.589 -0.571 -0.886 
0.538 0.297 0.792 -0.226 -0.272 0.381 -0.526 -0.882 -0.67 -0.714 0.143 -0.124 -0.144 -0.745 -0.396 -0.373 0.727 0.402 -0.925 0.236 
-0.381 0.336 -0.573 0.236 0.494 0.687 0.644 -0.396 0.276 -0.927 -0.281 0.166 0.722 -0.137 0.94 -0.549 -0.404 -0.234 -0.079 0.278 
0.405 -0.936 -0.845 -0.739 -0.329 0.111 0.241 -0.601 -0.487 0.316 0.987 0.132 0.004 -0.586 -0.279 -0.501 -0.899 -0.635 0.455 0.73 
-0.209 -0.474 -0.104 -0.135 0.389 -0.163 0.316 -0.663 0.603 -0.411 0.616 0.008 0.005 -0.877 0.622 0.677 0.586 0.215 -0.572 -0.549 
-0.117 -0.585 0.583 0.888 -0.171 -0.344 -0.261 0.282 0.022 -0.806 0.012 -0.835 -0.279 0.909 0.382 -0.538 -0.254 0.051 -0.2 -0.299 
0.64 -0.232 -0.938 -0.354 0.243 -0.964 -0.325 -0.171 0.603 0.103 0.28 -0.514 0.518 0.215 -0.274 -0.301 0.872 0.465 0.981 0.246 
0.66 -0.006 0.763 -0.619 0.255 0.145 -0.157 -0.647 -0.804 0.995 0.054 -0.811 -0.237 0.468 -0.165 -0.642 0.856 0.51 0.187 0.459 
-0.035 -0.533 0.946 -0.517 0.683 -0.328 0.534 0.907 -0.862 0.515 0.153 -0.85 -0.491 -0.084 -0.117 0.764 -0.939 -0.922 -0.531 -0.39 
-0.926 0.524 -0.201 0.189 0.344 0.634 0.548 0.201 0.496 -0.265 -0.34 -0.539 0.555 -0.042 0.296 0.59 0.631 -0.17 0.497 -0.879 
-0.303 -0.35 -0.377 0.559 0.918 0.506 0.675 -0.669 0.584 -0.855 -0.059 -0.99 0.669 0.74 0.2 0.365 0.726 0.1 -0.434 0.574 
0.835 0.227 -0.613 0.742 -0.463 0.683 0.332 -0.832 -0.135 -0.171 -0.359 0.563 0.831 0.264 0.122 0.749 -0.23 0.149 -0.919 -0.293 
0.294 0.022 -0.283 0.315 0.115 0.917 -0.319 0.193 0.017 0.247 -0.232 0.205 -0.174 0.155 -0.053 0.364 0.191 -0.368 0.884 -0.944 
0.461 -0.122 0.971 0.645 -0.858 0.445 0.394 0.265 -0.405 0.827 0.972 0.889 0.202 -0.311 0.205 -0.683 -0.041 0.886 0.51 -0.672 
0.485 -0.37 0.885 -0.336 0.786 0.185 -0.62 -0.023 0.817 -0.736 0.385 0.63 0.142 0.709 0.275 0.637 0.154 0.022 -0.098 -0.899 
-0.151 0.226 0.991 -0.949 -0.733 0.548 -0.28 0.226 0.786 -0.417 0.907 0.271 0.213 0.792 -0.713 0.351 0.329 -0.333 -0.32 0.146 
-0.068 -0.934 -0.223 -0.574 -0.873 -0.596 -0.937 0.281 0.426 0.317 0.735 -0.372 -0.457 -0.922 0.031 -0.189 0.626 -0.896 -0.611 0.412 
-0.313 -0.704 0.035 -0.748 -0.559 0.675 0.604 0.77 -0.658 -0.716 -0.083 0.274 -0.298 -0.954 -0.947 -0.171 -0.55 -0.884 -0.537 -0.771 
0.786 -0.802 -0.143 -0.671 -0.724 0.888 0.14 -0.746 0.992 0.53 -0.982 0.031 -0.822 0.405 0.284 -0.381 0.08 0.24 -0.258 0.423 
0.876 0.659 0.049 -0.069 -0.943 0.102 0.76 -0.141 0.571 -0.425 0.088 0.357 -0.227 0.945 -0.962 0.401 -0.814 0.531 0.655 -0.47 
0.413 0.673 0.562 0.591 0.079 0.198 -0.437 -0.841 -0.21 0.305 0.582 -0.334 0.316 -0.016 0.597 0.373 -0.914 0.71 -0.416 -0.991 
-0.715 0.673 0.718 0.411 0.97 0.757 -0.188 -0.492 0.288 -0.532 0.039 -0.299 -0.507 -0.047 -0.356 0.924 -0.849 0.559 -0.916 0.293 
-0.136 -0.982 0.959 -0.468 0.002 0.909 -0.743 0.441 0.619 -0.158 0.802 -0.744 -0.485 0.521 0.667 -0.163 0.63 -0.168 0.346 -0.082 
0.652 -0.615 0.971 -0.855 0.69 -0.033 -0.93 0.841 -0.473 -0.494 0.486 0.743 -0.124 0.445 -0.724 0.879 0.706 -0.115 0.672 0.677 
0.727 0.474 -0.714 -0.406 0.347 0.953 0.432 -0.023 0.137 0.13 -0.753 -0.211 0.515 -0.43 0.287 0.205 0.538 0.709 0.398 -0.583 
-0.785 -0.116 -0.488 0.091 -0.319 0.14 0.322 -0.26 -0.974 0.346 -0.583 -0.895 -0.179 0.055 -0.3 -0.832 0.009 -0.516 0.498 -0.502 
0.614 0.745 0.288 0.481 -0.684 -0.073 0.038 -0.794 -0.364 -0.212 -0.025 0.203 -0.976 0.487 -0.354 0.057 -0.372 0.969 0.797 -0.346 
0.667 -0.433 0.111 -0.512 0.622 0.811 0.009 -0.017 -0.353 -0.493 0.482 -0.387 -0.396 0.122 -0.906 -0.08 -0.599 0.484 0.478 0.037 
-0.728 -0.547 -0.408 -0.704 0.941 0.238 0.354 -0.079 0.559 0.151 0.927 0.227 -0.93 0.038 -0.933 0.693 0.202 0.428 0.028 0.849 
0.935 -0.49 -0.185 -0.108 0.984 -0.091 -0.836 -0.615 -0.254 0.643 0.774 0.018 -0.552 -0.634 0.315 -0.259 0.957 0.021 0.662 0.868 
-0.476 0.941 0.095 -0.405 -0.02 0.515 -0.36 -0.818 -0.057 0.668 -0.617 0.231 -0.469 0.198 -0.877 -0.133 -0.54 -0.361 0.253 0.206 
-0.718 0.027 -0.776 -0.269 0.746 0.891 0.824 0.703 0.264 0.487 0.923 0.789 0.428 0.371 -0.264 -0.24 -0.114 0.376 -0.058 -0.819 
0.396 0.678 0.764 -0.721 -0.124 -0.761 0.147 0.336 -0.121 -0.248 -0.106 0.161 -0.869 0.119 -0.756 0.877 0.362 -0.931 0.932 -0.373 
0.908 0.856 -0.232 0.688 0.227 0.504 -0.551 -0.535 0.232 0.743 -0.354 -0.02 0.773 -0.589 0.26 -0.35 -0.35 -0.241 -0.662 0.529 
0.511 0.233 0.043 0.994 -0.296 0.639 -0.776 -0.582 -0.94 -0.844 0.397 0.968 -0.636 -0.835 -0.991 0.943 0.669 -0.542 -0.24 -0.099 
-0.447 0.759 -0.766 -0.673 -0.478 0.846 0.329 0.524 -0.395 -0.981 0.054 -0.532 0.604 -0.551 -0.538 -0.34 -0.56 -0.314 0.079 -0.499 
0.195 -0.524 -0.531 0.911 -0.358 -0.17 -0.793 -0.337 0.64 -0.033 0.917 -0.806 0.078 -0.849 -0.127 0.6 0.997 -0.798 0.125 -0.398 
-0.427 -0.469 0.422 -0.822 -0.02 -0.764 -0.162 0.42 -0.077 0.917 0.921 -0.53 -0.254 -0.257 -0.267 0.74 0.925 -0.06 -0.597 0.566 
-0.74 -0.68 -0.888 0.338 -0.177 -0.015 -0.061 -0.18 0.539 -0.584 0.774 -0.888 -0.053 0.196 -0.71 0.927 0.785 0.481 0.699 0.06 
0.75 0.973 0.53 -0.504 0.068 -0.385 -0.764 -0.007 0.556 -0.008 -0.089 -0.832 0.664 0.023 0.858 -0.512 -0.992 0.149 0.308 0.899 
0.565 0.435 -0.636 -0.488 -0.017 -0.346 -0.209 -0.232 -0.513 -0.157 0.828 -0.762 -0.184 0.71 -0.266 -0.764 -0.674 0.323 0.581 -0.766 
-0.685 -0.507 -0.598 0.979 0.516 -0.74 -0.533 0.877 0.762 -0.872 0.776 0.327 0.563 -0.86 0.84 -0.102 0.147 -0.369 0.667 0.634 
0.474 0.495 -0.776 -0.358 0.558 -0.041 0.23 0.884 -0.366 -0.188 -0.882 -0.051 0.657 -0.128 0.28 0.173 0.484 -0.9 0.402 0.246 
-0.42 0.531 -0.426 -0.505 -0.977 -0.234 0.393 0.522 0.397 0.06 0.157 0.224 -0.092 0.381 -0.782 -0.534 -0.308 0.449 -0.298 0.326 
-0.387 0.172 -0.373 -0.73 -0.956 -0.74 0.795 0.528 -0.64 0.55 0.127 -0.06 0.081 -0.947 0.787 0.104 -0.181 0.18 -0.373 -0.432 
-0.407 -0.864 -0.856 0.853 0.869 -0.637 -0.329 -0.086 -0.836 0.373 -0.408 0.129 -0.455 0.22 0.751 -0.059 0.48 0.898 -0.179 -0.808 
0.448 0.948 0.484 -0.471 -0.999 0.271 0.986 0.172 -0.197 -0.035 0.741 0.396 0.453 0.885 0.249 0.674 -0.4 -0.728 -0.412 -0.236 
0.645 0.181 0.893 -0.458 -0.247 0.996 0.483 -0.415 0.895 -0.343 -0.223 0.343 -0.395 -0.739 -0.775 -0.041 0.884 -0.437 -0.869 -0.313 
0.528 -0.776 -0.564 0.333 -0.89 -0.963 0.007 -0.29 -0.69 0.596 0.827 -0.693 0.129 -0.928 0.202 -0.766 -0.931 0.037 -0.181 0.964 
0.694 0.948 0.307 -0.348 -0.439 0.532 0.611 -0.555 -0.905 -0.906 0.484 0.975 -0.681 0.92 0.308 -0.571 0.958 -0.332 0.491 -0.38 
-0.736 0.318 -0.073 0.745 0.391 -0.871 0.979 0.812 0.167 0.15 0.776 -0.139 0.098 0.083 0.865 0.659 -0.032 0.476 -0.896 0.415 
0.923 0.94 0.743 -0.758 0.861 0.403 0.023 0.819 -0.929 -0.134 -0.561 -0.313 -0.815 0.718 -0.568 0.928 0.848 -0.237 0.74 0.367 
0.913 0.868 -0.42 0.363 0.303 -0.554 0.022 -0.729 -0.726 0.478 -0.961 -0.803 0.419 0.782 -0.561 0.632 0.537 0.814 0.451 0.609 
-0.319 -0.758 -0.704 0.218 -0.688 0.081 0.498 -0.488 0.844 0.59 0.879 -0.89 0.458 -0.188 0.825 0.113 0.61 -0.152 0.385 0.884 
-0.322 0.776 -0.918 -0.551 0.91 -0.127 -0.919 0.447 0.04 0.884 0.056 -0.927 -0.522 0.353 0.291 -0.209 -0.214 0.141 0.303 -0.018 
-0.269 0.535 0.444 -0.459 -0.653 0.27 0.654 0.957 -0.53 0.391 -0.807 0.148 0.519 -0.725 0.598 0.429 0.501 0.679 -0.123 -0.107 
0.916 -0.715 -0.034 -0.606 0.99 -0.743 0.185 -0.224 0.75 -0.511 0.759 -0.167 -0.624 0.203 0.726 -0.277 -0.527 0.732 0.032 -0.057 
0.124 0.225 -0.556 -0.357 0.853 -0.606 -0.575 0.706 -0.575 0.654 -0.401 -0.659 0.939 0.565 -0.264 0.93 -0.826 0.921 0.058 0.924 
-0.238 0.169 0.109 0.138 -0.627 -0.165 -0.787 0.198 -0.433 0.245 -0.506 -0.957 -0.177 0.29 -0.313 0.028 0.684 0.464 -0.266 -0.891 
0.118 0.685 -0.549 0.057 0.602 0.187 0.339 0.776 0.46 -0.602 -0.948 -0.777 0.919 0.161 0.361 -0.708 -0.652 0.575 0.843 -0.085 
0.172 -0.311 -0.041 -0.653 0.979 0.998 0.375 -0.985 0.462 -0.539 -0.876 -0.068 -0.854 -0.073 0.989 0.748 -0.534 0.681 0.876 0.927 
-0.569 -0.72 -0.85 -0.65 0.793 0.863 -0.005 -0.859 0.79 0.19 0.409 0.315 0.879 -0.632 0.662 -0.79 -0.282 0.39 -0.775 -0.82 
0.851 -0.299 0.112 0.998 0.981 0.453 -0.902 -0.553 0.486 -0.673 -0.626 0.917 -0.393 -0.124 -0.38 -0.599 0.092 0.615 -0.106 -0.118 
-0.195 -0.697 -0.451 0.036 0.023 -0.788 0.598 0.741 0.602 -0.825 -0.727 0.805 0.228 0.737 0.803 0.209 0.191 -0.746 0.657 -0.323 
-0.419 -0.617 -0.053 0.54 0.26 0.567 -0.707 -0.648 0.534 0.54 0.586 -0.309 0.843 -0.864 0.727 -0.133 -0.3 0.325 -0.04 -0.346 
0.852 0.234 -0.541 0.08 -0.029 -0.385 -0.71 -0.486 0.221 -0.701 0.544 -0.846 -0.318 -0.509 0.694 0.942 -0.59 -0.66 -0.354 0.944 
0.88 -0.415 -0.365 -0.925 0.073 -0.286 -0.058 0.773 -0.609 -0.745 -0.573 -0.757 0.489 0.238 0.323 -0.54 0.853 0.965 0.327 0.426 
-0.736 -0.129 0.58 -0.053 0.362 0.275 0.241 0.772 0.967 -0.76 -0.932 0.847 -0.175 -0.297 0.922 0.898 0.769 0.217 -0.977 -0.84 
0.472 -0.198 -0.245 0.313 -0.96 -0.922 -0.875 -0.754 -0.604 0.452 0.672 -0.34 -0.677 0.253 0.607 -0.963 -0.12 0.201 -0.839 -0.153 
0.441 -0.771 0.046 -0.734 0.284 0.32 -0.484 0.053 -0.111 -0.461 0.565 -0.287 0.341 -0.68 -0.974 0.381 -0.249 -0.496 0.979 0.147 
0.956 0.652 0.807 -0.368 0.257 0.767 -0.331 -0.511 -0.032 -0.169 0.336 -0.591 0.06 -0.266 0.027 -0.303 -0.946 0.543 0.75 -0.056 
-0.918 0.668 0.657 0.423 0.988 -0.964 0.156 0.091 -0.46 0.136 -0.762 -0.504 0.14 -0.602 0.128 -0.603 -0.835 -0.85 0.238 0.133 
-0.019 -0.074 0.894 -0.607 0.66 -0.079 0.09 -0.934 -0.536 0.193 0.01 -0.102 -0.139 0.02 -0.679 0.201 0.408 0.829 -0.707 0.948 
-0.035 -0.469 -0.204 -0.543 -0.071 -0.723 0.206 0.446 -0.573 -0.556 -0.069 0.76 0.37 -0.175 -0.847 0.03 -0.902 0.244 0.449 -0.086 
-0.211 -0.189 0.812 0.65 0.831 -0.515 0.203 0.239 -0.685 0.496 0.539 0.632 -0.62 -0.664 -0.558 0.661 -0.387 0.648 0.108 0.392 
-0.907 -0.609 0.152 0.815 0.217 0.305 0.198 0.667 -0.099 -0.353 -0.066 0.69 0.458 -0.254 0.692 0.642 0.584 -0.104 0.233 -0.749 
-0.256 -0.227 -0.765 0.124 0.109 -0.323 -0.214 -0.926 -0.674 -0.754 0.466 -0.229 -0.011 -0.382 -0.414 -0.442 0.923 -0.864 -0.774 0.177 
-0.217 0.16 -0.133 -0.406 -0.742 -0.088 -0.764 0.842 0.808 0.469 -0.555 -0.448 -0.758 -0.319 -0.971 0.703 0.358 0.167 0.777 -0.964 
0.765 0.595 -0.193 -0.246 -0.787 0.746 0.313 -0.511 0.882 0.539 0.666 0.018 0.051 -0.115 0.612 0.309 -0.851 -0.8 0.504 0.957 
0.669 0.949 -0.138 -0.736 -0.37 -0.109 -0.681 -0.659 -0.59 -0.551 -0.623 -0.825 -0.956 0.537 -0.071 -0.39 0.635 -0.758 0.099 0.869 
-0.867 0.117 -0.113 0.184 -0.646 -0.149 -0.154 -0.496 0.051 -0.65 -0.187 0.073 -0.349 0.675 0.337 0.634 -0.082 0.656 0.975 0.328 
-0.895 -0.296 0.503 -0.498 -0.759 -0.215 0.112 0.876 0.027 -0.789 -0.902 0.513 0.68 -0.015 -0.303 -0.614 -0.811 0.895 -0.11 0.24 
-0.755 -0.944 -0.687 -0.103 -0.917 -0.998 -0.469 0.002 0.659 -0.142 -0.318 -0.884 0.562 -0.462 -0.382 0.804 0.323 0.73 -0.968 -0.298 
-0.707 -0.518 -0.785 -0.675 0.468 0.265 0.064 0.657 0.16 -0.694 0.249 0.406 -0.638 0.915 -0.345 -0.554 0.917 0.538 0.8 0.576 
-0.604 -0.518 -0.955 -0.69 0.02 0.015 -0.534 -0.657 0.098 -0.149 0.046 0.743 0.333 0.261 -0.579 -0.199 -0.122 0.485 -0.19 -0.961 
0.791 -0.588 0.797 -0.846 -0.673 -0.548 -0.4 -0.756 -0.658 -0.6 -0.827 0.09 0.234 -0.43 0.4 -0.745 0.585 0.867 -0.05 -0.317 
-0.282 0.996 -0.221 -0.949 0.61 0.2 0.205 -0.512 -0.315 -0.633 -0.121 -0.524 -0.221 -0.324 -0.018 0.458 0.128 0.934 0.703 0.822 
-0.314 -0.772 -0.088 0.921 -0.202 -0.687 -0.824 -0.265 -0.82 0.478 0.771 -0.102 0.475 -0.45 0.301 0.437 0.75 -0.494 -0.723 -0.213 
0.226 0.157 0.615 -0.995 0.833 -0.402 0.816 0.314 -0.468 0.519 0.136 0.219 -0.901 -0.951 0.492 0.249 -0.638 -0.98 0.984 -0.106 
0.498 0.755 -0.856 0.325 -0.343 0.445 -0.238 -0.593 -0.696 0.392 0.546 0.53 -0.451 0.162 0.887 -0.266 0.76 0.703 -0.952 -0.356 
0.574 0.537 -0.785 0.673 0.938 0.707 -0.078 -0.348 0.727 0.259 0.546 0.226 0.014 -0.958 -0.449 -0.976 0.487 0.666 -0.217 -0.857 
0.058 -0.67 0.673 0.959 0.492 0.913 -0.307 0.604 0.616 0.094 -0.752 0.191 -0.369 -0.184 0.216 -0.431 -0.477 -0.509 0.573 -0.397 
0.75 0.119 -0.819 0.116 0.513 0.084 0.14 0 -0.25 0.924 0.496 -0.84 -0.746 0.521 -0.881 -0.902 0.434 0.165 0.702 0.051 
-0.741 -0.698 -0.406 0.242 0.118 0.81 -0.837 0.994 -0.347 0.736 -0.403 -0.597 0.207 -0.222 0.52 -0.28 0.862 0.012 -0.928 -0.035 
-0.064 0.568 0.125 0.542 0.442 0.597 0.64 -0.124 -0.238 0.694 -0.721 0.373 0.997 0.225 -0.033 0.467 0.388 0.13 0.461 -0.959 
0.218 -0.59 -0.555 -0.575 0.54 -0.683 0.497 0.403 0.329 0.569 -0.28 -0.734 0.49 -0.803 0.808 -0.068 -0.854 0.801 -0.84 0.26 
0.495 -0.56 -0.367 0.844 -0.983 0.6 0.312 0.405 0.082 0.125 0.447 -0.7 0.536 -0.756 0.077 0.076 -0.439 -0.426 -0.169 0.89 
-0.856 0.903 -0.492 0.986 -0.899 -0.331 -0.082 -0.401 -0.53 0.078 0.86 0.965 0.87 -0.155 0.81 0.888 -0.554 0.122 0.645 0.88 
-0.401 0.092 -0.819 -0.513 0.688 0.61 0.916 -0.751 -0.815 -0.253 -0.508 -0.319 0.003 0.352 -0.333 0.456 -0.979 0.937 -0.945 -0.509 
0.015 0.915 -0.543 0.238 -0.239 -0.733 0.478 0.559 0.741 0.123 0.439 -0.308 -0.432 0.972 0.18 -0.744 0.935 0.096 -0.142 -0.88 
-0.805 0.702 -0.199 0.198 0.054 0.82 -0.346 0.076 0.757 0.062 0.567 -0.228 -0.023 -0.624 -0.638 -0.91 -0.005 0.84 -0.999 0.088 
0.316 0.793 0.781 0.884 0.765 -0.039 -0.508 0.7 -0.943 0.702 -0.828 -0.396 0.404 0.325 0.803 -0.541 0.145 -0.191 0.887 -0.098 
0.871 0.454 -0.973 0.201 -0.817 -0.259 0.643 0.178 -0.418 0.645 -0.733 -0.75 0.438 -0.952 -0.866 0.555 0.361 -0.022 0.608 0.77 
-0.319 0.78 -0.626 -0.563 0.106 -0.471 -0.104 -0.397 0.339 0.135 0.858 0.562 -0.41 0.885 0.115 0.125 -0.374 -0.241 -0.697 0.56 
-0.596 -0.078 0.81 0.842 -0.03 -0.704 0.397 -0.317 0.627 0.005 -0.547 -0.692 0.138 -0.172 -0.255 -0.404 0.709 0.994 0.199 0.048 
0.129 0.057 -0.037 -0.929 0.294 -0.922 0.196 -0.727 0.189 0.852 0.833 0.593 -0.226 0.996 0.787 -0.903 -0.356 0.537 -0.22 -0.729 
-0.106 0.234 -0.421 -0.968 -0.586 0.677 -0.372 -0.877 -0.977 -0.82 0.524 0.504 0.589 -0.513 0.576 -0.116 -0.083 0.124 0.157 -0.893 
-0.024 0.342 -0.948 -0.897 0.69 0.84 -0.8 -0.665 0.377 -0.02 -0.394 -0.729 -0.434 0.538 -0.344 -0.02 0.567 0.636 0.456 0.59 
-0.832 -0.02 0.094 0.758 0.819 0.022 -0.006 0.088 -0.853 -0.497 0.195 0.475 -0.803 0.6 0.578 0.888 0.792 -0.87 -0.777 0.169 
0.463 0.181 0.792 -0.971 -0.281 -0.2 0.01 -0.714 -0.211 -0.534 -0.772 -0.043 0.798 0.323 -0.285 0.617 -0.303 -0.939 -0.295 0.196 
-0.436 -0.747 -0.328 -0.238 -0.795 -0.398 -0.35 0.997 0.085 0.225 0.518 -0.452 -0.594 0.662 -0.423 0.478 -0.537 0.939 -0.884 0.252 
-0.243 -0.655 -0.439 -0.445 -0.98 0.277 -0.476 -0.283 0.69 0.582 0.914 -0.745 -0.813 -0.062 0.017 -0.608 0.892 -0.981 -0.259 -0.023 
0.596 -0.741 0.525 -0.998 -0.727 -0.545 0.832 -0.264 -0.606 0.949 -0.66 0.504 -0.706 -0.098 -0.941 -0.686 -0.469 -0.064 0.383 -0.779 
-0.13 0.297 -0.172 0.057 -0.413 -0.803 0.801 -0.52 -0.432 -0.106 0.457 -0.836 0.153 0.335 -0.481 0.426 0.79 -0.649 -0.485 -0.464 
-0.348 0.207 -0.96 -0.054 -0.539 -0.548 0.612 0.344 0.388 -0.004 0.918 -0.39 -0.355 -0.254 -0.981 0.233 0.296 0.82 -0.935 0.864 
0.066 0.522 -0.971 -0.781 0.209 -0.452 0.997 0.351 0.251 -0.136 0.888 0.904 -0.928 0.928 0.202 -0.115 -0.268 -0.185 -0.77 -0.528 
-0.837 -0.852 0.082 0.16 0.246 0.101 -0.255 -0.458 0.273 -0.19 -0.593 -0.661 -0.315 -0.564 -0.09 0.894 0.336 0.26 0.246 -0.061 
-0.876 0.486 -0.157 -0.452 0.766 -0.602 0.434 -0.501 0.213 -0.984 -0.029 0.728 -0.836 -0.594 -0.112 0.41 0.507 0.634 -0.695 0.133 
-0.556 -0.288 0.472 0.481 0.5 -0.265 0.376 0.188 0.995 -0.026 -0.873 -0.529 -0.54 0.323 0.02 -0.774 -0.927 -0.194 -0.275 0.286 
-0.178 -0.951 0.366 0.338 -0.545 -0.394 0.1 -0.686 -0.408 0.405 0.447 0.389 -0.531 0.272 -0.13 -0.679 -0.993 -0.754 0.509 -0.646 
0.22 0.989 -0.175 -0.968 0.664 -0.803 -0.741 0.737 0.355 -0.016 0.375 -0.471 0.033 0.093 0.867 0.84 0.699 0.32 -0.845 -0.708 
-0.275 0.602 -0.967 0.547 0.226 -0.097 0.868 0.233 0.502 0.73 0.939 0.074 0.719 0.117 0.107 0.735 0.314 0.366 0.472 0.022 
-0.298 0.199 0.551 -0.912 -0.708 0.771 0.928 0.991 0.091 -0.565 -0.365 -0.832 -0.962 -0.332 0.715 0.264 0.572 0.936 -0.15 0.426 
0.666 0.141 -0.5 0.737 -0.742 0.607 0.472 0.925 0.325 -0.056 -0.053 -0.972 -0.857 -0.15 -0.884 -0.565 -0.379 -0.604 -0.222 0.712 
-0.168 0.414 0.881 0.222 -0.566 0.948 -0.162 -0.642 0.884 -0.96 0.784 0.902 0.182 -0.715 0.639 0.792 -0.756 0.111 0.717 0.57 
-0.593 0.016 0.598 -0.098 0.867 -0.934 0.689 -0.16 -0.186 -0.532 -0.447 0.646 -0.766 -0.214 0.22 -0.332 0.086 -0.941 0.027 0.323 
-0.549 0.163 0.225 0.633 0.448 -0.135 0.426 0.693 0.976 0.495 0.263 -0.616 -0.136 0.213 0.638 -0.269 0.279 0.328 0.571 -0.555 
0.796 -0.524 -0.556 -0.97 0.614 0.664 0.05 0.053 -0.925 -0.571 -0.624 -0.473 0.593 0.953 -0.488 0.393 -0.182 -0.71 0.086 0.147 
0.786 -0.299 0.883 -0.35 0.914 0.521 0.733 0.545 -0.151 0.656 -0.657 -0.355 -0.515 -0.213 0.027 -0.549 -0.549 -0.57 0.504 -0.121 
0.211 -0.768 0.758 -0.196 -0.814 -0.73 -0.45 0.004 -0.439 0.636 -0.497 -0.301 -0.31 -0.614 0.701 -0.044 0.908 0.786 -0.146 0.109 
0.794 0.197 -0.893 -0.721 0.984 0.486 0.083 -0.213 0.916 -0.061 -0.982 0.128 0.172 0.776 -0.716 0.358 -0.953 -0.166 -0.286 -0.04 
-0.177 0.57 -0.989 0.865 0.956 -0.936 -0.179 -0.784 -0.798 -0.973 0.326 0.996 0.576 0.785 -0.372 0.912 0.271 0.711 -0.3 0.54 
0.002 0.07 0.02 -0.826 -0.153 0.304 0.884 0.246 -0.509 -0.049 -0.794 0.666 -0.479 -0.431 0.531 -0.171 -0.367 -0.296 0.046 -0.165 
-0.268 -0.276 0.183 -0.692 -0.491 0.811 -0.779 -0.868 0.874 0.273 0.672 -0.123 -0.657 -0.308 0.403 0.542 0.997 0.288 -0.212 -0.16 
-0.409 -0.006 -0.494 0.112 0.915 -0.611 0.941 -0.452 0.093 0.339 0.735 -0.823 -0.585 -0.081 -0.514 0.276 0.082 0.059 0.409 -0.043 
-0.316 0.081 -0.814 0.027 -0.874 0.589 -0.078 -0.525 -0.123 0.71 0.315 0.468 0.057 -0.827 -0.068 -0.028 -0.438 0.226 0.873 -0.993 
-0.083 0.608 -0.815 0.333 -0.121 0.023 -0.039 -0.686 -0.918 -0.63 0.271 -0.234 0.804 0.809 -0.855 0.93 0.398 0.067 -0.595 -0.372 
-0.222 -0.928 -0.552 -0.813 -0.755 0.381 0.159 0.159 -0.041 0.384 0.166 0.876 0.345 0.351 0.209 -0.776 -0.626 -0.829 -0.462 -0.544 
-0.107 -0.839 0.574 0.049 0.97 -0.928 -0.021 0.721 0.491 0.736 -0.651 -0.379 0.808 -0.203 -0.192 -0.595 -0.47 0.968 0.564 0.489 
0.352 -0.269 0.366 -0.303 -0.918 -0.073 0.274 -0.191 0.45 -0.836 0.617 -0.304 -0.322 0.192 0.745 0 0.616 -0.275 -0.279 0.107 
-0.187 0.422 0.729 -0.026 -0.78 -0.463 0.379 0.102 -0.143 0.296 -0.408 -0.438 -0.973 0.958 0.259 -0.539 0.237 -0.115 0.27 -0.312 
0.402 0.24 0.384 -0.92 -0.568 0.129 0.08 -0.6 -0.794 -0.846 0.507 0.372 0.576 0.236 -0.654 -0.852 0.774 -0.923 0.251 -0.369 
0.373 -0.805 0.193 0.4 -0.495 -0.195 -0.786 0.742 -0.958 0.836 -0.218 0.444 0.076 -0.482 0.524 0.86 -1 -0.043 -0.74 -0.794 
0.111 0.768 0.93 0.039 0.356 -0.724 0.188 0.13 -0.646 -0.209 -0.886 0.727 0.338 0.659 0.48 0.843 -0.184 -0.954 0.585 -0.141 
0.882 -0.28 -0.697 0.311 0.238 -0.82 0.171 0.238 0.489 0.784 0.797 -0.4 0.904 0.727 0.991 0.26 -0.996 0.531 -0.609 -0.29 
-0.326 -0.143 -0.211 -0.988 -0.484 -0.731 0.855 0.685 -0.685 0.793 -0.456 -0.45 -0.487 0.199 0.861 -0.897 0.731 0.032 0.342 0.22 
0.168 0.491 -0.828 0.072 0.218 -0.484 -0.667 0.574 -0.953 0.076 -0.364 -0.278 0.933 0.426 -0.266 -0.199 0.695 -0.058 -0.514 -0.637 
0.087 0.382 -0.087 0.6 -0.066 -0.226 -0.945 0.017 -0.842 0.749 -0.762 0.327 0.24 -0.238 -0.249 -0.541 0.278 0.084 -0.615 0.678 
-0.84 0.022 -0.6 -0.555 -0.552 0.486 0.247 -0.505 -0.22 -0.915 -0.142 0.867 0.82 -0.877 0.819 0.106 -0.103 0.875 -0.877 0.408 
0.624 -0.287 0.087 -0.135 0.476 0.838 0.676 0.106 -0.077 -0.587 -0.216 0.435 0.435 0.536 0.881 -0.765 0.375 0.48 -0.269 -0.845 
0.917 0.941 -0.977 0.737 -0.935 -0.806 0.195 -0.038 -0.931 0.319 -0.278 -0.954 -0.968 0.809 0.263 0.86 0.648 -0.061 -0.033 -0.077 
0.352 -0.897 -0.642 0.14 0.64 -0.761 0.375 0.367 0.719 -0.894 0.522 0.637 -0.952 0.897 0.726 -0.535 -0.556 -0.078 0.427 -0.487 
-0.407 -0.498 -0.089 -0.375 -0.689 -0.826 -0.162 -0.689 0.113 -0.843 0.234 -0.182 -0.388 0.593 -0.69 -0.396 -0.816 0.685 0.971 -0.744 
-0.856 0.846 0.893 -0.456 0.743 0.971 0.009 -0.461 0.245 -0.212 0.053 0.838 0.29 0.964 -0.184 0.954 -0.509 0.654 -0.735 0.604 
-0.837 0.5 -0.226 -0.225 0.445 0.084 0.38 0.629 0.122 0.351 0.885 0.266 0.197 -0.87 -0.838 0.293 -0.546 0.171 0.832 0.699 
-0.689 0.237 0.538 0.602 0.554 -0.294 0.908 -0.955 -0.288 -0.827 -0.999 -0.125 -0.975 0.128 -0.998 0.47 -0.436 0.382 0.1 0.686 
0.086 0.337 0.304 -0.365 0.468 0.466 -0.72 0.922 -0.011 -0.535 0.973 0.301 -0.946 0.863 0.255 0.608 -0.431 0.163 -0.995 0.281 
0.688 -0.641 -0.492 0.714 0.839 -0.137 0.184 -0.597 -0.755 -0.364 -0.91 0.683 0.974 0.746 -0.329 0.794 0.213 -0.049 -0.932 -0.446 
0.768 -0.607 0.855 0.823 -0.743 0.462 0.783 0.178 -0.023 -0.859 -0.188 -0.334 -0.5 0.32 -0.62 -0.661 -0.817 0.916 0.094 -0.219 
-0.095 0.184 -0.184 -0.121 -0.069 0.487 0.025 -0.504 -0.209 0.445 0.05 -0.441 0.838 0.258 -0.618 -0.905 0.072 -0.834 0.274 -0.95 
-0.693 -0.914 0.068 0.159 0.758 0.8 0.85 -0.706 0.716 -0.056 0.427 -0.027 -0.519 -0.757 0.852 0.764 0.731 0.229 -0.388 -0.478 
-0.326 0.662 0.081 -0.487 0.272 0.816 -0.392 -0.655 -0.666 -0.766 -0.253 -0.007 -0.328 0.815 -0.848 -0.569 0.615 -0.646 0.077 0.683 
0.298 -0.496 -0.343 -0.869 -0.253 -0.139 0.895 -0.17 -0.909 -0.141 0.704 0.117 -0.478 0.138 0.63 -0.854 -0.046 -0.409 -0.157 0.64 
0.177 0.59 -0.367 0.85 0.405 0.137 -0.367 0.372 0.491 0.71 0.408 0.141 -0.434 -0.583 0.625 0.665 0.63 0.872 -0.504 -0.927 
-0.268 -0.8 0.191 0.606 0.69 0.173 0.752 -0.004 0.764 -0.404 -0.364 0.294 -0.814 0.269 0.144 0.944 -0.594 -0.871 0.668 -0.751 
0.839 0.428 0.743 -0.595 0.845 0.368 -0.93 0.828 0.592 -0.082 0.901 -0.676 0.471 0.092 0.93 0.161 -0.382 0.683 -0.842 -0.266 
-0.369 -0.206 -0.972 -0.183 -0.584 0.172 0.113 0.174 0.653 0.134 0.776 0.492 -0.438 0.871 -0.751 -0.24 0.591 -0.328 -0.412 0.183 
0.942 -0.511 0.508 0.413 0.934 0.438 -0.073 -0.096 0.473 0.437 0.638 -0.896 -0.417 0.667 0.274 0.351 0.191 -0.261 -0.474 -0.155 
0.873 -0.346 -0.311 -0.564 -0.475 0.291 0.196 -0.884 0.963 -0.864 0.299 -0.743 -0.023 -0.193 -0.977 -0.089 -0.402 -0.05 0.815 -0.929 
-0.261 0.806 -0.472 0.322 0.473 -0.846 0.026 0.016 -0.107 0.552 0.861 -0.233 -0.794 -0.097 0.203 -0.269 -0.806 -0.249 -0.153 -0.491 
0.239 -0.502 -0.234 -0.784 0.306 -0.211 0.48 -0.744 -0.909 0.647 -0.321 0.182 0.453 0.207 -0.143 0.278 0.361 0.883 -0.705 -0.745 
0.787 -0.492 0.374 0.993 0.411 -0.071 0.076 0.605 0.68 -0.725 -0.534 0.271 -0.227 0.233 0.487 -0.569 -0.626 0.319 -0.313 -0.182 
-0.033 0.367 -0.648 -0.228 -0.426 0.209 -0.949 -0.712 0.092 -0.302 -0.105 -0.121 0.206 -0.731 0.224 -0.382 0.198 -0.348 -0.425 0.23 
-0.073 0.042 -0.499 0.701 -0.373 -0.66 -0.516 0.353 0.66 0.172 -0.477 -0.021 -0.461 -0.124 0.751 0.465 -0.915 -0.846 -0.895 0.53 
-0.148 0 -0.239 -0.941 0.269 -0.662 0.029 -0.533 -0.01 0.956 -0.951 0.918 0.35 -0.45 0.971 0.977 -0.109 -0.545 0.683 -0.097 
0.979 -0.794 0.882 -0.13 0.082 0.633 -0.312 0.52 0.788 -0.207 0.402 -0.008 -0.854 -0.837 0.051 0.767 -0.499 -0.568 -0.765 0.844 
-0.611 -0.364 0.762 0.739 0.187 -0.915 -0.931 -0.57 -0.108 0.752 0.333 -0.128 -0.69 0.215 -0.906 0.745 0.2 -0.218 0.617 0.34 
0.928 0.019 -0.667 -0.926 0.534 0.736 0.841 -0.612 -0.831 -0.572 -0.768 -0.09 0.065 -0.654 0.001 -0.396 -0.569 0.07 0.034 0.675 
0.174 -0.281 -0.453 0.485 0.934 -0.006 0.582 0.486 0.776 0.199 -0.173 0.704 -0.782 0.512 -0.87 -0.896 0.6 0.972 -0.508 0.769 
-0.248 0.076 0.031 0.817 0.422 -0.967 -0.579 -0.795 0.455 0.807 0.881 -0.37 -0.474 -0.22 -0.533 -0.188 0.774 -0.951 -0.701 0.551 
0.6 0.478 0.607 0.818 0.342 0.738 -0.726 -0.058 -0.938 -0.233 0.064 -0.186 0.843 -0.905 -0.016 0.266 -0.52 0.757 0.823 0.936 
0.565 0.704 -0.082 -0.557 -0.515 0.385 0.256 -0.389 0.786 0.907 -0.486 0.386 0.737 -0.878 0.556 0.079 -0.788 0.83 -0.979 -0.726 
-0.051 0.437 0.44 -0.207 0.885 -0.576 -0.589 -0.635 -0.818 -0.414 -0.347 -0.901 -0.709 0.571 -0.458 0.128 0.308 0.798 0.739 0.446 
-0.943 -0.746 0.184 0.794 -0.272 0.092 -0.127 -0.06 -0.077 0.247 0.566 -0.776 0.036 0.006 0.017 -0.079 0.431 0.78 0.639 0.965 
-0.633 -0.708 -0.936 0.01 -0.784 -0.394 -0.51 0.876 -0.243 -0.771 0.675 0.166 -0.165 -0.141 -0.039 0.915 0.952 -0.814 -0.145 0.227 
0.785 -0.227 0.451 -0.178 0.78 -0.179 0.743 0.563 -0.047 0.734 0.528 0.672 -0.621 0.592 0.034 -0.405 -0.45 0.524 -0.177 0.659 
-0.894 -0.502 -0.174 -0.059 0.71 0.787 -0.143 -0.986 -0.675 -0.936 0.241 -0.889 -0.162 0.044 -0.067 -0.382 0.865 0.028 -0.467 0.171 
-0.237 -0.939 -0.157 0.494 -0.995 0.878 -0.911 -0.093 0.402 0.264 -0.433 0.86 -0.885 0.745 -0.198 -0.823 0.884 -0.989 -0.809 -0.791 
-0.925 0.784 -0.328 0.265 -0.172 0.605 -0.765 0.046 -0.014 -0.232 -0.783 -0.899 -0.171 0.412 0.595 0.186 0.642 -0.964 -0.906 0.397 
0.652 0.013 0.257 0.767 -0.242 -0.941 0.944 -0.358 -0.578 -0.865 0.203 -0.502 -0.729 0.876 -0.885 0.1 0.833 -0.649 -0.854 -0.181 
0.119 -0.285 0.272 -0.699 -0.521 -0.133 0.487 -0.878 0.255 0.933 0.519 -0.092 -0.054 -0.224 -0.325 0.704 0.188 -0.028 -0.302 0.61 
0.459 -0.746 -0.54 0.731 -0.87 -0.424 -0.169 0.963 -0.073 0.329 0.135 -0.602 -0.604 -0.593 -0.301 -0.125 0.627 -0.813 -0.003 -0.118 
-0.88 -0.132 0.79 0.067 0.997 -0.182 0.123 0.185 0.79 -0.826 0.147 0.249 -0.572 0.96 0.332 -0.09 -0.112 -0.485 0.225 0.815 
-0.804 -0.64 -0.435 -0.408 0.12 0.265 0.82 -0.253 0.452 -0.183 0.981 0.924 -0.962 -0.876 0.343 -0.965 -0.058 -0.181 0.22 0.084 
-0.007 -0.281 -0.315 0.773 -0.321 -0.982 -0.317 0.567 -0.467 0.908 0.734 -0.27 -0.379 -0.7 0.322 0.741 0.565 0.494 -0.16 0.369 
-0.336 0.173 0.293 -0.298 0.297 -0.011 -0.263 -0.409 0.808 -0.691 0.675 -0.199 0.38 -0.639 -0.074 -0.94 -0.621 0.609 0.979 0.264 
0.869 0.714 0.994 -0.51 -0.634 0.669 -0.417 -0.717 0.163 0.775 0.652 0.827 -0.051 0.297 -0.119 -0.402 -0.714 0.618 0.19 -0.906 
-0.721 -0.135 0.247 0.66 0.578 -0.827 0.72 0.957 0.782 -0.949 0.222 -0.996 0.765 0.568 -0.506 -0.517 0.237 0.43 -0.234 -0.247 
0.205 -0.23 -0.068 -0.494 -0.932 0.814 0.105 -0.294 0.784 -0.705 -0.199 -0.936 0.512 -0.6 0.724 0.091 -0.426 0.796 0.4 -0.292 
0.847 -0.026 -0.288 0.965 -0.457 0.559 -0.552 -0.868 0.341 0.567 0.237 -0.102 -0.663 -0.83 0.405 -0.243 0.984 -0.49 0.464 0.768 
0.157 -0.383 -0.816 -0.331 0.017 0.908 -0.888 0.943 -0.944 0.513 -0.348 -0.744 -0.513 0.716 -0.779 0.03 0.627 0.021 0.515 0.32 
-0.412 -0.248 -0.781 0.278 -0.078 0.624 -0.965 0.258 -0.514 0.499 0.027 0.643 -0.884 0.211 -0.336 0.486 0.472 -0.223 0.429 0.528 
-0.71 -0.567 -0.864 -0.223 -0.498 -0.643 -0.84 -0.519 0.731 0.675 0.802 -0.329 -0.573 -0.979 0.949 0.35 0.997 0.985 -0.04 -0.517 
0.836 0.987 -0.874 -0.695 0.551 -0.21 0.791 0.375 0.919 0.22 0.255 -0.791 -0.994 0.392 0.339 -0.492 -0.899 0.499 -0.011 0.832 
0.174 -0.209 -0.144 0.953 0.164 -0.195 0.655 0.161 0.142 -0.384 0.644 0.331 -0.045 -0.878 0.636 -0.494 0.265 0.427 -0.767 0.184 
-0.001 0.489 0.746 0.357 -0.119 0.085 0.865 -0.018 -0.416 0.207 0.167 -0.89 0.998 -0.977 -0.585 0.515 0.18 -0.929 -0.324 -0.325 
0.039 -0.327 -0.994 0.994 -0.205 0.642 -0.147 -0.588 0.421 0.086 0.949 -0.228 -0.073 0.695 -0.87 0.808 -0.22 -0.653 0.143 0.716 
0.554 -0.69 -0.822 0.905 -0.315 -0.407 0.42 0.865 0.016 -0.552 -0.108 -0.593 0.121 -0.102 -0.246 -0.731 -0.108 0.607 -0.319 -0.335 
0.045 -0.37 0.438 0.973 -0.675 0.92 0.781 0.457 -0.381 0.276 0.173 -0.826 0.938 0.703 -0.569 -0.377 -0.351 -0.797 -0.159 -0.983 
-0.349 0.733 -0.575 0.773 -0.368 0.179 -0.958 0.876 0.138 -0.277 -0.458 -0.817 0.706 -0.668 -0.492 -0.969 -0.396 -0.358 0.841 0.223 
0.918 0.014 0.749 0.857 0.07 -0.468 -0.52 0.719 -0.265 0.673 -0.912 0.387 0.407 -0.135 0.16 -0.609 -0.956 0.554 -0.733 0.534 
-0.723 0.161 0.718 -0.665 0.845 -0.774 -0.633 -0.551 0.22 -0.792 -0.975 0.139 0.574 0.774 -0.004 -0.004 -0.341 0.828 0.067 0.394 
0.854 0.156 -0.219 0.261 -0.979 -0.707 -0.996 -0.582 0.847 -0.377 0.952 -0.523 0.785 -0.978 -0.188 0.63 -0.399 0.179 -0.568 0.821 
0.739 -0.543 -0.04 0.666 -0.417 -0.692 -0.338 0.242 -0.511 0.73 -0.363 -0.657 -0.114 0.77 0.956 0.259 -0.936 -0.688 0.677 0.911 
-0.065 0.63 -0.612 0.072 -0.996 0.201 0.055 -0.395 -0.268 0.487 -0.573 -0.176 0.944 0.739 -0.51 -0.121 -0.952 0.152 -0.526 -0.111 
-0.118 0.111 0.584 -0.88 0.233 0.54 0.38 0.297 0.852 0.409 0.561 0.139 0.391 0.949 -0.788 0.396 0.502 0.267 -0.999 -0.765 
-0.246 -0.22 0.411 0.05 -0.48 0.901 -0.719 -0.08 0.053 -0.245 0.809 -0.712 -0.782 0.393 -0.24 0.452 0.285 -0.508 -0.251 0.489 
-0.746 -0.338 -0.372 0.645 -0.388 -0.16 0.041 -0.534 -0.893 0.395 0.053 0.213 -0.825 -0.536 -0.385 0.047 -0.635 -0.103 -0.681 0.771 
0.652 -0.872 -0.589 0.871 0.873 0.171 0.323 0.51 -0.984 -0.576 -0.001 -0.73 0.087 0.98 0.915 -0.949 -0.18 0.309 -0.483 0.28 
0.056 0.923 -0.155 0.583 -0.613 0.461 -0.369 -0.247 -0.642 -0.05 -0.124 -0.99 0.431 0.287 -0.767 0.656 -0.19 0.908 0.519 -0.174 
-0.667 -0.13 0.448 0.772 -0.15 0.716 0.823 -0.977 0.025 -0.308 0.655 -0.919 -0.385 -0.5 0.664 0.355 -0.687 -0.353 -0.54 0.023 
0.95 0.336 0.386 0.733 -0.025 0.619 0.389 0.785 0.528 -0.092 -0.036 -0.787 -0.869 -0.236 0.985 -0.019 -0.52 -0.84 0.004 0.505 
0.204 0.011 0.938 0.82 0.512 0.955 0.527 -0.823 -0.398 0.987 0.201 -0.448 0.323 -0.413 -0.715 -0.702 -0.794 -0.973 -0.565 -0.914 
0.287 0.751 -0.701 0.418 -0.484 -0.364 -0.248 -0.004 -0.204 -0.892 -0.146 -0.999 0.12 -0.208 -0.827 -0.016 0.099 0.7 0.161 0.702 
-0.961 -0.638 -0.394 0.362 -0.051 0.244 -0.988 0.508 0.623 -0.553 0.594 0.262 -0.801 0.894 0.033 0.067 -0.47 0.785 -0.937 0.679 
0.893 0.269 -0.968 0.013 -0.586 -0.443 0.997 0.513 -0.391 0.511 0.567 -0.352 0.873 -0.826 -0.99 0.175 0.77 -0.626 -0.317 0.745 
-0.179 -0.371 0.007 0.372 -0.125 -0.96 -0.561 0.406 -0.823 -0.145 0.437 -0.929 -0.876 0.469 0.436 -0.462 -0.622 0.786 -0.596 -0.013 
0.297 0.971 0.635 0.522 -0.503 0.997 -0.303 -0.733 -0.629 0.732 -0.636 0.544 -0.638 0.724 0.269 0.589 0.764 0.708 -0.005 0.942 
-0.085 -0.216 -0.635 0.392 -0.395 0.801 -0.718 -0.017 0.587 -0.314 0.97 0.236 -0.342 0.957 -0.241 0.155 0.954 0.808 0.775 -0.323 
0.893 -0.861 -0.778 -0.745 -0.785 0.491 -0.804 0.98 0.551 0.192 -0.726 -0.181 -0.672 -0.361 -0.789 -0.066 -0.208 -0.155 0.917 -0.62 
0.532 -0.76 0.968 -0.81 -0.803 -0.273 0.697 -0.496 -0.464 0.472 0.533 -0.571 0.964 -0.893 0.036 -0.821 0.598 0.232 -0.489 0.502 
-0.224 0.137 -0.327 0.105 0.776 0.236 -0.609 -0.079 -0.919 -0.692 0.653 0.613 -0.452 0.621 -0.845 -0.254 -0.651 -0.795 0.602 0.237 
-0.971 0.135 -0.982 0.993 0.243 0.406 -0.475 0.193 -0.01 0.388 0.047 0.767 -0.474 0.72 0.224 -0.346 -0.044 0.615 0.927 0.39 
-0.725 0.58 0.355 -0.176 0.202 0.511 0.922 0.551 0.716 0.876 0.14 0.745 0.011 0.158 -0.909 -0.394 -0.084 -0.032 0.8 0.906 
-0.292 0.199 -0.975 0.586 -0.08 0.249 -0.407 -0.772 0.216 -0.48 0.97 0.844 -0.899 0.326 -0.332 0.303 0.189 -0.058 0.206 0.257 
0.17 -0.302 0.354 -0.819 -0.792 0.445 0.14 0.124 -0.235 -0.06 0.03 0.826 -0.861 0.056 0.412 0.411 -0.343 -0.995 0.992 -0.774 
-0.122 0.962 -0.93 -0.021 0.64 0.09 -0.366 -0.171 -0.968 0.84 -0.914 0.202 -0.462 0.441 0.735 0.098 0.238 -0.125 -0.778 -0.644 
-0.833 0.252 -0.818 -0.341 -0.34 0.946 -0.93 0.67 0.952 -0.586 0.896 -0.17 -0.271 0.966 -0.839 -0.631 0.056 -0.205 0.199 0.44 
-0.013 0.637 -0.006 0.877 0.078 -0.271 -0.025 -0.331 0.957 0.197 0.025 -0.876 -0.199 0.207 -0.217 0.462 0.505 0.206 0.132 0.809 
0.972 0.38 -0.009 -0.299 0.346 0.152 0.071 -0.246 0.947 -0.378 -0.806 -0.066 -0.741 0.188 -0.189 0.338 -0.731 -0.862 -0.641 -0.774 
0.335 0.384 -0.297 -0.863 -0.057 0.486 0.951 -0.552 0.044 0.435 -0.742 0.017 -0.185 0.249 0.718 -0.839 -0.246 0.141 -0.085 0.053 
0.763 0.461 0.988 -0.977 -0.351 0.151 0.713 -0.082 0.29 -0.928 0.497 -0.023 0.808 -0.8 0.114 -0.249 -0.962 0.417 0.551 0.083 
-0.148 -0.839 -0.548 0.667 0.411 -0.83 -0.82 -0.483 0.664 0.447 0.57 0.427 -0.092 0.91 0.802 0.909 0.062 0.867 0.18 -0.296 
0.939 -0.323 -0.967 -0.901 0.229 0.5 -0.15 0.267 -0.083 -0.246 -0.298 -0.878 -0.085 0.154 -0.859 -0.322 0.677 -0.678 0.195 0.341 
-0.879 -0.234 0.12 0.382 -0.324 -0.077 0.643 -0.91 -0.21 -0.177 0.146 0.082 0.852 0.18 0.181 0.081 -0.32 -0.616 -0.299 0.597 
0.138 0.403 -0.929 -0.947 -0.09 -0.787 -0.268 -0.413 -0.113 0.927 0.928 0.36 -0.307 0.048 -0.258 0.722 -0.677 -0.614 0.812 0.114 
0.561 -0.041 -0.452 0.414 -0.861 0.729 -0.153 0.171 -0.887 0.548 0.12 0.251 0.304 0.192 0.657 -0.786 0.405 -0.611 -0.199 -0.708 
-0.332 0.081 0.652 0.714 -0.519 -0.253 0.436 -0.195 0.485 0.6 -0.729 0.046 -0.441 -0.181 -0.54 0.05 -0.452 0.66 -0.779 0.014 
0.208 0.342 -0.383 -0.488 -0.114 -0.726 0.078 -0.709 0.015 0.879 -0.065 -0.964 0.312 -0.061 0.75 0.794 -0.962 0.538 -0.401 0.523 
0.138 0.222 -0.43 -0.95 -0.959 0.382 0.452 -0.059 0.042 -0.974 -0.693 -0.749 0.72 -0.075 0.115 -0.394 0.199 -0.806 -0.103 -0.433 
-0.575 -0.816 -0.397 0.738 0.475 -0.647 0.532 0.514 -0.757 -0.517 0.037 0.733 0.705 0.607 -0.865 -0.902 -0.01 0.588 0.391 -0.968 
0.614 0.699 -0.365 0.686 -0.376 -0.897 -0.708 -0.825 -0.703 0.541 -0.258 0.074 0.725 0.697 -0.188 0.2 -0.598 -0.656 -0.286 -0.355 
0.179 -0.896 -0.269 0.236 0.711 -0.134 0.334 0.053 -0.546 -0.274 0.438 -0.58 -0.223 -0.575 -0.894 0.401 -0.472 -0.25 0.928 0.177 
-0.709 0.023 -0.748 -0.632 -0.28 0.064 0.569 0.123 0.761 -0.365 -0.88 -0.06 0.091 -0.149 -0.823 0.155 0.718 0.863 -0.792 -0.476 
-0.059 0.998 0.297 0.718 -0.576 0.755 0.471 -0.048 -0.494 0.4 -0.87 0.149 -0.577 -0.618 0.518 0.495 0.798 0.439 -0.03 0.559 
-0.574 0.091 -0.148 0.518 -0.706 0.381 -0.327 -0.636 0.244 0.233 -0.111 -0.814 0.232 -0.462 -0.744 -0.992 -0.707 0.728 0.312 0.151 
0.48 0.442 -0.699 -0.745 -0.824 0.819 0.75 -0.673 0.61 -0.279 0.886 -0.964 -0.836 -0.262 0.554 -0.19 -0.881 -0.421 0.175 0.716 
-0.835 -0.584 -0.746 0.397 -0.046 -0.49 0.757 0.599 -0.41 0.069 -0.249 -0.93 -0.136 0.052 -0.675 0.392 0.223 -0.572 0.719 -0.167 
0.501 0.606 0.221 -0.983 -0.304 0.128 -0.173 0.168 0.707 -0.646 -0.116 0.872 -0.23 0.49 0.621 -0.924 -1 0.378 -0.972 -0.409 
-0.2 -0.221 0.013 0.664 -0.817 0.691 0.408 0.758 -0.881 0.128 -0.057 0.62 0.086 -0.836 0.989 0.782 0.292 -0.184 0.302 0 
0.171 -0.462 0.224 -0.707 -0.972 0.198 -0.278 -0.971 -0.424 -0.25 -0.028 0.728 0.881 -0.663 0.744 -0.936 -0.972 0.153 -0.826 -0.501 
-0.719 0.117 -0.529 0.367 0.281 -0.54 0.501 -0.426 0.277 0.156 0.926 -0.2 0.694 0.502 0.445 0.723 -0.3 -0.481 0.752 0.629 
0.269 0.076 0.357 0.502 0.413 0.102 0.566 0.794 -0.745 -0.908 -0.707 -0.112 0.209 -0.235 -0.393 -0.509 0.577 -0.54 0.417 -0.146 
0.616 0.343 -0.994 0.311 -0.155 0.804 0.034 0.898 -0.677 0.138 0.527 0.593 -0.434 -0.116 0.447 -0.669 -0.662 0.014 -0.875 -0.055 
0.458 -0.229 0.833 -0.332 0.888 -0.208 0.159 0.465 0.253 -0.424 -0.328 0.221 -0.729 0.03 -0.468 0.468 -0.166 0.918 0.366 0.158 
0.408 -0.107 0.103 0.974 -0.87 -0.45 -0.694 -0.532 0.916 -0.217 0.414 0.375 0.554 0.599 -0.957 0.442 -0.608 0.554 0.26 0.997 
-0.518 0.932 0.218 0.105 -0.038 -0.897 -0.427 0.797 -0.979 -0.708 0.307 0.43 0.537 -0.59 0.756 0.667 0.312 -0.938 -0.864 0.229 
-0.154 0.902 -0.044 -0.248 0.853 -0.001 -0.453 -0.755 -0.095 0.807 -0.406 0.387 -0.909 -0.835 -0.508 0.053 -0.732 0.417 0.202 -0.359 
0.709 -0.491 -0.577 0.247 0.271 -0.82 0.266 -0.064 -0.406 0.754 -0.835 0.44 0.656 0.473 -0.455 0.51 -0.176 0.092 -0.893 0.729 
0.251 0.054 0.468 0.342 0.219 0.96 -0.605 0.487 0.729 0.95 -0.872 0.791 -0.189 -0.096 0.39 -0.565 0.084 -0.344 0.371 0.678 
-0.589 0.888 0.471 -0.581 0.361 -0.984 -0.719 -0.815 0.46 -0.611 -0.734 -0.289 0.443 0.734 -0.947 0.014 -0.954 -0.2 -0.499 0.775 
-0.25 -0.019 0.918 0.562 0.885 0.308 -0.651 -0.031 -0.683 0.72 0 -0.272 0.96 -0.529 0.499 0.321 -0.161 0.781 0.858 -0.701 
-0.478 -0.876 0.01 -0.683 0.858 0.063 0.331 0.904 0.863 -0.816 -0.969 -0.034 0.165 0.95 -0.12 0.403 0.258 0.229 -0.276 0.575 
-0.051 0.724 -0.345 0.261 -0.453 -0.493 -0.418 0.386 -0.712 -0.208 0.685 0.162 -0.084 -0.305 0.831 0.126 -0.89 0.514 0.03 0.974 
0.698 0.061 0.292 0.215 0.011 -0.828 -0.382 -0.378 0.401 0.695 -0.451 -0.298 0.419 0.205 0.963 0.967 -0.936 -0.103 0.353 -0.296 
0.689 0.391 0.866 -0.395 -0.562 -0.951 0.731 -0.451 0.563 0.113 -0.125 0.613 -0.474 -0.833 -0.172 0.89 -0.661 0.799 -0.488 -0.908 
0.846 0.413 -0.206 0.265 -0.03 0.109 0.584 0.034 -0.994 -0.062 0.738 0.695 -0.319 0.956 -0.348 0.119 -0.995 -0.265 0.668 0.568 
-0.8 -0.105 0.533 -0.274 0.414 -0.286 -0.032 0.753 -0.135 0.48 -0.803 -0.289 0.246 -0.009 0.976 -0.784 -0.9 0.561 0.251 -0.542 
-0.149 0.341 -0.495 0.884 0.298 0.509 0.003 0.303 -0.756 0.024 0.224 -0.204 0.919 -0.243 0.875 0.334 0.823 -0.157 0.439 -0.312 
-0.324 0.637 0.399 0.922 -0.02 0.728 -0.51 0.433 0.641 0.741 0.891 -0.508 0.435 -0.603 -0.624 -0.267 0.906 0.731 -0.612 -0.497 
-0.245 0.612 0.299 0.027 -0.278 0.526 -0.287 -0.455 -0.63 -0.848 0.234 0.046 -0.859 -0.015 0.32 0.122 -0.287 0.81 -0.445 -0.646 
0.904 -0.202 -0.154 0.339 0.195 0.574 -0.928 0.454 0.306 -0.54 0.957 -0.587 -0.575 0.608 0.44 0.499 0.135 -0.847 -0.956 0.857 
-0.342 0.63 -0.097 -0.201 -0.384 -0.777 -0.727 0.329 -0.615 0.18 0.684 -0.711 0.979 -0.118 0.628 0.526 -0.191 -0.948 -0.02 -0.533 
-0.135 0.289 -0.12 0.29 0.25 -0.327 -0.211 -0.263 0.178 0.185 -0.406 0.836 -0.184 0.849 -0.012 0.432 -0.576 0.613 -0.239 -0.191 
0.146 -0.203 0.099 0.125 -0.968 0.079 0.003 -0.159 0.132 0.984 0.308 0.997 0.625 -0.46 0.639 -0.125 0.565 -0.22 0.612 -0.256 
0.965 -0.442 -0.068 -0.219 -0.593 -0.728 -0.435 -0.169 0.886 0.679 0.993 0.032 -0.524 0.092 -0.491 -0.492 -0.829 0.864 0.701 0.655 
-0.8 0.009 -0.996 0.826 0.902 0.643 0.053 0.467 -0.577 0.018 -0.437 -0.259 0.576 0.496 0.522 0.984 -0.88 -0.56 0.167 -0.994 
-0.881 0.16 0.39 -0.053 -0.396 -0.749 0.808 0.128 -0.884 0.509 -0.217 -0.684 -0.129 -0.212 -0.506 -0.227 -0.217 0.548 -0.408 0.559 
-0.434 0.156 -0.7 -0.858 0.004 -0.826 -0.522 0.124 -0.386 0.998 0.483 -0.267 0.158 0.225 -0.967 0.763 0.477 0.841 0.243 0.945 
0.35 -0.974 -0.387 -0.779 0.166 0.108 0.346 -0.698 0.008 -0.709 0.861 0.574 0.447 -0.839 -0.932 -0.197 -0.665 -0.101 0.927 -0.05 
-0.103 0.41 -0.965 -0.593 -0.012 -0.932 -0.478 -0.535 -0.739 0.765 -0.238 0.612 -0.856 0.375 -0.815 0.662 -0.165 0.884 0.964 0.843 
-0.825 0.825 0.769 0.974 0.986 -0.81 -0.223 -0.326 0.089 -0.296 0.976 -0.662 -0.533 -0.637 -0.255 0.455 -0.216 0.62 -0.728 0.045 
0.385 0.386 -0.343 0.881 0.113 0.195 0.544 0.949 0.079 0.508 -0.856 0.254 0.686 -0.734 0.58 -0.976 -0.544 -0.643 -0.302 0.545 
0.413 0.026 -0.765 -0.768 0.39 -0.02 -0.961 -0.826 -0.048 -0.337 0.219 -0.662 -0.951 -0.771 -0.429 0.163 0.776 -0.885 0.464 -0.145 
0.976 0.96 -0.539 0.662 -0.774 -0.959 -0.962 -0.318 -0.25 0.089 -0.421 -0.837 -0.885 -0.186 -0.604 0.857 -0.853 -0.565 -0.969 0.099 
0.099 0.603 0.789 0.5 -0.816 -0.639 0.015 -0.688 -0.172 -0.169 0.167 0.156 -0.208 0.98 0.17 0.018 -0.627 0.209 -0.947 0.123 
-0.702 -0.016 0.286 -0.587 0.799 -0.966 -0.377 -0.702 -0.178 0.006 0.749 -0.727 -0.391 0.891 0.773 0.145 -0.396 0.141 0.457 0.432 
0.972 -0.024 -0.059 -0.236 0.308 -0.889 -0.865 0.681 0.32 -0.46 -0.196 0.618 0.524 -0.557 -0.616 0.675 -0.171 0.007 0.973 0.651 
-0.987 -0.925 -0.724 -0.025 0.966 -0.598 -0.528 -0.078 0.543 -0.718 -0.294 0.515 0.61 0.647 -0.368 -0.081 0.759 0.119 -0.048 0.079 
0.659 -0.891 0.05 0.183 -0.096 0.434 -0.141 0.733 -0.207 0.184 0.737 0.158 0.611 -0.987 -0.515 0.929 -0.585 -0.042 -0.149 0.958 
0.592 0.558 0.826 0.202 0.205 -0.542 -0.527 -0.036 0.577 0.426 -0.604 0.588 0.535 0.446 -0.229 -0.209 0.232 0.982 -0.476 -0.975 
0.519 -0.739 0.535 0.13 -0.373 -0.979 0.412 0.042 0.331 -0.737 0.353 -0.077 0.821 0.179 -0.523 0.379 0.989 -0.049 -0.657 0.918 
-0.271 -0.261 0.506 -0.384 -0.463 -0.371 0.407 0.769 -0.388 -0.717 -0.854 -0.517 -0.103 0.682 0.965 0.524 -0.945 0.377 -0.082 0.738 
0.641 -0.729 -0.339 0.814 0.802 0.49 0.193 -0.857 -0.207 0.889 -0.939 0.522 -0.02 0.567 -0.51 0.518 -0.803 0.897 0.639 0.161 
-0.467 0.786 0.644 0.43 0.82 0.961 -0.046 -0.773 0.339 0.872 0.965 0.332 -0.504 -0.022 0.146 -0.35 -0.18 -0.66 -0.206 0.614 
-0.419 0.207 0.488 0.561 -0.225 0.979 0.431 0.324 -0.772 0.071 -0.163 -0.239 0.209 -0.519 -0.457 0.381 -0.558 0.497 0.608 -0.867 
0.722 0.925 0.465 -0.782 -0.097 -0.388 0.22 -0.925 0.304 -0.986 0.689 -0.763 0.222 0.53 0.798 -0.651 0.509 0.23 -0.975 -0.911 
-0.699 -0.138 0.203 0.862 0.695 0.746 0.243 -0.511 0.596 -0.149 -0.377 0.318 -0.224 -0.56 0.888 -0.969 0.404 0.46 -0.894 0.06 
0.827 -0.852 0.297 0.401 0.678 0.096 0.75 0.539 -0.322 -0.873 0.98 0.331 -0.011 0.183 0.193 0.036 0.282 -0.564 0.525 0.23 
0.287 -0.5 -0.452 -0.585 -0.059 -0.212 -0.202 -0.303 -0.752 0.256 0.758 -0.925 0.756 0.055 0.828 0.434 -0.497 0.578 0.325 0.181 
-0.943 0.306 -0.488 0.398 -0.159 0.705 -0.566 -0.877 -0.859 -0.688 0.353 0.78 0.164 -0.747 -0.453 -0.543 0.393 0.697 0.155 0.994 
0.306 -0.087 -0.579 0.062 -0.68 -0.75 -0.151 -0.176 -0.82 -0.826 -0.995 -0.762 0.48 -0.482 0.636 -0.678 -0.425 -0.577 -0.203 -0.283 
-0.265 -0.497 -0.151 0.899 0.108 0.749 -0.643 -0.498 0.446 0.512 -0.504 -0.248 -0.223 0.269 0.815 0.097 0.519 -0.336 0.921 0.7 
0.19 -0.721 0.938 -0.329 -0.203 0.926 0.345 0.724 -0.651 -0.858 -0.207 0.084 -0.003 0.643 0.336 -0.894 0.392 0.693 -0.392 0.19 
0.557 0.456 0.943 -0.666 -0.275 -0.89 0.431 -0.403 0.126 0.705 -0.703 -0.684 0.984 -0.413 0.339 0.133 -0.135 -0.316 -0.143 0.567 
0.179 0.651 -0.349 -0.824 0.646 -0.661 -0.366 0.038 -0.616 0.594 -0.772 0.941 0.402 -0.477 -0.373 -0.52 -0.367 -0.941 0.077 -0.889 
-0.884 0.726 -0.572 -0.9 -0.335 -0.881 0.585 0.53 -0.196 -0.558 0.097 -0.665 -0.555 -0.899 -0.137 -0.909 -0.208 0.85 0.481 0.177 
0.444 -0.938 0.118 -0.153 -0.415 0.746 0.327 0.571 -0.843 -0.596 -0.966 -0.375 -0.518 -0.186 0.077 0.147 -0.066 -0.338 0.029 -0.91 
0.456 -0.521 -0.575 0.902 -0.42 0.64 -0.655 0.372 0.49 -0.821 -0.099 -0.065 -0.759 -0.98 -0.866 0.178 -0.882 0.813 -0.251 -0.725 
-0.431 0.136 0.252 0.051 0.95 -0.671 -0.802 -0.116 -0.009 0.579 -0.026 -0.201 -0.942 0.751 -0.299 -0.01 0.744 0.399 -0.637 0.234 
0.578 0.264 -0.479 -0.829 0.636 0.007 0.349 0.754 -0.18 -0.549 -0.619 0.389 0.587 0.633 -0.56 0.537 -0.686 -0.01 -0.578 0.305 
-0.43 0.748 -0.895 -0.02 0.852 0.158 0.971 0.596 -0.091 -0.314 0.182 -0.161 -0.698 -0.944 0.01 0.939 0.063 -0.64 -0.955 0.884 
0.163 -0.221 0.273 -0.25 -0.236 -0.934 -0.713 0.079 0.408 0.061 -0.264 0.978 0.162 0.193 0.311 0.014 -0.296 0.282 -0.038 0.613 
0.968 -0.856 -0.195 -0.73 -0.8 0.815 -0.439 0.616 -0.473 -0.393 0.5 0.69 0.738 0.125 -0.208 -0.498 0.543 0.432 0.933 -0.048 
-0.507 -0.33 0.282 -0.993 -0.785 -0.407 0.373 -0.081 -0.773 -0.665 -0.115 -0.805 -0.168 0.69 -0.534 0.384 0.857 0.379 0 -0.263 
0.986 -0.148 -0.573 -0.924 -0.67 0.22 -0.421 0.873 -0.348 -0.136 0.177 0.497 0.534 -0.188 0.857 -0.898 0.757 0.23 0.021 0.985 
0.918 -0.742 -0.82 0.102 -0.7 -0.002 -0.514 -0.842 -0.622 0.487 -0.105 -0.284 -0.309 0.674 -0.207 0.021 0.246 0.724 0.247 -0.75 
-0.412 -0.224 -0.9 -0.525 0.588 0.957 -0.423 0.346 0.539 0.95 0.331 0.809 -0.791 0.863 -0.089 -0.491 -0.138 0.398 0.019 0.24 
0.237 -0.734 -0.692 0.928 -0.707 0.101 0.302 0.539 0.177 -0.451 0.79 0.766 0.325 -0.758 -0.759 0.266 -0.449 -0.182 -0.388 -0.91 
-0.232 -0.705 -0.748 0.329 -0.842 0.163 -0.809 0.02 -0.087 0.21 -0.388 -0.85 0.477 0.273 -0.569 0.77 -0.274 0.733 0.661 0.904 
-0.366 0.803 0.67 -0.689 -0.955 -0.737 0.577 -0.404 0.433 -0.459 0.039 -0.447 0.188 0.291 0.883 0.347 -0.546 -0.926 -0.281 0.368 
0.636 0.684 0.87 0.465 -0.043 -0.699 0.587 0.683 -0.614 0.249 0.587 0.372 0.052 0.609 -0.964 0.45 -0.776 0.965 -0.954 -0.991 
-0.493 0.437 -0.437 -0.953 -0.272 -0.202 0.394 0.535 0.224 -0.886 -0.097 -0.14 0.798 0.125 -0.674 0.107 0.779 0.913 -0.21 -0.483 
0.514 -0.27 0.89 -0.433 -0.309 0.926 -0.631 -0.084 0.891 -0.585 0.277 -0.25 0.853 0.84 -0.202 -0.067 -0.362 -0.456 -0.532 -0.786 
0.01 0.723 0.075 -0.192 -0.151 0.753 -0.733 -0.372 0.666 0.058 0.497 0.533 -0.86 0.387 -0.9 -0.169 0.665 -0.179 -0.901 0.909 
0.236 0.377 -0.341 0.441 0.569 0.809 -0.273 -0.44 -0.646 0.195 -0.226 0.364 -0.081 0.849 -0.475 -0.88 0.602 -0.208 0.1 0.621 
-0.798 -0.403 0.154 -0.658 -0.663 0.606 0.526 -0.998 -0.221 0.977 0.911 -0.985 0.354 -0.077 0.809 -0.076 0.084 -0.464 0.484 0.79 
-0.917 -0.39 0.155 0.354 -0.54 -0.968 0.474 -0.586 0.176 -0.074 -0.613 0.731 0.524 0.893 -0.927 0.861 0.851 0.951 -0.785 -0.37 
0.929 -0.873 -0.002 0.283 0.402 0.159 -0.441 -0.514 -0.953 -0.605 -0.723 -0.87 0.006 0.784 0.485 0.818 -0.832 0.311 -0.768 0.344 
-0.762 -0.028 0.075 0.762 -0.135 0.501 0.975 0.069 0.452 -0.81 0.699 0.381 -0.331 0.049 0.017 -0.577 -0.792 0.928 -0.09 -0.745 
-0.676 0.539 -0.614 0.682 0.323 -0.777 0.5 0.843 0.886 -0.916 0.187 -0.876 0.056 -0.385 -0.762 -0.726 -0.532 -0.787 0.343 0.92 
-0.244 0.394 0.654 0.777 -0.556 0.023 -0.799 -0.348 -0.049 0.463 0.26 0.627 0.002 0.998 0.309 -0.323 -0.779 -0.191 -0.48 -0.893 
-0.106 -0.941 -0.416 -0.698 -0.326 -0.178 -0.424 0.142 0.388 -0.729 0.415 -0.504 0.666 0.421 -0.375 -0.538 -0.556 -0.174 0.114 0.395 
-0.711 -0.274 0.375 0.643 -0.276 -0.316 -0.68 0.297 0.846 0.192 0.757 0.092 0.252 -0.659 0.394 -0.722 0.515 -0.677 0.773 0.255 
-0.406 0.188 0.751 -0.388 -0.039 -0.623 0.074 0.405 0.555 -0.459 0.152 -0.803 0.619 -0.473 0.84 -0.656 0.564 -0.487 0.641 0.41 
0.705 0.398 -0.498 0.309 -0.909 0.896 0.588 0.607 -0.429 0.361 -0.138 0.166 -0.099 -0.034 -0.87 0.862 0.695 0.557 0.267 0.25 
-0.55 -0.229 0.799 -0.931 0.299 0.992 -0.235 -0.137 -0.495 -0.593 -0.727 -0.438 -0.843 0.127 0.872 -0.751 0.023 0.812 0.856 0.595 
0.173 0.07 0.113 -0.926 -0.964 0.595 0.936 0.731 0.504 0.555 0.334 0.954 -0.674 0.133 -0.624 0.977 0.125 0.141 0.192 0.982 
0.548 0.817 -0.103 0.706 -0.056 0.121 -0.693 -0.68 -0.067 -0.837 -0.733 -0.894 0.233 0.38 -0.468 0.622 0.327 -0.532 0.705 -0.168 
-0.625 0.039 0.138 -0.299 -0.475 0.514 0.031 0.65 0.008 -0.777 0.985 -0.444 -0.959 -0.118 -0.386 -0.015 -0.997 -0.079 0.305 -0.064 
0.436 0.924 0.394 0.022 0.656 0.926 -0.356 -0.016 -0.254 -0.651 -0.832 0.121 0.741 0.306 -0.826 -0.734 0.173 0.205 -0.732 -0.819 
0.429 -0.395 0.089 0.822 0.487 -0.944 0.159 0.842 0.329 -0.183 0.13 -0.234 -0.259 -0.476 -0.86 -0.602 -0.198 -0.216 0.382 0.548 
0.485 0.55 0.021 0.578 0.208 0.196 0.844 -0.619 -0.247 -0.535 -0.086 -0.818 0.07 -0.996 -0.644 -0.09 -0.94 0.516 0.104 0.389 
-0.667 -0.765 -0.493 0.074 -0.241 -0.353 0.472 0.914 0.431 0.206 0.462 0.269 0.108 -0.164 -0.153 -0.683 -0.968 0.044 0.05 0.137 
0.861 0.965 0.672 0.283 0.969 -0.972 -0.455 -0.619 0.544 0.65 0.77 0.877 0.885 -0.722 0.304 -0.004 0.277 -0.224 -0.09 0.061 
-0.665 -0.275 -0.67 0.443 0.561 0.529 -0.888 0.945 -0.075 0.163 0.082 0.138 0.48 0.106 -0.578 0.449 0.135 -0.033 -0.818 -0.321 
-0.031 -0.696 -0.091 -0.146 -0.418 -0.787 -0.797 -0.788 0.341 0.113 0.273 0.676 -0.81 0.603 0.12 -0.897 0.484 0.232 -0.6 -0.238 
-0.253 0.483 0.9 -0.773 -0.411 -0.678 -0.972 -0.924 0.642 -0.79 -0.244 -0.389 -0.485 -0.983 0.818 0.449 -0.77 -0.979 0.661 0.571 
0.486 -0.066 0.248 0.677 -0.111 -0.28 0.78 -0.626 0.952 -0.819 0.136 -0.3 -0.984 0.036 -0.073 -0.043 0.711 -0.044 0.386 0.705 
0.518 -0.858 -0.332 -0.967 -0.489 -0.514 0.483 -0.259 -0.493 0.496 -0.336 -0.654 -0.569 0.912 -0.977 0.32 -0.368 -0.845 -0.954 -0.063 
-0.312 0.534 0.637 0.056 -0.077 -0.084 -0.634 -0.366 -0.776 0.752 -0.309 0.743 0.894 0.359 0.776 -0.595 0.846 0.611 0.498 -0.295 
0.108 -0.838 0.051 0.891 -0.573 0.426 0.211 0.411 0.934 0.61 -0.652 -0.378 0.144 -0.663 -0.969 -0.933 0.254 -0.603 0.053 0.83 
-0.851 0.744 0.573 -0.605 0.104 0.702 0.152 0.302 0.665 -0.35 -0.993 -0.227 0.164 0.411 0.016 0.591 -0.163 -0.42 0.355 0.123 
-0.81 0.703 -0.902 0.334 -0.607 -0.871 0.754 0.999 -0.474 0.159 0.829 -0.325 -0.096 0.755 0.422 -0.64 0.457 -0.426 0.662 0.474 
0.576 0.669 -0.4 -0.26 0.432 0.616 -0.316 -0.378 -0.804 -0.961 0.745 -0.614 -0.906 0.843 -0.927 -0.161 0.972 -0.821 -0.162 -0.15 
0.338 -0.332 0.877 -0.758 -0.225 0.299 -0.046 -0.416 0.873 -0.384 -0.942 0.449 -0.362 -0.342 -0.458 -0.93 -0.725 0.578 0.044 -0.177 
0.969 -0.21 0.21 -0.937 -0.015 0.635 0.255 0.31 0.814 -0.907 -0.84 0.504 0.113 -0.962 -0.901 0.888 0.337 0.053 -0.528 0.563 
0.67 -0.117 0.364 -0.34 0.541 0.906 0.082 -0.832 0.836 -0.873 -0.008 0.805 0.269 -0.446 -0.779 -0.746 -0.811 0.476 0.916 -0.645 
0.569 -0.923 0.859 0.035 -0.533 0.958 -0.077 -0.844 0.012 0.748 0.719 0.034 -0.369 0.436 -0.954 -0.828 0.694 0.128 -0.307 0.531 
0.607 0.685 0.336 -0.124 -0.761 0.909 0.483 -0.572 0.385 0.399 0.135 0.307 0.828 -0.006 -0.658 -0.705 -0.047 0.617 -0.196 -0.683 
0.365 -0.125 0.703 -0.652 -0.689 0.749 -0.127 -0.994 -0.123 0.566 0.537 -0.515 0.603 0.225 0.713 0.842 0.135 0.196 -0.378 -0.128 
-0.052 0.757 -0.469 0.128 -0.249 -0.127 0.424 -0.944 -0.157 -0.42 -0.275 -0.44 0.455 -0.572 -0.091 0.767 -0.823 -0.866 0.773 0.055 
0.7 0.662 0.892 0.303 -0.113 0.957 0.497 -0.626 0.154 -0.881 0.247 -0.546 -0.772 0.778 0.582 0.331 0.004 0.358 0.74 -0.801 
0.938 -0.535 -0.241 0.746 -0.106 -0.98 0.513 0.071 -0.846 0.638 -0.522 -0.794 0.652 -0.63 0.861 -0.461 -0.672 0.358 0.266 0.834 
0.829 -0.135 -0.36 -0.591 -0.357 -0.778 0.741 0.999 0.933 0.481 -0.45 -0.777 0.946 0.31 0.969 -0.16 0.682 0.482 -0.736 -0.811 
0.472 -0.258 -0.605 0.124 0.465 -0.391 -0.984 -0.855 0.967 0.282 -0.669 -0.851 -0.853 -0.029 -0.442 0.142 0.545 -0.349 0.494 0.478 
-0.868 -0.956 0.702 -0.569 0.706 0.671 0.623 0.741 0.506 0.887 0.93 0.33 -0.37 -0.323 -0.545 -0.905 0.286 -0.177 -0.408 0.606 
-0.895 -0.077 -0.893 -0.396 0.894 -0.335 0.746 0.791 0.669 0.24 0.27 0.801 0.637 0.324 -0.416 0.343 -0.005 -0.792 0.084 -0.147 
-0.905 0.366 -0.816 0.077 -0.956 -0.009 0.524 0.682 0.814 -0.884 0.64 -0.729 0.039 0.747 -0.125 0.285 -0.235 -0.379 0.077 -0.566 
-0.786 -0.301 -0.413 0.851 -0.977 0.172 0.546 0.37 0.732 -0.369 -0.776 0.827 -0.651 -0.24 -0.095 -0.607 0.751 -0.219 -0.924 0.917 
-0.102 -0.932 -0.812 -0.711 0.816 0.063 0.575 -0.419 -0.964 0.004 0.367 -0.75 0.703 0.954 -0.547 0.726 0.478 -0.648 0.096 0.21 
0.335 0.672 0.038 0.684 -0.216 -0.705 -0.922 -0.465 0.428 -0.494 -0.196 -0.674 -0.426 -0.008 -0.384 -0.258 -0.593 -0.457 0.675 -0.556 
0.899 0.042 0.046 0.602 -0.003 0.5 0.68 -0.173 0.852 0.128 -0.962 0.187 -0.199 0.428 0.223 0.585 0.723 0.301 -0.527 0.503 
-0.841 0.629 0.83 0.086 -0.378 -0.202 0.828 0.029 0.693 0.504 0.825 0.592 -0.102 -0.128 0.546 0.895 -0.276 0.226 -0.277 -0.072 
-0.646 0.113 -0.533 0.507 -0.459 0.69 0.445 -0.384 -0.008 -0.73 -0.881 0.503 0.899 -0.699 -0.411 -0.479 0.099 -0.23 0.903 0.144 
-0.374 0.728 -0.264 0.524 -0.048 -0.718 0.772 0.676 0.86 -0.153 -0.396 -0.785 0.96 0.071 -0.926 -0.499 -0.238 0.519 0.469 -0.894 
0.789 0.588 0.609 -0.959 0.89 -0.449 -0.438 0.341 0.673 -0.183 -0.514 -0.701 -0.102 0.222 -0.825 0.85 0.857 0.947 0.527 0.717 
0.146 -0.869 -0.716 0.106 0.203 -0.289 0.959 -0.683 -0.77 0.428 -0.577 -0.628 0.369 -0.616 -0.587 0.259 0.287 0.327 -0.4 -0.04 
-0.503 0.438 0.611 0.395 0.013 0.787 0.245 -0.13 -0.914 -0.228 -0.061 0.233 0.256 0.576 -0.309 -0.189 -0.713 -0.349 0.128 -0.131 
-0.569 0.551 0.241 0.8 -0.713 -0.994 0.411 0.575 0.686 -0.636 -0.113 -0.817 0.802 -0.501 0.578 -0.185 -0.362 -0.177 -0.963 0.076 
0.948 -0.023 -0.691 0.204 -0.447 0.353 -0.985 -0.16 -0.644 0.495 0.709 -0.213 0.398 0.303 -0.06 0.685 0.661 -0.297 0.26 0.347 
0.067 -0.5 0.53 -0.13 -0.001 0.108 -0.963 0.637 -0.716 -0.925 -0.287 -0.768 0.052 0.375 0.788 0.957 0.08 -0.845 0.149 0.436 
0.65 0.21 -0.425 0.048 -0.135 0.867 0.085 -0.473 -0.429 -0.302 0.874 0.638 0.198 0.405 -0.14 -0.451 -0.135 -0.102 -0.462 0.149 
-0.027 0.603 0.733 -0.623 -0.022 0.521 -0.314 -0.942 -0.972 0.835 0.846 -0.97 0.397 -0.578 0.43 -0.737 -0.711 -0.484 -0.21 0.212 
0.214 -0.336 -0.149 -0.236 -0.579 -0.937 0.313 0.287 -0.039 0.851 -0.212 -0.714 0.454 -0.478 0.015 -0.215 -0.605 0.701 0.195 -0.224 
0.888 0.042 -0.194 0.286 0.816 -0.763 0.549 -0.543 -0.247 -0.661 0.67 -0.681 0.355 -0.127 0.435 -0.871 -0.064 -0.252 0.768 -0.75 
-0.049 -0.444 -0.112 -0.595 0.43 -0.744 0.542 -0.822 -0.691 -0.262 -0.046 -0.802 -0.868 0.76 0.484 -0.7 0.997 0.385 -0.243 0.102 
-0.924 -0.221 0.773 0.783 0.652 0.208 0.912 -0.059 0.956 0.68 0.191 0.259 -0.411 -0.569 -0.983 -0.981 -0.313 0.559 -0.803 -0.003 
-0.351 0.503 0.195 0.133 0.264 0.031 0.433 0.613 -0.232 -0.457 -0.284 0.196 0.674 -0.511 -0.021 0.679 -0.95 0.244 -0.38 -0.642 
-0.076 -0.837 0.618 0.865 -0.406 0.635 0.885 0.634 0.546 -0.566 -0.369 -0.804 0.938 -0.822 0.681 0.554 0.561 0.467 0.167 -0.319 
-0.638 -0.765 0.877 -0.964 0.077 -0.144 0.715 0.127 -0.9 -0.665 0.837 0.377 -0.502 0.455 0.242 0.445 0.442 0.479 0.079 -0.011 
-0.734 -0.938 0.537 -0.444 -0.76 0.218 -0.89 -0.847 -0.315 0.629 -0.166 0.047 -0.783 -0.289 0.436 0.294 0.919 0.151 -0.227 -0.628 
0.839 -0.39 0.749 -0.663 -0.582 0.343 -0.866 0.86 0.175 0.213 -0.151 0.441 0.275 -0.262 0.997 0.867 0.957 -0.541 -0.98 -0.006 
-0.912 -0.146 -0.606 -0.695 0.917 0.83 0.951 0.837 0.333 0.076 -0.791 0.172 -0.961 -0.69 0.862 -0.543 -0.995 0.996 -0.331 0.18 
0.562 0.871 -0.027 0.189 -0.391 0.322 0.409 -0.434 0.781 0.429 0.913 0.87 -0.364 -0.693 -0.473 -0.095 -0.511 -0.169 -0.258 0.822 
0.907 0.303 0.347 0.946 0.965 0.209 -0.245 0.971 0.557 0.425 0.503 0.471 0.648 -0.523 -0.339 -0.743 -0.849 -0.578 0.176 0.933 
0.851 0.089 -0.845 -0.161 0.748 -0.318 -0.903 -0.411 0.865 0.191 -0.237 0.773 -0.505 -0.89 -0.929 -0.188 0.671 0.179 0.135 0.229 
-0.044 -0.361 -0.3 -0.396 0.468 0.713 -0.139 0.619 -0.865 -0.963 0.904 -0.661 0.478 -0.941 0.53 0.578 0.094 0.627 -0.833 -0.041 
-0.181 -0.069 0.084 0.666 0.393 0.156 -0.522 0.065 -0.313 0.614 -0.706 0.643 -0.395 0.346 -0.401 -0.927 0.412 0.812 -0.956 0.547 
0.85 0.949 -0.762 0.68 -0.64 0.769 0.259 0.454 0.748 0.426 -0.586 -0.433 -0.291 0.498 -0.767 -0.897 0.006 0.064 0.168 0.693 
-0.322 0.814 0.688 0.283 0.16 -0.713 0.708 -0.428 -0.9 -0.896 -0.528 -0.698 -0.595 -0.29 -0.666 -0.234 -0.169 0.593 -0.78 -0.42 
0.372 -0.014 0.147 -0.919 -0.515 0.733 -0.816 0.843 -0.203 0.352 0.537 0.827 0.518 0.577 0.462 -0.321 -0.783 0.522 0.603 -0.331 
0.626 -0.573 -0.029 -0.616 0.49 0.305 0.15 -0.679 0.251 0.37 0.253 -0.377 -0.643 -0.247 -0.296 0.194 -0.162 0.241 0.037 0.987 
-0.055 -0.074 0.814 -0.536 -0.496 0.628 0.495 -0.279 0.15 0.45 0.742 0.128 0.878 -0.287 0.512 0.72 -0.63 0.014 -0.607 0.973 
-0.615 0.647 -0.404 0.094 -0.6 0.653 -0.712 0.238 0.246 0.677 0.225 -0.809 -0.396 0.391 -0.345 0.46 0.019 -0.498 -0.467 -0.479 
0.953 -0.725 -0.999 -0.817 0.34 0.866 0.903 -0.938 0.232 -0.704 -0.964 0.969 0.943 -0.016 0.063 -0.305 -0.011 0.703 -0.715 -0.765 
0.733 0.862 -0.573 -0.663 0.253 0.434 -0.851 -0.376 0.937 -0.318 0.497 0.89 0.309 0.851 -0.927 -0.351 -0.931 0.976 -0.289 0.301 
-0.376 0.099 0.271 -0.432 -0.916 -0.666 0.615 0.425 -0.61 0.901 0.661 -0.877 0.763 -0.912 -0.188 0.369 0.522 -0.039 -0.655 0.811 
0.995 0.843 0.701 0.304 -0.954 -0.874 -0.695 -0.885 -0.898 0.368 0.416 0.079 -0.18 -0.313 0.647 -0.096 0.374 0.614 -0.319 -0.884 
0.515 -0.658 -0.761 0.631 -0.218 0.403 0 -0.343 -0.284 0.345 -0.532 -0.289 0.54 -0.83 -0.633 0.586 -0.352 0.024 0.701 0.103 
-0.608 0.47 -0.818 0.212 -0.491 0.829 -0.532 0.883 0.443 0.15 -0.649 0.311 0.844 -0.058 -0.058 -0.373 -0.655 -0.706 0.284 0.061 
0.639 0.752 -0.876 0.532 -0.726 -0.509 0.118 -0.077 0.515 0.172 -0.974 -0.74 -0.358 -0.792 0.824 0.151 -0.611 -0.355 0.387 -0.816 
0.795 0.738 0.847 0.991 -0.319 -0.211 -0.382 0.378 0.435 -0.746 -0.56 0.427 -0.993 -0.436 -0.041 -0.367 0.408 -0.571 0.556 -0.077 
0.601 0.934 0.535 -0.757 -0.506 0.36 0.747 -0.117 -0.995 0.134 0.42 -0.848 -0.128 0.267 -0.857 0.905 -0.591 0.114 0.284 0.844 
0.368 -0.924 0.271 0.727 -0.36 -0.418 -0.639 -0.952 0.012 -0.731 0.324 -0.387 -0.444 -0.141 0.209 0.05 -0.429 -0.044 -0.714 -0.424 
-0.91 0.706 0.08 0.314 0.325 0.576 0.22 0.734 -0.31 -0.144 0.931 -0.942 -0.068 0.554 -0.862 0.924 -0.863 -0.501 0.973 0.149 
0.12 0.649 0.762 0.676 -0.492 -0.029 -0.273 0.08 -0.721 0.365 -0.992 -0.631 0.423 0.089 0.684 -0.252 -0.335 0.256 -0.165 0.707 
-0.536 -0.234 -0.883 0.396 -0.68 -0.745 0.32 -0.543 -0.246 0.645 0.958 0.875 0.294 -0.927 0.551 -0.845 0.396 -0.37 0.235 0.676 
0.995 0.595 -0.955 0.418 0.036 -0.919 -0.481 -0.947 0.689 0.354 0.76 -0.847 -0.528 0.878 0.901 -0.208 -0.867 0.222 0.602 0.24 
0.219 0.912 0.467 -0.486 0.985 0.37 -0.331 0.382 -0.999 -0.744 0.41 -0.652 0.851 0.455 -0.881 0.24 0.889 -0.362 0.293 0.578 
-0.656 0.054 -0.916 -0.184 -0.068 0.985 0.96 0.417 0.559 0.914 -0.343 -0.221 0.827 -0.524 0.645 -0.836 0.847 -0.334 0.898 0.848 
-0.078 0.308 -0.452 0.125 0.116 -0.333 -0.635 0.005 0.657 0.659 -0.065 -0.647 0.065 0.371 0.169 -0.651 0.357 0.482 0.766 0.268 
0.748 -0.224 -0.601 0.927 0.252 -0.956 -0.908 0.099 -0.29 -0.658 0.299 0.984 0.651 -0.8 0.462 0.119 0.219 -0.821 -0.524 -0.123 
-0.81 0.411 0.23 0.255 -0.217 -0.248 0.604 -0.508 -0.414 0.723 0.76 -0.666 -0.501 -0.84 -0.738 -0.897 -0.444 -0.294 0.203 0.619 
0.048 -0.146 0.955 0.051 0.054 0.769 -0.83 -0.726 0.949 -0.354 0.503 -0.509 -0.59 -0.267 0.747 0.545 0.837 0.703 -0.963 -0.225 
0.426 -0.851 0.11 -0.723 -0.339 0.724 -0.619 0.57 -0.57 0.936 0.189 0.478 -0.21 0.144 -0.47 0.845 -0.086 0.052 -0.529 0.215 
0.699 0.974 0.706 -0.539 0.059 0.805 -0.994 -0.103 0.509 -0.605 0.672 0.287 -0.104 0.134 0.917 0.558 -0.142 -0.702 0.128 0.288 
-0.414 -0.331 0.119 0.376 -0.835 -0.999 0.573 0.431 0.053 -0.956 -0.354 0.104 -0.63 -0.295 0.565 0.43 -0.49 0.571 -0.321 -0.629 
-0.682 -0.297 0.659 0.215 0.838 0.576 -0.227 -0.304 -0.774 -0.747 -0.663 -0.188 0.274 0.456 -0.46 0.439 0.809 -0.534 -0.129 -0.138 
-0.138 0.869 -0.681 0.233 -0.426 0.884 -0.337 0.085 0.808 0.694 0.456 -0.874 -0.603 0.467 0.341 -0.765 0.395 -0.534 0.284 0.621 
0.071 0.621 -0.215 -0.655 0.429 0.678 -0.863 0.238 -0.856 0.008 -0.548 0.358 -0.123 -0.229 -0.409 0.452 -0.344 0.606 -0.111 -0.184 
0.3 -0.655 -0.058 0.698 0.813 -0.364 -0.715 0.56 0.454 0.569 0.182 -0.122 0.542 -0.681 0.223 -0.029 0.997 0.36 -0.791 -0.507 
-0.28 -0.338 -0.796 0.598 0.785 0.147 0.402 -0.559 -0.246 -0.709 0.257 -0.594 -0.012 -0.448 -0.544 0.153 0.54 0.094 -0.286 -0.006 
-0.337 0.896 0.872 -0.794 -0.433 0.448 0.529 -0.083 0.16 0.739 0.41 -0.767 -0.247 0.614 0.831 -0.462 -0.238 0.585 0.332 0.868 
0.876 -0.059 -0.374 -0.136 0.845 0.435 -0.982 0.385 -0.471 -0.268 -0.268 0.544 -0.02 -0.044 -0.898 0.899 -0.596 0.632 -0.184 0.917 
0.723 -0.773 -0.85 -0.172 -0.807 -0.667 0.718 0.307 -0.73 0.402 0.527 -0.854 -0.656 -0.494 0.362 -0.811 0.941 0.732 0.927 -0.178 
-0.184 -0.341 -0.282 -0.852 0.615 -0.179 -0.952 -0.628 -0.195 -0.136 -0.359 -0.12 0.443 0.143 -0.94 0.989 0.828 0.778 0.296 -0.902 
0.181 0.176 -0.404 0.877 0.682 0.958 -0.582 0.623 -0.957 -0.655 -0.203 0.211 0.356 0.867 0.36 0.324 0.04 0.76 -0.952 0.845 
-0.376 -0.311 0.077 -0.58 0.832 0.137 -0.591 -0.988 -0.084 -0.943 -0.89 -0.551 0.233 -0.294 -0.322 -0.085 -0.336 0.096 -0.11 0.059 
0.794 -0.961 -0.729 0.502 0.907 0.983 -0.174 -0.053 0.743 -0.126 0.145 -0.633 0.915 -0.778 0.139 -0.901 0.36 0.9 -0.889 -0.372 
0.958 -0.779 0.429 0.543 -0.073 -0.893 -0.541 0.944 0.555 0.701 0.355 0.701 0.741 0.626 0.556 -1 0.609 -0.618 -0.053 0.352 
0.609 -0.908 -0.928 0.876 -0.333 0.563 0.976 -0.621 0.464 -0.561 0.007 0.422 0.013 -0.212 -0.035 -0.708 0.247 0.776 -0.764 0.154 
0.83 0.944 -0.144 0.923 0.57 -0.588 0.923 0.532 0.146 -0.13 0.236 0.107 0.315 0.66 -0.016 0.982 0.224 0.312 -0.287 -0.312 
-0.897 0.72 -0.538 0.116 -0.14 0.779 0.409 -0.541 0.908 0.997 0.613 0.738 0.941 -0.179 0.661 0.864 0.585 0.584 0.396 0.084 
-0.194 -0.016 -0.809 -0.527 -0.355 0.527 -0.193 -0.779 -0.161 0.52 -0.091 0.295 0.592 0.723 -0.589 -0.196 0.502 0.82 0.263 0.41 
-0.83 -0.123 0.5 -0.889 0.698 0.161 0.975 0.636 0.097 0.723 -0.28 -0.744 0.06 -0.089 -0.271 0.705 -0.209 0.889 0.926 0.982 
0.409 0.187 0.277 0.354 0.262 0.689 -0.842 -0.236 0.861 0.422 -0.473 -0.969 -0.349 -0.973 -0.857 -0.651 0.541 -0.53 -0.663 -0.362 
-0.454 0.057 -0.106 0.606 -0.679 0.976 0.663 0.112 0.865 0.941 0.094 0.626 0.48 -0.628 0.332 -0.258 -0.587 0.491 0.858 -0.726 
0.265 -0.263 -0.694 0.916 -0.235 -0.199 -0.383 -0.342 0.271 -0.045 0.648 -0.831 -0.988 -0.457 0.775 -0.667 -0.129 0.79 0.797 0.088 
-0.917 -0.108 -0.286 0.563 0.616 -0.601 -0.343 -0.971 0.89 -0.484 -0.697 0.155 0.253 -0.391 0.071 -0.63 0.41 0.688 0.38 0.034 
-0.005 0.029 0.203 0.008 0.572 0.331 0.693 -0.205 0.473 0.843 0.883 0.557 -0.265 -0.051 0.472 -0.297 0.348 -0.87 -0.268 0.59 
-0.002 0.387 -0.255 -0.397 0.997 -0.832 0.326 0.759 -0.791 -0.294 0.145 0.204 0.735 -0.651 -0.436 0.659 -0.968 -0.39 -0.546 0.505 
-0.547 -0.311 0.414 0.54 0.991 -0.113 -0.757 0.691 0.369 0.327 0.282 -0.281 -0.286 -0.621 0.322 -0.289 -0.452 -0.352 -0.177 0.109 
0.707 0.968 -0.687 0.442 -0.331 0.23 0.454 -0.299 0.84 -0.74 -0.441 -0.355 -0.05 -0.675 -0.815 0.293 0.212 -0.22 -0.016 -0.067 
-0.893 -0.734 0.652 -0.179 -0.002 0.327 0.885 0.898 -0.673 0.06 0.007 -0.966 0.028 0.672 0.829 -0.95 -0.098 0.283 0.103 0.094 
0.543 0.662 0.739 -0.155 0.988 0.924 -0.862 0.552 -0.296 0.123 -0.162 0.163 0.741 -0.158 0.985 -0.261 -0.479 -0.778 -0.363 -0.151 
0.282 0.644 0.235 -0.338 0.669 0.416 -0.288 -0.429 -0.301 0.816 0.666 -0.405 0.83 0.757 0.792 -0.83 0.682 0.931 -0.925 -0.262 
0.406 0.265 -0.746 0.499 -0.893 -0.761 -0.761 -0.019 -0.539 0.228 -0.818 -0.905 0.225 0.417 -0.243 -0.106 -0.166 0.822 0.817 0.885 
0.99 0.835 -0.168 -0.828 0.593 -0.023 -0.657 0.627 -0.092 -0.23 -0.283 -0.334 -0.965 -0.029 -0.835 -0.506 0.562 -0.244 0.475 -0.625 
-0.663 0.657 -0.53 0.562 0.427 0.58 -0.192 -0.387 0.402 -0.375 -0.15 0.392 -0.187 -0.965 0.564 -0.242 0.012 -0.741 -0.615 -0.728 
0.029 0.454 0.29 0.416 -0.574 0.807 -0.737 0.988 -0.436 -0.91 -0.284 0.253 -0.9 0.186 0.167 0.527 -0.234 0.975 -0.508 -0.48 
-0.048 0.694 -0.736 -0.883 0.729 0.829 -0.125 0.093 -0.56 0.612 0.365 0.822 0.067 0.007 0.238 0.493 -0.185 0.853 0.833 0.731 
0.944 -0.451 -0.016 -0.956 -0.912 -0.849 0.923 0.206 -0.874 -0.233 0.727 0.43 -0.539 0.991 0.548 -0.457 -0.828 -0.577 0.636 -0.387 
-0.964 0.354 -0.565 0.455 -0.639 -0.975 0.3 0.176 0.879 0.133 -0.093 -0.825 -0.965 -0.757 -0.781 -0.525 -0.606 -0.506 0.681 -0.128 
0.261 0.76 -0.345 0.722 0.752 -0.797 -0.383 -0.724 -0.022 -0.746 0.241 0.366 0.96 0.676 -0.179 -0.679 -0.946 -0.879 0.85 -0.715 
0.607 -0.243 -0.54 0.642 0.001 0.031 -0.531 0.747 0.525 -0.85 -0.38 0.138 0.911 0.627 0.212 -0.985 0.83 0.83 -0.709 0.16 
-0.564 0.533 -0.473 -0.604 0.561 0.348 -0.283 0.967 0.47 -0.433 -0.396 0.077 0.677 0.064 0.071 0.03 -0.553 0.54 -0.223 0.972 
-0.958 0.749 0.462 0.953 0.376 -0.325 -0.68 0.558 -0.495 -0.036 -0.281 -0.059 -0.151 0.246 0.689 -0.238 -0.406 -0.594 0.082 -0.584 
0.326 0.686 0.493 0.003 -0.249 -0.084 -0.967 0.198 -0.544 0.162 0.523 -0.501 -0.088 0.337 -0.196 -0.36 -0.988 0.477 -0.801 -0.131 
-0.207 -0.082 -0.838 0.642 -0.836 0.851 -0.244 0.11 -0.39 0.838 0.527 0.936 0.525 0.372 -0.061 -0.372 -0.711 0.324 0.826 0.097 
-0.514 0.701 0.948 0.75 0.391 0.105 -0.609 0.403 -0.418 -0.41 -0.375 0.375 0.86 -0.213 0.369 -0.976 -0.361 -0.875 0.486 0.249 
-0.684 0.013 0.537 0.841 -0.262 -0.172 -0.531 0.027 -0.848 -0.353 -0.524 -0.01 -0.299 -0.575 -0.259 -0.908 0.53 0.484 0.495 -0.536 
-0.574 -0.88 -0.809 -0.714 0.26 0.56 -0.338 -0.749 -0.963 -0.852 0.852 -0.647 0.514 0.389 -0.806 -0.748 -0.783 0.015 0.631 -0.279 
0.663 -0.893 -0.937 -0.284 -0.116 -0.196 -0.192 -0.586 -0.36 -0.345 -0.122 0.066 0.128 0.069 0.352 -0.612 -0.019 -0.986 -0.009 0.019 
-0.485 -0.157 0.724 -0.971 -0.768 -0.729 -0.367 -0.199 0.286 -0.736 0.874 0.301 -0.277 0.937 -0.983 0.608 0.094 0.177 -0.626 0.734 
0.833 0.253 0.153 -0.039 -0.326 -0.495 0.701 -0.992 -0.128 -0.308 0.379 0.387 0.535 0.103 0.416 -0.881 0.374 -0.599 0.272 0.013 
0.017 0.146 -0.334 0.74 0.435 0.036 0.7 -0.471 -0.787 -0.925 -0.384 -0.954 0.68 0.769 0.359 -0.294 -0.726 0.06 -0.286 0.498 
0.752 -0.907 -0.115 0.639 0.549 -0.347 0.758 0.275 0.054 0.382 -0.36 -0.929 -0.472 0.307 -0.836 0.964 -0.657 0.864 -0.155 -0.092 
-0.709 0.461 0.307 -0.677 0.582 -0.334 0.03 -0.791 -0.921 -0.904 0.707 -0.817 -0.458 -0.407 0.823 -0.909 0.598 0.933 0.366 -0.347 
0.668 -0.993 -0.276 -0.804 0.666 0.24 -0.488 -0.639 0.105 0.71 0.269 0.748 0.523 -0.072 -0.928 0.106 0.595 0.454 0.667 -0.974 
0.902 0.374 -0.791 -0.556 -0.681 -0.616 -0.465 0.918 -0.33 -0.746 -0.077 -0.662 -0.387 0.647 -0.114 -0.721 0.24 0.751 -0.008 -0.303 
0.461 -0.739 -0.555 0.336 0.19 -0.131 -0.558 0.137 -0.677 -0.539 0.515 -0.774 0.836 0.724 0.022 -0.493 -0.539 0.91 -0.575 0.483 
-0.836 0.348 0.821 0.129 0.348 0.059 0.408 -0.412 -0.19 -0.6 0.285 -0.377 0.013 -0.918 0.96 -0.445 -0.048 -0.246 -0.956 0.627 
0.216 0.559 -0.795 0.404 0.636 0.228 0.911 -0.551 0.138 -0.311 0.932 0.654 -0.611 0.753 -0.217 0.737 -0.188 -0.457 -0.323 0.975 
0.295 -0.686 -0.402 -0.692 -0.251 -0.09 0.216 0.701 0.665 0.612 0.328 0.233 0.172 0.534 -0.363 0.16 0.114 -0.1 0.609 -0.748 
0.589 0.541 0.906 0.979 0.646 -0.311 -0.932 -0.19 0.232 0.098 -0.215 -0.473 0.412 0.736 0.187 -0.839 -0.354 -0.245 -0.786 -0.337 
-0.632 0.895 -0.752 0.892 0.781 -0.115 0.052 -0.105 -0.862 0.013 0.147 0.727 -0.446 0.405 0.706 -0.8 -0.906 -0.873 0.362 0.678 
0.225 -0.852 -0.443 -0.011 0.884 -0.904 0.503 -0.118 -0.148 0.717 0.898 0.572 0.612 -0.854 0.464 0.745 0.384 -0.132 -0.36 0.522 
0.881 0.787 0.601 -0.213 0.544 0.66 0.339 0.638 0.787 -0.299 0.668 0.012 0.201 -0.423 -0.647 0.085 -0.326 0.856 -0.68 0.878 
0.926 -0.43 0.45 0.89 -0.284 0.266 0.636 -0.548 -0.514 -0.724 0.974 -0.633 -0.584 0.576 0.506 0.96 0.236 -0.155 0.951 0.375 
0.898 0.619 -0.261 0.1 -0.803 0.092 -0.463 0.223 0.301 -0.143 0.101 0.227 0.427 -0.097 0.117 -0.504 -0.831 -0.247 -0.052 -0.345 
0.382 0.275 0.374 0.798 -0.149 -0.12 -0.89 -0.561 -0.923 -0.939 0.814 0.975 -0.967 -0.447 0.075 -0.418 0.997 0.613 -0.843 0.298 
-0.178 0.258 -0.475 -0.398 -0.487 0.995 0.098 0.034 0.1 -0.602 -0.959 -0.518 0.673 0.767 -0.368 -0.476 -0.353 -0.257 0.315 0.076 
0.156 0.129 0.403 0.541 -0.966 -0.169 -0.877 -0.968 -0.556 -0.72 0.33 0.618 0.89 -0.792 -0.78 -0.597 -0.797 0.67 0.789 0.303 
-0.931 0.83 -0.862 0.742 0.597 -0.23 -0.381 -0.404 0.865 0.934 -0.976 0.022 0.416 0.428 -0.437 0.45 -0.741 0.039 0.834 0.055 
0.671 0.517 0.025 0.562 0.725 0.246 -0.683 -0.72 0.268 -0.541 0.583 0.689 -0.711 -0.927 0.432 -0.761 -0.156 -0.597 -0.165 -0.291 
-0.663 -0.14 -0.917 -0.895 -0.36 -0.001 0.556 -0.101 -0.61 0.742 -0.694 -0.939 0.259 0.331 0.975 0.336 -0.071 -0.355 0.968 -0.802 
0.104 0.552 0.887 0.393 0.977 0.671 0.632 -0.179 -0.926 -0.18 0.883 -0.236 -0.968 -0.682 -0.131 -0.328 0.317 -0.223 0.923 0.707 
-0.48 -0.771 -0.879 -0.869 0.56 -0.904 0.82 -0.51 -0.259 0.788 0.04 0.845 0.692 0.279 0.591 0.67 0.303 0.575 -0.157 0.729 
-0.605 -0.274 -0.507 -0.221 0.045 0.363 0.451 -0.286 -0.508 0.374 -0.226 0.364 0.603 -0.105 0.496 0.516 -0.009 0.668 -0.642 -0.915 
0.456 0.75 -0.718 0.501 0.381 0.873 0.171 -0.316 0.801 -0.986 -0.586 -0.452 0.093 0.259 0.328 -0.862 -0.026 -0.221 0.204 0.467 
-0.494 0.978 -0.169 -0.539 -0.127 -0.321 0.977 -0.783 -0.653 -0.313 -0.698 -0.844 -0.563 -0.416 0.657 -0.829 -0.19 0.18 -0.145 -0.389 
0.194 0.621 0.159 -0.361 -0.119 -0.513 0.129 -0.793 0.619 -0.666 0.674 -0.523 -0.688 -0.142 -0.062 0.538 0.537 0.268 0.755 -0.763 
0.955 -0.591 -0.255 -0.255 -0.007 -0.598 0.268 -0.845 0.582 -0.877 -0.234 0.128 -0.903 -0.722 0.768 0.33 0.117 -0.103 0.537 -0.264 
0.583 0.564 0.213 0.896 -0.578 -0.496 0.786 -0.689 0.772 0.541 -0.1 -0.921 0.95 0.645 0.176 0.295 -0.601 -0.556 0.803 0.981 
-0.08 -0.079 0.462 0.017 0.199 0.582 -0.301 -0.683 -0.169 -0.764 0.405 -0.585 -0.848 -0.381 -0.337 -0.074 0.475 -0.551 0.238 0.247 
-0.658 -0.51 0.326 -0.356 -0.864 -0.145 -0.709 -0.465 0.299 -0.906 -0.131 -0.429 0.016 -0.317 0.94 -0.785 -0.735 -0.361 -0.116 0.096 
0.228 -0.71 0.863 0.38 0.261 -0.474 -0.693 -0.264 0.327 0.897 -0.665 0.669 -0.261 -0.987 -0.687 -0.125 -0.132 -0.395 0.763 -0.48 
0.051 -0.016 0.091 -0.933 0.667 0.032 -0.365 -0.716 0.671 0.519 0.732 -0.101 -0.839 0.596 -0.368 0.422 -0.526 -0.061 -0.49 0.802 
0.188 -0.155 0.823 0.927 -0.141 -0.511 0.155 0.727 0.094 0.27 -0.753 -0.855 -0.746 0.691 -0.435 -0.727 -0.277 0.2 -0.091 -0.254 
0.071 -0.359 0.646 0.233 -0.411 -0.37 -0.345 0.064 0.569 0.518 0.218 0.109 -0.637 0.041 0.036 0.222 0.882 -0.457 0.302 -0.024 
0.813 0.901 0.474 -0.581 0.592 -0.609 -0.308 -0.333 0.591 0.601 0.414 -0.338 -0.405 0.412 -0.753 0.184 -0.958 0.255 -0.4 0.963 
-0.227 0.818 0.072 0.136 0.212 -0.54 -0.289 0.094 0.004 -0.635 -0.577 -0.183 -0.382 -0.751 0.237 -0.789 -0.36 -0.719 0.23 -0.417 
0.883 -0.356 0.597 -0.522 -0.944 0.845 -0.986 -0.902 0.1 -0.385 -0.939 -0.775 -0.215 0.485 0.713 -0.651 0.946 -0.576 0.796 -0.05 
0.141 -0.781 0.767 0.76 -0.18 0.356 -0.677 0.46 0.638 0.553 -0.957 0.873 -0.802 0.64 -0.297 -0.394 0.837 -0.283 0.057 -0.063 
0.684 0.47 0.162 -0.53 -0.044 -0.124 0.171 -0.098 0.652 -0.033 -0.796 -0.206 0.538 0.971 -0.094 -0.642 0.68 0.229 -0.83 0.318 
0.134 -0.435 0.543 0.332 -0.794 -0.754 -0.709 -0.605 0.315 0.348 0.333 0 -0.182 -0.153 0.822 0.774 -0.925 -0.007 0.028 0.728 
0.961 0.232 -0.126 0.499 0.556 -0.868 -0.79 0.236 0.361 -0.62 -0.094 -0.505 0.298 -0.551 -0.82 0.856 0.047 -0.177 -0.749 -0.638 
-0.829 0.584 0.362 0.341 -0.216 0.184 0.468 -0.141 -0.822 -0.504 -0.061 -0.509 0.729 -0.835 -0.658 0.637 -0.703 -0.096 -0.127 -0.99 
0.637 -0.869 -0.142 -0.065 -0.068 0.39 -0.209 0.979 -0.787 0.042 -0.659 -0.616 -0.021 0.704 -0.923 0.763 0.24 0.545 -0.026 0.77 
-0.958 -0.734 -0.739 -0.877 -0.569 -0.044 0.76 -0.271 0.86 -0.015 0.091 0.497 0.116 0.949 -0.568 -0.952 0.339 0.223 -0.973 0.552 
-0.382 -0.28 -0.712 0.597 -0.576 -0.634 0.712 -0.983 0.911 -0.314 0.787 -0.695 -0.048 -0.599 -0.572 0.736 0.357 -0.46 -0.535 0.217 
0.525 0.556 0.067 -0.007 0.858 0.499 0.393 0.197 0.075 0.42 0.102 0.693 -0.507 0.39 0.29 0.269 -0.892 0.002 0.286 -0.98 
-0.96 0.074 -0.675 0.345 0.827 0.106 0.081 0.184 0.646 0.898 -0.247 0.172 0.806 0.82 -0.483 0.664 0.32 0.911 0.214 -0.605 
0.683 -0.684 -0.912 -0.824 -0.942 0.73 0.446 -0.833 0.084 -0.268 -0.461 0.124 -0.842 0.216 -0.179 0.985 -0.678 -0.746 0.521 -0.679 
-0.496 -0.725 0.493 -0.689 -0.905 -0.99 -0.673 0.767 -0.727 0.541 -0.486 0.957 -0.791 -0.046 -0.867 -0.732 0.036 0.579 -0.213 -0.88 
-0.336 0.326 0.597 -0.178 -0.106 -0.23 -0.192 0.569 0.025 -0.319 0.89 0.529 -0.044 0.383 -0.808 0.404 0.745 -0.48 0.523 -0.981 
-0.939 -0.61 -0.672 -0.377 0.696 -0.539 -0.109 -0.267 -0.607 -0.97 -0.147 0.057 0.356 -0.198 0.879 -0.398 0.573 0.039 -0.829 -0.05 
0.721 -0.939 -0.521 0.029 0.796 -0.328 -0.567 0.542 0.544 -0.691 0.913 0.605 -0.301 -0.759 -0.42 -0.605 0.054 0.471 0.48 0.447 
0.501 -0.666 -0.496 0.209 0.488 -0.264 0.812 0.061 0.775 0.983 -0.989 0.848 -0.603 -0.157 -0.122 -0.807 0.867 0.663 -0.913 0.411 
0.972 -0.648 0.368 0.023 -0.055 0.949 0.771 -1 0.772 0.251 0.447 0.274 0.937 0.952 -0.165 0.778 -0.312 -0.001 -0.161 -0.185 
0.335 0.203 -0.336 0.732 -0.602 0.894 0.925 -0.735 0.909 -0.635 0.676 -0.766 -0.283 0.396 0.257 0.663 0.345 0.38 0.663 0.118 
-0.016 0.462 -0.256 -0.079 0.766 0.931 -0.301 -0.194 -0.069 0.891 0.622 -0.734 0.446 -0.362 -0.65 0.844 -0.116 -0.373 -0.539 -0.207 
-0.008 -0.511 0.027 -0.938 0.885 -0.363 0.725 0.231 -0.983 0.74 -0.299 0.001 0.202 0.445 -0.725 -0.031 0.376 0.326 0.775 -0.341 
0.569 0.749 0.277 0.015 -0.261 0.627 0.211 0.623 -0.393 0.672 -0.583 0.951 -0.839 0.796 -0.987 -0.953 -0.567 -0.91 0.63 -0.197 
0.83 -0.669 0.804 0.385 0.776 -0.569 -0.294 0.504 0.758 -0.167 -0.836 0.327 -0.417 0.793 -0.305 0.674 0.421 0.906 0.298 -0.62 
0.931 -0.933 -0.669 -0.908 0.863 -0.303 -0.509 -0.703 -0.213 -0.879 0.1 -0.03 -0.548 0.256 -0.293 -0.42 -0.96 0.413 -0.563 -0.85 
-0.754 -0.399 0.829 0.181 -0.606 -0.476 -0.144 -0.833 -0.217 -0.494 -0.101 -0.286 -0.427 0.231 -0.194 -0.564 0.928 0.298 0.085 0.067 
0.771 -0.463 -0.611 -0.776 0.794 0.096 0.156 0.834 -0.491 0.593 -0.664 0.108 -0.454 -0.835 -0.359 0.293 -0.31 0.849 0.812 0.473 
-0.645 -0.288 -0.813 0.28 0.943 0.345 -0.931 -0.777 -0.005 0.154 0.642 -0.233 0.692 -0.968 0.343 0.838 0.128 -0.501 -0.976 0.99 
-0.555 -0.64 0.45 -0.009 -0.475 -0.909 -0.364 0.567 -0.707 -0.551 0.04 0 0.161 0.579 -0.719 0.456 0.277 -0.65 -0.969 -0.728 
0.856 0.673 0.039 0.548 -0.943 -0.618 0.386 0.186 0.234 0.41 0.528 0.679 -0.878 -0.022 0.022 -0.352 0.069 0.659 -0.785 0.714 
-0.54 0.608 -0.285 0.621 0.187 -0.004 0.077 -0.184 0.698 0.46 0.089 0.554 0.133 -0.52 0.455 0.543 0.215 -0.159 -0.271 -0.551 
-0.396 -0.743 -0.52 -0.274 0.587 0.854 0.726 -0.344 0.865 0.942 -0.629 -0.675 0.55 0.438 0.946 0.089 -0.566 0.375 0.906 -0.516 
0.187 0.347 -0.962 -0.327 0.827 0.845 -0.784 0.042 0.039 0.297 0.843 0.995 0.554 -0.325 -0.279 0.493 -0.47 -0.2 -0.499 -0.605 
-0.258 -0.128 0.073 -0.356 -0.338 0.371 -0.915 0.096 0.099 -0.657 0.932 -0.714 0.69 -0.677 -0.041 0.87 -0.832 0.175 -0.088 0.207 
-0.528 0.108 0.202 -0.622 0.783 -0.724 0.871 -0.687 0.076 -0.627 0.061 -0.83 0.597 -0.866 0.166 -0.74 0.857 0.603 0.708 -0.044 
-0.701 0.993 0.243 -0.659 -0.684 -0.446 -0.789 -0.164 0.73 0.476 -0.956 -0.446 -0.416 0.598 0.285 -0.633 -0.774 0.156 0.033 0.654 
0.881 -0.554 -0.824 0.831 -0.068 0.694 -0.557 -0.211 0.298 -0.849 0.746 0.597 -0.504 0.341 0.938 -0.188 0.895 -0.498 0.649 0.977 
0.978 -0.955 -0.468 -0.086 0.995 0.817 0.281 -0.426 0.325 -0.334 -0.772 0.207 0.112 -0.243 0.39 -0.956 -0.549 0.833 -0.166 0.749 
-0.664 -0.068 0.698 -0.167 -0.727 0.637 0.997 -0.832 -0.509 0.646 -0.854 -0.531 -0.957 0.03 0.383 -0.609 -0.153 0.016 -0.035 -0.828 
-0.965 0.193 0.731 0.147 0.95 0.121 0.192 -0.246 0.306 -0.622 -0.497 0.643 0.31 -0.798 -0.524 0.583 -0.809 -0.527 0.751 0.034 
-0.528 -0.751 0.503 -0.133 0.279 0.238 0.258 -0.522 -0.394 -0.777 0.003 -0.359 0.769 -0.266 -0.859 -0.929 -0.792 0.333 -0.175 0.514 
0.711 0.329 0.509 0.021 0.883 0.985 -0.044 -0.574 -0.189 0.059 0.46 0.283 0.309 0.315 -0.85 -0.06 -0.095 0.761 0.419 0.511 
0.984 -0.578 -0.495 0.753 0.508 -0.354 0.825 0.716 -0.669 -0.35 0.583 -0.606 -0.669 0.092 0.415 -0.434 0.43 -0.277 -0.008 -0.759 
0.782 -0.548 0.876 0.091 -0.881 -0.622 -0.968 0.024 -0.861 0.451 -0.112 -0.524 -0.775 0.393 -0.771 0.733 -0.609 -0.594 0.45 -0.278 
0.409 0.385 0.116 0.74 -0.171 -0.117 -0.341 -0.741 0.606 0.651 -0.148 0.74 -0.544 0.08 -0.168 -0.425 0.811 0.216 0.952 0.95 
0.019 -0.16 -0.574 0.244 -0.415 0.008 -0.023 -0.024 0.766 -0.221 -0.95 0.175 -0.484 0.518 0.268 0.346 -0.599 0.927 0.957 -0.641 
0.578 -0.19 -0.901 -0.614 -0.758 0.283 -0.038 -0.947 -0.149 0.266 -0.644 -0.778 -0.894 -0.218 0.466 -0.309 -0.858 -0.204 -0.981 0.909 
0.927 -0.931 0.084 -0.556 0.587 -0.648 -0.858 -0.66 -0.369 -0.901 0.051 -0.79 0.261 0.502 -0.404 0.504 -0.214 0.91 0.557 0.989 
0.176 0.913 -0.788 0.634 0.048 -0.97 -0.323 0.19 0.178 -0.304 0.451 0.458 -0.235 -0.112 0.902 -0.296 0.24 -0.956 0.396 0.872 
-0.505 -0.553 -0.566 0.757 0.95 0.382 0.261 0.088 0.645 0.17 0.429 0.173 0.436 0.641 0.16 -0.516 -0.976 0.837 -0.974 0.554 
-0.466 0.478 0.012 0.651 -0.634 0.266 -0.644 0.958 0.662 -0.896 -0.818 -0.842 -0.448 -0.032 -0.733 -0.146 -0.297 0.528 0.942 -0.652 
0.05 0.371 0.873 -0.514 0.365 0.033 -0.03 0.741 -0.129 0.349 0.295 0.757 -0.173 -0.34 0.408 0.545 0.926 -0.884 0.855 0.589 
-0.779 -0.61 -0.901 0.125 0.358 -0.634 0.979 -0.939 -0.754 0.921 -0.239 0.296 0.644 -0.013 0.783 0.009 -0.98 0.105 0.102 0.243 
-0.546 -0.25 0 0.633 0.41 -0.591 0.178 0.336 -0.475 0.386 0.277 0.098 0.776 0.376 -0.777 0.134 -0.906 -0.798 0.548 -0.66 
-0.525 -0.691 0.637 -0.88 0.296 0.42 0.481 0.669 -0.123 -0.416 -0.088 0.332 0.334 0.913 -0.035 0.096 -0.326 -0.504 -0.568 0.551 
0.882 -0.938 -0.35 0.658 0.79 0.225 0.144 0.885 0.428 -0.308 -0.775 -0.745 0.354 0.862 -0.625 0.002 0.634 -0.791 0.023 -0.488 
0.145 0.936 -0.804 -0.169 -0.799 0.513 0.927 0.227 -0.991 -0.289 -0.222 -0.757 -0.227 0.78 0.901 -0.436 0.006 0.398 -0.551 -0.214 
-0.91 0.026 0.041 0.796 -0.111 0.769 0.151 -0.125 0.978 -0.826 0.739 0.123 -0.538 0.935 0.954 0.015 0.801 -0.767 -0.758 0.81 
-0.056 0.021 -0.946 0.718 -0.199 -0.693 -0.366 0.807 0.705 0.435 -0.055 -0.852 -0.539 0.987 -0.704 0.702 0.756 0.447 -0.422 -0.914 
0.622 -0.331 0.209 -0.564 -0.043 0.515 0.452 -0.242 0.748 0.694 -0.432 0.044 -0.285 -0.026 0.114 0.869 0.282 0.748 -0.972 0.339 
0.183 -0.026 0.487 0.997 0.313 0.784 0.699 0.421 0.583 -0.371 0.507 0.557 0.299 -0.284 0.994 -0.392 -0.417 0.446 0.366 -0.317 
0.492 -0.714 0.727 -0.44 0.261 -0.158 -0.571 -0.105 -0.41 -0.191 -0.766 -0.874 0.783 -0.926 -0.877 0.448 -0.79 -0.826 -0.131 0.793 
