2e-06

2

784 10 
-0.533 -0.5 0.724 0.358 -0.536 -0.855 -0.173 -0.509 0.942 0.436 -0.396 -0.847 -0.618 -0.284 0.895 0.726 0.538 0.912 -0.701 0.894 0.811 -0.667 -0.336 0.711 -0.132 0.644 -0.243 -0.141 0.741 -0.222 0.035 0.842 -0.894 -0.058 -0.352 0.805 -0.271 0.35 0.101 0.548 -0.377 0.954 0.84 0.376 -0.692 -0.561 0.323 0.538 -0.918 -0.459 0.115 0.658 0.93 -0.694 -0.614 -0.255 0.072 0.829 0.573 -0.488 0.29 -0.364 -0.233 0.574 -0.948 0.15 0.724 0.43 -0.809 0.337 -0.713 -0.617 -0.091 0.758 -0.412 -0.054 0.03 0.168 -0.409 0.655 -0.641 -0.463 -0.517 -0.959 -0.65 -0.164 0.02 -0.979 0.199 -0.516 -0.266 0.999 0.938 0.788 -0.533 -0.107 -0.517 -0.579 -0.383 0.514 0.616 0.451 0.249 0.556 -0.697 0.008 -0.391 -0.298 -0.515 -0.657 0.587 0.503 0.2 -0.382 0.796 0.281 -0.202 0.157 0.622 -0.708 -0.821 0.657 -0.809 -0.112 0.511 -0.366 -0.945 -0.354 -0.114 -0.567 -0.858 0.416 0.998 -0.349 0.699 -0.524 -0.611 -0.288 -0.49 -0.131 -0.312 0.789 -0.577 -0.415 -0.715 0.426 0.757 -0.068 -0.846 0.189 0.329 -0.308 -0.445 -0.451 0.512 -0.94 0.753 -0.577 0.996 -0.471 0.437 -0.051 0.195 -0.584 -0.895 -0.718 0.734 0.701 -0.329 -0.737 -0.645 -0.947 -0.192 -0.055 0.756 0.558 0.982 -0.856 -0.778 -0.839 -0.55 -0.534 0.659 -0.561 -0.976 0.51 -0.351 -0.687 -0.978 -0.982 0.905 0.391 0.625 -0.586 0.824 0.874 -0.841 -0.93 -0.703 -0.823 -0.73 -0.332 0.985 -0.52 0.627 -0.901 -0.375 0.924 0.972 -0.819 0.432 0.593 0.031 -0.858 0.286 0.9 -0.64 -0.026 0.17 -0.167 0.76 -0.333 -0.45 0.694 0.624 -0.875 0.694 -0.698 -0.534 -0.407 0.484 -0.536 0.152 -0.913 0.926 -0.243 -0.685 -0.773 -0.242 0.109 0.086 0.487 -0.526 0.627 0.928 -0.48 -0.038 -0.404 0.261 -0.475 -0.74 -0.884 -0.674 -0.229 0.547 0.52 -0.076 0.763 -0.149 0.829 0.713 0.578 0.007 0.2 -0.561 -0.24 -0.676 0.108 -0.113 -0.15 -0.572 0.384 -0.46 -0.296 -0.644 0.35 -0.515 0.216 0.357 0.357 0.271 0.361 0.022 -0.888 -0.304 -0.959 -0.871 -0.435 -0.068 0.855 -0.038 0.734 -0.028 -0.631 -0.037 -0.517 0.635 -0.152 -0.062 -0.858 -0.489 -0.825 0.825 0.87 0.934 0.783 0.398 -0.299 -0.266 -0.466 0.993 0.705 -0.452 -0.7 -0.359 -0.145 0.462 -0.123 -0.322 -0.557 -0.327 0.313 -0.928 -0.39 -0.068 -0.305 0.831 -0.512 0.09 -0.411 0.145 0.314 -0.26 0.258 -0.241 0.605 -0.819 0.829 -0.392 0.997 0.556 0.627 0.541 0.24 0.174 -0.923 -0.317 0.992 0.601 0.759 -0.572 -0.916 -0.214 -0.03 0.847 -0.497 -0.337 -0.637 -0.829 -0.76 0.542 -0.087 -0.296 0.232 0.205 0.539 0.422 0.247 0.648 0.864 0.075 -0.288 -0.322 0.262 0.985 0.944 -0.46 0.508 0.87 -0.677 -0.528 0.087 0.763 0.103 0.527 -0.031 0.565 0.543 -0.912 -0.363 -0.537 -0.319 0.342 -0.94 0.758 -0.112 -0.31 -0.157 0.62 0.067 -0.217 -0.774 0.038 0.629 0.748 0.359 -0.234 -0.045 -0.274 0.025 0.001 0.496 0.515 0.342 0.913 0.196 0.072 -0.394 -0.571 -0.295 0.812 -0.907 -0.964 0.141 0.994 -0.348 -0.162 0.355 0.131 0.841 -0.989 -0.814 0.65 0.634 -0.647 0.452 0.262 0.454 -0.366 -0.744 0.124 -0.787 -0.972 0.08 -0.142 -0.845 0.264 0.676 -0.091 0.561 -0.052 0.653 -0.78 -0.077 0.369 -0.741 -0.381 -0.997 0.781 -0.608 0.313 0.589 0.938 -0.59 -0.766 0.961 -0.507 0.269 -0.131 -0.3 -0.736 -0.785 0.815 0.039 0.288 0.954 -0.29 -0.226 0.815 -0.459 0.679 0.898 -0.212 -0.868 -0.311 -0.992 0.79 0.363 0.184 0.2 0.885 0.071 -0.133 -0.705 -0.175 0.629 -0.402 -0.307 -0.92 -0.751 0.528 0.864 -0.595 -0.184 0.726 0.087 0.964 0.686 0.662 -0.936 -0.585 0.873 0.941 0.762 0.531 -0.732 0.602 -0.693 0.012 -0.37 -0.191 0.556 0.293 0.152 0.345 -0.752 0.712 -0.886 0.958 0.704 0.052 0.479 -0.577 -0.134 -0.502 0.196 -0.367 -0.978 -0.608 0.925 0.458 -0.193 0.83 -0.4 -0.201 -0.552 -0.46 -0.425 0.567 -0.603 0.897 0.851 -0.77 -0.075 -0.771 -0.06 0.147 0.655 -0.208 0.754 0.146 -0.054 0.569 0.663 -0.485 -0.525 -0.472 -0.43 0.464 -0.038 -0.476 0.469 0.923 -0.667 -0.09 -0.664 0.278 0.636 -0.836 0.949 -0.495 -0.996 -0.377 0.97 -0.432 0.085 -0.627 -0.806 0.826 0.572 -0.36 -0.181 -0.389 -0.711 0.565 0.585 0.45 -0.391 0.166 -0.926 -0.7 0.573 0.161 0.968 -0.969 0.426 -0.578 -0.221 0.552 0.391 0.764 0.364 -0.745 -0.526 -0.179 0.547 0.789 -0.805 0.95 -0.246 0.012 0.439 0.912 0.967 -0.585 0.223 -0.566 0.486 -0.042 -0.194 -0.3 0.692 -0.468 -0.026 0.021 -0.778 -0.624 -0.052 0.982 -0.224 0.111 0.856 -0.075 -0.514 0.969 0.534 -0.332 0.991 0.783 0.727 0.871 0.612 0.027 0.545 0.185 -0.763 0.313 -0.15 -0.889 -0.851 0.454 -0.319 -0.733 0.793 0.472 -0.17 -0.558 0.877 -0.298 0.381 -0.177 -0.977 -0.405 -0.673 0.31 0.058 0.487 -0.472 -0.742 0.86 0.286 -0.39 0.128 0.841 0.503 -0.135 0.881 -0.25 -0.402 -0.339 -0.244 -0.722 0.435 -0.925 0.386 -0.64 -0.952 0.492 0.84 0.735 0.599 0.892 0.328 0.369 0.794 0.252 0.432 0.208 0.497 0.649 -0.159 -0.9 -0.352 0.851 -0.367 0.2 0.99 -0.081 -0.422 -0.456 0.487 -0.475 0.538 -0.807 0.011 0.834 0.497 -0.471 -0.195 0.392 0.549 -0.021 0.277 -0.807 0.497 0.276 -0.418 0.159 -0.511 0.449 0.072 0.008 -0.792 -0.497 -0.393 -0.926 -0.389 -0.239 -0.11 -0.317 0.932 -0.259 -0.187 -0.604 -0.385 -0.401 -0.32 0.032 -0.416 0.517 -0.33 -0.118 0.523 -0.895 0.095 0.916 -0.822 0.058 -0.25 0.729 -0.005 -0.324 -0.101 0.565 0.608 0.243 0.514 0.055 0.973 -0.252 -0.014 -0.554 -0.483 0.916 
0.621917 -0.267923 -0.466625 0.693602 -0.183013 -1.0721 -0.561089 0.184133 -0.122244 -0.686192 


-0.82 -0.903 0.065 0.065 -0.487 0.261 -0.422 0.078 -0.122 -0.86 
-0.389 0.947 -0.555 -0.83 0.975 0.489 -0.25 -0.851 0.333 0.865 
-0.786 0.282 0.007 0.432 -0.104 -0.633 -0.478 -0.118 0.81 0.641 
0.231 -0.813 -0.295 -0.521 -0.679 -0.462 0.351 0.447 -0.792 0.646 
-0.724 0.759 -0.811 -0.578 0.666 -0.514 0.455 -0.972 0.614 -0.14 
0.253 0.777 0.348 -0.497 -0.139 -0.569 0.082 -0.545 -0.803 -0.894 
-0.248 0.821 0.296 -0.719 -0.979 -0.545 0.947 0.124 -0.682 0.135 
0.376 0.774 0.859 -0.002 -0.926 0.253 -0.078 -0.365 0.643 -0.112 
-0.847 0.232 -0.253 -0.32 0.926 0.678 -0.55 -0.199 -0.039 -0.801 
-0.145 -0.637 0.716 -0.427 0.561 0.245 -0.527 -0.726 0.55 -0.647 
0.181 -0.713 -0.301 -0.89 -0.357 0.465 0.172 -0.471 0.981 -0.888 
0.476 -0.619 -0.753 -0.11 -0.329 -0.195 -0.628 -0.968 0.989 0.32 
0.165 0.431 0.658 0.293 0.206 -0.422 -0.052 -0.794 0.171 -0.834 
0.396 -0.303 0.02 0.694 0.529 -0.212 -0.891 0.984 0.969 -0.022 
0.617 -0.985 -0.374 0.684 0.168 0.906 0.928 -0.903 -0.882 -0.61 
0.199 0.785 -0.514 0.199 -0.58 -0.29 -0.729 0.813 0.415 -0.915 
-0.682 0.58 0.331 0.267 -0.613 0.444 0.186 -0.493 -0.64 0.827 
-0.926 -0.569 0.152 -0.729 -0.732 -0.307 0.885 -0.663 0.311 0.604 
-0.323 -0.594 0.768 0.022 0.413 0 -0.458 0.537 -0.962 0.388 
0.355 0.289 0.647 0.181 0.093 -0.416 -0.013 -0.239 -0.507 -0.783 
0.501 0.482 0.447 0.665 -0.247 -0.896 0.084 0.095 0.525 -0.779 
0.964 0.781 -0.128 -0.894 0.656 0.343 -0.407 0.08 -0.92 -0.132 
0.411 0.713 -0.032 0.251 0.216 -0.921 -0.232 0.04 0.531 -0.067 
0.779 -0.337 -0.741 -0.347 0.936 -0.905 -0.635 0.874 0.72 -0.165 
0.68 -0.024 -0.545 0.725 -0.929 -0.192 0.559 0.156 0.602 0.832 
0.905 -0.56 0.375 0.562 -0.115 0.962 0.08 0.836 -0.203 0.202 
-0.492 -0.92 0.34 -0.924 0.058 0.493 0.74 -0.454 -0.526 -0.227 
0.097 -0.12 0.335 0.072 0.4 -0.293 -0.045 -0.334 -0.859 0.588 
-0.519 0.168 -0.685 0.396 -0.775 0.009 -0.988 -0.864 0.455 -0.238 
0.043 -0.258 -0.979 0.922 -0.488 0.248 -0.982 0.368 0.717 0.714 
0.65 0.29 0.335 -0.241 0.169 0.895 0.303 -0.36 0.979 -0.801 
0.105 -0.209 -0.339 -0.319 0.652 -0.247 -0.967 -0.971 0.987 0.042 
-0.747 -0.917 0.42 0.814 -0.282 -0.756 0.063 0.229 -0.348 -0.136 
-0.231 -0.53001 0.00501145 0.047 0.593992 0.487 -0.674011 0.276 0.322998 -0.46 
0.678999 0.98994 -0.411929 -0.29 0.270953 0.944999 0.220932 -0.53 -0.817014 0.589 
0.954999 -0.0220403 -0.220952 0.006 0.261968 -0.865001 0.486955 0.196 0.0329908 -0.912 
-0.0650163 0.778927 0.99307 -0.210001 -0.0380468 -0.0350374 0.000968401 0.105 0.806986 -0.433005 
-0.33104 0.133945 -0.328957 0.456999 -0.00202939 0.54495 0.597006 -0.782 -0.162009 -0.156006 
0.371828 -0.437029 0.028 0.264 -0.19901 -0.277081 0.490076 0.603999 0.600995 -0.773005 
0.196641 0.691848 0.770993 -0.637 0.300931 -0.637318 0.721201 0.564994 0.420936 0.444892 
-0.390426 -0.505257 -0.259088 0.0219998 0.81189 0.150686 0.0152321 -0.945004 0.392936 -0.262042 
0.278583 0.881689 0.607903 -0.346 0.821847 -0.293176 -0.754711 0.338 -0.856035 -0.710003 
0.338584 0.153671 -0.396039 -0.377 -0.775154 -0.922123 0.724385 0.980998 -0.670109 0.732999 
-0.777265 -0.406232 0.130034 -0.154001 -0.0131055 0.444928 -0.19476 -0.384004 0.749917 -0.511001 
0.337908 0.962918 -0.865001 -0.303003 -0.791053 0.629952 0.224089 0.907994 -0.263004 -0.526 
0.919868 0.371887 -0.707037 0.854996 -0.266106 0.560899 0.0561485 0.605991 -0.816 0.0749997 
-0.618122 -0.881088 -0.259009 -0.568004 -0.316141 -0.221105 -0.720872 -0.717009 -0.333 -0.164 
-0.875024 -0.882048 -0.263 -0.972 -0.881089 -0.423017 -0.262923 -0.909 -0.444 -0.205 
-0.940011 0.900987 -0.207 0.432 -0.864012 -0.420007 -0.124962 0.907 0.184 -0.926 
-0.281 -0.21 -0.524 -0.959 0.351 -0.671 -0.71 -0.026 0.072 0.591 
-0.811 0.787 0.49 0.239 -0.107 0.053 0.063 -0.319 0.903 0.005 
-0.824 -0.521 0.695 -0.861 -0.532 0.998 0.083 0.639 0.515 0.621 
0.993 0.826 0.722 0.838 -0.172 -0.419 -0.601 -0.022 0.891 0.023 
-0.057 -0.166 -0.757 0.349 -0.298 -0.293 -0.498 0.141 -0.313 -0.654 
0.891 -0.363 -0.587 0.4 -0.184 0.69 0.162 -0.065 0.126 0.41 
0.877 0.382 -0.74 0.189 -0.295 0.874 -0.337 -0.278 -0.805 -0.434 
-0.64 -0.962 -0.412 0.811 -0.755 0.467 -0.575 -0.133 0.189 -0.458 
0.063 0.547 -0.498 0.617 0.099 0.023 0.226 0.203 -0.952 0.051 
0.57 -0.364 0.458 0.967 -0.544 0.405 0.531 0.962 -0.181 0.975 
-0.444 0.531 0.495 -0.956 -0.409 -0.197 0.388 -0.085 0.45 -0.681 
-0.728 0.791 0.383 -0.867 0.775 -0.358 0.569 -0.7 0.954 -0.922 
0.584973 -0.743079 0.33302 -0.107 -0.51001 -0.897013 -0.249995 0.232936 -0.278003 -0.729028 
0.610908 -0.0101676 -0.661914 0.640957 0.257962 0.0469487 -0.647987 0.657853 -0.521019 0.30191 
-0.317195 -0.0102118 -0.997943 0.567896 -0.578016 -0.105109 -0.864968 -0.992147 -0.639066 -0.258056 
-0.806366 0.698697 0.188031 -0.822204 -0.958005 0.356614 0.941164 0.846872 0.468735 -0.655118 
-0.62078 0.912519 -0.0359503 0.709743 -0.939003 0.384243 -0.926819 0.503832 0.461512 -0.297412 
-0.89968 0.0681138 0.154101 0.528744 0.551966 -0.927288 0.149443 0.729782 -0.7565 -0.156779 
0.0458923 -0.883418 -0.934804 -0.637364 0.551797 -0.229289 -0.528894 0.730752 -0.253777 0.509511 
0.864964 -0.603858 -0.501881 0.102549 0.351679 0.676123 -0.945192 0.042758 -0.479056 0.0864898 
0.558349 0.8317 0.849956 0.0214859 0.239551 0.908309 0.49443 0.650788 -0.421017 0.475715 
0.610807 0.873236 0.17805 0.219354 -0.385968 -0.654116 -0.199107 -0.821134 0.633918 -0.143781 
-0.122107 0.659159 -0.0980405 -0.738544 0.4185 0.767547 0.0252154 0.272964 0.840013 -0.314324 
-0.116564 0.91421 0.716816 0.891406 0.696394 0.263778 0.752354 -0.935019 -0.61171 -0.0681294 
0.615441 -0.921141 -0.997238 0.129633 0.0266018 -0.371931 -0.407952 0.151989 -0.370461 0.171961 
0.861367 -0.594646 -0.705276 0.427791 0.679461 -0.512207 -0.387305 -0.823003 0.0706367 0.23597 
-0.542721 -0.35838 -0.16025 0.632927 0.0357979 0.89127 -0.367771 -0.726 -0.0072712 -0.218032 
-0.798011 0.45999 -0.710149 0.661949 -0.693795 -0.00412658 0.152555 -0.577 -0.110203 -0.283011 
-0.360477 -0.297459 0.565954 -0.11703 0.660667 -0.341507 -0.754179 -0.614 -0.349095 -0.235003 
0.60074 -0.160203 0.208986 0.496979 0.282867 0.249757 -0.941588 -0.579 -0.825005 -0.419001 
-0.213095 0.270933 -0.713 0.998991 -0.496044 -0.021083 -0.861871 -0.3 -0.470001 -0.539001 
-0.882 -0.795 0.54 -0.172 -0.541 0.622 -0.601998 0.76 0.098 -0.065 
-0.519 -0.386 0.567 -0.507 -0.404 0.161 0.746 -0.462 0.67 -0.462 
0.476 0.555 -0.083 -0.629 -0.24 0.752 0.758 0.433 -0.745 0.065 
-0.274 -0.599 0.034 -0.241 -0.607 -0.452 0.273 -0.208 -0.807 -0.067 
-0.863 0.103 0.69 -0.789 0.694 -0.332 -0.373 0.498 -0.011 0.248 
0.879 0.647 0.149 -0.069 -0.331 -0.125 0.598 0.449 0.436 -0.401 
-0.877 0.443 0.731 -0.846 -0.139 -0.566 0.385 0.967 -0.184 0.393 
-0.296 0.866 -0.047 -0.692 -0.777 -0.316 -0.208 -0.333 -0.952 -0.531 
0.929969 -0.189006 0.813994 -0.91 0.427 0.743024 0.604014 -0.401 -0.526003 0.194978 
-0.494076 0.157934 0.588991 0.857994 0.808999 0.888998 0.44701 -0.960092 0.817994 0.363928 
0.974753 -0.974344 0.0890106 -0.497104 -0.934001 -0.588081 -0.160077 -0.430316 -0.324115 0.394807 
-0.359603 0.985317 0.651055 0.108725 -0.81301 -0.917423 0.0848402 0.38945 0.249688 -0.314452 
-0.246516 0.379724 -0.871874 0.501497 -0.723072 -0.139251 -0.576227 0.564042 0.871131 -0.169129 
-0.118156 -0.574291 -0.353577 -0.11164 -0.522166 -0.11942 -0.0754219 0.2637 0.25848 0.0427702 
-0.227696 0.817184 0.855778 -0.481165 -0.0733359 -0.231337 0.133474 0.249336 -0.32732 0.332415 
-0.674606 -0.00453485 -0.261647 0.308165 0.973366 0.583501 -0.643968 0.0691041 -0.923245 -0.0698309 
-0.866615 0.274826 0.826865 -0.284489 0.571985 -0.295899 0.0378604 -0.00418282 0.900407 0.156713 
0.703223 -0.316068 0.541516 -0.956183 -0.0559273 0.094756 -0.767801 -0.887388 -0.166446 0.85285 
-0.185271 -0.363642 0.396726 0.195243 0.641453 -0.736361 -0.323234 0.859997 -0.933481 0.768785 
-0.53417 0.228479 -0.101096 0.538097 0.602856 0.193109 0.280169 -0.876392 -0.8714 0.397931 
0.0655847 -0.627053 -0.830245 -0.267018 0.472387 0.927785 0.142506 -0.279661 0.42095 -0.338854 
0.666885 0.567316 -0.275733 0.978546 0.694519 0.950932 -0.133038 -0.998398 -0.556202 0.0935666 
-0.323971 -0.990331 0.13683 0.505317 0.987333 0.276403 -0.0507533 -0.741332 -0.182889 0.0568765 
-0.362272 0.662907 -0.32358 -0.882037 0.852537 0.0362559 -0.104586 0.263628 0.619944 -0.0859248 
-0.931086 0.925302 -0.15966 -0.285798 0.612804 -0.466721 -0.0399897 0.758629 -0.302022 0.451338 
0.0911642 -0.761135 0.828174 -0.552767 0.226377 0.796555 -0.774381 -0.676247 -0.727089 -0.867436 
-0.116087 0.0367592 -0.830575 -0.138393 -0.371224 0.0831645 0.909987 -0.122085 -0.0777489 0.0847439 
0.399526 0.0234561 -0.807277 0.104819 0.411926 0.76468 0.767413 0.406964 -0.323443 0.783899 
-0.29617 -0.210164 0.83389 -0.109094 -0.379023 -0.915033 0.734175 0.189994 -0.458201 0.997962 
-0.914057 -0.982051 0.620924 -0.576043 -0.403004 0.375999 -0.745884 0.669 -0.892053 -0.0730018 
-0.507029 -0.932029 -0.634041 0.101998 -0.562 -0.4 -0.18095 -0.682 -0.710004 -0.0160001 
-0.661 -0.444 0.808 -0.368 0.478 -0.186 0.787 0.239 -0.926 0.02 
-0.173 -0.446 0.988 0.441 -0.202 0.642 0.002 -0.679 -0.896 0.946 
0.056 -0.491 0.833 0.708 0.761 -0.467 -0.314 -0.196 -0.615 -0.858 
-0.158 0.26 -0.839 0.62 -0.657 0.578 0.187 -0.887 0.063 -0.409 
0.934008 -0.585007 -0.344002 0.760969 0.012 -0.589033 0.958998 -0.74901 -0.26202 0.369962 
-0.876017 0.506948 -0.993006 0.583953 -0.0490005 0.100938 -0.511081 -0.0420229 0.440889 0.789878 
0.012893 -0.588194 -0.145004 0.0599818 0.0929962 -0.528065 0.40189 -0.324165 0.542933 0.372797 
-0.734754 0.649945 0.275042 0.527901 -0.468096 -0.239595 0.468288 -0.497687 -0.271424 0.106215 
0.88961 -0.551417 0.953143 -0.608092 -0.430269 0.517325 0.470004 0.405504 -0.507109 0.503285 
-0.564934 -0.621495 -0.737559 0.408987 -0.393372 -0.965932 -0.643626 0.468518 0.168429 -0.349311 
0.937824 0.506246 -0.476082 0.228802 -0.511639 -0.241521 0.880607 0.752442 -0.372879 0.463808 
0.724429 -0.346064 -0.476673 0.282608 -0.84102 0.540169 -0.303819 0.0863016 0.251839 0.376897 
0.665512 -0.387984 -0.9569 -0.683985 -0.956792 -0.662453 0.376844 0.446129 0.144163 -0.545073 
0.806228 0.738813 -0.080888 0.627065 -0.265332 0.244917 0.762251 0.090242 -0.697932 -0.691737 
0.0237315 -1.01652 -0.532266 -0.792389 0.716051 0.817513 -0.00955811 0.453757 -0.753562 -0.0658836 
0.762873 -0.396689 -0.28705 0.0310436 0.365953 0.287426 -0.390491 0.107936 0.318905 -0.395453 
-0.857799 -0.239864 -0.0427337 0.141871 -0.146288 -0.335785 -0.34966 0.768012 -0.0167692 -0.803368 
0.0726449 0.518405 0.46672 -0.634294 -0.0685554 0.848441 0.777766 -0.643842 0.367492 -0.741722 
0.40853 0.117046 0.551173 0.548624 -0.506739 -0.078568 0.880276 -0.695431 -0.860039 0.419951 
0.103378 -0.555808 -0.933151 -0.665716 0.82689 0.963362 0.314009 -0.392403 -0.723821 0.585349 
0.818914 0.108261 -0.544383 -0.0177263 0.45283 0.318529 -0.503167 0.36528 0.277202 -0.603811 
-0.829084 -0.892301 -0.687824 0.907278 0.590248 0.434337 0.935221 0.863654 0.0182445 0.449843 
0.903578 0.967279 0.976704 0.498334 -0.432683 -0.187149 0.881693 0.364938 0.379508 -0.600691 
0.226641 0.153668 -0.322216 0.564521 -0.690385 0.864734 0.686268 0.169864 0.474168 0.243357 
-0.237807 -0.76385 0.669181 -0.95411 -0.885135 -0.408464 0.310945 -0.34343 0.403321 -0.947784 
0.17026 -0.420697 -0.260828 -0.470445 0.674887 -0.680141 0.790058 0.376958 -0.00272727 -0.414355 
0.603808 -0.511189 0.630791 0.743811 -0.612037 -0.389913 -0.281907 -0.0810001 -0.741126 0.926993 
-0.391076 -0.881107 0.478918 -0.284036 -0.699999 0.396018 -0.147047 0.458 -0.169994 -0.407001 
-0.194 0.849 -0.146 -0.728 -0.84 -0.706 -0.946 -0.667 -0.854 -0.771 
-0.529 -0.572 -0.441 -0.759 0.421 -0.312 -0.634 -0.967 -0.315 -0.73 
0.328997 -0.739002 -0.140002 -0.791999 -0.018 -0.838 -0.494 -0.122 0.978999 0.897 
0.886999 -0.462001 -0.531001 -0.216999 0.54 -0.205 0.266 -0.367 0.508999 -0.443 
-0.683013 -0.866011 -0.947009 -0.865014 -0.742018 -0.407057 0.842954 0.69299 -0.534036 -0.0490413 
-0.860061 0.0937883 -0.0630076 0.174272 -0.488102 -0.90341 0.550597 -0.305198 0.816628 0.491674 
0.291506 -0.763955 0.52994 -0.386351 0.295714 0.708844 -0.611943 0.627416 0.808335 -0.215141 
0.741864 -0.162817 -0.818108 -0.430055 -0.880443 0.390175 -0.711008 -0.0394851 -0.787519 -0.475968 
-0.198347 0.188258 -0.295075 -0.286096 0.0103452 -0.0927351 -0.312813 0.66102 -0.800086 -0.0102093 
0.751228 -0.629331 -0.0541959 0.909261 0.0470028 0.757855 -0.38613 -0.493416 0.947814 -0.773557 
0.108847 -0.385231 -0.760898 0.862402 0.125176 0.559764 0.800546 -0.665428 -0.867628 0.0862133 
-0.627088 -0.470791 0.473617 0.153846 -0.0679997 -0.595833 0.809324 0.288233 0.522947 0.604557 
0.886194 -0.11229 -0.975908 -0.791424 -0.793982 0.720696 -0.146572 -0.755733 0.275312 0.300524 
-0.256564 -0.518497 -0.566274 -0.00798195 -0.453547 -0.365004 0.237838 0.440415 0.355842 -0.389093 
0.594434 -0.117692 -0.976238 0.970186 -0.179344 -0.788754 0.501332 -0.249135 -0.22314 -0.710509 
0.215186 -0.0077977 -0.293854 0.967282 -0.554675 -0.483252 -0.792518 0.540567 -0.84978 0.420677 
0.136482 0.2335 0.261873 -0.923338 0.310809 -0.000318456 -0.706866 -0.940336 -0.0173307 0.0162575 
-0.0194072 -1.00239 0.704885 0.772803 0.604712 0.798237 -0.591374 0.36533 0.67097 0.886125 
0.616969 0.302105 -0.403587 -0.701989 0.0729475 -0.185129 -0.415189 -0.0341133 -0.456969 -0.356224 
0.647277 0.528182 0.81085 0.376138 0.102594 0.262295 0.69964 -0.139635 0.420292 -0.689976 
0.131405 0.911673 -0.625102 0.176478 -0.502049 -0.111548 0.394732 0.984361 0.638631 -0.228336 
0.187714 0.584475 -0.187803 0.23929 0.698461 -0.0471 -0.987586 -0.236901 0.694353 -0.755626 
0.794596 0.667578 0.466239 -0.866655 0.837096 -0.172905 0.277268 -0.103726 -0.0437466 0.986103 
-0.374002 0.874519 -0.65988 -0.72609 -0.969232 -0.746599 0.905191 -0.130048 -0.0247444 0.895018 
-0.697951 -0.371071 0.855698 -0.532849 0.526487 0.136577 -0.658753 0.767197 -0.769962 0.991696 
0.169028 0.599967 -0.0600126 -0.990694 0.878696 0.0343504 -0.488492 -0.407203 -0.471163 -0.840228 
0.233336 -0.74283 0.925342 0.905534 0.190867 -0.556841 -0.812146 -0.77302 -0.281174 -0.516082 
0.22377 0.0927561 -0.565201 0.223867 -0.906018 0.582027 -0.133065 -0.373013 -0.994999 0.145982 
-0.314 -0.411 -0.46 -0.763 -0.15 -0.241 0.578 -0.044 -0.323 -0.597 
-0.958 -0.7 0.811 0.225 0.143 0.595 0.016 -0.385 -0.196 0.006 
-0.632 0.641 -0.665 -0.302 0.325 -0.687 -0.977 -0.688 -0.382 -0.543 
-0.604002 -0.661001 0.0859977 -0.906001 0.845995 0.0429967 0.521996 -0.0890005 -0.720008 0.454995 
-0.642056 -0.153099 -0.130044 -0.00977441 0.872799 -0.673145 0.412739 0.453919 0.895836 -0.528245 
-0.550257 0.240268 -0.359116 0.646631 0.524605 -0.788022 -0.177026 0.928364 -0.305627 0.401951 
-0.407171 0.990914 -0.933202 -0.811699 -0.36065 0.0761141 -0.961442 -0.876158 -0.467548 -0.142787 
-0.00397609 -0.0980524 -0.379657 0.69299 0.291938 0.110596 0.711135 -0.599324 0.939627 0.887115 
-0.370506 0.00021166 -0.076962 -0.971848 0.976318 -0.264134 -0.160647 -0.112316 -0.562397 -0.356065 
0.605284 -0.667205 -0.968242 0.546612 0.342861 -0.194428 -0.956105 0.898458 -0.772459 0.555642 
-0.141112 -0.628526 0.29153 -0.945305 0.722657 0.236845 0.72602 -0.986849 0.975788 -0.855154 
0.679548 0.797262 0.08171 0.18254 0.412662 -0.126429 -0.161993 -0.707856 -0.573748 0.872345 
0.154155 0.264685 -0.0756767 0.0926959 0.754864 0.725214 -0.392325 -0.713848 0.242022 -0.302122 
0.188875 0.843831 0.597618 0.198755 0.564463 -0.868253 -0.0561442 -0.555479 0.128732 -0.00380137 
0.632939 -0.577176 -0.00760459 0.822295 0.511956 -0.230054 -0.686588 -0.367649 0.199731 -0.728539 
0.8528 0.592595 0.866076 -0.448066 0.222526 0.536599 0.210283 -0.773806 -0.882452 -0.629449 
-0.638638 0.0684329 -1.03085 -0.888735 0.963888 -0.670473 0.211506 0.644385 -0.129064 -0.156469 
-0.0472237 0.0051444 -0.574977 -0.101554 0.47332 -0.241048 0.239123 -0.133132 -0.227175 0.957181 
0.245645 -0.198473 -0.563185 0.027267 0.533806 0.72556 0.266079 -0.850359 -0.961299 0.192225 
-0.17366 -0.242374 0.190014 0.870929 0.240606 -0.576574 -0.53333 0.131271 0.0528812 -0.770976 
-0.794382 0.859824 -0.93313 0.239412 -0.640955 -0.606335 0.226039 -0.853084 0.612196 -0.0305311 
-0.779815 -0.922337 0.692817 -0.118286 -0.300869 -0.829462 0.134532 -0.66146 -0.677291 -0.0889792 
0.104113 0.520073 -0.924668 0.819923 -0.413201 0.394759 -0.502883 0.808622 -0.366534 0.86977 
0.833254 -0.275726 0.727215 0.235182 -0.424086 -0.0554438 0.697769 -0.488042 0.775684 0.219633 
-0.382947 0.193318 -0.651695 0.91152 -0.773851 -0.445413 -0.90122 -0.714592 0.463748 0.694024 
-0.0250547 0.405215 -0.514972 -0.244731 0.489604 -0.22386 -0.591291 0.131736 0.0872247 0.294375 
0.948389 0.110162 -0.879443 -0.471837 0.671719 0.836682 -0.723431 0.552876 0.975744 -0.330344 
0.0845905 -0.348367 0.75067 -0.603188 0.75085 0.00113846 -0.565037 -0.307016 0.0719858 0.915919 
-0.284028 0.327993 0.51096 -0.875027 0.837971 0.295999 -0.0610301 0.544 0.0559855 -0.174008 
-0.098 -0.242 -0.412 -0.979 -0.414 -0.892 0.777 -0.372 0.979 -0.053 
-0.451 0.279997 0.244999 0.128 -0.938 -0.574009 -0.281 -0.322999 0.0909993 -0.953029 
0.784984 0.230952 0.405966 -0.316053 0.95397 -0.231141 -0.291038 0.956006 -0.579058 0.944856 
0.464797 -0.984237 0.859762 -0.502769 -0.665202 0.18935 0.676512 -0.951151 0.00477318 0.885271 
0.387254 -0.326204 0.14247 0.377804 -0.870494 -0.515388 -0.446521 -0.518677 0.252206 -0.00220432 
0.751529 -0.714561 -0.513077 0.21575 -0.992867 0.304373 -0.0640047 0.797718 -0.00578879 0.701943 
-0.552148 -0.704058 -0.765642 -0.515297 -0.502528 -0.218915 0.605056 -0.390164 -0.323231 -0.0258301 
0.337281 -0.888685 0.13112 0.0300539 -0.402856 0.844916 0.669022 0.853915 -0.0409758 0.695296 
0.942979 0.675597 -0.3699 0.72551 -0.56844 0.654166 -0.522571 -0.30242 0.855603 -0.438307 
0.219634 0.643071 0.622976 -0.923515 0.00276585 0.770331 0.79207 -0.168729 0.646948 -0.410275 
0.850179 -0.389169 -0.250715 -0.885754 0.539342 0.487149 -0.152671 -0.720323 0.607819 -0.289749 
-0.98058 0.26523 -0.323219 -0.0472113 -0.395665 0.745507 -0.530086 -0.190689 -0.962076 -0.104214 
-0.602452 -0.621493 -0.965636 -0.880108 0.0971859 -0.99189 0.354989 0.804798 0.733484 0.326452 
0.847568 -1.09169 -0.134137 -0.848432 0.47615 0.187037 -0.695517 -0.417897 -0.725739 0.885443 
-0.0839106 0.343805 0.00871497 -0.455473 -0.306205 -0.0570921 0.791252 -0.188159 0.319184 0.31876 
-0.64157 0.685195 -0.338985 -1.01531 0.477806 -0.287381 -0.0125441 0.774125 -0.518112 -0.883637 
0.53731 0.813937 0.771982 0.405776 -0.779158 -0.848217 -0.849744 0.467948 -0.529001 -0.852556 
-0.0276275 -0.0411812 0.569011 0.559069 0.00109019 -0.328066 0.65682 0.87013 0.875193 0.818776 
-0.915888 -0.00236907 -0.0354369 0.864924 -0.723051 0.472485 -0.384425 0.324624 -0.30321 -0.978652 
0.384387 0.813035 0.889163 -0.0675659 -0.163518 -0.260237 0.243003 -0.809908 -0.450243 -0.728765 
-0.697378 0.0572712 0.622333 -1.0201 0.722691 -1.0165 -0.486791 -0.780847 0.501826 0.966566 
-0.300856 -0.57173 0.352433 -0.268769 -0.676786 0.91988 -0.811886 -0.303755 0.500108 -0.645602 
0.398006 -0.985432 -0.768671 0.495209 0.480632 0.758911 -0.867843 -0.331458 -0.167208 -0.499867 
0.0784791 0.241834 0.09584 -0.739052 0.856298 -0.322535 -0.806182 -0.326627 -0.85022 0.187892 
-0.0160266 0.82514 -0.148089 -0.00629879 -0.0832076 -0.708224 0.964414 0.706639 -0.768184 -0.755213 
0.459238 0.399347 -0.763449 0.425028 0.0948349 -0.0927709 -0.68696 -0.650127 -0.414519 0.278608 
0.775314 0.821506 -0.12158 -0.699191 0.811949 0.676186 0.16384 0.35698 -0.43 -0.962057 
-0.688017 -0.856004 -0.439037 -0.820024 -0.800001 -0.357 0.855953 -0.939 -0.352994 0.938986 
0.808 0.29 0.452 -0.021 -0.382 0.419 -0.993 -0.716 -0.453 0.977 
0.674984 -0.387015 -0.291046 0.371002 -0.358034 -0.661066 -0.664 -0.378996 0.500988 -0.966066 
-0.871033 0.35791 0.435744 -0.531035 -0.103205 -0.496301 -0.202001 -0.797974 0.104958 0.237695 
0.031771 -0.935344 -0.484512 -0.518964 0.578508 0.0217821 0.726489 0.770776 0.31276 -0.618866 
-0.860813 -0.185722 -0.513075 0.319401 0.588171 0.509406 -0.742671 -0.1497 -0.729908 0.280274 
-0.638695 0.0328559 0.00968071 0.183511 0.757554 0.493368 0.569911 -0.267857 0.0560381 0.70785 
0.642097 -0.416645 -0.482851 -0.461629 -0.586311 0.363032 0.0442514 -0.435773 0.885012 -0.872559 
0.295136 -0.0572257 0.0456561 0.778806 0.219787 -0.800518 -0.575548 0.440438 -0.361273 -0.213657 
0.805332 0.326135 0.42433 -0.14376 -0.339628 0.940844 0.152806 0.135691 -0.378748 0.216901 
0.702215 -1.04183 -0.0122645 -0.052125 0.240123 -0.19661 -0.0726006 0.520985 -0.0464593 0.556067 
-0.910625 -0.841383 0.293696 0.254553 0.859391 -0.0197898 0.173865 -0.990952 -0.721749 0.622381 
0.402479 -0.907436 -0.583655 -0.793053 0.6796 -0.827152 -1.01649 0.928988 -0.389381 0.0547145 
0.43929 0.053287 0.433076 0.610626 0.252613 -0.998023 0.595572 0.775744 -0.967949 -0.859805 
-1.05992 0.0554217 0.821323 -0.727833 0.129686 0.137567 0.603609 -0.657533 -0.611738 -0.665578 
-0.0363508 -0.119788 -0.74872 -0.256894 0.767388 0.276395 0.477281 -0.148438 0.873501 0.182321 
0.709867 0.601537 -0.539005 0.236214 0.772557 0.806325 0.293528 -0.69306 -0.989397 0.325225 
0.688379 0.89081 -0.359734 -0.523923 -0.963347 -0.966732 -0.24464 0.916267 0.554045 -0.240344 
0.548229 0.0875989 -0.0177505 0.0570833 -0.620581 0.366365 0.051138 0.585081 -0.584576 0.957445 
-0.433364 0.0981778 -0.0393395 -0.298142 -0.414206 -0.165762 -0.771168 0.618721 0.127922 0.401329 
-0.69372 -0.203495 0.795352 -0.343111 -0.173407 -0.657757 -0.413078 -0.82014 0.797287 -0.833746 
0.790445 -0.938904 -0.300242 -0.345111 -0.392652 -0.432094 -0.778486 0.139792 0.825618 -0.862464 
-0.700597 -0.0837303 0.777504 -0.105532 0.54961 0.456051 -0.400647 0.208072 0.404321 -0.744512 
0.952622 0.502079 0.921468 -0.308189 0.519619 0.145887 0.575674 0.255921 0.143359 -0.540804 
0.75226 -0.505103 -0.0659471 0.061562 -0.620598 0.163825 0.938872 0.53938 0.290597 -0.960327 
-0.54287 0.186982 -0.423031 -0.731805 -0.285025 -0.798552 0.202462 -0.894261 0.299616 -0.305119 
-0.170331 0.608161 0.0638455 -0.585949 -0.355045 -0.823829 -0.647341 0.447921 -0.0815243 0.0784197 
0.98705 -0.67975 0.591072 0.596812 -0.803015 0.509351 -0.348432 -0.929053 -0.342093 -0.878199 
-0.141058 0.996968 -0.00102722 0.898984 -0.88 0.320052 -0.964006 -0.0160001 -0.0880211 0.914925 
0.953 0.484977 -0.259002 -0.801005 0.56695 -0.792011 -0.156 -0.831 0.681 -0.121 
0.107969 0.206943 0.258867 0.705946 0.848902 -0.925137 -0.974 -0.876044 0.60697 0.773927 
-0.116079 -0.872116 -0.454399 0.144817 -0.519358 0.713587 -0.851 -0.831984 0.337934 -0.693309 
-0.207223 0.503444 0.104203 0.696641 -0.783689 0.953448 -0.359355 -0.657102 -0.867227 -0.904218 
-0.321708 -0.266162 0.553431 0.63244 0.952715 -0.0738658 -0.749271 0.903584 -0.721816 -0.514981 
-0.132205 0.748022 -0.93089 -0.825911 -0.301011 0.407182 -0.916978 -0.769353 0.477393 0.968386 
-0.745851 -0.500269 -0.0679917 -0.348652 -0.0132017 0.423361 -0.0266576 0.447095 0.236223 -0.393179 
-0.943724 0.602885 -0.95045 0.205902 -0.224121 -0.0322752 -0.182956 -0.327914 0.554369 0.283994 
-0.527554 -0.119291 -0.300816 -0.127292 0.439044 -0.0875519 -0.61798 -0.77937 -0.323867 0.771625 
0.529161 -0.225989 -0.353725 0.504518 0.227936 -0.556713 -0.564458 0.716597 -0.672874 -0.365896 
0.107726 -0.962695 0.20122 0.407681 -0.156494 -0.531386 0.626474 0.304864 0.188686 -0.869885 
0.212522 0.401202 -0.366136 -0.377265 0.00740603 -0.770987 -0.714701 -0.763707 0.459998 -0.695158 
-0.208906 0.0975893 0.412811 0.467031 -0.91413 -0.855499 -0.227676 0.884128 -0.168276 -0.22239 
-0.806713 -0.888536 -0.61384 -0.700916 -0.757066 -0.176161 -0.162031 -0.98479 -0.84772 -0.18476 
-0.609497 0.623049 -0.991658 -1.02574 0.957653 -0.514229 -0.745716 -0.96025 0.258767 0.169446 
0.941354 0.0901911 0.684401 0.632062 -0.100237 0.357129 -0.026716 -0.976828 0.415812 0.692441 
-0.674743 -0.691149 0.397696 -0.974806 -0.234013 -0.254294 -0.65938 0.76479 -0.506377 -0.689476 
-0.0902822 -0.993467 0.635553 -0.119775 0.727275 -0.176997 -0.8553 -0.928565 -0.38401 -0.942436 
-0.309629 -0.569329 0.185626 0.930127 -0.370076 0.61922 0.870333 0.217258 -0.245305 0.0426888 
0.231968 -0.887691 0.428209 -0.653647 0.00535917 -0.0807827 0.502056 -0.88825 0.163283 0.225245 
-0.325798 -0.504061 0.488837 -0.449658 -0.747789 -0.667618 0.888006 0.649109 0.326191 0.0649203 
0.283252 0.344383 0.928568 -0.500251 0.587177 0.845344 -0.98682 0.672517 -0.885694 -0.510356 
0.766218 0.760852 -0.641182 0.250532 -0.730198 -0.306873 0.0728654 -0.0342397 0.501772 0.537034 
0.488947 0.551207 -0.553593 -0.81736 -0.563762 0.19619 -0.382201 -0.636531 0.0791957 0.662555 
-0.0970231 -0.665976 0.354575 -0.187689 0.153627 -0.987037 0.748149 0.337933 -0.295685 -0.476419 
-0.372563 0.246838 0.176642 0.0781415 -0.687103 -0.161222 -0.484416 -0.579064 -0.855128 0.990241 
0.968223 0.838437 -0.692621 -0.435191 0.761933 0.473164 0.6807 0.969978 0.147113 0.0528108 
-0.292085 -0.492059 -0.285026 -0.571027 0.0659995 0.689003 -0.33701 0.770991 0.541058 -0.741023 
-0.369001 0.571959 -0.486003 -0.0340158 0.987919 -0.830024 -0.832 -0.801 -0.345 0.849999 
0.443978 -0.0640623 -0.722109 0.405918 0.426933 -0.687075 0.523 -0.62908 0.326955 0.072936 
0.460895 -0.827094 0.933678 0.101688 0.586687 0.416616 0.462993 -0.846927 -0.874087 -0.405541 
0.494786 0.212484 -0.59462 0.369605 0.858331 0.303973 -0.504295 -0.166922 -0.777154 -0.149362 
0.878461 -0.482969 -0.875321 0.79206 0.583911 0.462088 0.369704 0.444029 0.10614 0.26821 
-0.914555 -0.906862 -0.48378 -0.406426 0.713186 0.545488 -0.511392 -0.246834 -0.745599 0.584114 
-0.0459524 0.342096 -0.120728 0.802442 0.86205 0.673359 -0.99044 -0.74095 -0.692389 -0.575495 
0.0137261 -0.928945 -0.545688 -0.146707 -0.548856 -0.289818 0.558831 -0.92672 0.386882 -0.173178 
0.240911 0.264094 -0.00230109 -0.521718 -0.422223 0.689 -0.0548142 -0.947867 -0.914325 -0.844197 
-0.013806 -0.893665 -0.385052 0.24273 0.711427 -0.0589546 -0.796499 0.490577 -0.779077 -0.715206 
0.52773 0.382619 0.345661 0.442024 -0.309187 -0.184681 0.792701 -0.459109 0.545967 -0.890957 
-0.0329917 0.555976 0.64064 0.277318 0.0814946 0.144484 -0.551674 0.307515 0.340947 0.0649707 
0.935286 0.0142879 -0.0843528 0.327341 0.254381 0.683223 -0.270828 -0.61534 -0.592231 -0.756501 
0.118666 0.415568 0.726749 -0.79551 -0.391127 -0.143292 -0.310549 -0.874249 0.926959 -0.303049 
0.0360755 -0.939903 0.694282 0.559187 0.793979 -0.891445 -0.21787 0.154431 0.494689 0.178424 
-1.01301 0.284828 0.380107 -0.886775 0.142147 -0.886746 0.315653 -0.262346 -0.81551 0.432476 
-0.766515 -0.45979 0.452566 0.929914 0.684786 -0.949052 -0.846088 0.348399 0.393601 -0.735148 
0.627898 -0.231955 -0.545742 -0.518559 -0.398382 0.761924 -0.401267 -0.838948 0.386185 0.798647 
0.0987762 0.530332 -0.170487 -0.542693 -0.591671 0.568338 0.390845 0.650387 -0.656737 0.652183 
0.807147 0.866528 0.784905 0.0967073 0.908954 -0.074327 -0.424703 0.278256 -0.653608 -0.9456 
-0.692314 0.850954 0.0149272 0.636685 -0.942627 0.576668 -0.505406 -0.874977 0.413192 0.969674 
-0.137277 0.00629491 0.373235 -0.98245 -0.421496 -0.819324 -0.244078 0.41426 -0.352977 -0.457148 
-0.242581 -0.271482 0.405444 -0.161181 0.551763 0.432353 -0.188548 0.997817 -0.588586 -0.883454 
0.732562 0.399661 0.911091 0.789634 0.871981 -0.943207 0.167997 0.0735511 0.97969 -0.500891 
0.620675 0.203278 0.392287 0.0244494 -0.280519 -0.709012 0.984876 -0.0711616 0.0703258 -0.0238756 
-0.808272 -0.9931 -0.747086 -0.0787069 -0.12414 0.137266 -0.184852 0.802898 0.0899896 0.911658 
-0.711567 0.252583 0.978664 0.298758 -0.678032 -0.097913 0.60179 -0.631042 -0.346003 -0.2712 
0.733893 -0.562102 -0.726063 0.225948 -0.537 -0.865983 -0.0280118 -0.65203 -0.54699 0.502936 
-0.693 0.517994 -0.667 0.437 -0.305014 0.178998 -0.339 0.144 0.659 -0.039 
0.90699 -0.424031 0.4719 -0.355047 0.592059 -0.0280421 -0.372001 -0.804078 -0.189043 0.534948 
0.834953 0.228935 0.71566 0.531818 -0.0440507 -0.84225 0.748959 -0.379949 0.295896 0.72349 
0.119865 -0.474367 -0.594392 -0.0172673 0.444615 -0.426581 0.690647 -0.411983 -0.462138 -0.337152 
-0.896459 -0.124594 -0.647813 -0.0586589 0.00347591 -0.379003 -0.149271 0.624972 0.610132 0.839707 
-0.277168 0.142823 -0.867657 0.588218 -0.855036 0.32241 0.850489 0.804028 0.73794 -0.0961252 
0.375945 -0.237203 0.094383 -0.923284 -0.310118 -0.479654 0.299594 -0.901428 -0.845262 0.0370558 
-0.611746 0.255885 0.552168 0.941895 -0.375927 -0.882336 0.205406 0.577175 -0.538872 0.762747 
0.403666 -0.602116 -0.882113 0.40753 -0.261662 -0.911353 0.183224 -0.310633 0.60261 0.162497 
-0.238659 -1.01786 -0.821412 0.417932 0.46975 0.547934 -0.543159 -0.0111351 -0.480352 0.315798 
0.0437421 0.490419 -0.333044 0.581996 0.15579 0.0217343 -0.502133 -0.617699 0.0135923 0.492352 
0.839709 0.348306 0.910434 -0.399516 -0.763278 -0.973834 -0.845386 -0.266216 0.343695 -0.245536 
0.00196245 -0.547207 -0.589796 -0.459874 -0.864083 0.0363625 0.586015 0.184949 -0.831014 0.210533 
0.560382 -0.0327414 0.243023 0.753577 -0.585183 0.330156 0.363404 -0.439087 0.210885 0.637418 
-0.892088 -1.01691 0.549438 0.148972 -0.22594 -0.346815 0.550176 0.567715 -0.796707 0.683365 
-0.793811 -0.866965 0.352162 0.229882 0.299883 -0.291425 -0.594047 0.149045 0.540029 0.525007 
-0.858632 0.178249 -0.177083 0.655415 -0.943685 -0.299052 -0.0747082 0.518197 -0.256811 0.72044 
-0.297164 -0.870545 -0.501588 0.87489 -0.919415 -0.801435 -0.222958 0.553258 -0.191973 0.362341 
0.191205 0.788313 0.763122 -0.250489 -0.367254 0.240568 -0.722005 0.863441 0.591685 -0.0012434 
0.359002 -0.626548 0.839087 0.947861 -0.649164 -0.0630586 -0.699855 -0.179448 0.917061 0.439757 
-0.616981 -0.691319 -0.697564 -0.965348 0.0903644 -0.445285 0.243957 -0.883805 -0.00794582 0.300569 
0.24837 -0.919395 -0.0371986 0.153665 0.502012 -0.867458 -0.425472 -0.439345 0.560361 -0.15413 
-0.924803 0.110994 0.00982066 0.0457158 0.190849 0.933319 0.841038 -0.253852 -0.488144 -0.942962 
-0.65278 -0.75323 -0.636836 -0.118393 -0.561993 -0.286619 0.101001 0.267507 0.548781 -0.9518 
0.432543 0.794673 -0.980954 -0.266589 0.0977271 -0.209124 0.913265 -0.818247 0.0272457 0.31521 
0.0584909 0.757384 -0.417283 -0.601445 0.134938 -0.64305 -0.930806 0.270941 -0.658123 0.779831 
0.876678 -0.594233 -0.705114 0.685796 -0.597002 -0.747943 0.717741 0.0349528 0.284882 -0.572041 
-0.322038 0.959969 -0.899 -0.051055 -0.636 -0.615 0.625996 0.156978 -0.262956 -0.159 
-0.062 0.593 0.096 0.033 -0.507 0.768 0.873 0.935 0.109 -0.904 
-0.619004 0.560991 0.738947 0.583972 0.923073 -0.501028 -0.269 0.848937 0.44196 -0.394021 
-0.15002 -0.713048 -0.960205 -0.231049 0.223051 0.587828 -0.533054 -0.917046 0.399927 0.157754 
0.605876 -0.0622339 0.462712 -0.0800479 -0.634109 0.757696 0.684701 0.0229135 -0.771125 0.297363 
0.355483 0.468369 0.174253 -0.804237 0.682658 0.986446 0.617466 -0.0542267 -0.810981 -0.726793 
-0.532405 0.511931 -0.661996 -0.804469 -0.455777 0.648521 0.152286 -0.942294 0.789883 0.78642 
0.334504 -0.182655 -0.109118 0.225245 -0.326879 0.723106 0.422443 0.956705 -0.428301 0.0751683 
-0.00741244 0.243919 0.23335 -0.292011 -0.71844 -0.59938 0.64485 -0.468571 0.267275 0.354887 
-0.489571 0.283283 0.0440713 -0.83897 -0.170455 0.530508 -0.889716 -0.660044 -0.287585 0.598373 
0.179548 -0.51281 0.326899 0.478288 0.723051 -0.00446338 -0.680727 -0.550819 -1.02191 0.507836 
-0.142253 -0.457227 -0.0643008 0.713062 0.230723 -0.460923 0.604193 0.923576 0.108877 0.730335 
0.485432 0.217861 0.513528 -0.92261 -0.646165 0.214212 -0.290203 -0.808971 -0.59458 -0.932498 
0.340692 -0.325318 -1.02863 -0.114045 -0.262909 -0.851886 0.462625 -0.28986 -0.625105 -0.262786 
0.27364 0.738612 0.680095 -0.761496 -0.540631 -0.947617 -0.195796 -0.980492 0.737755 -0.262587 
0.0554561 -0.0427057 0.383873 -0.675992 -0.88835 -1.01394 0.259333 -0.352456 0.696821 0.884804 
0.518014 0.0571866 -0.497956 0.81881 -0.0222371 0.372382 -1.04802 -0.962576 -0.746163 -0.956624 
0.593557 0.830561 -0.965619 0.798438 -0.363774 0.761034 -0.599477 0.337137 0.568175 -0.0399958 
-0.258024 0.75841 0.142678 0.874993 0.437689 0.575862 0.0143722 0.746018 0.225506 0.088123 
-1.02464 -0.43522 -0.812462 -0.384753 0.136597 0.847107 0.110293 0.858491 0.738381 0.0238946 
0.378885 0.461406 -0.282574 -1.01119 0.851927 0.877967 0.271042 -0.945858 -0.377084 0.799278 
0.154353 -0.466446 -0.883974 -0.927631 -0.978959 -0.133807 0.554487 0.333909 0.353406 0.288337 
0.422072 0.83232 -0.472179 -0.309572 -0.477221 -0.391062 -0.161475 0.786348 -0.220125 0.736213 
0.710098 -0.94621 -0.932645 -0.513661 0.882158 -0.193724 0.970636 0.194111 0.148595 -0.19718 
-0.150961 0.36173 0.436485 0.152688 -0.180863 -0.573802 0.760712 0.221454 -0.048244 -0.449443 
-0.727723 -0.0495002 0.388658 0.62311 -0.971241 0.126247 -0.963426 0.526755 -0.607809 -0.51093 
0.647692 -0.946498 0.516982 -0.808408 -0.470046 -0.382329 0.147428 -0.944031 -0.0102155 -0.718284 
0.74294 -0.561036 0.300997 0.492981 0.926999 -0.730995 -0.60705 0.0329948 -0.569048 0.591993 
0.135 0.026 0.842 0.08 -0.384 -0.039 -0.283 0.907 0.92 0.245 
-0.834 -0.879 0.782 -0.218 0.006 -0.509 0.87 -0.385 -0.805 0.143 
0.763 -0.229003 0.591994 -0.0650028 0.216993 0.411981 0.881 0.467007 -0.279005 -0.0480171 
0.321981 0.827959 -0.770067 -0.571017 0.42405 0.698955 -0.847 -0.849029 0.793918 0.0408948 
0.26383 -0.617271 -0.280145 -0.856067 -0.611989 -0.923165 -0.787148 0.201875 -0.342252 -0.798236 
0.752513 -0.75277 0.0571816 -0.425248 -0.910097 -0.363357 -0.178589 0.394709 -0.300396 0.203544 
0.556275 0.114323 -0.71647 0.0393494 -0.97476 -0.475872 -0.798073 -0.180443 -0.0705115 0.0381161 
-0.476555 0.650863 0.891236 -0.907088 0.0691757 -0.240625 -0.00846575 -0.571551 -0.217105 -0.388225 
0.714221 -0.154391 -0.00660731 -0.567918 -0.248837 0.750813 0.906375 0.18233 0.836175 0.944733 
0.905727 0.855101 -0.491678 -0.3774 -0.517347 0.895034 0.320295 -0.428065 0.364194 0.648519 
0.735813 0.115714 -0.768525 0.434026 -0.299847 0.76068 -0.162943 0.427929 0.817985 0.250089 
-0.873704 -0.740369 0.082156 -0.586853 0.625994 -0.69215 0.529096 0.869703 -0.203243 0.807562 
0.195786 -0.884619 0.579494 -0.97268 0.350986 0.739559 0.603988 -0.935092 -0.0368597 -0.911355 
-0.274209 -0.681828 -0.706079 -0.967189 -0.839477 -0.534516 -0.810218 -0.284326 0.707313 -0.975857 
0.848116 -0.36637 -0.719024 0.827985 -0.589936 0.637294 0.0804699 0.44451 -0.69053 -0.769659 
-0.997968 0.349749 -0.100805 0.364232 -0.279946 -0.900106 -0.390426 0.60333 0.463064 0.780137 
-1.09145 0.096314 0.803777 -0.92826 -0.864503 -0.626336 0.821263 -0.668959 -0.251669 -0.722996 
0.0599544 0.542686 -0.960711 0.733802 -0.88352 0.891861 -0.416746 0.569124 -0.0209136 -0.50867 
-0.304233 0.092905 0.197434 0.485622 -0.775822 -0.613594 -0.69334 0.809099 -0.650156 0.240631 
-0.684526 0.0513795 -0.392215 -0.960178 -0.299342 -0.314013 0.338285 -0.718786 0.869392 -1.00483 
0.406499 -0.784307 0.867038 0.792454 -0.985134 -0.709617 -0.447658 -0.718057 0.494074 -0.404538 
-0.850603 -0.0625977 0.764961 0.379314 -0.20994 -0.982982 0.666168 -0.736291 0.252994 -0.127202 
-0.37319 -0.695601 -0.54674 -0.898937 0.509031 -0.029983 0.816444 0.547899 0.0021424 -0.947226 
0.803944 -0.262185 0.306268 -0.0807601 -0.934878 0.285659 0.219215 -0.745064 0.130731 -0.9569 
0.658335 0.794345 -0.552071 -0.512547 -0.241066 -0.624817 -0.167869 -0.781509 -0.735184 0.675489 
0.726071 0.514305 -0.191152 -0.301006 -0.369298 -0.678171 0.805136 -0.275278 -0.700695 -0.71855 
0.968739 -0.512454 0.164054 0.962617 -0.876055 0.53356 0.769695 -0.149068 0.996746 0.72357 
0.510997 -0.933001 -0.735001 -0.160001 0.378999 -0.045 -0.971994 0.661 -0.568 -0.773007 
-0.84 -0.861 -0.334 -0.763 -0.952 -0.152 -0.596 0.048 0.565 -0.779 
-0.867 0.175 -0.759 -0.486 -0.853 0.362 0.954 0.676 0.454 0.658 
0.721 -0.216 -0.312 -0.534 -0.884 -0.144 -0.82 -0.571 -0.463 0.629 
-0.611008 0.842955 0.00396421 -0.899007 0.384025 -0.0800101 0.987 0.135976 0.0518986 0.581943 
0.527815 -0.63419 0.471949 0.192924 -0.0419978 -0.821079 -0.017199 0.986823 -0.17731 -0.603234 
0.0954693 -0.408198 -0.099905 0.652696 -0.479976 -0.498412 0.47013 -0.980332 0.930079 -0.0484384 
-0.177623 0.022157 -0.94698 0.662971 -0.268752 -0.726491 0.15866 -0.0346549 0.682664 -0.137309 
0.91812 -0.197369 0.467971 -0.863464 0.701243 0.431072 -0.184985 -0.998758 -0.104309 0.229229 
0.00488416 0.563217 -0.494296 0.262734 -0.609676 0.150427 0.836582 0.955067 -0.458214 -0.416449 
0.21177 0.250659 -0.952009 0.524328 -0.900681 -0.694231 0.211684 0.165873 0.434511 0.439259 
-0.480832 0.142584 -0.124083 0.715722 -0.139695 0.201252 0.274173 0.324566 0.201469 -0.176798 
-1.04068 0.27348 -0.992927 -0.625215 -0.199716 0.73929 0.381514 -0.138466 0.620852 0.74548 
0.833744 0.198636 0.783388 0.661832 0.0717102 0.488032 -0.52792 -0.0645838 0.129732 -0.690536 
-0.422316 -0.372395 0.874867 -1.02843 -0.995425 -0.112174 -0.0903393 0.186684 0.473529 -0.596726 
-0.441657 -0.858454 -0.913986 0.790334 0.679079 0.172973 0.577287 -0.381966 0.776975 -0.62594 
-0.969395 -0.17062 0.0767845 -0.264708 -0.379203 0.244121 -0.568828 0.128776 -0.485349 -0.490256 
0.736335 -0.348553 0.462003 -0.145113 0.424264 0.155106 -0.861808 -0.501804 -0.844168 0.71124 
-0.186567 -0.907627 0.0624852 0.181741 0.294583 0.317079 0.157122 -0.292187 -0.33449 -0.669287 
0.692393 -0.57375 -0.505465 0.092025 -0.639247 -0.826737 -0.295816 -0.267602 -0.930863 -0.206232 
-1.02644 -0.0206973 -0.0907017 -0.282682 -0.874609 -0.898822 -0.698544 0.9574 -0.983593 -0.25197 
-0.986731 0.11311 0.122043 -0.0311015 -0.312329 0.537417 0.911348 -0.278583 -0.752422 0.841997 
-0.264414 0.043296 0.94204 -0.768528 0.0505605 0.93704 -0.799976 0.649763 -0.849714 -0.865032 
-0.501239 0.477708 -0.831901 -0.185265 -0.895027 -0.820022 -0.404506 -0.214908 0.247497 0.0373539 
-0.564017 0.469906 0.729631 -0.928581 -0.334838 -0.612609 -0.63617 -0.102221 0.0451779 -0.838688 
0.213601 -0.89902 -0.871789 0.788789 0.97562 0.846077 0.00922008 -0.169609 -0.115945 0.321576 
-0.352813 0.29426 -0.510976 0.671699 0.835449 -0.390583 -0.614388 0.956631 0.501497 0.488693 
-0.518432 -0.171571 0.0270393 0.360563 -0.0480744 -0.504469 0.64571 0.182907 0.596708 0.55344 
0.031983 -0.898014 0.944983 -0.524002 -0.775997 0.080984 -0.805014 0.623001 0.631992 -0.657006 
-0.398 0.369 0.282 0.989 -0.563 0.599 -0.965 0.179 0.654 -0.348 
0.399 -0.65 -0.868 -0.055 0.293 0.871 -0.351 -0.41 0.204 -0.823 
0.705 0.319 -0.25 -0.472 -0.772 0.722 0.668 -0.215 0.774 0.184 
-0.349001 -0.116037 0.036933 -0.0849872 0.188935 0.68104 0.074 0.758971 0.849968 -0.454002 
0.259733 -0.573241 -0.767027 0.420896 0.160984 0.817866 0.545773 0.349889 0.262709 -0.539319 
0.845353 0.455021 0.593155 0.370608 0.945045 0.500559 -0.756138 -0.580386 0.251509 0.951145 
0.758762 0.572948 0.415367 -0.267403 -0.384925 -0.893906 0.325879 -0.408823 0.00925958 0.259323 
0.362446 -0.691014 -0.483872 -0.261037 0.642052 0.492864 0.464794 -0.186766 0.0877479 0.71521 
0.179939 -0.272821 0.288118 0.0639516 0.589904 0.951358 -0.433525 -0.79075 0.197204 0.841846 
-0.337831 -0.214106 -0.706893 0.25691 -0.242143 -0.352675 0.241594 0.363112 0.1206 0.83246 
0.178665 -0.433708 -0.278565 -0.799697 -0.735217 0.729042 -0.824759 -0.673578 0.485462 0.467175 
0.300794 -0.0819508 0.0958633 0.942198 -0.296523 0.0239757 -0.948383 -0.620761 -0.749205 -0.626097 
0.0401247 -0.418815 -0.862401 -0.861761 0.502534 -0.449406 0.851141 0.474926 -0.600495 -0.117058 
0.674518 0.268614 0.744761 0.44301 0.954661 0.478042 0.545867 0.0472227 0.373027 -0.167998 
0.777442 -0.594124 -0.0378776 0.427075 0.721647 0.204024 0.589968 0.620989 -0.945174 0.657286 
0.499977 -0.193306 -0.0109081 0.583089 -0.485323 0.0550252 0.370685 -0.507159 -0.782854 -0.679674 
-0.400636 0.0448463 -0.166483 -0.48525 0.474502 0.119256 -0.507701 0.104188 -0.994541 -0.971911 
-0.684726 -0.392176 0.470158 0.746546 0.853118 0.612319 0.861746 -0.652537 0.102698 0.701939 
-0.575668 0.0384477 0.205052 0.775223 0.3292 0.199926 0.735883 -0.674771 0.139487 -0.0807863 
-0.940955 -0.947007 0.767405 -0.683225 0.625611 0.902088 0.0529047 -0.86241 0.509879 0.928423 
-0.127474 0.487226 0.0794303 -0.449468 0.0671 -0.0389364 -0.611311 0.566513 -0.492226 -0.994749 
-0.442761 0.405743 -0.645018 0.901009 -0.519759 -0.03731 -0.95853 0.92223 -0.448148 -0.354065 
0.808848 -0.15181 -0.632116 -0.973944 -0.398992 0.756266 0.788276 0.417848 -1.00271 -0.0211956 
-0.637266 -0.45439 0.992302 -0.426386 -0.979244 0.692794 0.654393 -0.860795 0.276999 -0.529458 
-0.977008 0.259724 -0.172214 0.430109 0.547187 -0.491076 0.00662724 0.742226 -0.137524 0.259954 
0.589261 -0.113232 -0.630906 0.535274 0.603144 0.773157 -0.789393 -0.00932211 -0.308465 0.40616 
0.619214 -0.803618 -0.337956 0.127472 -0.900148 -0.241565 -0.158504 -0.560006 -0.911278 0.493333 
-0.358056 0.619998 0.485988 -0.854055 0.963967 0.485942 0.27094 -0.0569919 0.465979 0.47394 
0.444994 0.787999 0.349 0.826998 -0.045995 0.503984 0.280999 -0.754001 0.757 0.284996 
-0.886 -0.65 -0.168 0.673 -0.057 -0.688 0.232 -0.117 0.239 0.768 
-0.410995 0.682996 -0.791003 0.987 -0.205 0.244995 0.912 -0.361 -0.065 -0.752 
0.478981 0.206934 0.229843 0.95405 0.600911 0.940007 -0.956989 0.717943 0.411874 -0.622994 
-0.377335 0.471602 0.982896 0.884992 0.685935 -0.280162 -0.743209 -0.298045 -0.561448 -0.394313 
-0.724561 0.920061 -0.348513 0.0366212 0.0347513 0.697241 0.313918 0.889687 0.363639 0.604095 
0.2202 0.960159 0.517624 -0.210584 -0.436352 0.53987 -0.750877 0.683248 0.520104 -0.176319 
0.775169 -0.323213 -0.842896 0.68261 0.919834 -0.148379 0.325766 0.280591 -0.823518 -0.829207 
0.950556 0.0277387 -0.29632 -0.961258 -0.268495 0.719927 0.151448 -0.526163 0.127078 -0.284183 
-0.153946 0.792152 0.747754 0.214973 -0.705395 0.626219 0.578992 0.065174 -0.869376 0.183961 
-0.462275 -0.93989 0.454021 0.0303071 0.21897 0.502858 0.693199 0.0587775 -0.953008 -0.301758 
0.588752 -0.841758 0.534454 0.64215 0.461607 -0.240676 0.315425 0.42679 0.501803 -0.441519 
-0.400845 -0.700588 0.422678 0.237657 -0.748334 -0.964848 -0.885127 -0.41904 0.20459 0.582411 
-0.0239677 -0.461015 -0.460326 0.473177 -0.547074 0.128875 0.364745 -0.0628951 0.584836 -0.00658601 
-1.04416 -0.0628463 -0.209831 0.0740539 -0.508062 -0.659449 0.871285 0.764191 -0.167428 0.549222 
-1.09186 0.285014 0.851696 -0.828174 0.0592572 -0.786302 0.752888 0.208796 0.140926 0.406387 
-0.800715 -0.663148 0.144476 0.914514 0.717509 -0.212614 -0.611451 -0.444106 0.0248387 0.837259 
-0.617907 0.0863121 -0.0240756 -0.292285 -0.429875 -0.2114 0.484661 0.416434 -0.143522 -0.488482 
0.493793 0.73752 -0.899282 0.475106 0.541571 -0.0234449 -0.461933 -0.631053 0.57074 0.961623 
-0.275718 0.321672 0.911818 0.445224 -0.28395 -0.664978 -0.18398 -0.946758 -0.115384 -0.41282 
-0.293716 -0.371539 -0.582711 -0.732722 0.907873 -0.197256 -0.900392 -0.43288 0.810918 -0.532305 
0.537041 -0.447287 0.353033 -0.50496 -0.498441 -0.15899 0.331521 -0.285157 -0.0167165 -0.600789 
-0.816011 0.0813346 -0.0600438 0.222306 -0.489749 0.264016 -0.587368 -0.204296 -0.672152 -0.463992 
-0.767499 -1.00903 -0.726142 0.427343 0.736984 -0.613939 -0.820409 0.132788 -0.178756 -0.373966 
-0.565089 -0.876401 -0.422587 0.66584 -0.280155 0.255752 0.656149 -0.460796 0.364021 -0.723309 
0.845974 -0.637639 0.290442 0.224374 -0.542947 -0.931716 -0.895892 -0.69519 -0.000749685 0.431114 
0.768785 0.554346 -0.492713 -0.701452 0.729755 -0.925579 -0.197564 0.438988 -0.806417 -0.512515 
-0.336118 -0.32702 0.0480942 0.357975 -0.72004 -0.513042 0.763941 0.713002 -0.987004 -0.548026 
-0.83002 -0.0220073 -0.233976 -0.296001 0.416002 -0.351007 -0.623029 -0.163 -0.463001 0.458998 
-0.568 -0.045 -0.895 -0.474 0.937 0.366 0.914 0.155 0.29 -0.554 
-0.818 0.635 -0.907 0.936 0.846 0.238 0.456 -0.597 0.714 0.599 
-0.959027 -0.0750815 -0.92622 -0.675911 -0.656077 0.863007 0.748986 0.275946 -0.403171 -0.666015 
-0.353688 -0.574695 -0.957109 0.244083 0.59157 -0.239208 0.2686 0.174922 0.138049 -0.304367 
0.480087 -0.534212 -0.732023 -0.287154 0.664853 -0.972007 -0.19638 0.108754 -0.714852 0.0570724 
0.683324 -0.470622 -0.241668 0.100559 -0.396188 -0.615823 -0.915488 0.195291 -0.43018 0.945195 
0.551942 0.405174 -0.990137 -0.338558 -0.135027 -0.851242 0.88757 -0.0280445 0.769285 -0.49182 
-0.86511 -0.528307 -0.886968 -0.766382 0.381797 -0.531908 0.691229 0.0888396 0.84747 -0.44719 
0.0940531 -0.0479401 -0.64103 0.103797 0.718216 -0.382511 -0.683849 -0.730768 0.19345 0.564879 
0.746137 -0.141088 -0.778336 -0.415008 0.699315 -0.836721 0.617089 0.250687 0.801359 -0.49569 
0.266514 0.724106 0.00402738 -0.0449139 0.323668 0.660702 -0.348952 0.922551 0.839315 -0.617448 
0.645815 -0.0686388 0.497268 -0.719495 0.108558 -0.0448525 0.32743 -0.316181 0.463321 -0.449128 
0.772727 0.500221 -0.352878 -0.74655 0.698389 0.586957 -0.245271 0.0069423 -0.570613 -0.493881 
0.651538 0.623767 0.280514 -0.86226 -1.01387 -0.600879 0.225407 -0.998494 0.255099 0.0590347 
0.761442 0.659646 -0.529931 0.482306 0.243908 -0.605259 0.591391 -0.521494 0.0232136 -0.47295 
-0.20976 -0.233636 0.468172 -0.938516 -0.376068 -0.20217 -1.00514 -0.378106 0.014932 -0.611942 
0.833086 0.367563 0.0807514 -0.724044 -0.258983 -0.0189368 0.34448 -0.47764 0.899969 -0.702148 
-0.00622324 -0.896201 0.117521 0.543995 0.25181 0.32248 0.391473 0.871385 -1.03279 0.584632 
-0.728077 -0.806185 0.720587 -0.911354 0.0249119 0.00191529 -0.630738 0.0543449 -0.110495 -0.45164 
0.250221 -0.339129 -0.221602 -0.477159 -0.811686 0.541304 -0.924183 0.987411 0.618426 0.154233 
0.729664 -0.372458 0.44809 -0.109258 -0.377752 0.369815 0.521471 -0.520187 0.145228 -0.49318 
-0.884269 0.929769 -0.560189 0.108229 -0.615824 -0.314121 -0.51979 0.756533 -0.689839 -0.821162 
0.815215 0.244849 -0.995822 0.748396 -0.281597 0.302441 0.847138 -0.416581 -0.581079 0.515838 
0.814539 0.292701 -0.878903 -0.345715 -0.513947 -0.32444 -0.663629 -0.426762 -0.503912 0.56025 
-0.780659 0.750486 0.552853 -0.15207 0.515265 0.223605 0.483272 -0.398245 0.735002 -0.101548 
0.899868 -0.251677 0.967339 -0.898339 -0.735204 0.880291 0.842118 -0.290082 -0.492499 -0.51141 
0.85793 -0.816033 -0.878944 -0.894019 -0.41403 0.986963 0.370938 -0.510003 -0.0280212 -0.482035 
-0.927031 -0.64701 0.281038 -0.338 0.995999 -0.787003 0.450966 0.114999 -0.196006 0.784996 
-0.667 0.564 -0.496 -0.163 0.453 0.784 -0.667 -0.028 -0.079 0.544 
0.369968 0.256981 -0.911998 -0.871 -0.703 0.34 0.922971 0.901 0.342964 0.875997 
0.730908 0.49985 0.647737 0.613177 -0.74708 -0.689066 0.692947 -0.668049 0.450758 0.813918 
0.597784 -0.785217 0.211889 -0.165663 0.847954 -0.748582 -0.0886357 -0.85924 0.207212 0.44935 
0.178534 0.562621 0.53567 -0.437684 0.362834 0.108462 -0.185509 0.0106423 -0.243273 0.319038 
-0.395337 0.326675 0.44278 0.847918 -0.410184 -0.342438 -0.565553 0.443338 0.817851 -0.268563 
-0.502871 -0.00720415 0.556893 0.948064 0.00191986 -0.00861263 0.528487 0.127962 -0.271593 0.0628668 
0.383237 0.182763 0.536568 -0.949832 0.212736 -0.309853 -0.0742109 -0.824213 0.633299 0.375262 
0.712892 -0.670304 -0.370515 0.721324 0.625567 -0.00398052 0.765019 -0.691672 -0.943197 -0.988385 
-0.61778 0.696617 0.189791 0.423337 0.399369 -0.0341049 -0.96703 -0.187982 0.220737 -0.460473 
-0.0672132 -0.522249 -0.890291 -1.01904 -0.699586 -0.60853 0.749845 0.116959 -0.0968751 -0.264399 
0.457037 0.235377 -0.160982 -0.595075 0.863718 -0.200615 -0.0312113 -0.446004 0.558491 0.614322 
0.479664 0.471709 -0.450072 -0.853968 0.147456 -0.590891 -0.408625 -0.307798 -0.217686 -0.312414 
-0.74674 -0.0565458 0.0733107 0.559878 -0.851475 -0.979507 0.467905 -0.623764 -0.186155 -0.0964812 
-0.346333 0.758211 -0.421218 -0.812081 -0.664355 0.240313 -0.995346 -0.705382 -0.608104 -0.980646 
-0.733487 0.675758 0.193768 -1.028 -0.880908 0.125877 0.256655 -0.625465 0.358853 0.848338 
0.399845 -0.488248 -0.358611 -0.976501 0.0464588 0.880345 -0.0671282 -0.188453 -0.967378 -0.484795 
-1.03158 0.512035 -0.258393 -0.0483247 -0.575089 0.0971741 -0.20713 -0.295902 -0.738514 0.16071 
-0.120485 -0.387592 -0.320782 0.0646376 0.449148 -0.3492 -0.155239 -0.166789 0.810976 0.0264052 
-0.386751 0.075491 -0.56958 -0.846059 -0.555738 -0.27665 -0.131465 -0.710471 -0.26264 0.8232 
-0.414589 0.139051 -0.468049 -0.695323 -0.645647 0.599798 0.334422 0.129678 -0.39247 0.706036 
0.332809 0.169639 -0.160453 -0.975133 0.214428 0.195399 0.609061 0.577127 -0.194803 -0.668079 
-0.655183 -0.997517 -0.927673 0.36131 -0.0848978 -0.838136 -0.524755 0.0269089 -0.66216 -0.293393 
-0.960573 0.690739 0.163786 0.680898 -0.886751 0.314898 -0.50471 -0.4603 0.799116 0.566829 
-0.269833 0.448747 0.812346 -0.772695 -0.776697 -0.843569 0.979481 0.664278 0.842547 0.947414 
-0.175138 -0.409908 -0.102425 0.212493 -0.629272 0.985011 -0.339287 0.189642 0.583306 0.905232 
0.4178 0.621867 0.719112 0.665947 -0.782114 0.990883 -0.0411681 0.56595 0.102905 0.278816 
-0.502029 -0.133 0.345004 -0.897 0.429996 -0.980021 -0.975034 0.533996 0.820965 0.832969 
-0.765 -0.713 -0.607 -0.173 0.348 -0.376 -0.308 0.918 -0.2 0.244 
-0.569064 0.0859617 0.695004 0.508 0.753 0.597 0.191941 0.121 -0.181072 -0.0930056 
0.0708723 0.0218324 -0.439211 0.991143 -0.948046 0.250765 0.522947 -0.0350286 -0.0443294 -0.0200268 
0.0594776 -0.536702 0.522761 -0.699417 0.826719 0.234064 0.952265 -0.388316 0.679373 0.875353 
-0.84537 0.281776 0.292435 0.199724 0.772955 -0.5421 -0.160349 0.130541 0.652418 -0.301961 
0.635144 0.060612 -0.380473 -0.456067 -0.0752913 -0.83896 -0.865469 -0.238848 -0.182505 0.628282 
-0.73587 0.0476327 -1.00336 -0.444401 0.358142 -0.873407 -0.914627 -0.665699 0.641987 -0.174532 
0.0180376 -0.220827 0.246647 0.0190467 -0.687915 0.961476 0.0920243 -0.835735 -0.607088 0.387978 
-0.895683 0.349036 0.398541 -0.552198 -0.960239 -0.340632 -0.0499661 0.334936 -0.422949 -0.366903 
-0.881341 -0.593712 -0.48036 0.535275 0.195027 -0.125733 0.398992 0.931638 0.270124 0.117457 
-0.470065 -0.972512 -0.940247 -0.264464 0.219409 0.0368324 -0.997416 -0.8986 0.355203 -0.16696 
-0.423375 -0.504137 0.517499 -0.20359 -0.234976 -0.201444 0.409556 0.880825 0.825127 -0.695619 
0.722842 0.596364 0.649275 -0.202803 -0.611937 0.690756 0.189993 -0.444839 0.614843 0.501102 
0.00749071 0.652599 -0.769997 -0.614903 -0.238778 -0.804749 0.205584 -0.200588 -1.0257 -0.421856 
-0.41037 0.768267 0.126575 -0.537825 0.0606201 0.729281 0.944699 -0.370745 -0.890527 0.856378 
0.881018 -0.456056 0.736717 -0.0565568 -0.974807 -0.58629 0.0271801 -0.793806 -0.964366 -0.203294 
0.486505 0.82519 -0.498401 -0.961149 0.964588 -0.242342 -0.793106 0.276826 0.777575 0.234219 
0.724171 0.349371 -0.528565 -0.894798 -0.521919 0.00203883 0.194477 -0.722813 0.869398 -0.583588 
-0.632206 -0.743828 -0.598073 -0.938104 0.164593 -0.704821 0.308684 -0.955389 0.447982 0.196615 
-0.493313 0.497693 0.340725 -0.0825964 -0.131675 0.864876 0.823244 0.298864 -0.239911 -0.041674 
-0.611425 -0.807785 -0.499755 0.961722 -0.171983 0.128509 0.642481 0.844507 -0.532389 0.570472 
0.00839872 -0.292566 -0.262097 0.374744 0.819158 -0.518938 0.038924 -0.916774 0.123209 -0.91441 
0.470372 -0.441115 -0.0909224 -0.120666 0.240391 0.198501 0.82037 0.977497 -0.0691708 0.68862 
-0.904214 0.399702 -0.802929 0.215525 0.081781 0.421586 0.346675 0.558146 -0.871878 0.445705 
-0.20293 -0.400064 0.689152 0.396529 -0.125944 0.566687 -0.6997 -0.0111148 0.840885 0.554082 
0.855904 0.318059 0.875548 -0.851509 -0.810336 0.945068 -0.20344 0.466495 -0.654688 -0.491816 
-0.920123 -0.521132 0.981081 0.206953 0.718843 -0.862071 -0.575186 0.69893 -0.230139 -0.986178 
-0.490006 -0.645 -0.767999 0.765 -0.382001 0.719996 -0.763007 -0.736001 -0.291007 -0.297006 
-0.456 -0.95 -0.459 -0.699 -0.656 0.427 -0.859 -0.09 0.696 -0.176 
0.682991 0.0979946 -0.359999 0.131 0.57 0.754 0.534992 -0.097 0.44499 0.608999 
0.413846 -0.968209 -0.0832739 0.630201 0.317943 -0.568304 -0.587006 -0.910004 -0.539391 -0.868001 
-0.366691 0.51512 -0.355393 0.321726 0.81679 0.803678 -0.667612 -0.279207 0.242865 -0.0303001 
0.784442 -0.612944 0.00802876 0.228337 -0.16818 -0.426763 0.672817 -0.795463 -0.95804 -0.359503 
0.249608 -0.700063 0.388828 -0.275669 -0.0259088 0.356713 -0.25182 0.169763 -0.99394 0.839854 
0.259326 -0.524352 -0.595154 0.868436 -0.453932 0.859288 -0.0356171 0.69412 0.347112 0.933551 
-0.744876 -0.708235 -0.392866 -0.0408338 0.0581672 0.299294 -0.364104 -0.27896 -0.111914 -0.726674 
-0.882496 -0.129601 -0.466488 0.146755 -0.125641 -0.993743 -0.431197 0.123801 -0.0957449 -0.47724 
0.48484 0.662383 0.665355 0.7014 -0.3758 0.195198 0.580758 0.1088 -0.905841 -0.231581 
-0.294531 0.000412628 0.897042 -0.765877 0.409687 0.277975 -0.534868 -0.109286 -0.396484 -0.386964 
0.495849 -0.639509 -0.685241 -0.473533 -0.637347 -0.626845 0.828234 -0.274528 0.276487 0.0505846 
0.0928773 0.446752 -0.963249 0.541461 -0.486251 0.190569 -0.685406 -0.458118 -0.208197 -0.564184 
-0.294719 0.65936 0.0449114 -0.155056 0.679951 -0.820003 0.576205 -0.324589 0.755088 -0.123566 
0.31778 -0.922474 -0.596618 0.571762 0.433337 0.476902 -0.588855 -0.295567 -0.233231 0.175333 
-0.570633 -0.75 -0.130023 0.52252 0.279305 0.372671 -0.348843 -0.891724 0.0988695 0.307817 
0.80019 0.666352 0.238768 0.393264 0.121909 -0.448728 -0.483006 0.520953 -0.30606 -0.772881 
0.0140681 0.15423 -0.936282 -0.969743 0.713224 -0.658788 -0.718959 -0.689141 -0.226689 -0.971411 
0.0399549 0.0661698 -0.249714 -0.640235 -0.338487 -0.898779 -0.469717 0.954917 0.0882525 0.930904 
-0.740335 0.314795 -0.571145 -0.1665 -0.340476 0.782594 0.267716 0.455925 -0.0844684 0.234638 
-0.20871 -0.112086 0.587962 0.316741 -0.569216 0.0320854 0.293007 -0.482233 0.474398 -0.424497 
0.0865907 0.861752 0.826851 0.302212 0.663712 0.564943 0.970001 0.0846716 0.64076 0.2196 
-0.742238 -0.76378 -0.884079 0.417474 -0.258987 0.966235 0.473635 0.0191961 0.369126 0.509812 
-0.921947 0.960513 -0.193611 -0.208584 0.643748 -0.679602 0.433524 0.0873722 0.094167 0.792228 
-0.936309 -0.542354 -0.608452 -0.428173 0.464125 -0.396445 -0.197042 0.437037 -0.605367 0.515848 
-0.738701 0.943274 0.726173 0.0147388 -0.107267 0.322517 0.5681 0.123738 -0.782429 0.368432 
-0.528082 0.66989 0.16103 -0.985024 0.824907 -0.271039 0.493845 -0.963019 -0.805072 0.829904 
-0.451 0.3 0.701 -0.206 -0.439 0.303 -0.008 0.959 -0.052 0.206 
-0.387 -0.031 0.639 0.455 -0.439 -0.349 -0.59 -0.323 -0.424 -0.461 
0.222 0.502 -0.776 0.196 -0.151 -0.977 0.912 0.723 0.714 0.371 
-0.192159 0.619802 -0.0192939 0.156243 0.297935 -0.851273 -0.855 -0.503002 0.465594 0.442996 
0.446627 -0.609515 0.530585 -0.795016 0.694013 0.29242 0.449584 0.148836 0.948113 -0.419096 
0.594574 0.83956 0.674682 -0.753047 0.581177 0.429057 -0.901429 -0.601456 0.559835 -0.703942 
-0.995936 -0.0731169 -0.770877 -0.899458 -0.106494 -0.0341271 -0.617138 -0.242566 0.2482 -0.858153 
0.720495 0.630736 0.317939 -0.234986 -0.0400865 0.953774 0.916825 -0.909897 -0.172372 0.789849 
0.528728 0.877589 0.383157 0.410044 0.403923 0.347074 -0.969627 0.773597 0.805155 -0.435472 
-0.330557 0.823147 0.646617 -0.545646 -0.582597 -0.823362 0.818871 -0.0905476 -0.0713377 0.898197 
0.890819 0.879998 -0.33173 -0.680512 -0.378317 0.387768 -0.599391 0.435458 0.684861 -0.817284 
-0.51943 0.402574 -0.640756 0.350909 -0.585522 0.5673 -0.420104 -0.814159 0.154548 -1.01106 
-0.1207 -0.0785762 -0.196108 -0.37114 -0.842516 0.028459 -0.0693007 0.523779 -0.011329 0.856197 
0.869341 -0.358711 0.177696 -0.320259 0.0585186 0.237363 -0.872443 -0.0620454 0.561092 0.485014 
-0.261216 -0.808548 -1.0521 0.865787 -0.216103 0.0663447 -0.196928 0.700683 -0.448709 0.753808 
0.0633911 0.385399 0.259846 0.575543 -0.40132 0.208416 -0.761381 -0.930549 -0.595252 -0.333153 
-0.847406 -0.245444 0.858158 0.355206 -0.288478 0.377113 0.586927 0.122471 -0.357572 0.382042 
-0.00804729 0.724897 -0.235924 0.947599 -0.505582 0.914593 0.699067 0.860152 0.382734 -0.0670504 
0.695798 0.00808884 0.747476 -0.917797 -0.840898 -0.536938 0.365668 -0.226257 -0.850207 0.0833374 
-0.301021 -0.0676738 0.656281 0.513978 -0.826333 0.772793 0.694578 0.728531 0.668224 0.326262 
0.177228 -0.0454035 0.892402 -0.612438 -0.0588029 -1.00112 0.34265 -0.754992 0.702549 0.850006 
-0.0985125 0.0479215 -0.115254 0.601774 0.8508 -0.88729 0.571865 -0.167741 0.570639 0.500775 
0.149773 0.506507 0.0635111 -0.838165 -0.402384 -0.841482 0.922454 -0.777776 0.184575 0.871614 
0.869655 0.753628 -0.260477 -0.446011 0.776914 -0.450052 0.0691644 -0.940891 -0.136892 -0.48402 
0.669261 0.0945995 -0.242417 0.25624 0.417315 -0.657087 0.896383 -0.811926 -0.786212 0.953443 
0.237373 0.723609 -0.874894 -0.468702 0.177325 -0.579764 -0.286058 0.761558 -0.71362 -0.793028 
-0.262289 0.529713 -0.394969 0.489916 0.798911 0.568801 -0.593257 0.252939 0.412906 0.655802 
0.784924 -0.417055 -0.651989 -0.407033 -0.201003 0.361965 0.605925 0.666 0.734971 -0.781017 
0.671 -0.336 -0.401 -0.392 0.847 -0.986 -0.086 0.212 0.507 -0.378 
-0.673 -0.508 -0.68 -0.001 0.898 0.271 -0.614 -0.808 -0.448 -0.783 
-0.476 -0.012 -0.307 0.089 0.688 -0.586 -0.704 -0.732 -0.654 0.358 
0.736941 0.744935 0.567921 -0.2029 -0.175018 0.646932 -0.779 0.237 -0.357129 0.906996 
0.669246 -0.451734 -0.454226 0.0397209 -0.748473 -0.988848 -0.980149 0.430888 -0.525446 -0.309034 
-0.477145 -0.157904 -0.901496 -0.582437 0.772343 0.0535666 -0.323543 -0.128372 0.731775 0.00761593 
-0.108145 -0.699266 0.130057 -0.640093 0.784557 -0.261979 -0.998063 -0.0714143 -0.282266 0.647084 
-0.487484 -0.14994 -0.832046 0.900949 -0.643808 -0.756039 0.959587 -0.0767447 0.297086 -0.641848 
-0.229794 -0.214052 0.713931 0.284772 0.7071 -0.076193 -0.789392 -0.210926 -0.291899 -0.166756 
-0.783945 -0.913133 0.60618 0.570412 0.375309 0.226237 -0.376259 -0.157603 0.428144 0.590219 
-0.755702 -0.0303078 -0.267345 0.873262 -0.587658 -0.505498 -0.146534 -0.479246 -0.250585 0.498024 
0.401586 -0.253408 -0.00535803 0.781424 -0.983316 0.805472 0.256465 -0.813598 0.741132 0.739811 
-0.737359 -0.414198 0.28449 0.0742419 0.271037 0.60565 0.524548 0.962901 -0.773545 -0.699238 
-0.688286 0.616322 0.716029 -0.923254 0.704521 0.729864 -0.665533 -0.949623 -0.869546 -0.324231 
-0.679565 -0.921865 -0.493103 -0.175191 -0.774278 -0.809176 -0.541991 0.0840396 -0.356841 0.204188 
-0.813376 0.0550404 -0.48182 -0.516893 0.602126 -0.43746 0.169639 0.608354 0.763757 -0.401608 
-0.351738 0.474921 -0.711454 -0.499417 -0.555631 -0.0143814 0.842461 0.958992 -0.546439 -0.618384 
0.547784 0.244006 -0.750478 0.934822 0.0345702 -0.874072 -1.01371 -0.86025 -0.413003 0.747038 
-0.594289 -0.0534011 0.498346 -0.936276 0.208581 -0.202808 -0.588613 -0.931237 0.661855 0.234545 
-0.838217 0.18173 -0.953463 -0.735219 0.22159 -0.4354 -0.816204 0.0252768 -0.741528 -0.0579716 
-0.421927 -0.990659 -0.341792 0.604016 0.688792 -0.135744 -0.919764 0.950794 0.161613 -0.825757 
0.239623 -0.887446 -0.301661 -0.455041 0.752601 0.720678 0.132522 0.738078 0.431109 0.849106 
0.46737 -0.528219 0.494073 -0.307892 0.400651 0.208652 -0.975056 0.522673 -0.100421 -0.709678 
0.217404 0.845187 -0.83143 -0.917857 -0.381964 -0.911395 -0.165968 0.230836 0.116374 -0.664745 
0.564126 -0.569354 0.262237 -0.467017 0.830077 0.635719 -0.307959 -0.898384 0.0099357 -0.486717 
-0.358859 -0.731503 0.834036 0.546578 0.729524 0.502572 0.0399525 -0.394095 -0.589281 -0.703264 
-0.26323 -0.898115 -0.985013 0.0628957 -0.883114 -0.683074 0.998696 -0.849049 -0.357039 0.537978 
-0.218027 0.453984 0.887001 -0.988021 0.912 -0.078004 0.836964 -0.826 0.0909907 -0.192001 
0.718 0.851 -0.723 0.623 0.852 0.211 -0.77 -0.411 -0.999 -0.985 
-0.513 -0.272 0.029 0.921 0.987 0.863 0.327 0.488 0.477 -0.286 
-0.154003 -0.525002 0.0819982 0.831001 0.839 -0.381 -0.831 0.647 0.361999 -0.594 
-0.440024 -0.248025 -0.0950262 -0.438977 -0.279997 -0.620004 0.440997 -0.45 0.33898 0.737985 
0.123745 -0.0492188 0.00490074 -0.0597711 -0.0110821 -0.375214 0.481996 0.103979 -0.347398 0.379994 
0.429073 0.609991 -0.394548 0.0586016 0.786452 -0.949886 -0.673101 0.429903 0.620524 -0.253178 
0.404892 -0.706971 0.712215 0.20564 -0.0524527 0.403229 -0.190571 -0.48611 0.931317 0.587264 
0.781439 -0.673333 -0.0919858 0.0230318 0.473514 0.957202 -0.825546 0.722977 -0.0857393 0.705052 
0.523157 0.250324 0.614407 0.423188 0.896267 0.237591 0.968246 0.524497 0.743698 0.409447 
0.0867555 -0.0129506 -0.932371 -0.102076 0.246637 0.791007 0.718301 0.695894 0.528047 -0.552806 
-0.759479 -0.359638 -0.504868 -0.420309 -0.858565 0.768903 -0.982068 -0.960741 -0.516309 -0.39938 
0.254958 -0.10383 -0.776215 0.722121 -0.705766 -0.603683 -0.437919 -0.5969 -0.211203 -0.956765 
-0.988841 0.711692 0.505381 -0.105771 -0.349335 -0.321342 0.903811 0.945368 -0.381284 -0.751857 
0.590447 0.7428 -0.63309 -0.356103 -0.371722 0.0679436 -0.41075 -0.102923 0.741025 -0.370907 
-0.499806 0.51357 -0.24026 -0.0618006 0.0357491 -0.895546 0.784571 -0.929821 -0.108331 0.760315 
0.177086 -0.376451 -0.765473 -0.231172 -0.804475 -0.110835 -0.365935 -0.662424 -0.188665 -0.835182 
-0.807368 0.927107 -0.374232 0.93178 -0.587828 0.941327 0.62502 -0.0507896 0.0948214 -0.269464 
-0.431145 -0.579206 0.631872 0.332603 -0.612261 0.155996 0.884492 0.0778807 -0.671781 0.846065 
-0.569794 0.236944 0.442621 -0.100345 0.424991 0.268884 0.334008 0.155942 -0.556171 0.107212 
0.243382 0.866524 -0.835589 -0.041297 0.700194 -0.0645427 -0.540952 -0.297677 0.339673 0.658151 
-0.188455 -0.741785 0.0665879 0.373321 0.92232 0.0310886 -0.124964 0.355561 0.761632 0.969342 
-0.974834 -0.0826089 -0.809317 -0.112896 0.0903421 0.439498 -0.196403 0.504761 -0.963877 -0.481571 
-0.780617 -0.35486 -0.84974 0.223512 0.260629 0.379537 -0.0340376 0.738576 -1.00094 -0.146521 
-0.696673 0.52498 -0.712892 0.862178 -0.0216886 -0.0352244 -0.523683 0.344194 -0.792085 -0.114471 
-0.0947482 -0.280509 0.643078 0.605627 -0.558199 0.3604 -0.0177023 -0.0622535 -0.183447 -0.205206 
0.708749 -0.20114 -0.502981 0.794867 -0.258132 0.251904 0.366719 -0.86005 -0.897044 -0.145071 
-0.245097 0.0519831 -0.144009 -0.555035 -0.738107 -0.00301344 -0.350157 -0.211025 -0.935001 -0.29501 
0.127 -0.553 -0.573 0.503 0.276 -0.735 -0.325 0.246 0.781 0.803 
0.815 -0.737 -0.24 0.316 -0.419 0.777 -0.467 0.828 -0.216 -0.297 
-0.556 -0.524 -0.626 -0.892 0.535 -0.598 0.935 -0.559 0.786 -0.607 
0.32 0.414 -0.056 0.857 -0.088 -0.696 0.496 0.691 -0.294 -0.174 
-0.784 0.583 -0.867 -0.489 -0.024 -0.695 0.665 0.206 0.098 -0.582 
0.618944 -0.209058 0.0239519 -0.532943 -0.150003 0.933963 -0.505 -0.0249995 0.0749378 0.694 
0.78674 0.464601 -0.238323 0.639128 0.507891 0.459761 0.68198 -0.41392 0.494637 0.121948 
0.934346 0.947041 0.557863 0.119197 0.13762 0.4652 0.372846 -0.250266 -0.940945 0.340808 
-0.908268 -0.454215 -0.596895 0.917633 -0.732898 -0.789417 -0.935605 -0.381784 -0.875178 -0.429532 
0.111776 -0.963982 0.742638 -0.252337 0.72629 0.257922 0.975293 -0.265637 -0.97888 0.60493 
-0.538576 0.769801 0.937446 0.401532 0.623572 0.14744 -0.838261 -0.45768 0.121213 0.778705 
-0.574457 -0.642446 -0.842356 0.339241 -0.279903 0.0734166 0.0570527 0.540515 -0.7573 -0.575422 
-0.569597 0.627581 0.25557 0.0159884 0.695054 0.588563 -0.0331456 0.722326 -0.179299 -0.542105 
-0.746462 0.135769 -0.818835 0.3292 -0.60101 -0.84598 0.064737 0.417725 -0.946414 -0.816983 
-0.216163 -0.239318 0.285902 -0.933211 -0.892543 0.529126 0.321229 0.0706446 0.68834 0.197423 
