0.0002

4

784 16 16 10 
-0.533 -0.5 0.724 0.358 -0.536 -0.855 -0.173 -0.509 0.942 0.436 -0.396 -0.847 -0.618 -0.284 0.895 0.726 0.538 0.912 -0.701 0.894 0.811 -0.667 -0.336 0.711 -0.132 0.644 -0.243 -0.141 0.741 -0.222 0.035 0.842 -0.894 -0.058 -0.352 0.805 -0.271 0.35 0.101 0.548 -0.377 0.954 0.84 0.376 -0.692 -0.561 0.323 0.538 -0.918 -0.459 0.115 0.658 0.93 -0.694 -0.614 -0.255 0.072 0.829 0.573 -0.488 0.29 -0.364 -0.233 0.574 -0.948 0.15 0.724 0.43 -0.809 0.337 -0.713 -0.617 -0.091 0.758 -0.412 -0.054 0.03 0.168 -0.409 0.655 -0.641 -0.463 -0.517 -0.959 -0.65 -0.164 0.02 -0.979 0.199 -0.516 -0.266 0.999 0.938 0.788 -0.533 -0.107 -0.517 -0.579 -0.383 0.514 0.616 0.451 0.249 0.556 -0.697 0.008 -0.391 -0.298 -0.515 -0.657 0.587 0.503 0.2 -0.382 0.796 0.281 -0.202 0.157 0.622 -0.708 -0.821 0.657 -0.809 -0.112 0.511 -0.366 -0.945 -0.354 -0.114 -0.567 -0.858 0.416 0.998 -0.349 0.699 -0.524 -0.611 -0.288 -0.49 -0.131 -0.312 0.789 -0.577 -0.415 -0.715 0.426 0.757 -0.068 -0.846 0.189 0.329 -0.308 -0.445 -0.451 0.512 -0.94 0.753 -0.577 0.996 -0.471 0.437 -0.051 0.195 -0.584 -0.895 -0.718 0.734 0.701 -0.329 -0.737 -0.645 -0.947 -0.192 -0.055 0.756 0.558 0.982 -0.856 -0.778 -0.839 -0.55 -0.534 0.659 -0.561 -0.976 0.51 -0.351 -0.687 -0.978 -0.982 0.905 0.391 0.625 -0.586 0.824 0.874 -0.841 -0.93 -0.703 -0.823 -0.73 -0.332 0.985 -0.52 0.627 -0.901 -0.375 0.924 0.972 -0.819 0.432 0.593 0.031 -0.858 0.286 0.9 -0.64 -0.026 0.17 -0.167 0.76 -0.333 -0.45 0.694 0.624 -0.875 0.694 -0.698 -0.534 -0.407 0.484 -0.536 0.152 -0.913 0.926 -0.243 -0.685 -0.773 -0.242 0.109 0.086 0.487 -0.526 0.627 0.928 -0.48 -0.038 -0.404 0.261 -0.475 -0.74 -0.884 -0.674 -0.229 0.547 0.52 -0.076 0.763 -0.149 0.829 0.713 0.578 0.007 0.2 -0.561 -0.24 -0.676 0.108 -0.113 -0.15 -0.572 0.384 -0.46 -0.296 -0.644 0.35 -0.515 0.216 0.357 0.357 0.271 0.361 0.022 -0.888 -0.304 -0.959 -0.871 -0.435 -0.068 0.855 -0.038 0.734 -0.028 -0.631 -0.037 -0.517 0.635 -0.152 -0.062 -0.858 -0.489 -0.825 0.825 0.87 0.934 0.783 0.398 -0.299 -0.266 -0.466 0.993 0.705 -0.452 -0.7 -0.359 -0.145 0.462 -0.123 -0.322 -0.557 -0.327 0.313 -0.928 -0.39 -0.068 -0.305 0.831 -0.512 0.09 -0.411 0.145 0.314 -0.26 0.258 -0.241 0.605 -0.819 0.829 -0.392 0.997 0.556 0.627 0.541 0.24 0.174 -0.923 -0.317 0.992 0.601 0.759 -0.572 -0.916 -0.214 -0.03 0.847 -0.497 -0.337 -0.637 -0.829 -0.76 0.542 -0.087 -0.296 0.232 0.205 0.539 0.422 0.247 0.648 0.864 0.075 -0.288 -0.322 0.262 0.985 0.944 -0.46 0.508 0.87 -0.677 -0.528 0.087 0.763 0.103 0.527 -0.031 0.565 0.543 -0.912 -0.363 -0.537 -0.319 0.342 -0.94 0.758 -0.112 -0.31 -0.157 0.62 0.067 -0.217 -0.774 0.038 0.629 0.748 0.359 -0.234 -0.045 -0.274 0.025 0.001 0.496 0.515 0.342 0.913 0.196 0.072 -0.394 -0.571 -0.295 0.812 -0.907 -0.964 0.141 0.994 -0.348 -0.162 0.355 0.131 0.841 -0.989 -0.814 0.65 0.634 -0.647 0.452 0.262 0.454 -0.366 -0.744 0.124 -0.787 -0.972 0.08 -0.142 -0.845 0.264 0.676 -0.091 0.561 -0.052 0.653 -0.78 -0.077 0.369 -0.741 -0.381 -0.997 0.781 -0.608 0.313 0.589 0.938 -0.59 -0.766 0.961 -0.507 0.269 -0.131 -0.3 -0.736 -0.785 0.815 0.039 0.288 0.954 -0.29 -0.226 0.815 -0.459 0.679 0.898 -0.212 -0.868 -0.311 -0.992 0.79 0.363 0.184 0.2 0.885 0.071 -0.133 -0.705 -0.175 0.629 -0.402 -0.307 -0.92 -0.751 0.528 0.864 -0.595 -0.184 0.726 0.087 0.964 0.686 0.662 -0.936 -0.585 0.873 0.941 0.762 0.531 -0.732 0.602 -0.693 0.012 -0.37 -0.191 0.556 0.293 0.152 0.345 -0.752 0.712 -0.886 0.958 0.704 0.052 0.479 -0.577 -0.134 -0.502 0.196 -0.367 -0.978 -0.608 0.925 0.458 -0.193 0.83 -0.4 -0.201 -0.552 -0.46 -0.425 0.567 -0.603 0.897 0.851 -0.77 -0.075 -0.771 -0.06 0.147 0.655 -0.208 0.754 0.146 -0.054 0.569 0.663 -0.485 -0.525 -0.472 -0.43 0.464 -0.038 -0.476 0.469 0.923 -0.667 -0.09 -0.664 0.278 0.636 -0.836 0.949 -0.495 -0.996 -0.377 0.97 -0.432 0.085 -0.627 -0.806 0.826 0.572 -0.36 -0.181 -0.389 -0.711 0.565 0.585 0.45 -0.391 0.166 -0.926 -0.7 0.573 0.161 0.968 -0.969 0.426 -0.578 -0.221 0.552 0.391 0.764 0.364 -0.745 -0.526 -0.179 0.547 0.789 -0.805 0.95 -0.246 0.012 0.439 0.912 0.967 -0.585 0.223 -0.566 0.486 -0.042 -0.194 -0.3 0.692 -0.468 -0.026 0.021 -0.778 -0.624 -0.052 0.982 -0.224 0.111 0.856 -0.075 -0.514 0.969 0.534 -0.332 0.991 0.783 0.727 0.871 0.612 0.027 0.545 0.185 -0.763 0.313 -0.15 -0.889 -0.851 0.454 -0.319 -0.733 0.793 0.472 -0.17 -0.558 0.877 -0.298 0.381 -0.177 -0.977 -0.405 -0.673 0.31 0.058 0.487 -0.472 -0.742 0.86 0.286 -0.39 0.128 0.841 0.503 -0.135 0.881 -0.25 -0.402 -0.339 -0.244 -0.722 0.435 -0.925 0.386 -0.64 -0.952 0.492 0.84 0.735 0.599 0.892 0.328 0.369 0.794 0.252 0.432 0.208 0.497 0.649 -0.159 -0.9 -0.352 0.851 -0.367 0.2 0.99 -0.081 -0.422 -0.456 0.487 -0.475 0.538 -0.807 0.011 0.834 0.497 -0.471 -0.195 0.392 0.549 -0.021 0.277 -0.807 0.497 0.276 -0.418 0.159 -0.511 0.449 0.072 0.008 -0.792 -0.497 -0.393 -0.926 -0.389 -0.239 -0.11 -0.317 0.932 -0.259 -0.187 -0.604 -0.385 -0.401 -0.32 0.032 -0.416 0.517 -0.33 -0.118 0.523 -0.895 0.095 0.916 -0.822 0.058 -0.25 0.729 -0.005 -0.324 -0.101 0.565 0.608 0.243 0.514 0.055 0.973 -0.252 -0.014 -0.554 -0.483 0.916 
0.661341 0.24917 -0.596987 0.470252 0.0391534 -0.90993 -1.07432 0.913265 -0.407361 -0.759914 -0.600533 0.35585 0.290826 -0.0648306 -0.700015 1.46256 
0.00463362 0.341346 -0.638739 0.90498 1.39427 0.842359 -1.14375 0.0595338 0.597005 -0.69406 -0.947561 -0.826002 1.37491 -0.0677702 1.7964 -0.242057 
-2.10406 -1.79753 -0.788259 -0.330868 -1.8293 -1.86676 -1.90628 -2.21078 -0.24834 -1.6504 


-0.979 -0.545 0.947 0.124 -0.682 0.135 0.376 0.774 0.859 -0.002 -0.926 0.253 -0.078 -0.365 0.643 -0.112 
-0.847 0.232 -0.253 -0.32 0.926 0.678 -0.55 -0.199 -0.039 -0.801 -0.145 -0.637 0.716 -0.427 0.561 0.245 
-0.527 -0.726 0.55 -0.647 0.181 -0.713 -0.301 -0.89 -0.357 0.465 0.172 -0.471 0.981 -0.888 0.476 -0.619 
-0.753 -0.11 -0.329 -0.195 -0.628 -0.968 0.989 0.32 0.165 0.431 0.658 0.293 0.206 -0.422 -0.052 -0.794 
0.171 -0.834 0.396 -0.303 0.02 0.694 0.529 -0.212 -0.891 0.984 0.969 -0.022 0.617 -0.985 -0.374 0.684 
0.168 0.906 0.928 -0.903 -0.882 -0.61 0.199 0.785 -0.514 0.199 -0.58 -0.29 -0.729 0.813 0.415 -0.915 
-0.682 0.58 0.331 0.267 -0.613 0.444 0.186 -0.493 -0.64 0.827 -0.926 -0.569 0.152 -0.729 -0.732 -0.307 
0.885 -0.663 0.311 0.604 -0.323 -0.594 0.768 0.022 0.413 0 -0.458 0.537 -0.962 0.388 0.355 0.289 
0.647 0.181 0.093 -0.416 -0.013 -0.239 -0.507 -0.783 0.501 0.482 0.447 0.665 -0.247 -0.896 0.084 0.095 
0.525 -0.779 0.964 0.781 -0.128 -0.894 0.656 0.343 -0.407 0.08 -0.92 -0.132 0.411 0.713 -0.032 0.251 
0.216 -0.921 -0.232 0.04 0.531 -0.067 0.779 -0.337 -0.741 -0.347 0.936 -0.905 -0.635 0.874 0.72 -0.165 
0.68 -0.024 -0.545 0.725 -0.929 -0.192 0.559 0.156 0.602 0.832 0.905 -0.56 0.375 0.562 -0.115 0.962 
0.08 0.836 -0.203 0.202 -0.492 -0.92 0.34 -0.924 0.058 0.493 0.74 -0.454 -0.526 -0.227 0.097 -0.12 
0.335 0.072 0.4 -0.293 -0.045 -0.334 -0.859 0.588 -0.519 0.168 -0.685 0.396 -0.775 0.009 -0.988 -0.864 
0.455 -0.238 0.043 -0.258 -0.979 0.922 -0.488 0.248 -0.982 0.368 0.717 0.714 0.65 0.29 0.335 -0.241 
0.169 0.895 0.303 -0.36 0.979 -0.801 0.105 -0.209 -0.339 -0.319 0.652 -0.247 -0.967 -0.971 0.987 0.042 
-0.747 -0.917 0.42 0.814 -0.282 -0.756 0.063 0.229 -0.348 -0.136 -0.231 -0.53 0.005 0.047 0.594 0.487 
-0.674 0.276 0.323 -0.46 0.679 0.99 -0.412 -0.29 0.271 0.945 0.221 -0.53 -0.817 0.589 0.955 -0.022 
-0.221 0.006 0.262 -0.865 0.487 0.196 0.033 -0.912 -0.065 0.779 0.993 -0.21 -0.038 -0.035 0.001 0.105 
0.807 -0.433 -0.331 0.134 -0.329 0.457 -0.002 0.545 0.597 -0.782 -0.162 -0.156 0.372 -0.437 0.028 0.264 
-0.199 -0.277 0.49 0.604 0.601 -0.773 0.197 0.692 0.771 -0.637 0.301 -0.637 0.721 0.565 0.421 0.445 
-0.39 -0.505 -0.259 0.022 0.812 0.151 0.015 -0.945 0.393 -0.262 0.279 0.882 0.608 -0.346 0.822 -0.293 
-0.755 0.338 -0.856 -0.71 0.339 0.154 -0.396 -0.377 -0.775 -0.922 0.724 0.981 -0.67 0.733 -0.777 -0.406 
0.13 -0.154 -0.013 0.445 -0.195 -0.384 0.75 -0.511 0.338 0.963 -0.865 -0.303 -0.791 0.63 0.224 0.908 
-0.263 -0.526 0.92 0.372 -0.707 0.855 -0.266 0.561 0.056 0.606 -0.816 0.075 -0.618 -0.881 -0.259 -0.568 
-0.316 -0.221 -0.721 -0.717 -0.333 -0.164 -0.875 -0.882 -0.263 -0.972 -0.881 -0.423 -0.263 -0.909 -0.444 -0.205 
-0.94 0.901 -0.207 0.432 -0.864 -0.42 -0.125 0.907 0.184 -0.926 -0.281 -0.21 -0.524 -0.959 0.351 -0.671 
-0.71 -0.026 0.072 0.591 -0.811 0.787 0.49 0.239 -0.107 0.053 0.063 -0.319 0.903 0.005 -0.824 -0.521 
0.695 -0.861 -0.532 0.998 0.083 0.639 0.515 0.621 0.993 0.826 0.722 0.838 -0.172 -0.419 -0.601 -0.022 
0.891 0.023 -0.057 -0.166 -0.757 0.349 -0.298 -0.293 -0.498 0.141 -0.313 -0.654 0.891 -0.363 -0.587 0.4 
-0.184 0.69 0.162 -0.065 0.126 0.41 0.877 0.382 -0.74 0.189 -0.295 0.874 -0.337 -0.278 -0.805 -0.434 
-0.64 -0.962 -0.412 0.811 -0.755 0.467 -0.575 -0.133 0.189 -0.458 0.063 0.547 -0.498 0.617 0.099 0.023 
0.226 0.203 -0.952 0.051 0.57 -0.364 0.458 0.967 -0.544 0.405 0.531 0.962 -0.181 0.975 -0.444 0.531 
0.494858 -0.955958 -0.419825 -0.196944 0.387948 -0.0850203 0.450796 -0.681005 -0.728005 0.793171 0.38301 -0.866998 0.775611 -0.358569 0.577388 -0.709034 
0.953116 -0.921737 0.517773 -0.742654 0.332678 -0.107126 -0.505057 -0.897032 -0.250029 0.24648 -0.277938 -0.728985 0.614793 -0.0135328 -0.609906 0.584892 
0.257408 0.047176 -0.693008 0.658232 -0.521215 0.301916 -0.313691 -0.0100214 -0.99802 0.577025 -0.577958 -0.10499 -0.862461 -0.994365 -0.604123 -0.295564 
-0.828583 0.699259 0.123593 -0.821649 -0.95782 0.355358 0.94997 0.846968 0.461586 -0.641956 -0.619939 0.919546 -0.0321756 0.687104 -0.931081 0.328308 
-0.957994 0.504129 0.448234 -0.296658 -0.897404 0.0673435 0.163145 0.528974 0.537656 -0.920543 0.149036 0.742714 -0.753587 -0.183993 -0.00501326 -0.917857 
-0.952831 -0.63749 0.619041 -0.225197 -0.527372 0.731097 -0.248146 0.510777 0.854003 -0.611635 -0.502136 0.11759 0.351466 0.663826 -1.04953 0.0390098 
-0.504006 0.0865186 0.645645 0.836165 0.853226 0.0209435 0.24569 0.909651 0.482677 0.614906 -0.425907 0.49858 0.610811 0.85071 0.0502469 0.199252 
-0.436342 -0.654515 -0.128412 -0.819622 0.63528 -0.143436 -0.119774 0.662397 -0.104054 -0.802223 0.415835 0.828099 0.0297193 0.251994 0.658534 -0.344669 
-0.122525 0.914 0.728193 0.893101 0.698214 0.266869 0.751281 -0.934712 -0.619715 -0.0827329 0.617616 -0.897341 -0.996676 0.125536 -0.00646075 -0.379325 
-0.412714 0.149591 -0.364304 0.173063 0.858426 -0.594161 -0.704061 0.427718 0.674977 -0.520966 -0.386989 -0.811599 0.0687494 0.233382 -0.553926 -0.362246 
-0.160004 0.631528 0.0597052 0.893701 -0.378873 -0.72772 -0.00700427 -0.218714 -0.800866 0.44521 -0.704958 0.674091 -0.69963 -0.00453937 0.117795 -0.58405 
-0.107961 -0.283535 -0.354027 -0.29654 0.564303 -0.117089 0.658102 -0.341182 -0.755314 -0.616396 -0.348759 -0.233058 0.598908 -0.160376 0.202729 0.493255 
0.284742 0.248949 -0.934909 -0.577486 -0.823772 -0.418426 -0.217661 0.270898 -0.713061 0.996901 -0.49866 -0.020749 -0.865358 -0.299921 -0.477711 -0.538369 
-0.88047 -0.796446 0.544308 -0.170811 -0.538843 0.622622 -0.606436 0.759914 0.0979395 -0.0673921 -0.519725 -0.385304 0.564275 -0.506893 -0.408028 0.160802 
0.745664 -0.462539 0.67023 -0.460947 0.476961 0.555001 -0.0825998 -0.629 -0.24003 0.751702 0.757955 0.433001 -0.745001 0.0649789 -0.27463 -0.600095 
0.0339469 -0.241072 -0.606936 -0.451694 0.273129 -0.208 -0.806845 -0.067 -0.863008 0.102922 0.689989 -0.789 0.694 -0.332014 -0.373123 0.497505 
-0.011 0.248 0.879 0.647 0.149 -0.069 -0.331 -0.125 0.598 0.449 0.436 -0.401 -0.877 0.443 0.731 -0.846 
-0.139 -0.566 0.385 0.967 -0.184 0.393 -0.296 0.866 -0.047 -0.692 -0.777 -0.316 -0.208 -0.333 -0.952 -0.531 
0.93 -0.189 0.814 -0.91 0.427 0.743 0.604 -0.401 -0.526 0.195 -0.494 0.158 0.589 0.858 0.809 0.889 
0.447 -0.96 0.818 0.364 0.975 -0.974 0.089 -0.497 -0.934 -0.588 -0.16 -0.43 -0.324 0.395 -0.359 0.986 
0.651 0.109 -0.813 -0.917 0.085 0.39 0.25 -0.314 -0.245 0.381 -0.872 0.502 -0.723 -0.138 -0.576 0.565 
0.872 -0.168 -0.115 -0.572 -0.354 -0.111 -0.522 -0.117 -0.075 0.265 0.26 0.045 -0.222 0.821 0.855 -0.48 
-0.073 -0.227 0.134 0.251 -0.325 0.336 -0.666 0.001 -0.263 0.31 0.974 0.59 -0.644 0.071 -0.92 -0.065 
-0.855 0.282 0.825 -0.282 0.573 -0.288 0.037 -0.002 0.905 0.162 0.717 -0.308 0.539 -0.953 -0.054 0.103 
-0.769 -0.885 -0.161 0.858 -0.171 -0.355 0.394 0.199 0.645 -0.728 -0.325 0.862 -0.928 0.773 -0.52 0.238 
-0.103 0.542 0.608 0.203 0.277 -0.875 -0.866 0.401 0.078 -0.618 -0.831 -0.264 0.478 0.939 0.138 -0.279 
0.426 -0.337 0.677 0.575 -0.276 0.981 0.7 0.961 -0.138 -0.998 -0.552 0.095 -0.316 -0.984 0.137 0.507 
0.993 0.284 -0.056 -0.741 -0.179 0.058 -0.357 0.668 -0.323 -0.881 0.857 0.041 -0.109 0.264 0.623 -0.085 
-0.928107 0.929423 -0.169028 -0.284862 0.613117 -0.463853 -0.0414075 0.74413 -0.309078 0.454977 0.0920229 -0.758961 0.831706 -0.552663 0.238043 0.787049 
-0.787054 -0.677605 -0.764973 -0.865572 -0.11539 0.0385875 -0.817161 -0.173161 -0.383025 0.0965215 0.906392 -0.122637 -0.0685382 0.0815727 0.443475 -0.0131822 
-0.810381 0.101789 0.388704 0.76616 0.774539 0.407728 -0.312039 0.750037 -0.306152 -0.204816 0.823232 -0.112339 -0.37412 -0.912882 0.761218 0.203755 
-0.478858 0.991666 -0.895119 -0.978794 0.633518 -0.574412 -0.391257 0.354419 -0.761077 0.648799 -0.924102 -0.0619255 -0.505947 -0.950732 -0.673775 0.106502 
-0.606116 -0.404314 -0.0884667 -0.670737 -0.689442 -0.0138179 -0.647544 -0.455705 0.785225 -0.392309 0.478964 -0.158168 0.776383 0.206477 -1.03281 0.0161222 
-0.249992 -0.452824 1.13152 0.470386 -0.181306 0.642011 0.0259361 -0.711327 -0.929951 0.880608 0.163717 -0.386842 0.82267 0.671013 0.520926 -0.487623 
-0.394267 -0.22411 -0.464438 -0.811327 -0.120144 0.257591 -0.804695 0.565478 -0.686171 0.457806 0.315 -0.75587 0.0459697 -0.459093 0.610333 -0.637822 
-0.44884 0.729786 0.0964789 -0.559824 1.01622 -0.752279 -0.224593 0.317653 -0.937674 0.388446 -0.989707 0.739095 -0.0692748 0.0611258 -0.752764 -0.101422 
0.354884 0.768466 0.0339825 -0.552138 -0.05595 0.0547221 0.141653 -0.521618 0.313461 -0.427675 0.546915 0.54916 -0.745856 0.615936 0.185525 0.464091 
-0.46224 -0.270714 0.441111 -0.451941 -0.234166 0.092989 0.915318 -0.550435 0.858775 -0.694954 -0.479001 0.639076 0.48829 0.388333 -0.57743 0.431955 
-0.553407 -0.631889 -0.731446 0.418091 -0.370123 -0.976853 -0.642287 0.465713 0.0923356 -0.422991 1.0663 0.606304 -0.47051 0.207612 -0.59154 -0.31834 
0.875936 0.723968 -0.400737 0.458715 0.779353 -0.342516 -0.502115 0.267424 -0.874677 0.484354 -0.198539 0.0972137 0.263073 0.367936 0.664427 -0.458774 
-0.965763 -0.717629 -0.937151 -0.633337 0.441299 0.45837 0.144913 -0.545005 0.82277 0.70923 -0.10816 0.635786 -0.278474 0.256582 0.715357 0.0546936 
-0.667205 -0.697231 0.117758 -0.969173 -0.476789 -0.776041 0.740643 0.841583 -0.0332725 0.394925 -0.844861 0.0174394 0.755725 -0.373049 -0.358099 0.00198204 
0.409391 0.307033 -0.313504 0.0976503 0.34069 -0.380213 -0.814869 -0.200455 -0.0490819 0.10021 -0.216379 -0.234355 -0.352165 0.771836 -0.064968 -0.820638 
0.113041 0.554324 0.561344 -0.648125 -0.0677953 0.876824 0.796201 -0.606305 0.372215 -0.788332 0.330854 0.198852 0.566761 0.561013 -0.589622 -0.0602423 
0.854488 -0.700056 -0.790703 0.444888 0.142195 -0.535999 -0.910246 -0.619832 0.819576 0.916108 0.181129 -0.328814 -0.703692 0.589259 0.714039 0.0787539 
-0.553109 -0.0139914 0.464427 0.341655 -0.48904 0.369001 0.30433 -0.586957 -0.832022 -0.912035 -0.735205 0.968222 0.594786 0.440592 0.833854 0.826281 
0.0203065 0.453082 0.909296 0.973363 0.981789 0.503 -0.423787 -0.179327 0.882297 0.355185 0.384077 -0.574615 0.229931 0.156863 -0.363676 0.541983 
-0.690013 0.865996 0.687 0.171005 0.477015 0.245 -0.236005 -0.762 0.670999 -0.953003 -0.885009 -0.408 0.311 -0.343 0.404996 -0.947024 
0.171 -0.42 -0.26 -0.47 0.675 -0.68 0.79 0.377 -0.002 -0.414 0.604 -0.511 0.631 0.744 -0.612 -0.39 
-0.282 -0.081 -0.741 0.927 -0.391 -0.881 0.479 -0.284 -0.7 0.396 -0.147 0.458 -0.17 -0.407 -0.194 0.849 
-0.146 -0.728 -0.84 -0.706 -0.946 -0.667 -0.854 -0.771 -0.529 -0.572 -0.441 -0.759 0.421 -0.312 -0.634 -0.967 
-0.315 -0.73 0.329 -0.739 -0.14 -0.792 -0.018 -0.838 -0.494 -0.122 0.979 0.897 0.887 -0.462 -0.531 -0.217 
0.54 -0.205 0.266 -0.367 0.509 -0.443 -0.683 -0.866 -0.947 -0.865 -0.742 -0.407 0.843 0.693 -0.534 -0.049 
-0.86 0.094 -0.063 0.174 -0.488 -0.903 0.551 -0.305 0.817 0.492 0.292 -0.763 0.53 -0.387 0.296 0.71 
-0.611 0.628 0.809 -0.214 0.744 -0.16 -0.818 -0.431 -0.88 0.393 -0.708 -0.038 -0.786 -0.473 -0.193 0.194 
-0.294449 -0.287133 0.0153789 -0.0902934 -0.305665 0.664 -0.800027 -0.0050003 0.762538 -0.616233 -0.0586486 0.907733 0.0482105 0.768 -0.374832 -0.48873 
0.952298 -0.757447 0.127506 -0.381596 -0.760393 0.862979 0.13782 0.574185 0.814591 -0.666565 -0.861416 0.09726 -0.599355 -0.441385 0.476793 0.160322 
-0.0666512 -0.564905 0.833132 0.241588 0.545869 0.626737 0.941187 -0.114171 -0.988657 -0.794885 -0.797453 0.756983 -0.118662 -0.738982 0.305178 0.383486 
-0.226386 -0.477257 -0.547123 -0.052206 -0.433975 -0.323001 0.296323 0.397092 0.342798 -0.387769 0.607363 -0.0433581 -0.959408 0.989266 -0.164926 -0.685817 
0.472024 -0.253826 -0.0950484 -0.654849 0.299585 0.0592989 -0.211982 0.951251 -0.579281 -0.49115 -0.791583 0.642569 -0.822621 0.411339 0.118728 0.292152 
0.175293 -0.903754 0.458533 0.0827691 -0.634503 -0.921534 0.083029 0.00306859 -0.0345957 -0.981384 0.940073 0.917556 0.654216 0.788758 -0.724203 0.33528 
0.604275 0.937392 0.810543 0.388915 -0.359487 -0.67256 0.203007 -0.212573 -0.48741 -0.153444 -0.142229 -0.211842 0.694806 0.543314 0.505599 0.306069 
0.0695319 0.29206 0.879259 -0.051922 0.390289 -0.680859 0.257624 0.859286 -0.703501 0.0437785 -0.316567 -0.00741741 0.364117 0.946256 0.30275 -0.351085 
0.149276 0.670965 -0.184026 0.400793 0.550009 -0.0441482 -0.835233 -0.333396 0.511206 -0.888776 0.888143 0.901304 0.385644 -0.8979 0.576111 -0.343632 
0.162051 -0.025088 -0.126835 1.12519 -0.487642 0.86079 -0.425652 -0.864834 -1.22537 -0.936173 1.05808 0.401903 -0.0106607 0.852623 -0.911026 -0.529264 
0.773682 -0.507633 0.314118 0.271387 -0.666004 0.732318 -0.499515 0.834373 -0.163961 0.356469 0.133667 -0.409865 0.901293 0.00767211 -0.662042 -0.533712 
-0.358936 -0.780343 0.0776283 -0.691884 1.0215 0.86233 0.228255 -0.655279 -1.04972 -0.991415 -0.16439 -0.0290593 0.191451 0.0621781 -0.827349 0.0927032 
-0.703258 0.631698 -0.35559 -0.381102 -0.878755 0.114482 -0.441463 -0.375968 -0.505166 -0.960072 -0.182136 0.00287767 0.512636 -0.0723926 -0.544784 -0.766623 
-0.745383 -0.635509 0.601287 0.314791 0.244735 0.583984 -0.14451 -0.263057 -0.152095 -0.139118 -0.632094 0.764385 -0.720713 -0.319297 0.118735 -0.828121 
-0.856705 -0.630556 -0.521448 -0.396161 -0.462114 -0.669591 -0.0198888 -0.714765 0.765811 -0.199351 0.475189 0.046084 -0.823173 0.446319 -0.873538 -0.268106 
-0.169029 -0.0361877 0.782993 -0.4597 0.522688 0.449141 0.855269 -0.348506 -0.676069 -0.044721 -0.459023 0.795072 0.450054 -0.795343 -0.404433 0.756569 
-0.334747 0.358993 -0.409887 1.11132 -0.906353 -0.813752 -0.34221 0.139586 -1.06107 -1.06408 -0.576531 0.0419069 -0.0108617 -0.100958 -0.651572 0.502717 
0.277943 0.107108 0.754562 -0.527793 0.958254 0.894419 -0.272479 0.058488 -0.122134 -1.0722 0.762113 -0.148445 -0.168071 -0.110484 -0.851958 -0.494332 
0.6208 -0.626076 -0.977583 0.622445 0.365442 -0.17377 -0.814253 0.968366 -0.748734 0.51003 -0.334415 -0.497292 0.259305 -0.944299 0.468491 0.110495 
0.720998 -0.975159 0.985895 -0.789598 0.717239 0.846107 0.165947 0.212335 0.431211 -0.125039 -0.277018 -0.635457 -0.568398 0.897015 0.0757677 0.280195 
-0.0785353 0.100482 0.770417 0.77982 -0.348781 -0.703902 0.290526 -0.259765 0.24116 0.881987 0.478836 0.263558 0.567083 -0.825877 -0.055255 -0.540953 
0.13568 0.0137787 0.697434 -0.493303 0.03452 0.851035 0.547179 -0.175535 -0.639083 -0.359228 0.180399 -0.686763 0.90319 0.682729 0.901715 -0.413474 
0.246133 0.586288 0.269027 -0.751387 -0.862556 -0.603 -0.572226 0.171332 -0.973029 -0.852276 0.988621 -0.602064 0.263516 0.669001 -0.111448 -0.121219 
0.014 0.104 -0.516 -0.057 0.495 -0.189 0.293 -0.108 -0.202 0.99 0.299 -0.11 -0.507 0.074 0.549 0.774 
0.314 -0.827 -0.931 0.218 -0.135 -0.167 0.238 0.911 0.252 -0.537 -0.492 0.149 0.088 -0.755 -0.769 0.92 
-0.894 0.271 -0.632 -0.579 0.258 -0.843 0.647 -0.018 -0.762 -0.878 0.723 -0.094 -0.294 -0.811 0.156 -0.655 
-0.649 -0.077 0.118 0.55 -0.903 0.836 -0.409 0.406 -0.49 0.813 -0.349 0.88 0.844 -0.257 0.741 0.245 
-0.421966 -0.0509906 0.704335 -0.485718 0.785045 0.227081 -0.373338 0.203546 -0.64391 0.916633 -0.77299 -0.445215 -0.898009 -0.714 0.467993 0.698272 
-0.0189813 0.411866 -0.536871 -0.239322 0.491896 -0.225053 -0.579861 0.129313 0.0913843 0.294031 0.947089 0.105442 -0.878436 -0.470964 0.672791 0.849093 
-0.735433 0.556709 0.951192 -0.355584 0.0833977 -0.345838 0.766211 -0.609397 0.743932 -0.00644727 -0.557676 -0.319708 0.0766186 0.917408 -0.283915 0.345088 
0.418023 -0.866058 0.795878 0.283535 -0.0669283 0.547123 0.0875479 -0.209829 -0.13567 -0.273224 -0.397372 -0.871521 -0.370058 -0.88375 0.784289 -0.328476 
0.772533 -0.0461421 -0.423516 0.290407 0.26039 0.145842 -0.919805 -0.578472 -0.347203 -0.373432 0.182693 -0.701626 0.906345 0.227517 0.384525 -0.29602 
0.652236 -0.248986 -0.272109 1.08491 -0.539272 0.963253 0.570203 -0.946133 0.704034 -0.592463 -0.51369 0.523929 0.750564 -1.00598 -0.0711654 0.802781 
0.0464137 -0.30122 -0.0127323 0.544258 -0.87179 -0.502343 -0.259296 -0.455056 -0.0437592 -0.127727 1.04472 -0.469768 -0.538056 0.186793 -1.18577 0.162175 
-0.31899 0.814516 -0.284403 0.852349 -0.530319 -0.702289 -0.479453 -0.488705 -0.862217 -0.384766 0.976404 -0.27204 -0.397106 -0.0390429 -0.0175865 -1.05599 
0.1091 0.0440689 -0.506545 0.932659 0.527312 0.836393 0.193345 0.588125 0.600544 0.548677 0.0529209 0.621967 -0.679525 0.639677 -0.795367 -0.507099 
0.762039 -0.337935 0.251902 0.80727 0.219407 -0.949711 0.186958 0.424413 0.4 -0.242115 1.22242 -0.216494 0.85896 -0.388048 -0.538808 -1.19571 
0.387877 0.645384 -0.0221485 -0.496865 0.0741345 -0.314274 -0.620469 -0.242681 -0.781488 -0.0858121 0.0839395 1.17937 -0.487193 -0.235748 -1.20191 -0.430444 
-0.644815 -0.482354 -0.668467 -0.600863 -0.135353 -0.994868 0.600094 0.250532 0.336266 0.288885 1.09511 -0.553949 -0.0859004 -0.823647 0.29637 -0.117043 
-0.723556 -0.263637 -0.44228 0.964665 -0.171552 0.425137 0.0397225 -0.823517 -0.639483 0.00912105 0.611501 0.19356 0.310646 0.349869 -0.705172 0.462399 
-0.126153 -0.645125 0.324931 -0.305629 -0.319165 0.762271 -0.421348 -1.03323 0.38928 0.901819 0.496578 0.606373 -0.846514 -0.797321 -0.93703 0.0454867 
-0.263033 -0.469392 -0.165529 0.117088 0.449493 0.597255 -0.0531898 -0.219027 0.496529 0.761067 0.481729 0.839823 -1.03253 0.0780459 -0.243167 0.53129 
-0.487086 0.708828 -0.430425 0.511312 -0.383085 -0.969735 0.266088 1.0874 0.647479 -0.352348 -0.354813 -0.133357 0.160123 -0.819987 -0.804323 -1.02053 
-0.551856 0.0799805 0.569268 -0.874641 0.533458 -0.996174 -0.547532 -0.579353 0.251507 0.606406 -0.314842 -0.280653 0.421652 -0.277896 -1.17862 0.561479 
-0.776721 -0.315644 0.495215 -0.607358 0.364734 -0.963621 -0.684318 0.716446 0.246919 0.418913 -0.885826 0.0821401 -0.0503548 -0.509914 -0.561907 -0.106599 
0.196782 -0.618467 0.783804 -0.405549 -0.634367 -0.324111 -0.800293 0.381471 -0.126421 0.651678 -0.196929 0.27891 -0.0707845 -0.715846 0.383541 0.476838 
-0.691529 -0.604817 0.359106 0.226064 -0.477433 0.430036 0.0106658 0.173116 -0.668901 -0.69237 -0.531429 0.319348 0.688091 0.831948 -0.379353 -0.724512 
0.817768 0.697483 0.103724 0.227055 -0.28563 -0.957947 -0.741261 -0.672572 -0.418428 -0.811178 -1.01253 -0.345767 0.761959 -0.921355 -0.389894 0.958826 
0.776154 0.295355 0.386233 -0.100624 -0.363499 0.418566 -1.02047 -0.633331 -0.466944 0.978386 0.515963 -0.376565 -0.331633 0.384337 -0.365616 -0.661434 
-0.655454 -0.368609 0.504053 -1.04208 -0.935209 0.357886 0.414753 -0.508716 -0.0857204 -0.482303 -0.246085 -0.778416 0.0897188 0.239307 0.0247742 -0.931172 
-0.468452 -0.516059 0.578983 -0.016529 0.694537 0.770964 0.29361 -0.618447 -0.845202 -0.182121 -0.50731 0.321851 0.584244 0.514461 -0.731022 -0.137389 
-0.729 0.283 -0.636 0.038 0.012 0.184 0.759 0.501 0.574 -0.267 0.059 0.714 0.649 -0.405 -0.478 -0.459 
-0.584 0.377 0.052 -0.435 0.891 -0.862 0.31 -0.033 0.055 0.787 0.224 -0.778 -0.561 0.441 -0.352 -0.196 
0.834172 0.368072 0.441 -0.128 -0.332031 0.974001 0.175992 0.137002 -0.366827 0.2411 0.745 -0.982306 0.0149997 -0.0259998 0.252 -0.154 
-0.0438986 0.52404 -0.0339999 0.581 -0.856016 -0.759987 0.334007 0.296002 0.876094 0.0270542 0.204978 -0.982167 -0.709 0.640999 0.465001 -0.809 
-0.532359 -0.746053 0.698102 -0.77631 -0.984807 0.944109 -0.373498 0.0644343 0.499894 0.155133 0.501011 0.672782 0.275233 -0.954103 0.631548 0.789752 
-0.928368 -0.850084 -1.09547 0.216335 0.890985 -0.66848 0.177789 0.185167 0.650771 -0.682492 -0.634066 -0.677492 0.00665656 -0.0331208 -0.672126 -0.191105 
0.79954 0.33686 0.373071 0.00967594 0.870239 0.222676 0.813522 0.715274 -0.458249 0.199276 0.724045 0.766681 0.319405 -0.686982 -0.985523 0.339366 
0.66759 1.00057 -0.470548 -0.304058 -0.95228 -0.887915 -0.142889 0.971247 0.521994 -0.340777 0.692262 0.209015 0.100283 0.132777 -0.640323 0.405256 
-0.0696177 0.651374 -0.64494 1.0927 -0.37741 0.232483 0.0214065 -0.162754 -0.519799 -0.206468 -0.600887 0.793123 0.284757 0.423723 -0.7288 -0.18664 
0.526306 -0.296166 -0.174377 -0.393722 -0.448568 -0.761618 0.905244 -0.798886 0.635839 -0.888588 -0.131649 0.0802897 -0.311307 -0.443323 -0.862233 0.0286965 
0.510887 -0.791949 -0.507528 0.129983 0.530791 -0.0458416 0.685173 0.511744 -0.700361 0.173301 0.601533 -0.464585 0.790359 0.513894 0.653676 -0.51299 
0.345914 0.161213 0.405103 0.486704 -0.166227 -0.539193 0.898688 -0.456837 -0.301266 -0.0258238 -0.326804 0.087682 0.63422 0.562367 -0.0830933 -1.23496 
-0.465794 0.172183 -0.40087 -0.513717 -0.793869 -0.831212 0.188045 -0.998352 0.19103 -0.199421 0.1933 0.463327 -0.306642 -0.509307 -0.500638 -1.1652 
-0.889587 0.410449 0.0260852 0.239936 0.194999 -0.732371 0.663281 0.0898046 -0.841142 0.606014 0.533398 -0.629124 -0.540527 -0.775454 -0.301183 0.343922 
-0.453404 1.02994 -0.853427 0.34463 -1.77962 -0.0959393 0.244921 0.248426 0.740906 0.600416 0.479428 -0.350649 0.485832 -0.679664 -0.313887 -1.47113 
0.296011 0.177999 0.25641 0.15703 -0.383116 0.626259 0.918786 -1.20104 -0.980869 -0.752405 0.82022 0.757932 -0.0841103 -0.802588 -0.376529 -0.138955 
-0.793949 0.850551 -0.69148 -0.881205 -0.377822 -0.750354 -0.119008 0.211467 0.230006 0.779697 -0.770063 0.554458 0.0100612 -0.609774 -0.765167 -1.11741 
-0.443004 -0.229499 0.394348 0.63065 0.184018 -0.0681119 -0.559294 0.406169 -0.610985 -0.430133 -0.233241 0.759106 -0.544451 -0.790659 -0.445868 0.133755 
-0.939435 -0.769219 0.6787 0.964386 -1.07749 -0.46707 -0.0618327 -0.443678 -0.0638563 0.453956 -0.185339 0.900423 0.321593 -0.360229 -1.17099 0.276327 
-0.819643 0.143321 -0.0151235 0.144028 -0.338039 -0.311993 0.236634 0.539733 -0.377481 -0.0918508 -0.00805727 0.322902 0.417432 -0.069709 -0.854315 -1.01175 
-0.140458 0.466231 0.395752 -0.0990693 -0.527908 0.551627 -0.118369 -0.291563 -0.379042 0.652977 -0.40292 -0.0470003 0.238607 -0.886996 -0.153441 0.194038 
-0.0344397 -0.565398 0.383635 0.196696 0.224346 -0.825684 0.167252 0.711061 -0.318195 -0.413191 0.210671 -0.429843 -0.564215 -0.71488 0.00405299 -0.71767 
-0.167159 0.344329 0.335159 0.269486 -0.58414 -0.779147 -0.30827 1.22866 -0.28394 -0.246428 -0.602126 -0.537101 -0.610195 -0.607146 -1.14417 -0.00890822 
-0.239775 -0.819664 -0.922337 -0.48926 -0.0176479 0.698567 -0.976005 -0.590907 0.843953 -0.443181 -0.761957 -0.766844 0.139769 0.261318 0.841776 0.251126 
0.712786 0.706733 0.0683212 0.163343 0.185239 -0.968462 0.181224 0.931378 -0.590725 -0.531469 0.267768 -0.97644 -0.276685 -0.189166 -0.614407 0.813806 
-0.479042 -0.676704 0.134673 -0.985933 0.665079 -0.0638011 0.519287 -0.108233 -0.765415 -0.828737 -0.485401 -1.01706 -0.257273 -0.464488 0.317136 0.926567 
-0.332682 0.665281 0.920595 0.184832 -0.279783 0.0638284 0.224553 -0.812497 0.51409 -0.576952 0.0295384 -0.051869 0.556537 -0.877956 0.22233 0.210894 
-0.283586 -0.462024 0.541534 -0.435574 -0.752532 -0.629888 0.934683 0.639883 0.375516 0.0848775 0.312328 0.386368 0.970491 -0.488264 0.604835 0.853037 
-0.967 0.675 -0.864 -0.501 0.775 0.79 -0.624 0.256 -0.728 -0.297 0.086 -0.033 0.515 0.542 0.495 0.566 
-0.544 -0.814 -0.563 0.198 -0.374 -0.636 0.085 0.665 -0.092 -0.66 0.36 -0.186 0.154 -0.988 0.752 0.338 
-0.294 -0.475 -0.37 0.249 0.179 0.079 -0.687 -0.162 -0.483 -0.579 -0.855 0.991 0.969 0.839 -0.692 -0.435 
0.763191 0.472997 0.681001 0.970021 0.143632 0.0531685 -0.294519 -0.492642 -0.284956 -0.570844 0.0657743 0.688989 -0.335099 0.770983 0.541867 -0.736884 
-0.358664 0.581482 -0.493086 -0.0235296 0.967235 -0.82629 -0.831005 -0.766856 -0.346609 0.828813 0.443012 -0.0808174 -0.718873 0.404815 0.426595 -0.66991 
0.539903 -0.619699 0.11888 0.238286 0.387568 -0.813358 0.967347 0.147153 0.561515 0.322897 0.434719 -0.882194 -0.888741 -0.412283 0.467068 0.242084 
-0.570378 0.409234 0.449352 0.59656 -0.615132 -0.140635 -0.714074 -0.0680549 0.842521 -0.68787 -0.911969 0.724833 0.531236 0.462642 0.301745 0.432405 
0.0924978 0.318362 -1.28956 -0.62276 -0.54411 -0.35043 0.734424 0.637302 -0.591389 -0.510877 -0.651032 0.610029 -0.0330123 0.378939 -0.194335 0.778207 
0.861959 0.788567 -1.17299 -0.468544 -0.771204 -0.488478 -0.0572523 -0.667333 -0.630326 -0.331396 -0.37707 -0.253239 0.541264 -0.900916 0.361617 -0.188072 
0.338007 0.360619 0.272741 -0.171341 -0.708734 0.831087 -0.0284003 -0.897418 -0.967126 -0.884592 -0.122091 -0.642303 -0.649705 0.298339 0.689358 -0.135365 
-0.655302 0.710289 -0.612803 -0.553283 0.0687789 0.557888 0.415958 0.466066 -0.37719 -0.13253 0.708836 -0.519208 -0.0887098 -0.804094 0.0224051 0.551785 
0.799054 0.592182 -0.0946388 0.269453 -1.06999 0.320299 0.341292 -0.113311 0.956395 0.123628 0.263109 0.200603 -0.286911 0.774773 -0.373482 -0.684237 
-0.542085 -0.3651 0.116085 0.502825 0.0222687 -0.818175 -0.199007 -0.492991 -0.310601 -0.722006 1.36421 0.0456655 -0.464439 -0.800179 0.791696 0.502794 
0.589391 -0.228461 -0.112293 0.012142 -0.296031 0.145115 -0.548993 -0.139859 0.526861 -0.627703 0.648567 -0.414278 -0.00653204 -0.106867 -0.714494 0.249033 
-0.76534 0.309436 0.638168 0.820472 0.138115 -1.00655 -0.2433 0.188658 0.488628 -0.360196 0.713937 -0.0196704 -0.678502 -0.340206 -0.23095 0.601035 
-0.468415 -0.198587 0.104889 0.769156 -0.0129145 0.537239 0.334075 -0.203775 -0.163178 0.903703 0.61911 0.231421 -0.605186 0.769169 1.06671 0.501857 
0.765735 0.262623 0.218897 0.0209166 -0.300432 0.214157 -0.193683 -0.615023 -0.349164 0.990369 0.8513 0.148987 -0.523097 0.728718 -0.483982 -1.06583 
0.343975 1.03701 -0.251114 -0.00530738 0.256041 -1.00617 -0.169651 -0.575009 -0.158211 0.355371 -0.0943789 -0.379302 0.0633688 -0.194731 0.247132 -0.29977 
0.571406 0.511537 0.166975 0.678037 -0.368745 -0.87117 0.606406 0.534645 0.793451 0.842181 1.13803 -0.107435 0.293988 0.109389 0.969858 -0.347918 
0.691239 0.294127 -0.0489933 -0.0641531 -0.284269 -0.674729 0.581995 0.0414544 0.0989544 0.152815 -0.287862 -0.329123 -0.511105 -0.0498087 -0.166903 0.443587 
-0.0197088 0.575075 -0.068477 0.89008 -0.818895 0.349943 0.477254 0.202233 -0.439438 0.146584 0.727845 -0.522825 -0.0571415 -0.204277 0.510889 -0.312475 
-0.59457 -0.177359 -0.388178 -0.901921 -0.0643864 -0.572147 -0.606571 0.511592 -0.426936 0.701808 -0.678021 0.229783 -0.296396 0.215731 -0.578135 0.352023 
0.653453 0.0582241 0.836115 -0.588125 0.562033 -0.299353 0.671341 0.244307 -0.263038 -0.614386 0.0284839 0.320252 0.507156 0.297268 0.610762 0.797824 
-0.0773669 -0.506544 0.851016 -0.704247 0.472962 0.746738 0.0988519 0.0212866 -0.590133 0.134798 0.465803 -0.567068 0.420441 -0.327299 -0.368948 -0.181455 
-0.78413 0.120901 -0.337853 -0.248632 -0.0949921 -0.366322 -0.18708 0.779376 0.632004 0.990934 -0.329368 -0.0871421 -1.0932 0.634942 -0.487792 0.404276 
0.949827 0.817919 1.05966 -0.113587 0.262487 -0.217745 -0.0679662 -0.946611 -0.194205 -0.351942 0.26284 -1.10464 -0.933782 0.0766631 -0.360556 0.318141 
0.612324 0.912138 -0.321719 -0.852797 0.188905 0.579268 -0.5764 0.737714 0.507423 -0.501127 -0.843167 0.351119 -0.256136 -0.86276 0.257447 -0.332033 
0.628118 0.162568 -0.183425 -0.941741 -0.781448 0.471943 0.468154 0.590471 -0.473101 0.0127823 -0.436363 0.294937 0.113077 0.586514 -0.266634 0.618352 
0.166303 0.0630687 -0.481743 -0.598649 0.0204129 0.508019 0.902459 0.432651 0.985771 -0.361052 -0.74482 -0.95338 -0.825288 -0.25617 0.349579 -0.244833 
0.049 -0.482 -0.533 -0.442 -0.857 0.061 0.603 0.19 -0.814 0.226 0.603 0.004 0.3 0.768 -0.577 0.347 
0.395933 -0.436209 0.23 0.665005 -0.847881 -1.00001 0.616537 0.171048 -0.213951 -0.332318 0.597033 0.579577 -0.774712 0.727268 -0.740706 -0.841191 
0.43143 0.25608 0.312007 -0.265976 -0.565942 0.170448 0.546282 0.551973 -0.789399 0.231756 -0.110841 0.719611 -0.915862 -0.25433 -0.0377926 0.597583 
-0.217594 0.776286 -0.231659 -0.773677 -0.484273 0.945204 -0.945117 -0.671933 -0.180377 0.53931 -0.149093 0.382222 0.296094 0.869454 0.810349 -0.0934992 
-0.348961 0.374324 -0.978303 1.0374 0.39929 0.033584 0.410057 -0.455561 0.790683 0.806167 -0.534299 0.0592006 -0.639031 -0.197047 0.89625 0.604009 
-0.590805 -0.634172 -1.21178 -0.651676 -0.151257 -0.395058 0.201221 -0.759021 -0.13394 -0.0304245 0.327688 -0.786966 0.0473456 0.110754 0.389191 -0.736438 
-0.355501 -0.426539 0.168449 0.114585 -1.13142 0.163401 -0.270002 0.25147 0.0295226 0.541039 1.01119 -0.288693 -0.440573 -0.977584 -0.679429 -0.488124 
-0.452039 0.0243719 -0.781526 -0.0866154 -0.102068 0.330444 0.217805 -0.647291 0.250356 0.457969 -0.809354 -0.279292 -0.0481534 -0.233711 0.941158 -0.494893 
0.30659 0.250019 0.138647 0.928624 -0.766552 -0.498064 -0.0768049 -0.585434 -0.878149 0.219195 -0.567074 0.821808 0.389835 -0.643519 -0.605288 0.702307 
-0.316713 -0.774257 0.756494 -0.0217695 -0.466207 -0.519592 -0.601164 0.725046 -0.923915 -0.0474757 -0.259757 -0.702624 0.138723 0.0724382 -0.176065 0.0312559 
0.198647 0.57795 0.174924 0.144375 -1.3385 0.702111 0.708904 0.717941 -0.127423 -0.97553 -0.177674 0.676533 0.528143 0.475518 0.768467 -0.161803 
-0.100397 1.19058 0.339529 -0.351957 -0.952324 -0.80545 -1.03389 -0.356643 -0.188294 0.600764 0.16783 -0.115608 0.470927 0.163586 0.405953 0.360792 
0.51876 0.495987 -0.739561 0.540015 0.0990932 -0.0831104 -0.76507 0.176875 0.240501 0.673718 0.860639 -0.0797384 0.910831 1.0246 0.69093 0.012909 
-0.823798 -0.0952314 -0.572811 0.384045 -0.729411 -0.908948 -0.654751 0.473758 0.26477 -0.356924 1.5687 1.1041 0.665919 -0.12907 0.00168814 -0.16626 
-0.192828 0.943765 0.228099 1.2632 -0.17805 0.0124509 0.0537519 0.163121 0.322332 0.154282 0.317217 -0.555574 1.03166 -0.433421 0.206872 -0.0250749 
-0.287563 0.505598 -0.170153 -0.639628 -0.0800179 0.54073 -0.229621 -0.513278 -0.423851 0.804822 1.11444 -0.282513 0.502081 0.585739 0.593558 -0.0491333 
-0.575347 0.0406341 -0.743759 0.120701 0.123685 -0.448598 0.26261 1.08429 -0.00679935 -0.262197 1.50261 0.939504 0.40174 0.778403 0.524764 0.63868 
0.784718 -0.201746 -0.116727 -0.444786 0.0269154 -0.882461 -0.858705 -0.400257 0.249035 -0.109122 0.160218 -0.0184442 0.0648632 -0.827835 0.513637 0.226052 
-0.285937 0.334274 0.0491667 0.23929 0.677441 -0.758652 -0.937189 -0.669128 -0.219284 -0.668856 1.33197 -0.179151 0.35815 -0.025464 0.604361 0.100741 
-0.705119 -0.872503 -0.0649897 -0.563045 0.43838 0.962434 0.357666 0.106819 -0.31374 1.14786 0.302 0.0743158 -0.723198 -0.935888 -0.766457 -0.514447 
0.856141 0.682138 -0.623699 0.804044 -0.451538 0.863722 -0.242035 0.402781 0.87472 0.331448 0.180729 0.0950251 0.143588 0.980257 0.569585 0.83859 
0.210263 0.716356 0.37235 0.206987 -1.00385 -0.32996 -0.293095 -0.322403 0.425527 1.28457 0.691469 0.354078 0.466785 0.0981855 0.531095 0.64966 
-0.121735 -0.571263 0.622571 0.876267 0.154939 -0.942794 -0.0330699 1.04857 0.0944636 -0.212899 -0.400528 -1.11488 -1.18349 -0.0289839 0.743679 0.394641 
0.591968 0.697032 0.655092 0.719112 -0.597385 -0.2937 -0.472337 -0.165788 -0.0861944 1.02457 -0.279134 0.339915 0.431723 -0.862439 -0.40938 -0.198359 
1.05977 0.0522226 1.30864 0.0963581 -0.0327013 -0.1942 -0.466317 0.478361 0.654873 0.28955 -0.359882 -0.839102 0.533686 0.240826 0.325068 -0.224544 
-0.650142 0.0528092 0.442455 0.528751 -1.06389 0.129143 -1.20345 0.58351 -0.449324 -0.441771 0.613019 -1.10707 0.454396 -0.812303 -0.325751 -0.287636 
0.16442 -0.92065 -0.00832298 -0.749009 0.713024 -0.56145 0.211213 0.495735 1.00576 -0.711282 -0.600371 -0.0144358 -0.575717 0.588332 0.167224 0.0328368 
0.843659 0.079956 -0.38354 -0.0368557 -0.302454 0.907073 0.925417 0.239742 -0.827668 -0.878316 0.798197 -0.224077 0.0112563 -0.509044 0.85556 -0.407904 
-0.805 0.143 0.763 -0.229 0.592 -0.065 0.217 0.412 0.881 0.467 -0.279 -0.048 0.322 0.828 -0.77 -0.571 
0.423817 0.680397 -0.84702 -0.847718 0.79431 0.0403652 0.258723 -0.63172 -0.279747 -0.858913 -0.611848 -0.921033 -0.775712 0.197129 -0.343904 -0.775092 
0.754418 -0.789496 0.0579417 -0.41767 -0.911094 -0.359576 -0.189326 0.355937 -0.300672 0.192251 0.540008 0.142026 -0.681082 0.0265997 -0.977642 -0.386394 
-0.800153 -0.184667 -0.137602 0.0692971 -0.536895 0.68123 0.882541 -0.883666 0.0157246 -0.307665 0.015883 -0.501987 -0.205147 -0.404826 0.710606 0.0246883 
-0.0190367 -0.582517 -0.5588 0.938699 0.660765 0.194269 0.747335 1.01162 0.857974 0.723533 -0.322888 -0.22428 -0.459552 0.899148 0.288558 -0.176501 
0.343531 0.527379 0.349111 0.404019 -1.00245 0.483587 -0.553216 0.878489 -0.217279 0.112139 0.894727 0.438852 -0.652135 -0.732993 0.0684012 -0.278985 
0.661935 -0.801782 0.424203 1.04777 -0.325934 0.84388 -0.09084 -0.67391 0.50265 -1.29147 0.52768 0.794644 0.696144 -0.979406 -0.0576991 -0.575837 
-0.122955 -0.686127 -0.385141 -0.954488 -0.929868 -0.456542 -1.14114 -0.189064 0.635461 -1.10281 0.891224 -0.403207 -0.870232 0.82481 -0.582162 0.626643 
0.166639 0.0973401 -0.475896 -0.779482 -1.11393 0.433562 -0.388614 0.398172 -0.136837 -0.691113 0.0340335 0.527176 0.182367 0.682872 -0.85139 0.0387891 
1.03184 -1.04522 -0.664539 -0.861525 0.184496 -0.622023 -0.613388 -0.66207 0.0274087 0.702586 -0.389544 0.600432 -1.00678 0.780036 -0.315632 0.6958 
0.280402 -0.295729 -0.21195 0.148485 -0.545544 0.527829 -0.902909 -0.364671 -1.02581 0.463997 0.0520836 0.606677 -0.45526 0.019123 -0.522545 -0.581331 
0.146109 0.378709 0.126599 -0.909418 0.142135 -1.05316 0.260254 -0.672193 0.689361 0.536284 -0.211693 0.00573451 0.0111257 -0.791266 0.168174 0.0224817 
-0.543785 0.375425 0.77096 0.148959 -0.666536 -1.04483 0.429485 -0.963089 0.310048 0.0459673 0.178558 -0.226883 -0.09696 -0.940695 0.303767 0.0930623 
0.980872 0.733555 -0.0580053 -0.779266 0.605887 -0.344517 -0.0898502 -0.433852 -1.06729 0.5644 0.909094 -0.0862567 0.486924 -1.01798 0.209064 0.630801 
-0.462131 -0.383818 -0.500983 -0.369398 -0.173311 -0.850814 -0.665563 0.549722 0.251903 0.58141 0.586955 0.460801 -0.0571024 -0.760518 0.529781 -0.284896 
-0.457948 -0.354827 0.495879 -0.465848 0.0540049 0.890513 -0.264936 0.676228 0.287088 -0.135399 1.37618 1.09218 0.446421 -1.03722 -0.738959 0.0383198 
0.663797 0.443692 -0.475395 0.14806 -0.659082 -0.948176 -0.650197 -0.731903 -0.83666 -0.544997 -0.207197 -0.0430835 -0.607707 -0.0671045 0.434005 -0.334302 
-0.593137 0.704966 -0.356416 -1.12902 -0.884281 0.192873 0.586282 0.954667 0.0194261 0.777317 1.35085 -0.226608 0.0426325 -0.672007 -0.903542 0.608313 
-0.452428 -0.247545 -0.485031 0.267821 -0.784202 0.771223 -0.509063 -0.810697 0.116472 0.164425 1.24464 0.343223 0.537222 0.507942 0.347676 0.141439 
0.63986 0.145307 0.0154361 -0.973904 -0.0147951 0.993022 -0.179426 -0.541799 0.243525 -0.0875642 -0.0563368 0.597 -0.262863 -0.535535 0.192677 -0.553679 
0.850622 -0.249626 0.42597 -0.0490914 -1.04873 0.633353 -0.0649246 -0.600316 0.460429 0.407015 0.765517 -0.473298 0.677118 -0.174854 0.504732 -0.737733 
0.836856 0.237798 0.0783544 -0.887416 -0.37153 0.175416 0.134527 0.659986 -0.25947 0.611916 -0.0640098 -0.389982 0.673146 1.01721 -0.11983 -0.347995 
0.390828 0.532738 -0.660834 0.43742 -1.29802 -0.679315 0.418524 0.261655 0.420886 0.671886 0.208422 0.0387834 -0.281606 0.809774 0.0482876 0.260118 
0.556837 0.612734 0.674379 -0.431516 -1.19454 0.340778 -1.18883 -0.401246 -0.100518 1.03492 0.470831 -0.434575 0.37813 0.792086 1.21437 0.51425 
1.10147 0.840212 0.657102 0.327069 -0.767596 -0.0393579 -0.415819 -0.61252 -0.0218451 -0.0633124 0.824647 -1.36398 -1.1948 -0.0841319 0.252403 0.349276 
0.624072 -0.472494 -0.123487 -0.950097 -0.959008 0.86405 0.266347 0.296638 0.935965 -0.175961 0.772514 -0.988459 -0.973859 -0.138696 0.368831 -0.15274 
-0.310938 0.348605 -0.495987 0.0866258 -0.531608 -0.443405 0.621327 -0.2004 0.740909 -0.00964854 0.448409 0.0381314 -0.85819 -0.483485 -0.727649 0.739623 
-0.0551055 -0.781124 0.149137 0.241776 0.298622 0.400647 0.165894 -0.258235 -0.292162 -0.646336 0.785118 -0.484288 -0.438054 0.149336 -0.601282 -0.751 
-0.258124 -0.253121 -0.897003 -0.184979 -0.952924 0.0729994 -0.0365564 -0.251122 -0.862586 -0.831109 -0.668998 0.970016 -0.946333 -0.232485 -0.948594 0.178321 
0.161278 -0.0517934 -0.30489 0.588171 0.931158 -0.269388 -0.722065 0.833811 -0.246212 0.0810593 0.957202 -0.757951 0.0575952 0.965238 -0.791111 0.680962 
-0.825651 -0.888934 -0.496995 0.523313 -0.833269 -0.175077 -0.89256 -0.826508 -0.41604 -0.22741 0.220843 0.0602729 -0.542489 0.477344 0.716878 -0.881436 
-0.336985 -0.628932 -0.67762 -0.0501521 -0.0752909 -0.825316 0.13504 -0.901744 -0.912581 0.681364 1.02833 0.950286 0.0183966 -0.207726 -0.176934 0.416363 
-0.436222 0.196135 -0.725209 0.837079 0.542206 -0.391171 -0.757247 0.910097 0.456344 0.302045 -0.34594 -0.0133116 0.160972 0.287541 -0.142145 -0.251444 
0.534922 -0.0380061 0.520128 0.696415 -0.240735 -0.876315 0.750719 -0.649298 -0.855911 -0.146505 -0.694887 0.822194 0.805649 -0.764143 -0.53566 0.49081 
0.301922 0.736259 -0.39754 0.574133 -1.03958 0.196075 0.302939 -0.407666 0.289317 -0.794569 -0.827112 0.0841093 0.424693 0.831707 -0.373151 -0.0893348 
0.214152 -0.921877 1.07673 0.0911114 -0.35063 -0.404236 -1.02163 0.668941 0.594208 -0.145131 0.756082 0.312464 -0.410243 -0.143889 0.0812611 -0.16597 
0.146269 0.387062 0.107247 0.465076 0.695066 -0.412805 -0.0333168 -0.500921 -0.594221 0.689742 0.615104 0.803346 0.69476 0.290318 0.382718 -0.613865 
0.784636 0.448627 0.588231 0.0645588 0.500014 0.554036 -0.901193 -0.355641 0.165923 1.00676 1.19859 0.559215 0.72895 -0.299531 -0.205695 -0.701064 
0.154982 0.0174589 0.42989 -0.184302 -0.100707 -0.612828 -0.430458 -0.0623323 0.324266 0.224272 0.864082 0.195624 0.472251 0.669863 0.0290692 0.232664 
0.353213 0.343216 0.735866 0.617594 -0.407857 -0.768075 0.24449 0.604963 -0.299205 -0.0726744 -0.0979171 0.604888 0.287879 -0.42754 -0.0136196 0.895391 
0.208745 0.54474 1.0035 -0.264314 -0.170055 -0.80038 -0.815635 0.14802 -0.62333 -0.395488 0.537943 0.686817 0.896871 -0.160699 0.00940685 1.03777 
-0.384607 -0.0175941 -0.788984 -0.106792 -0.664047 -0.701668 -0.304169 -0.21592 -0.872153 -0.74721 0.886087 -0.107496 1.15697 0.210122 -0.819543 -0.281819 
0.499817 0.367646 0.374677 0.684288 0.652861 0.425207 0.318604 0.237501 -0.120848 -0.436844 1.44951 0.0338525 0.408542 0.120776 0.483359 0.379011 
0.54463 0.868427 -1.74881 0.560356 0.0499146 -0.25698 0.109583 0.773067 -1.04401 -0.342393 0.860586 0.210315 -0.598659 -0.991036 -0.352799 0.511071 
0.0937192 -0.226712 0.0523307 0.120455 -0.420597 -0.0352489 -0.962318 -0.644463 -0.719263 -0.428654 0.805608 1.08497 0.702729 0.451283 1.00241 -0.111044 
0.419591 0.565028 -0.399591 -0.168615 -0.01062 0.709544 0.566769 0.113856 0.36635 -0.737666 0.110517 0.275872 -0.749661 -1.07736 0.861777 -0.0812046 
0.913137 0.921056 -0.411885 -1.07026 0.089493 0.951057 -0.0699952 0.461045 -0.0780475 -0.266518 0.0875426 0.351523 -0.491385 0.512885 -0.446087 -0.325643 
-0.264545 0.267947 -0.847939 0.604423 -0.421911 0.0253466 -1.02426 0.916424 -0.289726 -0.0248381 0.700274 0.182504 -0.613643 -0.948244 -0.202428 1.09918 
0.802135 0.169716 -0.708731 -0.316049 -0.824014 -0.52044 0.771908 -0.317849 -0.822715 1.25945 0.747064 -0.851281 0.0189869 -0.454544 -0.766675 0.220723 
-0.045059 0.183 0.618455 -0.342467 -0.609003 0.62332 -0.211001 0.115313 0.551439 0.262878 -0.420341 0.129427 0.442664 0.808924 -0.561626 -0.115088 
-0.0849422 0.457242 0.887417 -0.787825 -0.870685 0.0954868 -0.863315 -0.355487 -0.287029 -0.297949 -0.52802 0.110866 -0.445864 0.704742 0.498203 -1.08918 
1.31831 0.635365 0.657028 -0.319068 -0.023744 0.465443 0.0954961 0.743869 0.423843 1.12827 0.188982 0.0459806 0.176721 -0.731721 0.737396 0.140566 
-0.565492 -0.527016 0.335205 0.333762 -0.560693 -0.681464 -0.43563 -0.0439329 0.665411 1.09877 -0.280743 0.215843 -0.902992 0.957168 -0.0588875 0.201314 
1.03063 -0.260495 0.207591 -0.992922 0.229692 0.213486 -0.19593 1.04204 0.911328 1.18339 -0.931113 0.20582 0.307188 -0.633032 -0.209786 0.452828 
1.00201 0.909247 0.695495 -0.364513 -0.829354 -0.297329 -0.67695 -0.352474 -0.629839 0.983791 -0.245352 -0.164827 0.00542465 0.695234 0.344737 0.869891 
0.369208 0.607831 0.228382 0.973392 0.509308 -0.208026 -0.448358 0.550826 -0.726589 0.69504 0.575857 -0.223844 0.777218 -0.295026 -0.84133 0.67609 
0.922786 -0.131906 0.341995 0.282034 -0.803851 -0.820001 0.966244 0.0717399 -0.284315 -0.949206 -0.263997 0.755054 0.175175 -0.523902 0.152982 -0.270369 
-0.109087 0.838117 0.769377 0.237151 -0.694363 0.674157 0.617635 0.0604182 -0.836748 0.188523 -0.40652 -0.872489 0.468611 0.0619495 0.23308 0.549913 
0.725029 0.0307652 -0.932638 -0.267957 0.643649 -0.777896 0.571259 0.611428 0.447359 -0.213627 0.3026 0.461368 0.558164 -0.440705 -0.340409 -0.602606 
0.472756 0.213425 -0.806678 -0.825468 -0.916831 -0.401078 0.179055 0.552041 0.105913 -0.4823 -0.375237 0.550263 -0.519724 0.154748 0.376882 -0.0791486 
0.602983 -0.088196 -1.1419 0.152048 -0.347553 0.132775 -0.675278 -0.662632 0.905846 0.662998 -0.0534471 0.649273 -0.831188 0.303566 0.830459 -0.529764 
0.024093 -0.85269 0.794469 0.319057 0.058245 0.470375 -0.894709 -0.732534 0.145559 0.837893 0.638893 -0.113371 -0.471383 -0.486703 -0.0707783 0.878021 
-0.453249 0.00144836 0.242006 -0.362749 -0.330555 -0.120816 0.179248 0.210353 -0.145956 -0.435103 0.40983 0.828058 -0.714713 0.51168 0.536884 0.12646 
-0.311641 -0.691704 0.799242 0.767488 -0.158401 0.467875 0.675939 0.360824 -0.245208 -0.446201 -0.272693 -0.947097 0.144716 -0.288787 -0.266091 -0.291821 
-0.538225 -0.867108 0.782376 -0.457516 -1.02802 -0.33727 0.572403 -0.507741 0.618595 -0.0759071 0.389781 -0.749673 -0.0228676 -0.0255973 0.430673 -0.19539 
-0.0525856 -0.607997 -0.233867 -0.161487 -0.42559 0.311206 -0.633168 0.32504 -0.359835 -0.0456322 -0.568791 -0.640879 -0.274235 -0.905318 -0.621844 0.658444 
0.684274 -0.281524 -0.192804 -0.477583 -0.0488587 -0.293862 -0.290154 -0.921927 -0.334963 0.758393 -0.0979251 0.204339 0.864337 -0.493376 0.372434 -0.293972 
1.00918 -0.653758 1.0058 0.00465405 0.0541827 -0.934337 -0.677733 -1.04419 0.170348 0.910313 0.706806 0.155946 0.065974 -0.78772 0.735921 -0.26183 
0.173933 0.12878 0.521786 -0.485788 -0.0475502 -0.383914 -0.232578 0.0242229 -0.750196 -0.04488 0.579959 0.213484 -0.467255 -0.724685 -0.998916 0.46963 
0.0619228 -0.229977 0.991997 -0.441578 -0.919673 -0.240849 -1.19129 0.789651 -0.55649 0.0340025 -0.409597 -0.966803 1.23422 0.0887305 0.584462 0.300926 
0.209014 -0.406934 -1.29264 0.542975 -1.25676 0.86731 0.28788 0.54367 0.192456 -0.951615 1.4454 0.337746 -0.619901 -0.388423 -1.16702 -0.481866 
-0.562636 0.986451 0.0198031 0.367072 -0.566998 -0.74991 -0.652063 -0.347097 -1.14425 -0.430518 0.638562 -0.378136 0.326949 -0.146936 0.329991 0.219841 
0.800496 -0.725955 -1.22651 -0.0121912 0.39843 -1.00917 0.0310141 0.253695 -0.883973 -0.501052 0.602598 -0.106547 -0.169056 -0.187336 -0.175312 -0.0133589 
-0.302149 -0.270889 -1.00608 0.932382 0.147907 0.482825 -0.439272 -0.662168 -0.532267 -0.937106 0.936613 0.386222 0.803558 -0.637421 -0.479018 0.0253263 
-0.331023 -0.957088 -0.70246 -0.494861 0.393314 0.147814 1.00981 -0.697813 -0.226812 0.148271 0.0920495 0.15954 0.774233 -0.28939 -0.410822 -0.224684 
0.4703 0.413312 -0.135236 -0.286039 -0.802653 -0.385112 0.615836 -0.832747 0.393272 0.509329 0.83526 -0.144536 0.16837 0.929822 0.516026 0.132955 
0.477628 0.491198 -0.69762 0.661874 0.825644 -0.726334 0.614057 -0.156631 0.393257 -0.17918 0.252534 0.330428 0.229338 -0.159957 0.947956 -0.535555 
1.10516 0.0302456 -0.378277 -0.295554 0.112563 0.49499 -0.136447 -0.486775 -0.710437 -0.0854804 0.88868 0.515517 0.56759 -0.728462 -0.895097 -0.956933 
0.564995 -1.0936 0.506406 0.15041 0.214834 0.660396 -0.214698 0.14646 -0.0662719 -0.313246 0.965422 -0.596554 0.207216 -0.397394 -0.362336 -0.456521 
0.87106 -0.806624 -0.0102789 -0.311894 -1.40145 -0.404573 -0.0012285 -0.759235 0.765282 0.648213 0.466915 -0.740707 -0.22788 0.0666577 0.237209 -0.551155 
1.08893 -0.590703 0.397286 -0.970492 -0.0914773 0.576016 -0.0792929 0.452638 0.586955 1.12759 -0.76157 0.531182 -0.716879 -0.743683 0.775853 -0.9725 
0.0963422 0.105439 -0.453634 -0.085501 -0.241982 -0.427947 0.0205897 -0.221031 0.00694841 -0.29761 -0.675271 0.331044 -0.948212 0.989654 0.75158 0.121824 
0.758648 -0.308247 0.474784 -0.17727 -0.451075 0.405785 0.421959 -0.486226 0.214145 -0.38701 -0.77211 0.80841 -0.557779 0.11205 -0.510653 -0.277374 
-0.512167 0.763391 -0.66855 -0.81188 0.807704 0.264071 -1.04483 0.766221 -0.260174 0.350219 0.874939 -0.47064 -0.584351 0.523918 0.812415 0.322144 
-0.880031 -0.341285 -0.512001 -0.317994 -0.658984 -0.426 -0.500375 0.565979 -0.777891 0.753976 0.552 -0.150001 0.516162 0.225892 0.48585 -0.397935 
0.745986 -0.105537 0.901338 -0.250889 0.961315 -0.899547 -0.71672 0.872174 0.841903 -0.303129 -0.493511 -0.506504 0.836807 -0.813786 -0.877084 -0.911356 
-0.403112 0.941094 0.350873 -0.478839 -0.0386575 -0.493426 -0.913897 -0.740226 0.265934 -0.382593 0.962341 -0.758914 0.471492 0.109575 -0.210862 0.806643 
-0.661416 0.509169 -0.673141 -0.0803065 0.429682 0.769277 -0.681698 -0.0813122 -0.0861582 0.470252 0.345746 0.275574 -0.864686 -0.892781 -0.7167 0.35747 
0.914951 0.841861 0.0857979 1.00438 0.715619 0.500492 0.511704 0.595375 -0.739415 -0.7404 0.569832 -0.672659 0.540626 0.813056 0.539374 -0.673692 
0.227983 -0.213789 0.747535 -0.77779 0.0353996 -0.844531 0.0518511 0.362974 0.193076 0.542175 0.301184 -0.588036 0.400328 0.114235 -0.213761 -0.150796 
-0.102738 0.177413 -0.208886 0.151839 0.671448 0.905947 -0.745661 -0.578635 -0.531925 0.658447 0.498272 -0.463558 -0.348595 0.0982016 0.587899 0.916728 
0.197683 -0.139371 0.62739 -0.164001 -0.16161 0.141283 0.127091 -0.0420313 0.609419 -0.669612 0.0506282 -0.481935 0.39859 -0.673286 0.602567 0.462576 
0.921519 -0.652763 0.0516214 0.429465 0.461786 0.112394 0.420738 -0.744781 -0.665397 -0.643497 -0.546506 0.123966 0.744366 0.581363 0.425136 0.222487 
-0.859485 -0.0909858 1.09049 -0.806485 -0.286775 -0.405525 -0.99567 -1.08623 -0.319902 -0.471231 0.716823 -0.342665 0.203341 -0.161824 0.335472 0.528957 
0.18212 -0.539637 1.20163 -0.458506 0.155022 -0.424295 0.874309 0.327255 0.820476 0.813949 -0.559788 -1.15462 0.27911 -0.558801 -0.460428 0.0442283 
0.393655 -0.272046 -0.0145759 -0.247793 0.296354 0.564503 -0.583775 -1.22 0.420326 0.0877047 -0.426194 -0.457629 0.00601434 0.822678 -0.156099 0.157073 
0.0755364 0.137887 0.00174535 -0.904069 -0.558519 -0.98997 -0.761308 0.812766 0.293313 -0.417722 -0.997312 -0.721941 0.523578 -0.720729 0.458789 1.32839 
1.15689 -0.266427 0.481438 -1.17894 -0.164837 0.962566 -0.384067 0.319065 -0.379965 -0.264616 -0.441569 -0.701878 -0.0710296 -0.207852 -0.628689 0.0345035 
0.0925698 -0.147089 -0.439871 0.143662 0.145714 -0.275104 -0.482469 0.36514 0.941541 -0.533191 0.327182 -1.4062 0.92335 -0.183836 -0.157129 -0.179256 
-0.207312 -1.07948 -0.840292 0.111253 0.294845 -0.705912 -0.238707 1.01408 -0.127185 -0.479483 -0.573341 -1.48042 -0.434845 0.343405 0.595104 0.246606 
0.175673 0.184553 0.0693168 0.8078 -0.352298 -0.914471 0.590588 0.0576167 0.547881 0.0304914 -0.347422 -0.374002 -0.301644 -1.23479 -0.668662 0.461873 
0.536061 -1.24279 -1.28312 0.466824 -1.01117 -0.182187 -0.296031 0.435917 -0.0669174 0.648618 -0.218597 0.490289 -0.232889 -0.512461 0.997499 0.789232 
0.199347 0.327455 -0.149826 -0.440338 -0.645777 -0.739325 1.38587 0.698657 0.641231 1.02615 0.423646 -0.456088 -0.0411488 0.35079 -0.428102 1.05788 
-0.144844 -0.247433 -0.272965 1.05815 0.654702 0.624738 0.825759 0.508951 -0.789292 1.07461 0.0664803 0.686141 0.249669 0.429263 -0.247074 -0.257365 
0.383969 -1.43684 -0.29278 -0.643919 -0.785405 0.427979 0.903758 0.256748 -0.743212 -0.407828 -0.116051 0.0600952 0.863069 -0.243636 0.0397474 0.434285 
0.0522548 -0.37921 -0.813681 0.632825 0.473356 0.400837 1.21201 -0.13365 0.0925567 0.340199 0.231149 -0.122352 0.601181 0.0962572 -0.540032 0.397627 
-0.696249 0.0752137 0.680353 0.0735904 -0.485831 -0.0945437 0.59512 -1.0592 0.262738 -0.545701 1.19891 0.304943 1.24711 -0.358475 0.51166 0.626074 
-0.59558 0.320305 0.593865 0.0610265 0.456479 -0.59531 0.174523 -0.165726 0.413106 -0.224047 0.961398 0.249986 -0.21065 -0.435793 -0.184792 -0.887034 
-0.691932 -0.178219 0.189099 0.529059 -0.90655 0.082651 -0.886446 -0.596681 0.282993 -0.755642 -0.655409 -0.476683 0.746446 -0.19351 0.0166955 -0.349 
0.314244 0.055603 -0.506821 0.908656 -0.00706265 -0.828796 -0.673465 0.348499 -0.811143 0.514766 0.536971 -0.637888 -0.895919 -0.324651 0.072394 0.210498 
-0.361471 -0.344911 -0.808174 -0.587801 -0.520979 0.558862 0.168096 -0.0866583 0.431053 0.989487 0.328445 0.0655781 -0.376512 -0.922142 -0.862184 -0.261687 
0.230869 0.0758769 -0.980401 -0.881919 0.381909 -0.153048 -0.355519 -0.460678 0.557802 -0.166847 -0.218443 -0.168626 0.454702 0.8955 0.855797 -0.676701 
0.799 0.653 0.701 -0.159 -0.596 0.729 0.215 -0.435 0.65 0.532 0.083 0.719 -0.704 -0.561 -0.222 -0.762 
0.250119 -0.208811 -0.993795 -0.37824 -0.330258 0.845489 0.225249 -0.491223 0.0786875 0.779217 0.982497 -0.360659 -0.887034 0.898459 0.978413 -0.377332 
0.825917 -0.0350308 -0.962275 -0.490879 0.0614209 -0.798423 -0.913051 -0.220077 0.582209 0.897697 -0.46482 -0.89088 0.99136 -0.171644 -0.777554 0.300206 
0.844735 0.234983 0.671163 0.463676 -0.523658 -0.880429 -0.502637 0.0547232 0.196219 -0.735304 0.923671 -0.55492 -0.551388 -0.656668 -0.573812 -0.915684 
0.188085 -0.654012 0.119111 -0.918283 0.475739 0.22857 -0.61603 0.58305 0.303573 -0.0470511 -0.166153 0.83711 0.945192 0.32569 -0.201853 0.0124757 
-0.43531 -0.73021 -0.587656 0.772247 -0.015426 0.205838 0.426632 0.852856 -0.491293 0.676646 -0.399345 -0.399289 -0.164171 0.442717 0.899834 -0.464473 
0.281431 -0.986392 0.248105 -1.0887 0.842316 -0.347704 -0.394895 -0.278353 0.254719 0.533336 0.313938 0.612382 0.120413 0.856106 -0.651142 0.549848 
-0.562609 0.0226609 0.22936 0.230832 0.52475 0.641886 -1.31937 0.267859 -0.0600916 -0.0205823 0.416532 -0.0373422 0.431392 0.769402 -0.65972 0.129736 
1.11175 0.464255 1.37362 0.0409253 0.745322 -0.795422 -1.00581 0.794436 0.169595 0.653944 -0.789732 -1.20024 -0.414035 -0.398896 0.785684 0.394754 
0.948956 -0.731679 0.330841 0.354758 -0.265215 -0.959765 -0.451928 -0.72136 -0.278799 0.769632 -0.826551 0.029521 -0.704771 -0.671201 -0.597624 -0.332223 
-0.0775029 -0.996831 0.120701 -0.961035 -0.681804 0.413304 -0.410889 -0.280465 0.90975 -0.0229001 -0.0954187 -0.210064 -0.230803 0.0989447 0.1158 0.641244 
1.28433 -0.121157 0.731469 0.00633757 0.249635 -1.00883 0.0565273 0.725854 0.365372 -0.142464 -1.72561 -1.27311 -0.714578 -0.891209 -0.413281 0.786945 
0.497188 0.293596 1.18467 0.208886 -0.615462 -0.238854 0.151568 0.365796 1.23804 -0.143743 -0.553079 -0.896265 -0.554296 -0.466646 0.788132 -0.60193 
-0.279234 -0.3604 0.818839 -0.859367 0.606463 -0.204195 0.010734 0.656697 0.807852 0.450579 -0.689868 -0.689268 0.0417556 -0.584961 -0.440076 0.561887 
-0.0612581 0.779285 0.103144 0.836425 1.00043 0.953732 -0.691488 -0.378002 0.799423 -0.00438012 0.292225 -1.33747 -0.335791 -0.393631 0.099945 -1.20645 
-0.279468 -0.300994 -0.554525 0.388795 0.352506 -0.957311 -0.684476 0.422341 0.93351 -0.624414 0.614997 -0.278109 0.887893 0.554259 -0.145485 0.226951 
1.238 -0.194738 -1.05484 0.147821 -0.405257 0.146968 0.634014 -0.656502 0.688576 0.168289 -0.792444 0.0307801 -0.0669358 -0.517639 0.613473 -0.222369 
0.241707 -0.496226 -0.538776 -0.465387 0.484647 -0.0954531 0.208919 0.0731686 0.413637 0.676122 -0.649012 0.0981336 -0.186467 0.20912 -0.675624 -0.00867022 
0.397214 -0.49865 0.0370593 0.71654 0.465126 0.00361202 0.754702 -0.741775 0.769496 -0.150114 1.10411 -0.649685 0.491314 -0.769203 -0.596498 0.840612 
0.520733 0.00606359 -0.685972 0.013321 0.456706 0.198211 -0.538562 -1.09173 0.344129 0.709831 0.818191 -0.0214419 0.271465 -0.795553 0.108084 0.0551162 
0.887953 0.0232835 -0.226782 0.819832 0.489568 -0.479363 -0.54147 -0.178068 0.0120349 -0.564382 0.6454 -0.11059 -0.0261559 -0.823003 0.832606 -0.96775 
-0.533359 -1.14018 -0.410242 -0.604115 0.124893 0.044187 0.0576239 -1.16799 -0.307702 -0.717032 -0.178646 0.89843 0.694884 1.03797 -0.689309 0.0392387 
-0.313661 -0.150138 0.0645212 0.688668 0.115435 0.40454 0.363825 -0.0854476 -0.410856 0.139407 0.652676 0.445428 -0.343904 0.132898 0.312681 -0.418827 
0.783247 -0.295595 0.500988 0.593854 0.683002 0.262282 1.04534 0.315005 0.674192 0.18864 0.529293 0.542235 -0.703874 -0.744528 -1.00637 0.515073 
-0.0829291 1.00862 0.799992 -0.093518 0.36204 0.52033 -0.692758 0.802792 -0.40274 -0.190402 0.636855 -0.39916 0.403768 0.0563737 0.0172615 0.722998 
-0.909508 -0.547325 -0.491719 -0.4377 0.442835 -0.394089 -0.185312 0.39915 -0.61512 0.528122 -0.833626 0.9516 0.694739 0.01076 -0.0954348 0.300849 
0.582783 0.127876 -0.7732 0.361937 -0.534447 0.670068 0.155394 -0.98257 0.827444 -0.265475 0.501598 -0.970634 -0.804514 0.829733 -0.453346 0.296993 
0.701 -0.206 -0.439 0.303 -0.008 0.959 -0.052 0.206 -0.387 -0.031 0.639 0.455 -0.439 -0.349 -0.59 -0.323 
-0.424 -0.461 0.222 0.502 -0.776 0.196 -0.151 -0.977 0.912 0.723 0.714 0.371 -0.192 0.62 -0.019 0.156 
0.299116 -0.862824 -0.854978 -0.501253 0.466828 0.438387 0.450495 -0.623104 0.531152 -0.798492 0.694827 0.303845 0.44802 0.146934 0.95168 -0.410934 
0.615129 0.82545 0.67751 -0.746592 0.584082 0.421062 -0.884602 -0.629838 0.574062 -0.720553 -0.984605 -0.0414644 -0.781667 -0.906091 -0.103597 -0.0228702 
-0.592501 -0.240844 0.234032 -0.857421 0.702118 0.662293 0.337378 -0.229589 -0.0477375 0.94513 0.911264 -0.937049 -0.165552 0.809133 0.542018 0.906942 
0.362908 0.421084 0.274168 0.272392 -0.927377 0.769274 0.749586 -0.423456 -0.36882 0.918167 0.588738 -0.563182 -0.516606 -0.779554 0.828643 -0.0502434 
0.0647225 0.963066 0.858127 0.720242 -0.157075 -0.610955 -0.519332 0.377193 -0.651936 0.526061 0.134025 -0.805019 -0.438909 0.543501 -0.482175 0.600484 
-0.282506 0.570485 -0.428122 -0.9656 0.45063 -0.941528 -0.254734 -0.207975 -0.301433 -0.0938509 -1.43152 -0.0221338 0.0901391 0.676812 0.276975 1.26547 
1.31685 -0.438082 0.130089 -0.322095 0.38562 0.342248 -1.16276 -0.193639 0.489003 0.793396 -0.759026 -0.990796 -0.590272 1.16492 -0.0858274 0.527527 
0.107133 0.70987 -0.300496 0.534906 0.0412924 0.481036 0.17799 0.524701 -0.355396 0.278284 -0.782918 -1.09735 -0.213213 -0.111478 -0.949237 0.127676 
1.00645 0.46818 0.313775 -0.161985 0.391315 0.156163 -0.0303178 0.345309 0.229061 0.69069 -0.576115 0.509485 -0.623286 1.01403 0.45399 0.654935 
0.633496 -0.0700777 0.897662 -0.637938 0.517193 -0.887118 -0.290835 -0.444639 0.598642 -0.145765 -1.3067 0.117573 -0.511139 -0.0512919 0.348547 0.119429 
-0.355606 0.589332 0.372756 0.00406585 0.477353 0.429779 0.538619 0.133317 1.12038 -0.400432 -0.97396 -1.13721 -0.409511 -0.804313 0.793995 0.69167 
0.454445 -0.0609496 -0.217898 -0.0677662 0.84055 -0.735307 0.894478 0.159372 1.22279 1.03424 -0.296341 -0.21303 -0.867695 -0.8871 0.058192 -1.03251 
1.0788 -0.568793 0.180442 1.11867 1.09168 0.820402 0.120035 -0.0665318 1.51175 -0.210264 0.476917 -1.82164 -0.805834 -0.511323 1.00453 -0.742645 
-0.176327 0.0909266 -0.0769063 0.0409597 1.56839 -0.813519 -0.68323 1.00834 1.11043 0.899165 -0.0909864 -1.42302 0.124504 -0.610417 0.168971 0.360936 
-0.44936 -1.26684 -0.651552 1.17816 0.345639 0.531372 0.297569 0.502652 0.270152 0.238677 0.482396 0.336125 0.963421 -0.48315 -0.254842 -0.0285442 
0.373601 0.0123251 0.294954 1.07202 0.58413 -0.660974 -0.00661402 0.0101082 0.141653 -0.411912 0.743041 -0.756308 0.0594885 0.0610902 0.541452 0.177858 
0.0628987 -0.633898 -0.616282 0.1002 0.860585 0.43828 -0.868783 -0.504616 -0.11672 -0.731862 -0.505179 -0.600074 -0.299983 0.048055 0.620955 -0.244998 
-0.500405 -0.909086 -0.168217 0.32735 1.148 0.85456 0.538081 -0.375459 0.0184937 0.54919 -0.694126 -0.381851 -0.181725 0.89673 0.333902 -0.596842 
-0.70149 -0.50229 -0.329321 -0.81791 -0.24639 0.408158 -0.836972 -0.84415 -0.139304 -0.345493 -0.471335 -0.931937 1.37118 0.103925 -0.368895 -0.137512 
0.6667 -0.712146 -0.0970456 -0.460275 0.632524 -0.698984 0.491679 -0.692089 -0.594123 -0.138429 -0.151141 0.0722861 0.1489 0.00172685 -0.73227 0.892017 
-0.479588 -1.10932 0.931707 0.0657835 0.463092 -0.688869 -0.156331 -0.532643 0.693826 0.408235 0.710169 -0.0865777 -0.390894 -0.0911438 -0.209983 -0.126604 
-0.414907 -0.728298 1.06903 0.336632 0.332939 0.177141 0.102435 -0.394504 0.143659 0.808313 -0.721796 0.43411 -0.117794 0.969132 -0.580018 -0.272665 
0.1662 -0.366438 0.207879 0.219011 0.463272 -0.205922 0.488307 0.608641 -1.32423 0.920489 -0.00132318 -0.294375 0.710766 0.751306 -0.792816 -0.250123 
0.490115 0.119159 0.609577 0.566728 0.615788 0.980398 -0.521223 -0.813363 -0.865476 0.704639 0.636261 -0.600942 0.605022 0.739931 -0.756641 -0.98465 
-0.823511 -0.309371 -0.521373 -0.803633 -0.404976 -0.126283 -0.745314 -0.782775 -0.515764 0.0826209 -0.52686 0.297734 -0.803705 0.140304 -0.432617 -0.4754 
0.619947 -0.38297 0.229997 0.626022 0.782022 -0.362001 -0.296464 0.56104 -0.650747 -0.45463 -0.542027 0.0398625 0.904229 0.980281 -0.551389 -0.586466 
0.601 0.316 -0.706 0.967 0.045 -0.833 -0.961 -0.837 -0.4 0.774 -0.556 -0.001 0.525 -0.92 0.217 -0.176 
-0.551 -0.914 0.674 0.257 -0.815 0.215 -0.942 -0.725 0.23 -0.418 -0.789 0.037 -0.73 -0.038 -0.409 -0.972 
-0.339 0.612 0.696 -0.124 -0.9 0.958 0.171 -0.809 0.248 -0.878 -0.302 -0.45 0.758 0.728 0.145 0.742 
0.441062 0.860824 0.472056 -0.526825 0.490766 -0.307708 0.408692 0.2105 -0.962109 0.518487 -0.0964304 -0.704055 0.211241 0.843438 -0.832891 -0.925171 
-0.432946 -0.911233 -0.1538 0.238967 0.121514 -0.695683 0.579398 -0.573508 0.26825 -0.489698 0.786921 0.629847 -0.33085 -0.905562 0.0110367 -0.505508 
-0.44698 -0.722681 0.755368 0.334543 0.720616 0.45065 0.011001 -0.412706 -0.605892 -0.627862 -0.225477 -0.874239 -0.942156 0.0712675 -0.855788 -0.657236 
1.06804 -0.817491 -0.399633 0.201824 -0.132885 0.478187 0.944343 -1.05804 0.758522 0.0334814 0.359017 -0.798124 0.0480565 -0.121834 0.889426 1.11361 
-0.511637 0.586221 0.8026 0.108268 -0.459987 -0.341648 -0.793533 -1.23472 -0.845542 -0.0705779 -0.846439 0.971619 0.964366 1.03367 0.600943 0.81038 
0.684624 -0.298465 -0.233956 -0.401603 0.685367 0.869876 0.881805 -0.631158 -1.10765 0.806587 -0.322798 -0.565411 -0.263966 0.0460675 0.176363 -0.0658054 
-0.178266 -0.362066 0.29618 -0.616541 0.632879 0.7579 0.0763911 -0.232253 -0.228627 0.0834541 -0.481409 -0.293303 0.684999 0.372954 -0.0147501 0.667521 
0.35693 0.930778 -0.502403 -0.575482 0.723236 -0.908996 -0.175811 0.294178 0.272075 -0.374761 -0.353501 -0.297817 0.354963 0.29878 0.186848 0.218562 
-0.186578 -0.387233 0.374325 -0.198276 0.428734 -0.584111 0.281865 0.192724 0.539657 0.81247 -1.03046 0.778629 -0.587858 0.626748 0.674717 -0.161413 
0.904866 0.526645 0.676085 -0.459471 0.548204 0.694008 1.15354 0.532252 0.404616 0.141314 -0.899983 -0.0447013 -0.435583 0.621604 0.870254 0.323954 
0.718382 -0.693172 -0.391728 -0.584248 -0.356836 -0.254444 -0.478523 0.695717 -0.489584 -0.660735 -0.300999 -0.601848 -0.203002 -0.191953 -0.206044 0.18044 
-0.969075 -0.548388 -0.266839 -0.263253 0.222983 -0.888162 -0.603928 0.634572 0.84816 0.119207 -0.190119 -0.624329 0.745988 0.86813 -0.00304077 -1.53124 
0.155602 0.482301 -0.526526 0.274156 0.575709 0.108486 -0.443152 -0.344758 1.27277 -0.11882 -0.247105 0.0932256 0.00143143 -0.0691183 0.317973 -1.04228 
0.44916 -1.32655 -0.225658 1.42986 1.07397 -0.258123 -1.13684 -0.394878 -0.578571 -0.151457 -0.342194 -0.668909 0.13174 -0.935791 -0.662074 1.12264 
0.093735 0.408136 -0.554379 1.62909 0.854257 0.071964 -0.141315 -0.125003 -0.0774446 -0.695745 0.791787 0.184046 -0.551341 0.00502168 0.628055 0.436944 
-0.136073 0.331321 -0.760425 0.747363 0.602601 0.0815653 0.224046 0.262897 0.542255 0.27961 -0.344272 -0.62865 0.102276 0.847066 -0.895712 0.151509 
0.679928 -0.262128 -1.1094 0.00773616 0.52056 0.811449 -0.419973 -0.795254 -0.060623 0.0278242 0.837437 -0.224708 -0.0715326 0.37054 0.50284 0.614125 
-1.04968 -0.355882 -0.445267 -0.00560696 0.274403 0.474879 -0.55629 0.311628 -0.786569 -0.897365 -0.504424 -0.462645 -0.620693 0.272957 0.130267 0.328407 
0.00984226 0.351768 -0.329124 -0.169352 -0.189659 0.522104 -1.02251 0.653771 0.119042 -0.341556 -0.557636 0.389105 -0.606346 -0.0472652 -0.216925 0.00741345 
0.864734 0.494246 -0.242858 0.444452 0.208443 -0.116618 -0.123674 -0.32398 0.521661 -0.390585 -0.533186 1.21497 -0.142443 0.288848 0.210875 -0.802067 
-0.529778 0.0650643 0.207593 -0.209292 -0.0369819 -0.621562 -0.332914 -0.0611672 -0.6506 -0.107102 -1.12378 0.217766 0.0835034 -0.522368 -0.686507 0.574654 
0.666492 -0.603157 0.173153 0.0149432 0.783462 0.777525 1.19835 -0.858517 -0.517333 0.401716 -0.667167 1.16891 -0.535952 0.802821 -0.344276 -0.283317 
-0.325842 -0.488319 -0.289774 -0.954217 0.563572 -0.594777 1.02868 -0.623032 0.620885 -0.620118 -0.0659483 0.500828 -0.175007 0.829857 -0.130029 -0.733645 
0.56828 0.673744 -0.210345 -0.165105 -0.793397 0.581796 -0.858848 -0.483227 -0.0700646 -0.709349 0.469025 0.213247 0.0334476 -0.593389 0.619363 -0.228372 
0.0236604 -0.530224 -0.149501 0.931185 -0.50794 -0.0249928 0.0741567 0.69446 0.783305 0.466143 -0.237684 0.641185 0.507191 0.456331 0.672901 -0.418521 
0.495 0.122 0.935 0.948 0.559 0.119 0.138 0.466 0.373 -0.25 -0.94 0.341 -0.907 -0.452 -0.594 0.918 
-0.732 -0.788 -0.935 -0.381 -0.873 -0.429 0.114 -0.958 0.75 -0.251 0.728 0.261 0.977 -0.264 -0.975 0.606 
-0.535 0.783 0.953 0.405 0.626 0.153 -0.835 -0.455 0.127 0.78 -0.569 -0.62 -0.817 0.347 -0.277 0.081 
0.0619021 0.544168 -0.753146 -0.569076 -0.560326 0.662001 0.270551 0.0298061 0.698502 0.60263 -0.0219054 0.726549 -0.17413 -0.540092 -0.73141 0.184723 
-0.853253 0.357994 -0.608774 -0.805026 0.0688953 0.392976 -0.899501 -0.818103 -0.196025 -0.207583 0.305256 -0.921295 -0.909517 0.545079 0.340337 0.0800865 
0.601239 0.27383 -0.38897 -0.391151 0.152488 0.792389 -0.895223 -0.25332 -0.739476 0.705881 -0.791282 -0.0978018 0.0721302 0.777448 0.237555 0.850751 
0.107254 1.03616 0.4192 -0.50049 0.605139 -0.687049 0.8419 0.742371 -0.213615 -0.599283 0.532423 0.437634 0.872654 1.00653 -0.769021 0.441205 
-0.0176929 -0.312301 -0.00273931 -0.782472 0.239156 -0.925703 -0.0758774 -0.485766 -0.571973 -0.486501 -0.369411 0.279158 -0.79531 -0.129405 -0.495235 -0.0914559 
-0.937502 -0.556931 -0.362569 -0.678837 -0.00204213 -0.161534 0.355991 -1.39295 -0.694677 -0.581064 0.179391 -0.228852 -0.479076 0.175372 0.630161 0.756797 
-0.0637844 0.597522 0.271273 0.046006 0.00685584 -0.964872 0.243519 0.28877 0.0927558 0.315404 -0.901339 0.314709 -0.786318 -0.375413 0.882551 0.51106 
-0.979813 -0.389021 -0.412999 -0.791953 0.917083 -0.714274 0.109305 -0.434616 -1.43672 0.509229 0.00518918 0.568545 -1.20351 -0.0143613 0.143488 0.453173 
-0.248002 0.164975 0.720849 -0.820671 -0.635155 0.974053 0.708703 0.00303539 0.296807 -0.332652 0.145724 -0.74358 -0.141054 -0.880517 1.21119 -0.745031 
-0.787214 -0.960304 -0.126037 0.334521 0.528225 1.02002 -0.0261302 0.412231 -0.380823 0.0451835 -0.988585 0.135787 -0.176885 -0.35083 1.15578 -0.263893 
0.826065 -0.137389 0.773071 0.164196 0.48412 -0.0242674 0.696097 0.565343 0.258939 0.510218 0.242505 -0.807947 0.366436 0.504975 0.79485 -1.20083 
-0.604992 0.506909 -0.0266194 1.09454 1.31168 0.501365 0.707013 -0.357442 1.14196 -0.465084 -0.48858 -0.975994 -0.552405 -0.46767 0.686281 -0.91257 
-0.460417 -0.392314 0.266855 -0.494738 0.485925 -0.519526 0.0682771 0.212834 0.941805 -0.277969 0.0404332 -0.142956 0.923446 -0.247382 0.151902 0.0937941 
0.0733008 -0.862047 0.57368 1.15746 0.179606 -0.859961 0.0803269 0.478107 0.695865 0.724378 0.303762 -0.3481 -0.897 0.536226 0.235516 0.00973848 
0.397385 -0.506548 -0.677689 1.53501 -0.415647 -0.0131642 -0.529326 -1.04197 -0.580211 -1.14111 -0.490279 -0.332958 0.00467847 -1.05905 0.654513 0.165685 
0.365611 -0.683372 -0.381404 1.39158 0.272018 0.282949 -0.93881 0.109842 -0.410204 0.245962 -0.2952 -1.16108 -0.290926 -0.403987 0.00629371 0.158701 
0.803606 0.438571 -0.0120895 -0.453006 0.331685 -0.504066 -0.531448 0.888152 -0.673709 -0.987942 -0.646271 -0.649736 0.828378 -0.021538 0.405455 0.128554 
0.761769 -0.78356 -0.754696 0.539054 0.916349 -0.889407 0.0471453 -0.407507 -0.406021 -0.784812 0.135112 0.116775 -0.0513143 0.375868 0.191054 0.53311 
0.605966 0.391246 0.0348366 0.184734 -0.623942 -0.619527 0.175922 0.312727 0.972444 -0.354864 -0.86867 -0.0784954 -0.160874 0.973661 0.768545 0.124965 
0.876523 0.206023 0.0355422 -0.464549 0.206875 -0.342865 0.946332 0.408147 -0.850713 0.364403 -0.0147383 -0.598755 -0.51514 0.108616 -0.189394 -0.643138 
0.0411593 0.349076 -0.123239 -1.15218 -0.251484 -0.700834 -0.0323095 -0.291285 0.0642217 0.768717 -0.863364 0.0814417 -0.888725 -0.290779 -0.0092684 0.199143 
0.174242 0.163223 -0.245706 -0.782449 -0.122757 -0.366997 1.15041 -0.115381 0.53507 -0.218597 -0.242199 -0.060838 -0.71124 0.558395 -0.197011 0.133971 
-0.368042 0.24817 -0.46261 -0.466351 0.582587 -0.369154 0.86419 -0.464674 0.580894 0.931084 0.155598 -0.114102 0.120035 -0.950109 0.135968 0.290518 
-0.969022 0.992574 -0.568046 0.382415 0.37415 -0.0435787 0.802805 -0.605417 -0.821901 0.674383 0.949939 0.115094 0.0726092 -0.769538 -0.208595 0.0353308 
0.207483 -0.59258 0.444602 0.536505 0.958858 0.576016 -0.194823 0.706672 -0.914177 0.167871 -0.390834 0.721234 -0.884616 0.88292 -0.578403 -0.623051 
0.0961564 0.380003 0.354995 0.168 -0.0659695 -0.616991 -0.389084 -0.684 -0.596817 0.948537 -0.800079 0.0358662 0.658456 0.273189 0.729936 0.189373 
-0.968 0.223 0.787 -0.822 -0.261 0.503 0.137 -0.11 -0.537 -0.823 0.801 -0.797 0.913 -0.17 0.314 -0.901 
-0.00195721 -0.896905 -0.401936 -0.883504 0.789821 -0.132 0.374116 0.692025 -0.552004 -0.893956 0.184125 -0.151999 0.925947 -0.433 -0.765005 -0.59301 
0.975266 0.471508 0.191869 -0.963779 -0.0802809 -0.156446 0.430942 -0.240291 -0.398848 0.0359173 -0.18964 -0.732919 -0.928104 0.632803 0.484325 -0.724246 
0.208117 0.369649 0.334376 -0.897247 -0.643616 -0.163277 0.576935 -0.133004 -0.756951 -0.275444 -0.930325 -0.213443 0.594693 -0.531389 -0.364225 0.490098 
0.288391 -0.231486 0.375215 -0.699678 -0.39587 0.0829942 -0.503032 -0.76534 -0.571758 0.862641 0.13287 -0.715979 -0.158654 0.385627 0.457804 -0.472395 
-0.990634 0.224871 -0.435298 0.0273268 0.210237 0.913752 0.181062 -1.08688 -0.662823 -0.573226 -0.13898 0.495652 -0.452398 0.352402 0.577788 -0.0169391 
0.925938 -0.854605 0.552605 0.151809 0.368476 -0.502587 1.24108 -0.11199 -0.670227 0.560002 -0.808683 0.80009 -0.614015 0.389307 0.155391 -0.217269 
-0.982195 -0.289237 -0.970914 0.370401 1.36296 0.800013 0.810525 -0.553366 -1.03768 0.749075 -0.65841 -0.310428 -0.84861 -0.170873 1.18051 0.554878 
-0.484012 -0.84711 1.01466 0.486383 0.109791 -0.00585227 0.86201 -1.19063 0.340796 0.611121 -0.332526 0.54714 -0.208447 -0.00333994 1.45509 -0.177496 
-0.0405915 -1.3225 0.588983 -0.0465374 1.18429 0.0730882 1.12574 -0.0143086 -1.10892 -0.562719 -0.50582 -0.794443 0.398622 0.76714 0.425748 -0.287143 
-0.0348282 -1.0905 0.0691644 -0.247325 0.435734 -0.614267 0.400005 -1.17007 -0.594856 0.207428 -0.587487 0.705508 -0.943431 -0.152298 1.11939 0.0847891 
-0.625444 -0.860736 0.839364 1.01673 -0.0993007 -0.632168 0.329404 -0.780381 -0.958683 0.73925 -0.218167 0.657253 0.326762 0.125247 -0.301523 -1.10715 
-0.633251 -0.549897 -0.0189064 0.51838 0.00710797 1.08034 -0.248378 -0.347134 -0.129017 0.697603 0.0367536 0.331074 0.0702055 -0.547212 0.158399 0.195025 
-1.04669 0.622775 -0.691886 1.10999 0.852461 0.782749 0.276975 -0.0986493 0.36545 -0.0269135 0.398909 -1.38888 0.721825 -0.0410033 -0.117668 -0.56885 
-0.715292 -1.02445 -0.481361 -0.336902 0.976092 -0.624983 -0.820958 -0.539389 -0.647424 -0.582719 -0.591688 0.179507 -0.825059 -0.107995 0.225016 -0.985866 
0.260258 -0.776001 -0.562862 0.23782 -0.103146 0.34194 -0.30034 -0.838194 0.428692 -0.77437 -0.368139 0.0648328 0.568506 -0.476583 -0.294905 -0.485156 
0.0826814 -0.440521 -0.64228 1.06806 0.503306 -0.239945 0.718995 -0.17887 -0.972373 0.469852 0.361805 -0.0764089 0.461912 -0.581144 1.07014 1.22967 
0.454154 0.374437 -0.951315 1.21968 0.15088 -0.811417 -0.148622 0.73024 1.04997 0.7679 -0.117283 0.226005 -0.498156 0.765227 -0.263936 -0.683256 
0.322672 -0.129265 -0.558741 -0.0308025 -0.129635 0.597934 0.691006 -0.121144 0.493824 0.592335 0.488907 0.0920088 -0.151415 0.491175 0.564526 0.858138 
-0.192028 1.24143 0.378569 0.392408 0.600213 -0.571055 0.714991 0.901085 -0.562688 0.61392 0.0297594 0.334129 -0.34449 0.715216 -0.667678 0.954258 
0.949329 -0.26921 0.0490134 -0.730285 -0.69154 0.940779 0.397447 0.909832 -0.625781 -0.241574 -0.294058 0.69062 0.196677 -0.669247 -0.637706 -0.627734 
-0.16419 -0.331069 0.831899 0.404587 -0.338931 0.844874 -0.949393 0.290514 0.509784 -0.571976 -0.63388 0.581237 0.534054 -0.497353 0.287758 -0.84484 
0.943241 1.07067 -0.269812 -0.303667 -0.5564 0.0401759 -0.0895445 -0.227963 0.0514865 -0.846532 -0.450505 0.413297 0.269963 -0.26659 -0.24759 -0.243225 
-0.456233 0.856852 -0.0708401 -0.792007 0.792251 -0.0621591 0.866896 -0.702222 0.0516566 -0.658404 -0.380026 -0.212696 0.488509 0.774947 -0.640849 0.866862 
-0.45496 -0.098967 0.0861348 0.206903 -0.701541 -0.378754 0.429246 0.457248 0.222873 -0.431106 -0.258951 0.362385 0.554574 -0.43209 -0.698251 -0.613815 
0.926703 0.798093 0.742148 0.162062 0.0359965 -0.632039 0.10544 -0.384632 -0.762903 0.858357 0.548913 0.286622 -0.442195 -0.334526 -0.762432 0.126492 
-0.262639 0.765785 -0.349011 0.931576 -0.351022 -0.04904 0.150174 -0.792519 0.5876 0.700685 -0.907849 0.284537 -0.248677 -0.53178 -0.466294 0.787023 
-0.505993 -0.42681 -0.494189 -0.302256 0.939186 0.143598 -0.552552 0.222381 -0.22445 -0.897604 -0.962341 -0.261575 -0.696356 -0.0742255 -0.454287 -0.441629 
-0.411 -0.73 0.849 -0.088 -0.212 0.563 -0.6 0.541 0.514 0.505 -0.956 -0.289 0.375 -0.716 -0.894 -0.742 
0.397 -0.606 -0.841 0.123 -0.585 -0.904 0.822 -0.742 -0.127 -0.124 -0.604 -0.294 -0.895 -0.205 -0.613 0.143 
0.139565 -0.859374 -0.619871 -0.155136 -0.723575 -0.629864 -0.271379 0.397033 -0.319046 -0.255013 -0.4126 0.54388 0.588723 0.441141 -0.176786 0.928522 
0.952586 0.676185 0.326066 -0.654347 -0.397767 -0.311585 0.651432 -0.117598 0.497181 0.930591 -0.42077 -0.798986 0.412291 -0.112745 -0.321982 0.78509 
-0.167441 0.748021 0.708458 0.296572 -0.0786796 0.281872 0.562539 0.408719 -0.620283 0.0418785 -0.000296422 -0.265579 0.332429 0.744855 -0.402101 -0.331218 
-0.316385 -0.5003 -0.663464 -0.330286 -0.53479 -0.094551 -0.155712 -0.693857 -0.652563 1.00497 0.549406 0.755057 0.759986 -1.03241 0.404722 -0.232857 
-0.00700681 0.366722 0.150998 0.0876414 0.157122 -0.996198 0.631052 0.139182 0.401976 -0.0100818 0.822962 1.10523 0.86052 0.690349 -0.155073 -0.763568 
0.537537 -0.0123584 0.706912 0.402604 0.77369 -0.571299 0.736187 -0.954468 0.0953752 0.589749 -0.894366 -0.116312 -0.576061 0.663879 0.253425 0.705224 
1.18214 -0.121361 0.506657 -0.208035 0.749621 -0.121707 -0.0166636 -1.64433 -0.649457 -0.365993 0.189549 0.983005 -0.470692 0.935448 0.375551 -0.242744 
-0.658467 0.0549205 0.161042 -0.561918 0.176071 0.296553 0.160184 -0.83204 -1.05882 0.0617514 -0.0623 0.0471203 0.187784 -0.437086 1.14951 -0.418933 
-0.458403 -0.062881 -0.0329996 0.690715 0.0114996 0.298714 -0.468799 -1.07571 0.250973 -0.573172 -0.148964 -0.0992947 1.13339 -0.337584 0.430491 -0.0738893 
-0.947031 -1.50018 0.826724 -0.182596 0.395074 -0.317946 0.222924 -1.57 -0.139794 -0.615335 -0.341838 -1.0037 -0.621018 -0.142895 -0.425214 0.211808 
-0.0745557 -1.2366 0.0171073 -0.22507 1.32869 0.790834 0.796096 -0.947011 0.233165 -0.80314 -0.46423 0.199317 0.286251 1.14386 0.378485 -1.00172 
0.235302 -0.0517253 -0.0623748 0.473391 0.986489 -0.38841 -0.0352232 -0.153966 0.380254 0.619426 0.114178 0.0486514 -0.0519436 -0.131679 1.13842 0.0719359 
-1.31913 -1.5494 0.325664 0.879886 -0.707157 -0.253764 0.00882546 -0.0921799 0.643938 0.503081 -1.38435 -0.321469 0.772311 0.583737 -0.192338 -0.128629 
-0.189697 0.54915 -0.600369 -0.0862856 0.459598 -0.526409 -0.534942 -0.353984 -0.425552 -0.519872 -0.772478 -0.477809 -0.357508 0.607455 0.556046 0.97783 
-0.520344 -0.481969 0.262385 0.769058 -0.58437 0.327839 0.500224 0.540648 0.53725 0.219286 0.331555 0.173584 -0.312075 -0.784231 0.622433 0.813124 
0.080832 -0.339431 0.746504 -0.437369 -0.931112 0.952781 -0.058019 0.0701087 0.772137 0.186684 0.0446043 0.863577 0.306226 -0.781499 -0.618872 0.0878939 
0.593399 -0.0601913 -0.870835 0.173106 -0.330304 -0.173485 -0.637815 0.202965 -0.778704 -0.960638 -0.885876 0.567049 -0.463361 0.387924 0.575701 0.865466 
0.183062 0.0580004 -0.267013 0.634524 0.669245 0.806691 -0.642175 -0.223341 1.02656 0.0140307 0.275951 0.548737 -0.840135 0.316656 -0.937443 0.174162 
0.523588 0.149542 -0.572465 -0.203575 -0.0723491 0.459325 0.0228881 0.698318 -0.676053 0.0507746 0.387796 -0.405814 -0.501398 0.591787 -0.031795 0.059721 
0.0730074 1.01382 -0.332159 0.407582 -0.847796 0.868853 0.316594 -0.0956405 -0.575471 0.25034 -1.04889 0.75807 -0.770342 0.622016 0.123816 0.491715 
-0.515243 0.41461 -0.708954 0.158496 -1.04505 0.135478 0.843 -0.896399 0.521827 -0.86099 0.0844665 0.818587 -0.270616 0.0184332 0.348387 0.409013 
0.768181 0.22619 -0.433616 0.35274 -1.06177 -0.643855 -0.0549317 -0.596453 -0.236765 -0.351726 0.781564 1.34266 -0.619994 -0.220578 0.393966 -1.15261 
-1.07408 -0.858841 0.599849 0.066778 0.348769 -0.309831 -0.110175 0.859148 -0.564333 0.429584 0.663742 -0.179824 -0.720929 0.654249 0.963217 0.661122 
0.625539 -0.816215 0.505769 0.778565 0.0921565 -0.189425 -0.747339 0.766341 0.261996 0.381668 -0.368421 0.245374 0.458497 -0.300633 -0.665604 0.111374 
0.49491 -0.721565 -0.943987 -0.655842 0.479931 0.234518 -0.362394 0.270111 0.942762 -1.00222 0.40648 -0.044117 0.244754 0.337225 -0.795157 -0.0550782 
-0.362081 0.0941593 0.259748 0.532138 -0.763389 -0.335634 -0.75865 0.387864 0.968081 -0.972537 -0.493978 0.461732 -0.814441 0.491691 -0.886287 -0.509795 
0.94 -0.11 -0.894 0.413 -0.502 -0.777 -0.21 0.562 0.125 -0.779 0.995 -0.054 0.578 0.754 0.201 0.523 
-0.587778 -0.901997 0.545837 0.687001 -0.522425 -0.788955 -0.081061 -0.518003 0.682868 -0.291997 -0.642116 -0.939207 0.456446 -0.884721 -0.270342 0.392856 
-0.173831 -0.0913687 0.762193 -0.97049 -0.468878 -0.246667 -0.91325 -0.374585 -0.713615 -0.640962 -0.574349 0.819959 0.622445 -0.353126 -0.82934 0.385296 
0.203844 0.593182 -1.05446 1.01951 0.406542 0.345603 -0.705744 -0.724702 0.175153 -0.627529 -0.62079 0.0912587 -0.950717 0.953743 -0.17711 -0.171153 
-1.11599 -0.433295 0.170465 0.86696 -0.526449 -0.751019 0.938443 -0.893168 -0.0757102 -0.575328 0.333962 0.884089 -1.03178 -1.04761 -0.377813 0.412445 
-0.12516 -0.588317 -0.0909311 -0.386923 -0.515943 0.476153 0.897982 0.122071 -1.06836 0.663917 -0.0197778 -0.720843 -0.937737 -0.135092 -0.467513 0.0498692 
-0.638977 0.24602 0.69973 -0.209568 -0.192151 -0.307869 -0.257931 0.723691 0.314008 0.761426 -0.47504 -0.255656 -0.904766 0.857827 0.421809 -1.00042 
0.429513 0.647843 -0.441167 -0.559126 0.209642 0.0970267 -0.54216 -0.538708 0.453896 -0.704318 -0.147259 -0.149264 -0.795861 0.222536 0.860104 -0.0243821 
-0.594981 0.379769 0.232491 -0.0963622 0.571391 0.345913 1.2735 -0.209038 -0.491336 0.0263221 0.831304 0.795989 0.492911 -0.180366 0.503404 0.634801 
-0.24463 -1.40109 0.999181 0.955919 0.124515 0.807244 0.0586656 -0.117885 -0.866249 -0.184252 -0.0942095 0.147219 0.963193 -0.010637 -0.203168 -0.462111 
0.228364 -0.961975 -0.134495 -0.81401 -0.0504003 0.369159 0.404592 -1.44256 -0.396734 0.230167 0.437348 0.951158 0.913752 -0.491387 -0.125445 0.0876203 
-1.81894 0.205676 0.759828 0.095778 0.758226 0.520206 0.254458 -0.254878 -0.755791 0.105039 -0.618902 0.687468 0.573006 -0.148202 0.547165 -0.537951 
-1.37885 -1.02931 0.610357 -0.753917 -0.299041 -0.312199 0.446349 -0.187421 -0.58308 0.933137 -0.381101 0.170669 0.0456629 0.469327 -0.693714 -0.841072 
-0.571483 -1.58283 -0.208228 0.445445 0.0751087 -1.03441 -0.545114 0.326115 -0.615149 -0.463424 -0.941252 -0.433914 0.341802 -0.689205 0.245732 0.0590446 
-0.617053 0.367542 -0.441162 0.11972 0.569681 0.825616 -0.710754 0.584259 0.262674 -0.686043 0.30681 0.805068 -0.357006 0.615589 -0.0467915 -0.131808 
0.147343 0.0159351 -0.0419146 0.175951 0.445394 -0.394469 0.80578 -0.631414 0.0980269 0.0932213 0.0691146 -0.0665815 0.675309 0.147011 -0.620607 -0.559642 
-0.689146 0.135764 0.515028 0.536644 -0.323751 -0.631942 0.473957 -0.071795 0.234189 0.33334 -0.0485481 -0.265761 0.15418 0.186127 0.366082 0.37479 
0.137596 0.0988858 0.14123 0.429155 -0.903637 0.406916 0.74058 0.374393 0.258869 0.290226 0.387882 -0.261595 -0.0225959 -0.285886 -0.0217514 -0.317525 
0.14567 -0.16485 0.334262 -0.106743 -0.70972 -0.208026 -0.14319 0.321528 -0.699854 -0.241846 0.405043 0.246264 -0.919976 -0.481784 -0.771538 -0.271032 
-0.819783 -0.259098 -0.116381 -0.248126 0.427419 0.472852 0.196733 -0.051705 0.162611 -0.995298 0.241247 0.676165 -0.827915 -0.48572 -0.446275 0.0407609 
0.152181 -0.587548 -0.541664 -0.532421 0.0160833 -0.242616 -0.757428 -0.537319 -0.307866 0.477532 0.505168 -0.91564 -1.05394 -0.225841 -1.04218 -0.725666 
-0.77474 0.497639 0.607436 -0.172016 0.909963 0.615871 -0.591751 -0.0213809 0.690833 -0.618631 0.695385 0.539916 -0.444906 -0.313335 -0.15954 -1.25774 
0.0344959 0.111433 -0.96349 -0.267412 0.370905 0.386085 -0.238676 -0.305752 0.295585 0.556578 0.353639 0.795376 -0.309055 -0.489765 -0.160454 -1.0982 
-0.634125 -0.895809 -0.166658 -0.522262 0.249051 -0.580746 0.894966 0.745176 0.557376 -0.134177 -0.878441 -0.27282 0.667254 0.394473 0.66109 0.0211486 
-0.472527 0.724163 0.203912 -0.278053 -0.715636 -0.700019 0.29027 0.405262 -1.0774 -0.192112 -0.199332 1.23077 0.869637 0.270392 -0.0243176 0.543596 
-0.339766 -0.430892 -0.498231 0.799076 0.365987 -0.865421 0.835507 0.361342 -0.435899 -0.138599 -0.415983 -0.111071 -0.870318 0.353374 0.0384017 0.679359 
-0.961229 -0.98645 -0.145965 -0.237214 -0.0610142 0.701051 -0.473629 0.481916 -0.749258 -0.917229 0.176173 -0.226167 0.435662 -0.0864714 -0.478046 -0.265963 
-0.911005 -0.819623 0.568979 -0.556199 -0.852034 -0.869976 0.209346 -0.137983 0.835775 -0.549693 0.246379 -0.383387 -0.690745 -0.432006 0.0300225 -0.862224 
-0.068 0.001 0.102 -0.809 0.406 0.804 -0.421 0.673 -0.79 -0.035 -0.963 -0.781 0.818 0.049 -0.288 -0.354 
-0.283574 0.0380061 0.288669 -0.309999 0.0321406 -0.329933 0.9909 0.452994 -0.458292 -0.847136 -0.493188 -0.14542 0.565855 -0.284721 0.967309 0.820518 
0.22652 0.493094 0.38377 -0.632606 -0.745124 0.656104 0.584609 0.421858 0.827 -0.989709 0.287697 0.358339 -0.934916 0.820565 0.714945 -0.24734 
0.122174 0.486466 -0.744554 0.843843 -0.553906 -0.626808 0.870426 0.467026 0.987944 0.652567 0.937904 -0.915645 0.678604 -0.591934 0.603608 -0.814923 
-0.422872 0.708097 0.522853 -0.455606 -0.0392401 0.123009 0.776218 0.441138 0.952151 0.515975 0.767065 0.441516 0.0607103 0.440195 -0.180818 0.468759 
-0.30705 1.33458 -0.83981 0.449755 -1.07219 0.842552 -0.440393 -0.174614 -0.811016 0.557903 0.387733 0.696423 0.269304 -0.39642 -0.496929 -0.0999038 
0.124137 -0.0332667 -0.514587 0.170794 -1.33556 -0.587457 0.692317 -0.57852 0.0066207 -0.181403 -0.159863 -0.261311 -0.371574 -0.538639 0.854441 0.824858 
-0.388805 -0.230955 0.425139 0.672893 -1.33181 -0.244996 -0.564366 -0.855778 -0.319559 1.15149 0.270852 0.223015 -0.465492 -1.01728 0.0582142 -0.235076 
0.885872 -0.212383 0.494579 0.31984 0.342066 -0.998393 0.759833 0.256621 0.675436 -0.935775 -0.246665 0.836592 -0.176164 -0.192969 -0.553415 0.290474 
0.600651 0.620492 0.214746 0.00588091 -0.267737 -0.890106 0.579532 1.13845 -0.0519843 0.63091 0.545255 0.669528 -1.0462 0.968963 -0.566206 -0.761531 
-0.63814 0.530535 1.58378 0.650527 -0.241619 -0.177923 0.863922 0.463259 -0.248085 0.470339 0.214377 -0.47215 -0.197401 0.811479 -1.26617 -0.92684 
-0.0510074 0.0479738 0.796498 0.107525 -0.664888 0.848565 -0.0164433 -0.679915 0.322943 0.128847 -0.026989 1.21092 -0.351971 -0.00947337 -0.36608 0.277282 
-1.13791 -0.457949 0.406001 -0.0589719 -0.278487 0.0613291 0.26482 -0.8025 -0.790184 -1.08628 0.0826546 -0.212374 -0.700847 -0.689738 -0.176549 0.0849945 
-0.514954 -0.165196 0.532932 -0.182103 0.591188 -0.116687 -0.395438 -0.233336 0.0477068 -0.14489 -1.05067 -0.182789 0.214602 -1.17415 -1.05016 -0.933685 
-1.26555 0.134487 0.276415 -0.253743 0.622538 -0.842327 0.399872 -0.620853 -0.609305 0.994786 0.418218 0.145417 0.0462761 -0.556464 -0.0399354 -0.250765 
0.679323 0.241983 -0.169982 -0.911122 -0.292438 0.376575 -0.880732 0.458867 -0.279743 0.678261 0.199768 0.514275 -0.894316 0.728704 -0.633987 -0.106641 
-0.0106835 -0.392439 -0.490409 -0.1033 0.269185 -0.374149 -0.0415918 -0.177888 -0.462771 -0.126338 -0.38932 -0.20066 0.261779 -0.496427 0.14454 -0.0762381 
0.124243 0.573101 -0.327979 -0.0303886 -0.126348 0.365041 -0.0668297 -0.839252 -0.0471687 -0.269016 0.116165 0.516281 -0.59371 0.297022 -1.12891 -0.156977 
0.158092 -0.561801 0.956006 0.819772 0.102609 -0.652338 0.619896 0.52644 -0.347616 -0.438818 0.649502 -0.247802 0.294449 0.564133 0.212371 -0.754467 
0.465424 0.724283 0.0440021 0.433457 -0.506642 -0.0355932 -0.289463 0.453104 0.376133 0.704489 -0.335538 -0.412028 -0.967498 -0.35913 0.401457 -0.959839 
-0.253996 0.579204 -0.375903 -0.513278 -0.314646 -0.432256 -0.767073 -0.249797 -0.532067 -0.235608 -0.882008 0.248191 -0.644452 -0.145992 0.297145 0.356773 
0.260517 0.640665 -0.687481 -0.628495 -0.563487 -0.0162072 0.667229 -0.642194 -1.03472 -0.561921 0.795218 -0.621726 0.387586 -0.842563 -0.603976 -1.18781 
0.0635507 -0.49497 0.728504 0.819412 0.757478 -0.610856 -0.106673 -0.562959 -1.29906 0.433421 0.271449 0.730631 -0.931693 -0.694177 -0.350793 -0.301011 
-0.268437 0.275473 -0.966265 -0.504655 -0.174012 0.565971 0.9204 -0.744978 0.443901 -0.850882 -0.399416 -0.00258494 -0.739016 0.967936 0.382776 -0.777388 
0.0460274 0.637493 0.403715 -0.448673 0.199205 0.759244 0.357404 -0.199623 -0.861949 -0.470645 0.519597 0.93259 -0.802211 0.181432 0.0646241 0.455026 
0.0654428 -0.182734 -0.833698 -0.285986 0.526977 0.313344 -0.784086 0.552309 0.246984 -0.146308 0.328861 -0.0372891 -0.0940093 -0.674489 -0.194421 0.156421 
0.134253 -0.182164 0.954589 -0.357068 -0.647368 0.245456 -0.958589 0.39847 -0.845151 0.718559 0.834394 -0.629984 -0.576665 -0.942327 -0.502191 -0.8965 
-0.906199 0.509708 -0.462004 -0.599861 -0.495007 -0.660995 0.252059 -0.926997 0.846955 -0.782919 0.482243 0.218111 0.145051 -0.554001 -0.399996 0.497956 
-0.203 -0.859 0.925 0.84 -0.801 0.009 0.656 0.443 -0.008 0.69 -0.526 0.458 -0.921 0.288 -0.027 -0.7 
0.0637777 -0.345999 0.0669533 -0.0699998 0.825879 -0.148273 0.675268 -0.823001 -0.266324 -0.381713 0.893538 0.0349407 0.939556 0.955651 -0.882098 0.0256731 
0.388249 0.991099 -0.556777 0.0351474 0.507396 -0.174268 0.670348 -0.274577 -0.129281 -0.473878 -0.0310247 -0.564351 0.940209 -0.802132 0.270089 0.767981 
0.844449 -0.359109 -0.129851 0.529289 -0.602127 -0.808124 0.697752 0.787055 0.756914 0.686875 -0.801968 0.102855 0.554085 -0.406208 0.114273 0.419982 
-0.235935 0.0792329 -0.432134 -0.442545 0.500807 -0.479834 0.26394 -0.27264 0.217476 -0.070233 1.22672 -0.154918 -0.828123 -0.558704 0.626067 -0.499334 
0.379301 0.4019 -0.440815 0.803555 0.460376 0.404104 0.512157 0.778843 -0.265263 0.280335 0.287048 0.800828 -0.526612 -0.148199 0.0926073 0.0205903 
0.0208056 0.884435 0.389724 -0.0895149 0.121888 0.479441 0.00519995 0.667575 0.597847 1.25627 1.36047 0.627978 -0.00893989 -0.776057 0.00985837 0.396522 
-0.268935 0.646106 0.757932 0.453622 -0.325314 0.575506 0.7331 0.607827 0.0751871 -0.598377 1.02658 -0.822334 0.433238 -0.441627 0.544 -0.291556 
0.27726 -0.0599425 0.417558 -0.87532 0.205394 -0.891595 0.436007 0.63354 -0.371982 0.856481 -0.490763 0.0922996 0.404133 0.74612 -1.38239 -0.514239 
-0.346613 0.214784 0.865457 0.0283249 -0.92789 -0.771857 0.489005 -0.0255149 -0.437904 0.797437 0.135929 0.217093 0.46855 0.0652425 0.0250335 0.378969 
-0.179538 0.268106 0.0104774 -0.608136 0.666535 -0.0761111 0.471605 -0.209357 -0.439042 -0.3683 -0.908382 0.304619 0.194638 -0.279847 -1.16843 -1.25857 
-0.768667 -0.487292 0.717702 0.412906 0.42647 -0.256453 0.49695 0.154716 0.681168 -0.937691 0.483903 0.613935 0.476271 -0.124476 -0.338455 -0.863639 
0.0752769 0.801622 0.359662 -0.293079 0.325285 -0.61489 -1.10461 -0.0140968 0.307468 -0.287583 0.710529 0.959761 -0.511989 -0.165631 -0.105823 0.406904 
0.377436 1.18554 0.723996 0.367483 -0.0596702 0.888774 0.48471 -0.218543 -0.338773 0.205068 -0.196564 0.391308 -0.0434912 -0.74312 -0.376166 0.4236 
0.278525 0.165032 -0.0880776 -0.324241 -0.309801 -0.332547 0.281723 0.466094 -0.0636345 -0.734609 -1.09184 0.853832 -0.585326 -0.791399 0.127079 0.398408 
-0.127964 -0.456014 -0.404023 0.172803 0.714745 -0.61462 -0.0912006 -0.54753 -0.586953 0.0752759 -0.0254016 0.0909521 -0.507283 -0.981959 -0.891375 -0.362631 
-0.165613 0.718674 0.0256156 0.640468 0.704165 -0.563201 0.617106 0.0680462 0.687677 -0.813168 -0.823936 0.727676 0.106686 -0.217189 -0.339612 -0.643008 
0.157365 0.538293 0.46408 -0.510754 -0.157422 0.745779 0.417127 0.0967492 0.60468 -0.461096 -0.505225 -0.662571 -0.748096 0.325183 -1.03343 -0.554701 
-0.880186 1.24107 -0.0367971 -0.335683 -0.350183 0.193723 0.927084 -0.461837 -0.729322 -0.506221 0.257848 0.614623 0.976089 0.809233 -1.01621 0.451841 
-0.373236 -0.457807 0.516092 -0.0415662 -0.952851 0.918398 0.49238 0.580214 -0.216543 -0.335018 0.15032 0.420913 -1.02933 0.3741 0.119798 -0.70791 
-0.132001 0.84998 -0.262726 0.948507 -1.10247 -0.595283 0.0593947 -0.258642 0.671541 -0.278207 -0.178106 -0.0708681 -0.545425 -0.541815 -0.215461 0.0518992 
0.365514 -0.0263168 -1.15907e-05 0.451933 -1.04184 -0.046104 0.504867 0.014388 0.384876 0.841458 0.823401 0.832903 0.451624 -0.839259 0.533827 -0.745868 
0.240273 0.338336 0.153592 0.105384 0.419406 0.817445 0.416012 -0.203557 -0.0717245 -0.276189 0.132341 0.203193 -0.423914 0.726685 -0.23422 0.212722 
-0.820974 -0.0939452 -0.449146 0.65945 -0.966546 0.828984 0.620856 0.747811 -1.17809 0.203968 0.274592 0.0330143 -0.12284 0.98373 -0.790183 -0.490854 
0.417334 0.416607 0.0836952 0.0726846 -0.898186 -0.435047 -0.473519 -0.660306 -0.0910737 -0.914584 0.262914 -0.342369 -0.426701 0.255541 -0.796233 -1.06297 
-0.767484 0.179852 -0.520832 0.0716532 0.0639578 -0.0336932 -0.0745686 -0.716485 0.227126 -0.253581 -0.466991 0.437914 0.774871 -0.82093 -0.33126 -0.510475 
-0.499273 0.97614 0.677629 -0.60984 0.783517 -0.615355 -0.0542899 0.915017 -0.237425 -0.844095 -0.626919 0.978113 -0.532182 0.234291 0.962086 0.539221 
-0.557 0.056 0.654 -0.503 0.339 0.709 -0.943 -0.698 -0.677 -0.963 0.338 0.916 0.697 0.491 0.402 -0.811 
-0.313 -0.003 0.12 -0.433 0.949 -0.074 0.523 0.591 -0.152 0.035 0.691 -0.256 0.658 0.512 -0.902 -0.228 
0.355 -0.229 0.409 0.753 0.448 0.745 0.304 -0.488 0.916 0.855 0.198 -0.238 -0.843 0.196 0.418 0.164 
-0.275107 0.361245 -0.478256 -0.186063 0.65807 0.154228 -0.564497 -0.716804 -0.387048 -0.197838 -0.566324 0.536958 0.886332 0.358037 0.541296 0.251599 
-0.0209969 0.814744 0.73897 -0.270998 0.797628 -0.16737 -0.931538 0.21519 -0.224583 -0.916953 -0.620962 0.615968 0.915638 0.270073 0.0986349 -0.389151 
0.312965 -0.347866 -0.629247 0.0295136 -0.778332 0.618346 0.023095 0.107284 0.245812 0.316738 0.922143 0.0466219 -0.661472 -0.154098 0.459474 0.0599757 
-0.206643 -0.608471 0.105208 0.859403 -1.24919 -0.245172 0.962713 0.397913 0.752321 -0.77123 0.665414 0.774716 -0.591833 0.439373 -0.908219 0.159057 
-0.427462 -0.442414 0.159328 0.287024 -0.716424 -0.100355 0.990966 0.715921 0.336548 -0.344091 -0.0128546 0.855258 0.31161 -0.552516 -0.927204 0.135404 
-0.650889 -0.573314 -0.120048 -0.756949 -1.38917 -0.477294 0.428812 0.876646 0.59951 0.59953 0.820304 0.709638 -0.715459 0.391981 -0.304742 0.171445 
0.0258283 0.660949 0.135688 -0.37317 0.630615 -0.163027 0.328294 -0.0941505 0.387573 1.04493 0.976906 -0.565026 -0.351395 0.952563 -1.00672 -1.2877 
-1.13672 0.197361 0.0621386 -0.176813 -1.13857 -0.632604 -0.808036 0.252247 0.543803 -0.90939 0.699781 -0.627361 0.556569 -0.547538 -1.05342 0.00456547 
0.538205 0.0564978 -0.0975157 -1.05281 -0.539617 0.624106 0.386847 0.710977 0.549559 0.804093 -0.350017 0.21246 0.0931984 0.339344 -0.424026 -0.0915451 
0.0238797 0.0868725 -0.520897 0.35309 -1.43859 -0.123234 -0.316085 0.817182 -0.700405 0.254533 -0.40454 0.123416 -0.598177 -1.13531 -0.296231 0.155984 
-0.00371656 0.0593332 0.572979 0.142201 -0.949893 0.253765 0.480569 -0.0485398 0.166657 0.305014 -0.530412 -0.296112 0.132353 0.64178 -1.08181 -0.563901 
0.129989 -0.341765 0.702227 0.0326956 -0.211707 -0.990587 -0.436249 0.177478 -0.0210648 -0.868189 -0.994794 0.0712235 -0.0420092 0.669419 -1.07798 -0.839495 
-0.601117 1.30876 -0.463235 0.268287 -0.257546 0.810135 -0.10997 -0.0272576 -0.969066 -0.670089 -1.06246 -0.270196 -0.763412 0.203919 -0.485738 -0.175387 
0.193195 -0.46043 0.578355 -0.444187 0.305701 -0.973906 -0.0257076 -0.0444846 0.618507 0.0039537 -1.1028 0.486953 -0.998056 0.509415 -0.648207 0.232191 
0.588429 0.672357 -0.166516 0.700618 -0.173048 0.957984 0.245986 0.778954 -0.916384 0.134387 0.281429 -0.893425 -0.42559 -0.729673 -0.842726 -0.385556 
0.324166 -0.608521 -0.767408 -0.569733 -0.303661 -0.759162 0.513258 0.917706 -0.157633 -1.07412 -0.434424 0.2671 -0.534936 0.773314 0.437415 -0.276593 
-0.947366 0.19662 0.0147921 -0.010831 0.119101 0.0389135 1.08968 0.422522 -1.096 0.973463 -0.661211 -0.662938 1.15761 0.35864 -0.529152 0.502906 
-0.729387 -0.729698 0.333166 -0.179247 0.125868 0.127536 -0.475228 0.0296171 -0.257691 0.792732 0.852853 0.618402 -0.719251 -0.735691 -0.90353 -0.939875 
0.092696 0.625654 0.179515 0.390249 -0.301742 0.782815 -0.674558 -0.377717 -0.653813 0.543381 0.100609 -0.463807 -0.395776 -0.368478 0.152895 -0.450015 
-0.43303 -0.664267 -0.144435 -1.19389 0.180671 -0.047234 -0.267061 -0.277458 -0.261997 1.0165 0.477765 -0.00168626 -0.7955 1.07903 0.688041 0.0706318 
-0.702247 0.559508 0.029472 0.489154 -0.0313824 0.37924 0.526285 -0.557127 -0.459766 -0.0701306 -0.448929 0.279481 -1.00657 -0.206736 -0.436254 0.544127 
-0.76214 0.886839 0.298816 0.629821 -0.202827 0.165093 0.592713 -0.0258068 0.518884 -0.202779 -0.0104928 0.744379 0.330221 0.814497 -0.696059 -0.778309 
0.131336 -0.0321468 -0.428848 -0.297809 0.392673 0.507526 0.768107 -0.962669 0.568572 0.303652 -0.607939 -0.744015 0.00687112 -0.444977 -0.930159 0.127227 
0.272769 0.38719 -0.291824 0.32769 -0.878041 -0.909366 0.831134 -0.0536533 -0.958958 -0.693421 0.688654 0.537818 0.0255877 0.855167 0.0272695 0.250646 
0.561655 -0.602099 -0.12109 -0.611864 0.319801 -0.989012 -0.89986 -0.974298 -0.491312 0.821655 -0.421927 -0.0375339 -0.04573 -0.941 -0.631988 0.0410005 
0.617 -0.54 0.253 -0.35 -0.414 0.807 0.526 -0.251 -0.727 0.964 -0.175 0.27 -0.105 -0.078 0.946 0.746 
0.531 0.57 0.31 0.268 0.808 -0.741 -0.93 -0.547 -0.696 0.256 -0.546 0.003 0.001 0.143 -0.881 -0.266 
-0.656 -0.172 0.993 0.191 0.34 0.957 0.517 0.465 0.372 -0.969 -0.294 0.588 -0.045 -0.455 -0.346 -0.177 
0.023324 0.692787 -0.904674 -0.592992 0.949361 0.922222 -0.194446 -0.803199 0.381601 -0.0879617 0.798065 -0.888004 0.431131 0.0120123 0.915163 -0.832888 
0.144803 -0.431846 -0.910429 0.686002 0.380738 0.481519 -0.874375 -0.903343 -0.4183 0.286261 0.35164 0.813552 -0.431385 0.580916 -0.0631125 -0.906682 
0.700882 -0.767842 0.431688 0.764584 -0.879067 0.502366 0.802904 -0.695304 -0.862298 -0.436777 0.567796 0.472187 0.138187 -0.531789 0.522691 -0.351844 
-0.893564 0.575846 -0.195643 0.0187186 -0.815276 0.665493 0.928942 0.0722556 0.373495 -0.144211 -0.49138 -0.332512 -0.229682 0.243918 -0.934474 0.204684 
-0.236823 -0.405555 0.822272 -0.806115 0.209848 0.0823489 0.137498 0.558105 0.720033 -0.0662295 0.303883 -0.366528 -0.803363 0.178949 -0.886507 -0.599247 
0.823129 -0.389229 -0.379915 0.638144 -0.0803237 0.907654 -0.239668 0.377365 -0.253716 0.27088 0.812973 0.19718 -0.907864 0.199657 0.0325577 -0.374702 
0.291399 -0.251649 0.898378 -0.488803 -0.853148 -0.872766 0.161324 0.0757559 0.0919055 0.633276 1.02898 0.233587 0.327803 0.600835 -0.118644 -0.429465 
-0.410807 -0.139926 -0.547577 0.674789 -0.678797 0.135301 0.14999 0.539063 -0.692318 0.800943 -0.192787 0.196014 -0.706368 -0.378963 -1.11832 0.526044 
0.356143 -0.51853 0.0478872 -0.100527 -0.387075 0.540819 -0.0786566 0.144213 0.256883 -0.377363 0.930813 -0.193899 0.586401 -0.110223 -0.717913 -0.586853 
0.164831 0.618539 0.728185 -0.466353 -0.342426 1.00042 0.334612 -0.413221 -0.569963 -0.0513684 -0.309895 0.520051 -0.225015 -0.147214 -0.266272 0.203795 
0.807648 -0.271038 0.555494 -0.612636 0.260138 -0.154438 0.829975 1.15179 -0.211913 -0.712052 0.686431 0.539851 0.621659 -0.810218 0.221572 0.190081 
-0.202778 -0.534606 -0.123867 0.512614 -0.521766 0.0251313 0.0913875 -0.596226 0.55522 -0.467955 0.109232 -0.496931 -0.731555 -0.386351 -0.582129 0.31898 
0.254224 -0.0630556 0.33582 -1.04383 -0.716073 -0.462315 -0.5088 -0.296251 -0.509387 0.842218 0.389032 -0.541859 1.18842 0.170042 -0.132307 -1.06209 
0.919853 0.838976 1.00133 -0.395825 -0.228247 0.0844811 0.382358 -0.0768719 0.624786 0.804497 -0.494966 -0.0326078 -0.731364 -0.413468 0.42253 0.354226 
0.0824699 0.438024 -0.212773 -0.321124 -0.637998 0.922128 -0.329772 0.107698 -1.1892 0.339223 0.128737 -0.783498 -0.265797 0.682039 -0.592185 -0.925228 
0.0413748 -0.64651 -0.199406 0.899956 0.848982 -0.385133 -0.413254 -0.453458 0.699381 0.0185177 -1.0602 -0.849924 -0.464253 -0.517086 0.505557 0.128003 
-0.998345 -0.0284793 -0.570232 -0.587858 -0.819337 0.531025 -0.165612 0.335732 -0.299409 0.732927 -0.437852 -0.444495 -0.0263472 -0.384454 0.351213 -1.24353 
-0.284364 0.415309 -0.245384 -0.5859 0.0579684 0.754779 0.907491 0.207146 0.527745 -0.157101 -0.130164 -1.09174 0.500014 0.515862 -0.236533 -1.12931 
-0.88759 0.981753 0.912606 0.4441 -1.11517 0.762199 -0.12492 -0.726269 0.0874183 -0.647244 0.165881 1.02329 0.682412 0.278423 0.506426 0.689548 
-0.669865 -0.437476 -0.0711709 -0.950963 0.228386 -0.591312 -1.01595 -0.393648 0.665497 -0.380846 0.431047 0.650303 -1.131 -0.121546 -0.336222 -0.3423 
-0.319155 0.0939186 -0.589958 -0.0130118 -0.70788 -0.951091 -0.0263435 -0.418516 -0.556393 -0.707356 -0.367695 0.860323 -0.360038 -0.649816 0.924443 0.506137 
0.438834 -0.52051 -0.62405 0.819278 0.436766 -0.175512 0.608565 -0.646798 -0.0639461 -0.496239 0.212344 1.06247 0.323317 0.446629 0.445615 0.561077 
0.463221 0.75956 0.174091 -0.680093 -0.633306 -0.197198 0.59862 -0.834547 0.863911 -0.0502588 -0.39168 -0.689431 0.942846 -0.0555864 -0.345823 0.901832 
0.707929 -0.87975 0.799931 0.25613 0.338737 -0.485894 0.835356 0.738237 -0.53049 0.704297 -0.495399 -0.97048 -0.310887 0.913587 0.734149 -0.405088 
-0.864675 0.769795 0.521912 -0.731984 0.917264 0.869999 -0.584999 -0.357747 0.699812 -0.978538 0.851973 -0.49332 -0.849954 -0.772 0.560001 -0.633 
-0.055 0.74 -0.176 0.466 -0.738 0.049 -0.893 0.463 -0.984 -0.265 -0.196 0.918 -0.487 0.408 0.594 0.018 
0.247 -0.454 -0.265 -0.848 -0.152 -0.439 0.568 0.213 0.97 -0.311 0.149 -0.219 0.711 -0.545 -0.782 0.706 
0.934172 0.417072 -0.419 -0.878 -0.908031 0.714001 -0.127008 -0.875998 0.997173 0.3871 0.394 0.947694 -0.314 0.414 -0.00599998 0.429 
0.743114 -0.217819 0.92281 0.0619872 -0.556217 0.259064 0.629434 0.0484599 -0.645375 0.769119 0.257971 0.243773 0.92011 -0.220923 -0.398291 -0.873225 
-0.880071 0.213618 -0.611215 0.801593 -0.358154 -0.064448 0.0805138 0.0120304 -0.848162 0.160828 0.617777 0.80497 -0.704231 0.506481 0.105077 0.764811 
