0.0002

4

784 20 10 10 
-0.533 -0.5 0.724 0.358 -0.536 -0.855 -0.173 -0.509 0.942 0.436 -0.396 -0.847 -0.618 -0.284 0.895 0.726 0.538 0.912 -0.701 0.894 0.811 -0.667 -0.336 0.711 -0.132 0.644 -0.243 -0.141 0.741 -0.222 0.035 0.842 -0.894 -0.058 -0.352 0.805 -0.271 0.35 0.101 0.548 -0.377 0.954 0.84 0.376 -0.692 -0.561 0.323 0.538 -0.918 -0.459 0.115 0.658 0.93 -0.694 -0.614 -0.255 0.072 0.829 0.573 -0.488 0.29 -0.364 -0.233 0.574 -0.948 0.15 0.724 0.43 -0.809 0.337 -0.713 -0.617 -0.091 0.758 -0.412 -0.054 0.03 0.168 -0.409 0.655 -0.641 -0.463 -0.517 -0.959 -0.65 -0.164 0.02 -0.979 0.199 -0.516 -0.266 0.999 0.938 0.788 -0.533 -0.107 -0.517 -0.579 -0.383 0.514 0.616 0.451 0.249 0.556 -0.697 0.008 -0.391 -0.298 -0.515 -0.657 0.587 0.503 0.2 -0.382 0.796 0.281 -0.202 0.157 0.622 -0.708 -0.821 0.657 -0.809 -0.112 0.511 -0.366 -0.945 -0.354 -0.114 -0.567 -0.858 0.416 0.998 -0.349 0.699 -0.524 -0.611 -0.288 -0.49 -0.131 -0.312 0.789 -0.577 -0.415 -0.715 0.426 0.757 -0.068 -0.846 0.189 0.329 -0.308 -0.445 -0.451 0.512 -0.94 0.753 -0.577 0.996 -0.471 0.437 -0.051 0.195 -0.584 -0.895 -0.718 0.734 0.701 -0.329 -0.737 -0.645 -0.947 -0.192 -0.055 0.756 0.558 0.982 -0.856 -0.778 -0.839 -0.55 -0.534 0.659 -0.561 -0.976 0.51 -0.351 -0.687 -0.978 -0.982 0.905 0.391 0.625 -0.586 0.824 0.874 -0.841 -0.93 -0.703 -0.823 -0.73 -0.332 0.985 -0.52 0.627 -0.901 -0.375 0.924 0.972 -0.819 0.432 0.593 0.031 -0.858 0.286 0.9 -0.64 -0.026 0.17 -0.167 0.76 -0.333 -0.45 0.694 0.624 -0.875 0.694 -0.698 -0.534 -0.407 0.484 -0.536 0.152 -0.913 0.926 -0.243 -0.685 -0.773 -0.242 0.109 0.086 0.487 -0.526 0.627 0.928 -0.48 -0.038 -0.404 0.261 -0.475 -0.74 -0.884 -0.674 -0.229 0.547 0.52 -0.076 0.763 -0.149 0.829 0.713 0.578 0.007 0.2 -0.561 -0.24 -0.676 0.108 -0.113 -0.15 -0.572 0.384 -0.46 -0.296 -0.644 0.35 -0.515 0.216 0.357 0.357 0.271 0.361 0.022 -0.888 -0.304 -0.959 -0.871 -0.435 -0.068 0.855 -0.038 0.734 -0.028 -0.631 -0.037 -0.517 0.635 -0.152 -0.062 -0.858 -0.489 -0.825 0.825 0.87 0.934 0.783 0.398 -0.299 -0.266 -0.466 0.993 0.705 -0.452 -0.7 -0.359 -0.145 0.462 -0.123 -0.322 -0.557 -0.327 0.313 -0.928 -0.39 -0.068 -0.305 0.831 -0.512 0.09 -0.411 0.145 0.314 -0.26 0.258 -0.241 0.605 -0.819 0.829 -0.392 0.997 0.556 0.627 0.541 0.24 0.174 -0.923 -0.317 0.992 0.601 0.759 -0.572 -0.916 -0.214 -0.03 0.847 -0.497 -0.337 -0.637 -0.829 -0.76 0.542 -0.087 -0.296 0.232 0.205 0.539 0.422 0.247 0.648 0.864 0.075 -0.288 -0.322 0.262 0.985 0.944 -0.46 0.508 0.87 -0.677 -0.528 0.087 0.763 0.103 0.527 -0.031 0.565 0.543 -0.912 -0.363 -0.537 -0.319 0.342 -0.94 0.758 -0.112 -0.31 -0.157 0.62 0.067 -0.217 -0.774 0.038 0.629 0.748 0.359 -0.234 -0.045 -0.274 0.025 0.001 0.496 0.515 0.342 0.913 0.196 0.072 -0.394 -0.571 -0.295 0.812 -0.907 -0.964 0.141 0.994 -0.348 -0.162 0.355 0.131 0.841 -0.989 -0.814 0.65 0.634 -0.647 0.452 0.262 0.454 -0.366 -0.744 0.124 -0.787 -0.972 0.08 -0.142 -0.845 0.264 0.676 -0.091 0.561 -0.052 0.653 -0.78 -0.077 0.369 -0.741 -0.381 -0.997 0.781 -0.608 0.313 0.589 0.938 -0.59 -0.766 0.961 -0.507 0.269 -0.131 -0.3 -0.736 -0.785 0.815 0.039 0.288 0.954 -0.29 -0.226 0.815 -0.459 0.679 0.898 -0.212 -0.868 -0.311 -0.992 0.79 0.363 0.184 0.2 0.885 0.071 -0.133 -0.705 -0.175 0.629 -0.402 -0.307 -0.92 -0.751 0.528 0.864 -0.595 -0.184 0.726 0.087 0.964 0.686 0.662 -0.936 -0.585 0.873 0.941 0.762 0.531 -0.732 0.602 -0.693 0.012 -0.37 -0.191 0.556 0.293 0.152 0.345 -0.752 0.712 -0.886 0.958 0.704 0.052 0.479 -0.577 -0.134 -0.502 0.196 -0.367 -0.978 -0.608 0.925 0.458 -0.193 0.83 -0.4 -0.201 -0.552 -0.46 -0.425 0.567 -0.603 0.897 0.851 -0.77 -0.075 -0.771 -0.06 0.147 0.655 -0.208 0.754 0.146 -0.054 0.569 0.663 -0.485 -0.525 -0.472 -0.43 0.464 -0.038 -0.476 0.469 0.923 -0.667 -0.09 -0.664 0.278 0.636 -0.836 0.949 -0.495 -0.996 -0.377 0.97 -0.432 0.085 -0.627 -0.806 0.826 0.572 -0.36 -0.181 -0.389 -0.711 0.565 0.585 0.45 -0.391 0.166 -0.926 -0.7 0.573 0.161 0.968 -0.969 0.426 -0.578 -0.221 0.552 0.391 0.764 0.364 -0.745 -0.526 -0.179 0.547 0.789 -0.805 0.95 -0.246 0.012 0.439 0.912 0.967 -0.585 0.223 -0.566 0.486 -0.042 -0.194 -0.3 0.692 -0.468 -0.026 0.021 -0.778 -0.624 -0.052 0.982 -0.224 0.111 0.856 -0.075 -0.514 0.969 0.534 -0.332 0.991 0.783 0.727 0.871 0.612 0.027 0.545 0.185 -0.763 0.313 -0.15 -0.889 -0.851 0.454 -0.319 -0.733 0.793 0.472 -0.17 -0.558 0.877 -0.298 0.381 -0.177 -0.977 -0.405 -0.673 0.31 0.058 0.487 -0.472 -0.742 0.86 0.286 -0.39 0.128 0.841 0.503 -0.135 0.881 -0.25 -0.402 -0.339 -0.244 -0.722 0.435 -0.925 0.386 -0.64 -0.952 0.492 0.84 0.735 0.599 0.892 0.328 0.369 0.794 0.252 0.432 0.208 0.497 0.649 -0.159 -0.9 -0.352 0.851 -0.367 0.2 0.99 -0.081 -0.422 -0.456 0.487 -0.475 0.538 -0.807 0.011 0.834 0.497 -0.471 -0.195 0.392 0.549 -0.021 0.277 -0.807 0.497 0.276 -0.418 0.159 -0.511 0.449 0.072 0.008 -0.792 -0.497 -0.393 -0.926 -0.389 -0.239 -0.11 -0.317 0.932 -0.259 -0.187 -0.604 -0.385 -0.401 -0.32 0.032 -0.416 0.517 -0.33 -0.118 0.523 -0.895 0.095 0.916 -0.822 0.058 -0.25 0.729 -0.005 -0.324 -0.101 0.565 0.608 0.243 0.514 0.055 0.973 -0.252 -0.014 -0.554 -0.483 0.916 
-0.0662632 -0.0953634 -0.502832 0.681106 -0.203872 -0.874695 0.719558 0.440547 -0.449127 -1.00576 -0.890919 -0.4539 -0.0597474 -0.118738 -0.956177 0.091741 -0.547537 0.705511 -0.375367 0.390487 
0.326274 0.708385 -1.14753 -0.374249 0.533131 -0.820427 -0.517923 0.187703 0.86418 1.56257 
-1.16727 -1.46407 -1.91638 -1.72785 -1.47958 -1.50445 -1.98719 -3.14197 -1.40499 -1.71507 


-0.248 0.821 0.296 -0.719 -0.979 -0.545 0.947 0.124 -0.682 0.135 0.376 0.774 0.859 -0.002 -0.926 0.253 -0.078 -0.365 0.643 -0.112 
-0.847 0.232 -0.253 -0.32 0.926 0.678 -0.55 -0.199 -0.039 -0.801 -0.145 -0.637 0.716 -0.427 0.561 0.245 -0.527 -0.726 0.55 -0.647 
0.181 -0.713 -0.301 -0.89 -0.357 0.465 0.172 -0.471 0.981 -0.888 0.476 -0.619 -0.753 -0.11 -0.329 -0.195 -0.628 -0.968 0.989 0.32 
0.165 0.431 0.658 0.293 0.206 -0.422 -0.052 -0.794 0.171 -0.834 0.396 -0.303 0.02 0.694 0.529 -0.212 -0.891 0.984 0.969 -0.022 
0.617 -0.985 -0.374 0.684 0.168 0.906 0.928 -0.903 -0.882 -0.61 0.199 0.785 -0.514 0.199 -0.58 -0.29 -0.729 0.813 0.415 -0.915 
-0.682 0.58 0.331 0.267 -0.613 0.444 0.186 -0.493 -0.64 0.827 -0.926 -0.569 0.152 -0.729 -0.732 -0.307 0.885 -0.663 0.311 0.604 
-0.323 -0.594 0.768 0.022 0.413 0 -0.458 0.537 -0.962 0.388 0.355 0.289 0.647 0.181 0.093 -0.416 -0.013 -0.239 -0.507 -0.783 
0.501 0.482 0.447 0.665 -0.247 -0.896 0.084 0.095 0.525 -0.779 0.964 0.781 -0.128 -0.894 0.656 0.343 -0.407 0.08 -0.92 -0.132 
0.411 0.713 -0.032 0.251 0.216 -0.921 -0.232 0.04 0.531 -0.067 0.779 -0.337 -0.741 -0.347 0.936 -0.905 -0.635 0.874 0.72 -0.165 
0.68 -0.024 -0.545 0.725 -0.929 -0.192 0.559 0.156 0.602 0.832 0.905 -0.56 0.375 0.562 -0.115 0.962 0.08 0.836 -0.203 0.202 
-0.492 -0.92 0.34 -0.924 0.058 0.493 0.74 -0.454 -0.526 -0.227 0.097 -0.12 0.335 0.072 0.4 -0.293 -0.045 -0.334 -0.859 0.588 
-0.519 0.168 -0.685 0.396 -0.775 0.009 -0.988 -0.864 0.455 -0.238 0.043 -0.258 -0.979 0.922 -0.488 0.248 -0.982 0.368 0.717 0.714 
0.649981 0.289981 0.334877 -0.240474 0.169484 0.889564 0.303 -0.36 0.979729 -0.800994 0.105009 -0.209261 -0.338683 -0.311755 0.652 -0.246104 -0.967004 -0.971018 0.987917 0.0417316 
-0.747013 -0.916985 0.419721 0.815084 -0.280862 -0.767905 0.063 0.228912 -0.346415 -0.135917 -0.230812 -0.530711 0.00566469 0.0628687 0.594 0.488967 -0.67401 0.275934 0.324997 -0.460587 
0.679032 0.990062 -0.412012 -0.290076 0.271088 0.944998 0.221 -0.530099 -0.817013 0.589077 0.955188 -0.0221553 -0.221032 0.00600511 0.262 -0.864993 0.487 0.195972 0.0329873 -0.911999 
-0.0649987 0.779003 0.992999 -0.210003 -0.0379963 -0.0350001 0.001 0.104996 0.806999 -0.432997 -0.330992 0.133994 -0.329001 0.457 -0.002 0.545 0.597 -0.782001 -0.162001 -0.156 
0.372 -0.437 0.028 0.264 -0.199 -0.277 0.49 0.604 0.601 -0.773 0.197 0.692 0.771 -0.637 0.301 -0.637 0.721 0.565 0.421 0.445 
-0.39 -0.505 -0.259 0.022 0.812 0.151 0.015 -0.945 0.393 -0.262 0.279 0.882 0.608 -0.346 0.822 -0.293 -0.755 0.338 -0.856 -0.71 
0.339 0.154 -0.396 -0.377 -0.775 -0.922 0.724 0.981 -0.67 0.733 -0.777 -0.406 0.13 -0.154 -0.013 0.445 -0.195 -0.384 0.75 -0.511 
0.338 0.963 -0.865 -0.303 -0.791 0.63 0.224 0.908 -0.263 -0.526 0.92 0.372 -0.707 0.855 -0.266 0.561 0.056 0.606 -0.816 0.075 
-0.618 -0.881 -0.259 -0.568 -0.316 -0.221 -0.721 -0.717 -0.333 -0.164 -0.875 -0.882 -0.263 -0.972 -0.881 -0.423 -0.263 -0.909 -0.444 -0.205 
-0.94 0.901 -0.207 0.432 -0.864 -0.42 -0.125 0.907 0.184 -0.926 -0.281 -0.21 -0.524 -0.959 0.351 -0.671 -0.71 -0.026 0.072 0.591 
-0.811 0.787 0.49 0.239 -0.107 0.053 0.063 -0.319 0.903 0.005 -0.824 -0.521 0.695 -0.861 -0.532 0.998 0.083 0.639 0.515 0.621 
0.993 0.826 0.722 0.838 -0.172 -0.419 -0.601 -0.022 0.891 0.023 -0.057 -0.166 -0.757 0.349 -0.298 -0.293 -0.498 0.141 -0.313 -0.654 
0.891 -0.363 -0.587 0.4 -0.184 0.69 0.162 -0.065 0.126 0.41 0.877 0.382 -0.74 0.189 -0.295 0.874 -0.337 -0.278 -0.805 -0.434 
-0.64 -0.962 -0.412 0.811 -0.755 0.467 -0.575 -0.133 0.189 -0.458 0.063 0.547 -0.498 0.617 0.099 0.023 0.226 0.203 -0.952 0.051 
0.57 -0.364 0.458 0.967 -0.544 0.405 0.531 0.962 -0.181 0.975 -0.444 0.531 0.495 -0.956 -0.409 -0.197 0.388 -0.085 0.45 -0.681 
-0.728 0.791 0.383 -0.867 0.775 -0.358 0.569 -0.7 0.954 -0.922 0.585 -0.743 0.333 -0.107 -0.51 -0.897 -0.25 0.233 -0.278 -0.729 
0.611 -0.01 -0.662 0.641 0.258 0.047 -0.648 0.658 -0.521 0.302 -0.317 -0.01 -0.998 0.568 -0.578 -0.105 -0.865 -0.992 -0.639 -0.258 
-0.806 0.699 0.188 -0.822 -0.958 0.357 0.941 0.847 0.469 -0.655 -0.62 0.913 -0.036 0.71 -0.939 0.385 -0.927 0.504 0.462 -0.297 
-0.898 0.069 0.154 0.529 0.552 -0.926 0.149 0.73 -0.756 -0.156 0.049 -0.882 -0.935 -0.637 0.552 -0.227 -0.53 0.731 -0.253 0.511 
0.869 -0.602 -0.502 0.103 0.352 0.679 -0.947 0.043 -0.478 0.088 0.563 0.834 0.85 0.022 0.24 0.911 0.492 0.651 -0.42 0.477 
0.616 0.875985 0.177975 0.22 -0.384983 -0.652036 -0.202 -0.820999 0.635011 -0.142998 -0.117 0.661975 -0.0980004 -0.737999 0.42 0.770014 0.0219922 0.273 0.841 -0.314 
-0.112 0.916955 0.716817 0.892 0.69807 0.266824 0.749 -0.934997 -0.610953 -0.0679846 0.619 -0.919173 -0.997015 0.130004 0.0279998 -0.368943 -0.411023 0.152 -0.37 0.171999 
0.864 -0.593079 -0.71274 0.427882 0.692521 -0.522008 -0.39 -0.823001 0.0746319 0.236438 -0.541 -0.370599 -0.161241 0.633273 0.0369966 0.893614 -0.370196 -0.726002 -0.00780628 -0.218001 
-0.796946 0.460695 -0.725942 0.661839 -0.667419 -0.028933 0.150989 -0.577077 -0.102628 -0.282238 -0.359999 -0.324163 0.56302 -0.116296 0.660995 -0.339598 -0.755448 -0.61401 -0.350196 -0.235122 
0.601391 -0.172112 0.194195 0.497687 0.29627 0.23366 -0.942031 -0.578651 -0.807964 -0.418262 -0.212995 0.259036 -0.71545 1.00882 -0.496009 -0.0180786 -0.863177 -0.300737 -0.470198 -0.539488 
-0.881391 -0.801416 0.522894 -0.17054 -0.532002 0.610448 -0.602044 0.762105 0.11353 -0.0647227 -0.518996 -0.396525 0.564517 -0.495382 -0.404019 0.16324 0.744642 -0.463849 0.669111 -0.46376 
0.476367 0.53958 -0.121735 -0.62701 -0.219 0.726014 0.758035 0.436466 -0.723321 0.0623694 -0.273995 -0.644489 0.0294357 -0.21326 -0.607025 -0.441907 0.270026 -0.208914 -0.810726 -0.070113 
-0.862899 0.0868912 0.620133 -0.786404 0.716856 -0.361853 -0.373047 0.505258 0.0161953 0.24359 0.87901 0.609483 0.143793 -0.0276539 -0.331046 -0.108824 0.592248 0.452446 0.430921 -0.408135 
-0.877563 0.415862 0.655472 -0.83938 -0.126778 -0.613612 0.384932 0.969803 -0.159043 0.390382 -0.295996 0.830566 -0.0497845 -0.613556 -0.777041 -0.293984 -0.215356 -0.332056 -0.946418 -0.548146 
0.93277 -0.202543 0.770419 -0.907253 0.442143 0.705942 0.603968 -0.403653 -0.510735 0.196081 -0.493862 0.139825 0.586679 0.894062 0.808993 0.902464 0.441901 -0.96034 0.819257 0.356188 
0.9851 -0.968596 0.0749696 -0.499489 -0.92295 -0.601339 -0.163592 -0.430755 -0.322791 0.391932 -0.358805 0.97579 0.65639 0.111847 -0.813015 -0.914245 0.0816615 0.390881 0.251655 -0.304473 
-0.234112 0.378588 -0.881058 0.495531 -0.716257 -0.143653 -0.581937 0.565816 0.878681 -0.174354 -0.114677 -0.585952 -0.342137 -0.105758 -0.522019 -0.111828 -0.0793515 0.264847 0.263725 0.0614983 
-0.212479 0.81431 0.841884 -0.485254 -0.0667235 -0.230981 0.133362 0.25361 -0.318285 0.334679 -0.663489 -0.036346 -0.266075 0.320054 0.973984 0.597446 -0.648656 0.0706871 -0.916938 -0.0623025 
-0.853662 0.265926 0.817614 -0.281985 0.57778 -0.297017 0.0371216 0.00296907 0.910907 0.162007 0.717599 -0.324598 0.536595 -0.942684 -0.0540645 0.110487 -0.7725 -0.88426 -0.156536 0.852419 
-0.171192 -0.377114 0.389416 0.199387 0.647228 -0.737437 -0.324988 0.864633 -0.923393 0.770334 -0.520349 0.227085 -0.1038 0.557021 0.607881 0.208847 0.2755 -0.874118 -0.86234 0.396268 
0.0776998 -0.644553 -0.839049 -0.263859 0.480187 0.92425 0.138005 -0.276689 0.42991 -0.342392 0.676379 0.558503 -0.27677 0.997851 0.699924 0.967039 -0.139849 -0.999894 -0.550886 0.0920025 
-0.316275 -1.0018 0.127908 0.507134 0.99582 0.271305 -0.0560011 -0.739722 -0.175394 0.0552209 -0.357309 0.651347 -0.324096 -0.864904 0.856949 0.0464444 -0.111791 0.260615 0.623107 -0.0868031 
-0.928041 0.921405 -0.165683 -0.284985 0.622947 -0.467874 -0.0430107 0.759206 -0.298096 0.451861 0.0929806 -0.768528 0.829023 -0.544322 0.22695 0.800626 -0.777092 -0.676151 -0.726017 -0.867802 
-0.115001 0.0362497 -0.835247 -0.137991 -0.364302 0.0821467 0.908997 -0.121917 -0.0762074 0.0851498 0.400001 0.0193071 -0.807108 0.105897 0.411941 0.765961 0.766926 0.406938 -0.322802 0.783498 
-0.296 -0.210144 0.833323 -0.10899 -0.378391 -0.915257 0.734 0.190004 -0.45786 0.998035 -0.914 -0.982437 0.62089 -0.575973 -0.403005 0.376108 -0.746 0.668995 -0.891915 -0.0730392 
-0.507 -0.932 -0.634 0.102 -0.562 -0.4 -0.181 -0.682 -0.71 -0.016 -0.661 -0.444 0.808 -0.368 0.478 -0.186 0.787 0.239 -0.926 0.02 
-0.173 -0.446 0.988 0.441 -0.202 0.642 0.002 -0.679 -0.896 0.946 0.056 -0.491 0.833 0.708 0.761 -0.467 -0.314 -0.196 -0.615 -0.858 
-0.158 0.26 -0.839 0.62 -0.657 0.578 0.187 -0.887 0.063 -0.409 0.934 -0.585 -0.344 0.761 0.012 -0.589 0.959 -0.749 -0.262 0.37 
-0.876 0.507 -0.993 0.584 -0.049 0.101 -0.511 -0.042 0.441 0.79 0.013 -0.588 -0.145 0.06 0.093 -0.528 0.402 -0.324 0.543 0.373 
-0.734 0.651 0.275 0.528 -0.468 -0.239 0.469 -0.497 -0.271 0.107 0.892 -0.549 0.953 -0.608 -0.43 0.519 0.472 0.407 -0.506 0.505 
-0.56 -0.617 -0.738 0.409 -0.393 -0.962 -0.64 0.471 0.171 -0.346 0.947 0.514 -0.477 0.229 -0.511 -0.234 0.887 0.756 -0.368 0.47 
0.739 -0.334002 -0.478 0.283018 -0.84 0.552999 -0.295 0.0910158 0.259021 0.385997 0.687 -0.371 -0.958002 -0.682991 -0.955 -0.643999 0.387999 0.451998 0.154 -0.534008 
0.832995 0.759536 -0.0814725 0.631001 -0.261999 0.26699 0.776 0.0975147 -0.686002 -0.680073 0.0529962 -0.993141 -0.531001 -0.783802 0.722001 0.842256 0.00706046 0.463011 -0.74 -0.0535777 
0.79299 -0.372927 -0.284278 0.0430274 0.376742 0.313203 -0.374028 0.116816 0.334365 -0.379891 -0.829 -0.208307 -0.036445 0.154652 -0.134015 -0.305771 -0.335924 0.774974 -0.00016928 -0.788226 
0.0999924 0.550946 0.475427 -0.620901 -0.0566836 0.874564 0.788994 -0.638956 0.386413 -0.729421 0.433972 0.143315 0.560909 0.563021 -0.496062 -0.0531228 0.887279 -0.691988 -0.842986 0.429976 
0.123369 -0.535989 -0.936694 -0.652442 0.854484 0.950988 0.318014 -0.383362 -0.696236 0.576743 0.831619 0.104346 -0.541559 -0.00683937 0.460581 0.336806 -0.505935 0.370906 0.29057 -0.599856 
-0.819027 -0.886037 -0.714867 0.917165 0.658831 0.369559 0.935707 0.875296 0.0517017 0.436661 0.905849 0.904855 0.973211 0.509923 -0.431761 -0.171073 0.876961 0.369462 0.384949 -0.596836 
0.228882 0.140666 -0.359972 0.570191 -0.629272 0.806978 0.687143 0.190515 0.522855 0.231247 -0.24337 -0.812797 0.663784 -0.934809 -0.885644 -0.399278 0.303117 -0.342778 0.413319 -0.945991 
0.159097 -0.429103 -0.323273 -0.474107 0.729232 -0.700738 0.790256 0.403375 0.0601237 -0.424526 0.5991 -0.555995 0.627016 0.762884 -0.613183 -0.381018 -0.286942 -0.0817645 -0.717714 0.92062 
-0.392501 -0.912193 0.319537 -0.270787 -0.56817 0.347904 -0.148376 0.488809 -0.0657651 -0.414025 -0.190594 0.723369 -0.151325 -0.689703 -0.843037 -0.675212 -0.955904 -0.662763 -0.830784 -0.797287 
-0.513623 -0.593698 -0.632587 -0.740504 0.548657 -0.378552 -0.634176 -0.916394 -0.205932 -0.755458 0.338081 -0.842169 -0.151851 -0.735596 -0.0235495 -0.801285 -0.509582 -0.10703 1.00269 0.840668 
0.893289 -0.474015 -0.700091 -0.185877 0.664298 -0.284352 0.268117 -0.297641 0.642016 -0.501222 -0.679198 -0.949868 -0.958401 -0.770929 -0.746353 -0.360718 0.792534 0.71359 -0.489611 -0.126693 
-0.834657 0.0890709 -0.178798 0.21187 -0.323055 -0.982548 0.55294 -0.242605 0.977227 0.427754 0.291964 -0.838781 0.506792 -0.33528 0.294207 0.759867 -0.687684 0.643654 0.83214 -0.296954 
0.780968 -0.165422 -0.890609 -0.388693 -0.700722 0.262139 -0.710989 0.0176086 -0.611618 -0.525424 -0.191711 0.100503 -0.31226 -0.230367 0.0105129 -0.0423466 -0.412164 0.678135 -0.766866 -0.0785786 
0.787976 -0.644077 -0.144434 0.940595 0.180504 0.616613 -0.378111 -0.451604 1.1021 -0.824711 0.126345 -0.523974 -0.768264 0.938616 0.128195 0.621181 0.669053 -0.641837 -0.817862 0.0345518 
-0.584916 -0.479315 0.391277 0.193131 0.0243415 -0.638269 0.830028 0.341229 0.651153 0.561044 0.912113 -0.243302 -0.987443 -0.687009 -0.787956 0.779699 -0.247046 -0.728713 0.334354 0.239028 
-0.233939 -0.562999 -0.572598 0.0627967 -0.388554 -0.329422 0.281789 0.48776 0.452241 -0.405187 0.624155 -0.131489 -0.981344 1.10914 -0.165345 -0.741864 0.457651 -0.219801 -0.161818 -0.755173 
0.242821 -0.143742 -0.288762 1.03285 -0.466278 -0.474219 -0.742923 0.583674 -0.746471 0.413306 0.16197 0.252272 0.273688 -0.713728 0.331472 0.0680014 -0.741509 -0.914324 0.0393235 -0.00322699 
0.00403217 -1.1436 0.7039 0.825519 0.684318 0.792636 -0.5548 0.4048 0.77026 0.887114 0.636851 0.325238 -0.381053 -0.520374 0.0870474 -0.117534 -0.435542 -0.0184911 -0.410999 -0.377678 
0.663532 0.424358 0.779751 0.40467 0.148305 0.234917 0.723148 -0.109451 0.495017 -0.691967 0.138364 0.917123 -0.613063 0.2763 -0.492518 -0.0555547 0.369684 0.987791 0.676253 -0.24141 
0.175217 0.47652 -0.234067 0.255216 0.746996 -0.117853 -0.978169 -0.212882 0.743996 -0.753037 0.797516 0.662229 0.475348 -0.78833 0.839812 -0.132226 0.264104 -0.107643 -0.016618 0.977176 
-0.377778 0.811161 -0.68308 -0.717536 -0.932695 -0.800347 0.90854 -0.10682 -0.00277215 0.895325 -0.698045 -0.380216 0.863311 -0.483188 0.526862 0.158345 -0.66254 0.762822 -0.752444 0.981705 
0.16375 0.585909 -0.0729383 -0.988649 0.894084 0.0132589 -0.48843 -0.39607 -0.463241 -0.840046 0.232581 -0.745738 0.92689 0.920643 0.190962 -0.55505 -0.813678 -0.776955 -0.273218 -0.5232 
0.220835 0.088968 -0.566402 0.223005 -0.904358 0.572898 -0.133007 -0.371351 -0.993259 0.145775 -0.313978 -0.411538 -0.459804 -0.76087 -0.150001 -0.242266 0.577926 -0.0452449 -0.318149 -0.598145 
-0.958063 -0.700237 0.810811 0.224139 0.143443 0.593497 0.0159998 -0.386209 -0.196281 0.00600886 -0.632016 0.640962 -0.665048 -0.301774 0.325 -0.687649 -0.97704 -0.688052 -0.380913 -0.542357 
-0.604 -0.661 0.086 -0.906 0.846 0.043 0.522 -0.089 -0.72 0.455 -0.642 -0.153 -0.13 -0.01 0.873 -0.673 0.413 0.454 0.896 -0.528 
-0.55 0.241 -0.359 0.646 0.525 -0.787 -0.176 0.929 -0.305 0.403 -0.406 0.993 -0.933 -0.813 -0.36 0.079 -0.959 -0.875 -0.466 -0.14 
0 -0.093 -0.379 0.692 0.293 0.117 0.717 -0.597 0.943 0.893 -0.361 0.011 -0.075 -0.972 0.978 -0.252 -0.15 -0.108 -0.556 -0.346 
0.623 -0.647 -0.964 0.547 0.346 -0.174 -0.939 0.904 -0.762 0.571 -0.114 -0.595 0.299 -0.944 0.728 0.267 0.751 -0.981 0.991 -0.834 
0.717747 0.846284 0.0929966 0.186688 0.420502 -0.0880007 -0.135144 -0.700961 -0.555953 0.896993 0.200995 0.327998 -0.0578543 0.104321 0.767984 0.768 -0.359002 -0.704001 0.262061 -0.279951 
0.244158 0.916757 0.62354 0.218919 0.583897 -0.826338 -0.016522 -0.542004 0.149363 0.0134564 0.694745 -0.497628 0.032022 0.852261 0.536998 -0.184953 -0.637899 -0.348887 0.218855 -0.711768 
0.916389 0.68205 0.917624 -0.415685 0.252089 0.585719 0.269035 -0.751776 -0.861284 -0.604037 -0.575708 0.167776 -0.9731 -0.85123 0.992998 -0.617438 0.269493 0.669343 -0.107067 -0.123665 
0.0341949 0.108267 -0.523401 -0.0564517 0.494295 -0.203218 0.280712 -0.106012 -0.197287 0.966304 0.295582 -0.114699 -0.50751 0.0688187 0.548687 0.777377 0.308893 -0.824228 -0.932885 0.22506 
-0.109118 -0.154522 0.214309 0.912889 0.29442 -0.588977 -0.486642 0.154526 0.111237 -0.791724 -0.76908 0.872448 -0.899163 0.272939 -0.635614 -0.568426 0.252247 -0.836852 0.644253 -0.0039114 
-0.710055 -0.849977 0.672557 -0.100137 -0.197878 -0.905246 0.159317 -0.656461 -0.609054 -0.127015 0.11985 0.453371 -0.917511 0.839058 -0.412285 0.418416 -0.492189 0.822462 -0.355673 0.902444 
0.876007 -0.231678 0.652804 0.218151 -0.313823 -0.14217 0.721519 -0.497706 0.838179 0.206401 -0.361731 0.119018 -0.661375 0.930971 -0.774215 -0.437209 -0.885408 -0.71365 0.453366 0.709085 
0.0186763 0.451018 -0.670079 -0.292474 0.618482 -0.279617 -0.55493 0.157158 0.211049 0.284158 0.962556 0.00759556 -0.8955 -0.447935 0.669058 0.840905 -0.709017 0.555371 0.969426 -0.329809 
0.152489 -0.299369 0.480407 -0.63296 1.01567 -0.0709638 -0.492254 -0.270437 0.212622 0.894807 -0.246095 0.133772 0.481317 -0.835094 0.835544 0.304735 -0.0180094 0.561534 0.0496847 -0.213216 
0.0374568 -0.174454 -0.709285 -0.995506 -0.106984 -0.961816 0.854983 -0.340703 1.04695 -0.120589 -0.405304 0.108866 0.163688 0.168989 -0.944127 -0.58629 -0.198529 -0.274568 0.0855103 -1.07271 
0.971556 0.386502 0.166163 -0.349628 1.25488 -0.316611 -0.259634 1.00444 -0.50681 0.792982 0.507957 -1.17012 0.734598 -0.472881 -0.670465 0.142226 0.711977 -0.864991 -0.00168647 0.767003 
0.628077 -0.0965785 -0.0796148 0.330386 -0.491087 -0.653373 -0.440581 -0.508797 0.352724 -0.130287 0.822997 -1.00041 -0.669803 0.226347 -0.9919 0.235972 -0.113228 0.874873 -0.0072602 0.55525 
-0.343051 -0.432554 -0.970589 -0.506833 -0.0731261 -0.39438 0.571981 -0.39457 -0.190585 -0.121402 0.470301 -1.24375 -0.0166216 0.062961 -0.399319 0.805508 0.528478 0.941756 -0.0358895 0.508696 
1.07679 0.875665 -0.49649 0.78476 -0.248831 0.532317 -0.593231 -0.317778 0.9387 -0.465651 0.383918 0.258222 0.508892 -0.823752 0.015682 0.751444 0.646894 -0.073499 0.715401 -0.579225 
0.975759 -0.287097 -0.252199 -0.69779 0.762547 0.51867 -0.22022 -0.725139 0.604188 -0.309713 -0.847579 0.0771381 -0.424586 0.142242 -0.37092 0.690882 -0.527164 -0.0897193 -0.808115 -0.368765 
-0.493756 -0.666614 -0.905152 -0.633967 0.294782 -0.867219 0.327372 0.782751 0.775526 0.230417 0.926049 -1.07998 -0.210708 -0.544832 0.509053 0.139192 -0.630739 -0.316551 -0.587768 0.614018 
0.0241566 0.104152 0.032367 -0.224364 -0.0303223 0.0136391 0.803933 -0.173632 0.506014 0.133622 -0.571755 0.728173 -0.371598 -0.689558 0.50653 -0.265704 -0.0715341 0.876068 -0.422253 -1.08794 
0.60724 0.495715 0.738771 0.583455 -0.477134 -0.884176 -0.756181 0.489384 -0.257118 -1.0027 0.0349943 -0.00633235 0.599892 0.793628 0.0135144 -0.251391 0.514279 0.953723 0.923626 0.646202 
-0.882945 -0.273225 -0.156045 0.933312 -0.512773 0.338895 -0.296071 0.368357 -0.0839835 -1.09448 0.382617 0.832015 0.936107 0.0726628 -0.155283 -0.169511 0.123833 -0.765746 -0.413201 -0.807886 
-0.716782 -0.16119 0.550822 -0.991115 0.786876 -1.19511 -0.472053 -0.717352 0.614225 0.884652 -0.327444 -0.5526 0.386245 -0.136375 -0.672085 0.983815 -0.886524 -0.266132 0.531973 -0.66557 
0.324552 -1.13104 -0.790756 0.521524 0.518254 0.619011 -0.87061 -0.254673 -0.108684 -0.559524 0.0364348 0.241835 0.124744 -0.657259 0.856971 -0.290909 -0.864203 -0.309481 -0.839646 0.183038 
-0.110162 0.733069 -0.163218 0.0226062 -0.0423267 -0.803971 0.969887 0.781776 -0.727298 -0.777554 0.426897 0.397165 -0.746953 0.462549 0.0950603 -0.0761814 -0.71913 -0.660138 -0.400266 0.265566 
0.708545 0.768553 -0.126119 -0.675597 0.825828 0.627554 0.164652 0.405973 -0.40937 -0.965806 -0.703971 -0.85837 -0.43175 -0.814052 -0.79999 -0.347412 0.8498 -0.947776 -0.338292 0.928309 
0.792969 0.284964 0.451623 -0.0191767 -0.379237 0.414605 -0.992976 -0.710758 -0.447869 0.97734 0.672791 -0.387155 -0.289374 0.371529 -0.358 -0.659199 -0.66541 -0.380477 0.506153 -0.962995 
-0.875568 0.3582 0.43593 -0.529263 -0.0988164 -0.497384 -0.201999 -0.798433 0.10448 0.238192 0.0320396 -0.935017 -0.4843 -0.519016 0.579 0.0218286 0.727003 0.770825 0.312765 -0.6175 
-0.86 -0.184 -0.512 0.319 0.589 0.513 -0.741 -0.149 -0.729 0.283 -0.636 0.038 0.012 0.184 0.759 0.501 0.574 -0.267 0.059 0.714 
0.649 -0.405 -0.478 -0.459 -0.584 0.377 0.052 -0.435 0.891 -0.862 0.31 -0.033 0.055 0.787 0.224 -0.778 -0.561 0.441 -0.352 -0.196 
0.834017 0.367984 0.441 -0.128 -0.33203 0.974 0.176 0.137 -0.367004 0.241 0.745 -0.981999 0.0149928 -0.0260006 0.252 -0.154 -0.043907 0.524009 -0.0339984 0.581 
-0.853282 -0.759054 0.333963 0.294636 0.873981 0.0270047 0.197632 -0.982105 -0.709022 0.640985 0.46495 -0.809008 -0.528509 -0.740007 0.699942 -0.782913 -0.983941 0.943049 -0.375888 0.0642581 
0.510208 0.158398 0.501058 0.663523 0.274637 -0.953472 0.628317 0.788269 -0.955379 -0.855118 -0.99778 0.151602 0.900281 -0.676262 0.152986 0.183054 0.655473 -0.649683 -0.59572 -0.655002 
0.0546668 -0.0309944 -0.666542 -0.20694 0.784816 0.320669 0.515389 -0.143814 0.891738 0.20015 0.768761 0.691337 -0.453355 0.290979 0.794636 0.85089 0.378629 -0.683879 -0.962458 0.34514 
0.820612 0.996933 -0.272702 -0.469291 -0.94757 -0.943305 -0.224924 0.931655 0.578635 -0.260679 0.606286 0.169705 0.0564883 0.122772 -0.612497 0.417529 0.151127 0.616617 -0.545708 0.980321 
-0.268485 0.23587 0.00105785 -0.264648 -0.33603 -0.168511 -0.764387 0.619144 0.16568 0.339023 -0.671982 -0.197546 0.842352 -0.308606 -0.171388 -0.617922 -0.310394 -0.797424 0.829794 -0.7859 
0.940533 -0.818738 -0.311331 -0.338897 -0.26105 -0.506254 -0.79697 0.122878 0.847548 -0.925495 -0.681396 -0.173861 0.774328 -0.0960238 0.551436 0.46672 -0.308768 0.2295 0.392213 -0.67195 
1.0934 0.557899 0.808835 -0.359518 0.659469 0.0506779 0.480022 0.192882 0.109957 -0.550127 0.764814 -0.630447 -0.121892 0.0609438 -0.620919 0.204059 1.03832 0.548518 0.20654 -0.887651 
-0.403354 0.257779 -0.664846 -0.8688 -0.0756328 -0.841912 0.0619688 -0.926221 0.257483 -0.279516 -0.133288 0.438839 -0.0319769 -0.60524 -0.355115 -0.774108 -0.483652 0.471936 -0.159535 0.0556343 
1.21318 -0.560055 0.184989 0.436897 -0.446081 0.463127 -0.512999 -0.979163 -0.390114 -0.885305 -0.0822941 0.677687 -0.136971 0.885664 -0.877304 0.3989 -0.5929 0.0517224 -0.15966 0.68324 
1.1945 0.699087 -0.576014 -1.01802 0.849093 -0.811807 -0.216602 -0.919865 0.592641 -0.270195 0.179722 -0.0796041 0.119366 0.629951 0.853376 -0.924253 -0.46611 -0.759236 0.613484 0.510369 
0.229471 -0.389624 -0.633701 -0.146125 -0.301416 0.632152 -0.889812 -0.992692 0.292218 -0.90196 -0.107848 0.217694 -0.0134565 0.561917 -0.773405 0.858948 0.0347986 -0.510294 -0.789609 -1.08881 
0.254273 0.386085 0.390593 0.304757 1.10567 -0.194174 -0.938524 0.546303 -0.737626 -0.591293 0.0419286 0.333931 -1.08637 -0.944043 -0.291515 0.33146 -0.584583 -0.64316 0.406583 0.761182 
-0.156191 0.309559 -0.31259 -0.567806 0.0958711 0.299613 -0.19525 0.0910429 0.224107 -0.396127 -0.711864 0.0253161 -1.01637 0.125334 -0.225273 0.156839 -0.0636096 -0.225254 0.400012 0.15982 
0.0117684 0.657209 -0.4942 -0.211181 0.511767 -0.0836251 -0.823348 -1.0255 -0.406264 0.753916 0.70101 -0.714947 -0.291172 0.631638 0.222323 -0.231751 -0.329471 0.803409 -0.782138 -0.37124 
0.619956 -0.363394 0.173393 0.469632 -0.10554 -0.249858 0.4306 0.113654 0.0383574 -0.94658 0.267066 0.135573 -0.349929 -0.0166616 0.0141188 -0.468125 -0.423332 -0.691776 0.263474 -0.705494 
0.169654 0.281551 0.399326 0.66062 -0.690563 -0.538961 -0.205759 0.666719 -0.142177 -0.320502 -0.737586 -0.956689 -0.728104 -0.260279 -0.740262 -0.0701528 0.0373364 -0.947446 -1.00587 -0.329551 
-0.125777 0.501048 -1.04835 -0.807348 1.17661 -0.311068 -0.730054 -1.14465 0.429834 -0.0314484 1.0057 0.118634 0.398434 0.92823 -0.0832342 0.244221 0.107917 -0.90059 0.314838 0.527606 
-0.196136 -0.93516 0.329719 -0.779022 0.0284811 -0.259993 -0.668903 0.655055 -0.24131 -0.868412 0.0450437 -0.963454 0.423898 0.088413 0.729725 -0.226096 -0.891863 -0.801912 -0.41521 -1.04595 
0.0208874 -0.823199 0.072816 1.04008 -0.150767 0.509638 0.866865 0.224108 -0.0213406 -0.0645653 0.297633 -0.809042 0.396041 -0.481474 0.011825 -0.0569898 0.420424 -0.781965 0.187104 0.267951 
-0.258046 -0.745937 0.432028 -0.344459 -0.593627 -0.798543 0.914541 0.790706 0.528683 -0.0272093 0.343779 0.423127 1.06399 -0.362173 0.591831 0.839007 -1.07906 0.746423 -0.735587 -0.491944 
0.660141 0.5663 -0.614381 0.389728 -0.624354 -0.394105 0.162757 0.131975 0.673294 0.441159 0.512238 0.584364 -0.376502 -0.729521 -0.562335 0.128612 -0.492659 -0.592218 0.208115 0.664973 
-0.241396 -0.78766 0.415923 -0.0781256 0.206814 -1.0338 0.841584 0.481501 -0.159778 -0.517532 -0.366084 0.280707 0.327024 0.12827 -0.686336 -0.253151 -0.585529 -0.532702 -0.75829 0.990156 
0.859316 0.786938 -0.638759 -0.403505 0.779582 0.440613 0.699106 1.03606 0.199185 0.0456864 -0.310449 -0.482174 -0.234062 -0.54408 0.0663054 0.639474 -0.371311 0.789547 0.591543 -0.728505 
-0.403445 0.568579 -0.486405 -0.0365853 0.999773 -0.84415 -0.830749 -0.797257 -0.340942 0.844633 0.434236 -0.0737302 -0.725858 0.407258 0.42701 -0.691886 0.51265 -0.628109 0.324399 0.0867429 
0.459232 -0.825608 0.929307 0.0967095 0.588685 0.416259 0.462931 -0.851482 -0.878569 -0.405028 0.494384 0.205008 -0.596717 0.369721 0.859 0.305011 -0.504635 -0.167266 -0.77864 -0.145824 
0.87838 -0.481623 -0.875107 0.792581 0.587614 0.464599 0.370982 0.443408 0.105509 0.271007 -0.91295 -0.902189 -0.483049 -0.403969 0.715 0.552077 -0.507991 -0.247379 -0.743038 0.590111 
-0.041 0.357 -0.114 0.809 0.865 0.686 -0.981 -0.741 -0.687 -0.565 0.028 -0.899 -0.532 -0.131 -0.544 -0.269 0.578 -0.926 0.395 -0.157 
0.274 0.316 0.024 -0.489 -0.415 0.722 -0.029 -0.943 -0.905 -0.826 0.038 -0.817 -0.342 0.295 0.722 -0.017 -0.769 0.503 -0.768 -0.7 
0.59216 0.479462 0.406466 0.504773 -0.297815 -0.142149 0.816555 -0.442842 0.56124 -0.880439 0.0270319 0.655991 0.712786 0.332266 0.0919915 0.182026 -0.530051 0.320198 0.358092 0.0739157 
1.01676 0.0958418 -0.0182268 0.357796 0.266745 0.715029 -0.270929 -0.610378 -0.584051 -0.746527 0.166546 0.465645 0.791784 -0.782262 -0.381055 -0.120712 -0.246603 -0.870372 0.950205 -0.282607 
0.166255 -0.910766 0.776835 0.57871 0.795216 -0.884211 -0.250757 0.163781 0.493407 0.200098 -0.974481 0.304372 0.454665 -0.865741 0.155443 -0.873275 0.429351 -0.244802 -0.78141 0.448858 
-0.499445 -0.382225 0.538808 0.948685 0.703721 -0.956328 -0.964944 0.358654 0.363777 -0.772793 0.669211 -0.201961 -0.496808 -0.454465 -0.39139 0.791982 -0.220015 -0.792391 0.427891 0.793788 
0.451003 0.665874 -0.0808595 -0.502566 -0.495671 0.555194 0.214258 0.649722 -0.670707 0.60761 0.815348 0.821535 0.792552 0.204515 0.912603 -0.0671067 -0.224092 0.322314 -0.585345 -0.933157 
-0.350723 0.916874 0.0680713 0.671519 -0.789048 0.46946 -0.730143 -0.911927 0.348771 0.93458 -0.120131 -0.137857 0.308721 -0.898391 -0.41752 -0.817166 -0.0955044 0.441058 -0.358955 -0.431997 
0.050329 -0.255197 0.32393 -0.193009 0.712551 0.316835 -0.471195 0.918747 -0.745038 -0.866137 0.765679 0.259214 0.763812 0.814066 0.876701 -0.882241 0.274744 0.109752 0.850321 -0.480399 
0.955994 0.24207 0.208693 -0.0942036 -0.0885568 -0.74241 0.624099 -0.139842 -0.123018 -0.0161643 -0.789006 -1.10559 -0.942183 -0.0627043 -0.119287 0.13359 -0.0275045 0.871431 -0.0493008 0.764715 
-0.306185 0.339882 0.621042 0.0216747 -0.399652 -0.106471 0.252697 -0.763623 -0.527321 -0.321739 0.68211 -0.766289 -0.981213 0.182855 -0.530474 -0.796708 0.339076 -0.547731 -0.594093 0.144823 
-0.337503 0.760793 -0.849514 0.0413181 -0.295119 0.139455 -0.510187 -0.147568 0.44606 -0.336881 0.734869 -0.549042 0.170445 -0.424394 0.603636 0.0518256 -0.0276269 -0.62512 -0.162664 0.342995 
0.947343 0.552354 0.643174 0.178686 -0.167826 -1.01569 0.692661 -0.754541 0.117549 0.40599 -0.0236263 -0.594734 -0.829614 0.0369974 0.464149 -0.22621 0.703187 -0.261293 -0.37335 -0.288946 
-0.833094 0.279343 -0.828162 -0.399294 0.00861758 -0.60864 -0.174092 0.126082 0.458373 0.761561 -0.186489 -0.144871 -1.06915 0.577181 -0.839798 0.634975 0.769247 0.841094 0.690332 -0.124226 
0.327317 0.159352 -0.241188 -1.00029 -0.126383 -0.642142 0.144154 -1.19057 -0.753869 -0.0252729 -0.475633 0.07133 0.489922 1.0246 -0.378438 -0.515655 -0.0540801 0.498527 -0.442274 0.64284 
0.399067 -0.117413 -1.12574 0.264145 -0.103277 -0.831944 -0.000115316 -0.591914 0.68017 -0.00480413 -0.250017 -1.00008 -0.771904 0.838338 0.457442 0.688004 -0.582113 -0.0869207 -0.376964 0.259727 
0.170241 0.889286 -0.191522 0.361973 0.274224 0.238297 -0.502843 -0.984028 -0.0505043 0.2824 0.678587 0.209103 0.874469 0.506376 -0.770885 -0.985135 -0.945263 -0.380579 0.181437 -0.169082 
0.413186 -0.437707 -0.402113 -0.655485 -0.493674 0.311309 0.807212 -0.129167 -0.770492 0.0653513 0.587322 -0.17048 -0.0307309 1.40903 -0.581209 0.208489 0.200657 -0.597862 -0.029659 0.561636 
-0.130162 -1.1537 0.616913 -0.128505 0.219365 -0.159179 0.61769 0.294327 -0.677188 0.556041 -0.461436 -0.986677 -0.117515 0.556851 0.305367 -0.372309 -0.509179 0.0371813 0.245199 0.365968 
-0.341009 -0.120548 -0.248519 0.485987 -0.559221 -0.339369 0.0119839 0.374791 -0.15614 0.656514 0.0333301 -0.81284 -0.929983 1.07758 -0.913092 -0.580525 -0.16426 0.449053 -0.287144 0.281268 
0.547178 0.519799 0.644885 -0.214736 -0.265514 0.184199 -0.641408 0.768617 0.584707 -0.0149516 0.564412 -0.369225 0.686001 1.12063 -0.640873 0.165827 -0.695844 -0.193114 0.877434 0.51393 
-0.392767 -0.79717 -0.693445 -0.917786 0.0480153 -0.444015 0.394636 -0.823963 0.202461 0.308439 0.404903 -0.716231 0.2639 0.3262 0.50794 -0.705804 -0.558143 -0.341608 0.631689 0.0254324 
-0.956226 -0.00228316 0.203449 0.0821581 0.113117 0.912973 1.03076 -0.100882 -0.173561 -0.942964 -0.514124 -0.643665 -0.241878 0.101943 -0.55691 -0.285819 -0.042491 0.354685 0.738156 -0.867076 
0.220055 0.7003 -0.722256 -0.232434 0.0197064 -0.187664 1.15759 -0.66901 0.270634 0.290502 0.123039 0.790011 -0.174421 -0.435639 0.137622 -0.777148 -1.06314 0.348419 -0.497358 0.827432 
0.741336 -0.581708 -0.560734 0.626859 -0.666796 -0.729359 0.806845 0.0716439 0.369811 -0.587384 -0.295441 0.898132 -0.828145 0.000583968 -0.634771 -0.730064 0.58048 0.218618 -0.222874 -0.10147 
-0.116737 0.618795 0.0954972 -0.0342602 -0.510753 0.763684 0.893968 0.900458 0.088544 -0.915141 -0.599882 0.499633 0.714295 0.584601 0.92325 -0.531805 -0.254245 0.852442 0.417337 -0.369932 
-0.153106 -0.707767 -0.965846 -0.243915 0.22664 0.586553 -0.532648 -0.93127 0.39212 0.156268 0.606479 -0.0760494 0.454474 -0.0839048 -0.63401 0.752888 0.697502 0.0229389 -0.778257 0.299771 
0.355189 0.47188 0.175822 -0.803709 0.686166 0.987657 0.619012 -0.0540972 -0.810386 -0.725055 -0.530955 0.518892 -0.661561 -0.80308 -0.455 0.65327 0.155678 -0.942521 0.79393 0.793702 
0.341 -0.163 -0.1 0.232 -0.325 0.736 0.438 0.958 -0.42 0.085 0.013 0.284 0.253 -0.273 -0.715 -0.574 0.67 -0.464 0.281 0.37 
-0.450987 0.347992 0.077 -0.801 -0.164991 0.572993 -0.863004 -0.649 -0.269002 0.617 0.232999 -0.429001 0.375996 0.529003 0.731 0.0439949 -0.657998 -0.533 -0.999998 0.527984 
-0.0845714 -0.364686 -0.00368848 0.756853 0.240083 -0.418952 0.627601 0.94065 0.12545 0.748823 0.538278 0.296298 0.574354 -0.9044 -0.637004 0.241405 -0.272402 -0.798687 -0.577643 -0.916151 
0.457099 -0.255929 -0.995128 -0.112146 -0.255128 -0.832536 0.40268 -0.283914 -0.641342 -0.249995 0.323012 0.761656 0.740191 -0.765778 -0.532555 -0.935126 -0.106351 -0.966525 0.75728 -0.241611 
0.325556 -0.00139434 0.466689 -0.661735 -0.893993 -1.01641 0.142454 -0.330127 0.663861 0.89814 0.556178 0.0536722 -0.430123 0.83817 -0.0110709 0.36638 -0.825191 -0.916844 -0.710517 -0.944169 
0.998433 0.971241 -0.822066 0.858263 -0.325982 0.747997 -0.767476 0.361611 0.495931 -0.0276 -0.211973 0.771693 0.16673 0.996238 0.446324 0.568613 0.304322 0.814896 0.280413 0.0684795 
-0.546106 -0.257054 -0.630174 -0.289426 0.255665 0.789338 -0.115515 0.866965 0.671942 0.0529823 0.402699 0.352254 -0.318892 -0.805872 0.858328 0.756991 0.463262 -0.889946 -0.314915 0.784533 
0.56355 -0.397083 -0.762053 -0.811651 -0.807129 -0.326295 0.416695 0.271722 0.219919 0.359048 0.505783 0.64144 -0.574449 -0.0730846 -0.471263 -0.506683 -0.184255 0.845545 -0.248033 0.774802 
1.06296 -0.863899 -0.860886 -0.477066 0.94051 -0.348794 0.913636 0.0923912 -0.0955705 -0.118232 -0.0865393 0.242999 0.298877 0.229319 -0.167867 -0.641973 0.672616 0.323865 -0.217033 -0.361333 
-0.360868 0.112164 0.283288 0.447445 -0.913991 0.102905 -0.793858 0.363002 -0.851886 -0.5562 0.632231 -0.946309 0.307173 -0.866675 -0.457281 -0.426924 0.0611784 -0.773137 -0.242299 -0.734515 
1.06077 -0.286056 -0.191647 0.0330191 0.919307 -0.743085 -0.387735 -0.284369 -0.831032 0.38248 0.059222 -0.129333 0.492138 -0.236276 -0.374648 -0.118077 -0.194073 1.05509 0.747213 0.176781 
-0.481092 -0.685839 0.365795 -0.658296 -0.103165 -0.719637 0.934853 -0.647362 -1.03562 -0.114807 0.559502 -0.202099 0.183684 -0.242294 0.230022 0.363969 0.915775 0.597239 -0.201293 0.078267 
0.418228 0.760822 -0.918307 -0.772187 0.253271 0.44536 -0.60495 -1.04038 0.446467 -0.0939119 0.155541 -0.350349 -0.733432 -0.815617 -0.586452 -0.843721 -0.996028 0.301187 -0.270676 -0.58429 
0.977801 -0.88612 -0.518419 -0.718087 -0.935903 -0.649006 -0.123847 0.256543 -0.572023 0.0928664 0.568655 0.176411 -1.22593 -0.176288 -0.961144 -0.145126 -0.852052 -0.156219 -0.0744511 -0.0962764 
-0.385573 0.426261 0.0422881 -1.2292 0.0737626 -0.278799 -0.195775 -0.477007 -0.258976 -0.708629 0.734616 0.063584 -0.333353 -1.02223 -0.264767 0.976498 0.87407 0.129698 0.82263 0.514322 
0.956217 0.692461 -1.1025 -0.837844 -0.512898 1.08349 0.0857762 -0.471019 0.374351 0.160397 0.720621 0.362956 -0.970188 0.340432 -0.335568 0.651806 -0.214625 0.367015 0.708867 -0.1155 
-0.52238 -0.727748 -0.127819 -0.976019 0.471148 -0.379229 0.414815 0.719916 -0.203061 0.394748 0.15061 -0.509518 0.505644 -0.914598 0.315254 0.244676 0.400617 -0.981457 -0.186754 -1.03712 
0.0687522 -0.875008 -0.719711 -1.21174 -0.896828 -0.226917 -0.772765 -0.374301 0.481862 -1.10664 0.988484 -0.0605171 -0.879962 0.812142 -0.612942 0.0640404 -0.0947141 0.326726 -0.698458 -0.855798 
-0.478562 0.0842516 -0.169251 -0.0706092 -0.242325 -0.751285 -0.397092 0.554117 0.184275 0.643826 -0.566761 -0.0140824 0.470363 -1.0337 -0.878751 -0.813439 0.919918 -0.780708 -0.398149 -0.849059 
0.321695 0.370234 -1.08479 0.293994 -0.835295 0.861534 -0.211943 0.501778 -0.358359 -0.586003 0.314171 0.00791226 -0.172087 0.372093 -0.788565 -0.540949 -0.523233 0.627176 -0.875676 -0.000108228 
-0.193436 0.0694824 -0.516503 -1.12886 -0.442553 -0.320724 0.318651 -0.912005 0.550872 -0.984409 0.729212 -0.568647 0.796322 0.851127 -0.990418 -0.697724 -0.244252 -0.845062 0.34648 -0.415181 
-0.516905 0.0968554 0.777174 0.19752 -0.341251 -1.01966 0.717717 -0.863642 0.274347 0.0497574 -0.0978836 -0.614169 -0.2398 -0.55901 0.51183 0.0385755 0.907089 0.50763 0.0715155 -0.754336 
0.656511 -0.158188 0.596947 -0.216482 -1.03152 0.223971 0.545786 -0.698002 0.325336 -0.784636 0.937701 0.712061 -0.214007 -0.059282 -0.232739 -0.661491 -0.249851 -0.790771 -0.451239 0.889086 
0.39521 0.623526 0.21326 -0.400559 -0.637353 -0.637029 1.25976 -0.237135 -0.586907 -0.701351 1.04246 -0.545651 0.369365 1.24549 -0.871992 0.305049 0.614237 -0.0392853 1.1373 0.960481 
0.304835 -0.743442 -0.525017 -0.292624 0.150958 -0.0017958 -0.710884 0.628424 -0.576263 -0.843069 -0.788866 -0.918427 -0.30321 -0.672232 -0.950584 -0.386714 -0.66669 0.189485 0.571557 -0.585721 
-0.919853 0.298907 -0.717355 -0.593453 -0.931069 0.375256 1.02166 0.625409 0.415727 0.594626 0.741104 -0.293792 -0.349135 -0.523447 -0.884238 -0.284105 -0.82519 -0.507956 -0.48713 0.718346 
-0.617587 0.891236 0.0354 -0.915143 0.361967 -0.0785537 0.990757 0.124716 0.0414399 0.557172 0.532937 -0.635122 0.469772 0.200303 -0.0416481 -0.861488 -0.0335685 1.00641 -0.18414 -0.56696 
0.0925168 -0.392644 -0.0964923 0.651099 -0.483015 -0.495667 0.472 -0.98064 0.924466 -0.0510081 -0.175555 0.0312208 -0.942966 0.663728 -0.268134 -0.724258 0.162677 -0.0325274 0.676077 -0.122733 
0.926 -0.171999 0.479 -0.856006 0.703 0.448998 -0.166999 -0.997 -0.0900046 0.240006 0.027 0.609961 -0.473002 0.282 -0.607 0.187 0.862998 0.961002 -0.435009 -0.401004 
0.251502 0.316669 -0.918426 0.556519 -0.892904 -0.642293 0.237185 0.178077 0.463849 0.457327 -0.428118 0.221011 -0.0779068 0.755804 -0.132999 0.259702 0.298142 0.343015 0.234268 -0.159983 
-0.981914 0.353531 -0.941901 -0.588553 -0.189084 0.792866 0.408939 -0.117958 0.647268 0.762175 0.897361 0.267386 0.841293 0.685549 0.0856596 0.530482 -0.499832 -0.0440543 0.158076 -0.675391 
-0.292741 -0.295943 0.914637 -0.995875 -0.994064 -0.0794101 -0.143826 0.208383 0.450177 -0.582743 -0.3582 -0.834269 -0.83024 0.832805 0.700859 0.194372 0.698165 -0.343258 0.811287 -0.600551 
-0.63392 -0.0679161 0.187843 -0.210908 -0.38762 0.247537 -0.739134 0.159705 -0.539223 -0.4679 0.81982 -0.38185 0.545075 -0.0705695 0.44806 0.138681 -0.575672 -0.436569 -0.794203 0.672242 
0.28643 -0.671549 0.232266 0.264991 0.363463 0.276052 -0.0939528 -0.275956 -0.415633 -0.639646 0.756516 -0.707043 -0.482399 0.221194 -0.616949 -0.931892 -0.0306676 -0.191635 -0.876421 -0.239659 
-0.57598 0.203533 2.33725e-05 -0.195209 -0.740205 -1.06054 -0.784574 0.95259 -1.05333 -0.139026 -0.874558 -0.144111 0.0872227 0.222898 -0.30605 0.290116 1.02389 -0.202565 -0.749319 0.861508 
0.0314026 0.167251 1.05941 -0.590155 0.130073 0.673138 -0.498397 0.594729 -0.956039 -0.705168 -0.295469 0.273946 -0.862987 0.127327 -0.888265 -1.09451 -0.517188 -0.103679 0.180652 0.209475 
-0.395487 0.729186 0.870985 -0.873205 -0.392655 -0.738076 -0.0120876 -0.136565 -0.187609 -0.753992 0.342273 -0.873163 -0.911394 0.648222 0.995062 0.571522 -0.296486 0.0332708 -0.268525 0.576032 
-0.248758 0.713009 -0.670405 0.318442 0.783777 -0.433278 0.119432 0.742364 0.225267 0.440459 -0.446539 -0.229531 -0.125059 -0.048002 -0.0372607 -0.787564 0.496063 0.361447 0.221597 0.770416 
0.0851305 -0.462207 0.44608 -1.06231 -0.815668 -0.0610923 -0.262501 0.384262 0.31051 -0.652536 -0.245863 0.0800495 -0.0779666 0.601689 -0.567789 0.238202 -0.776868 0.335898 0.402858 -0.151233 
0.596249 -0.335529 -0.942198 -0.417326 0.202215 0.519831 0.0574491 -0.472804 -0.168802 -0.666427 0.881528 0.179249 -0.62018 -0.570213 -0.774923 0.169395 0.724226 -0.0452711 0.634719 0.428215 
-0.0761141 0.0652291 -0.182438 -0.541862 -0.0357968 0.353629 0.226214 0.746912 0.417611 -0.335143 0.466982 -0.449424 -1.25532 0.0281315 0.152334 0.466295 0.695497 0.52614 0.131337 -0.436943 
1.02813 0.429674 0.152228 -0.126309 0.649414 0.351134 -0.712679 -0.348945 0.0235057 0.761245 0.84925 0.855935 -0.136897 -0.874589 -0.410917 -0.687255 0.754038 -0.260396 0.0352504 0.0741637 
0.742007 -0.76235 -0.851736 -0.681256 0.415718 0.528522 0.453389 0.120599 -0.0395901 0.249237 0.235477 0.196104 -0.153784 -0.461425 0.528138 1.09518 0.267005 -0.618043 0.157548 0.189592 
-0.0586655 -0.407351 -1.11865 -0.100915 -0.468254 -0.124105 0.351143 0.469865 -0.0384779 0.400915 0.278554 -0.00997599 -0.411292 -0.882328 -0.824354 0.943899 -0.372716 -0.586445 0.233233 -0.228644 
0.430278 -0.312291 -0.458318 0.53568 -0.699072 0.38971 -0.655604 -0.60841 -1.01817 -0.646885 0.161565 -0.0130823 -0.78615 -1.01718 0.404327 -0.415606 1.00527 0.387536 -0.848038 -0.523055 
0.646588 -0.142547 0.122228 0.138402 0.545476 0.738401 0.525767 0.0737615 0.0269288 0.0229696 0.99674 -0.440035 -0.0542973 0.209074 0.653595 -0.0185144 0.864132 0.44322 -1.02877 0.426455 
0.361811 -0.535548 -0.387402 0.129237 -0.710226 0.230937 0.22151 -0.453163 -1.23635 -0.560336 0.225892 -0.00570489 -0.304562 -0.647425 0.425873 -0.217808 -0.0078335 -0.0835599 -1.05395 -1.0118 
-0.307745 -0.196509 0.222203 0.275882 0.581814 0.788358 0.771605 -0.657722 -0.552803 0.660945 -0.0132409 -0.04375 0.0558335 0.403035 0.280205 -0.204815 1.34237 -0.752821 -0.125553 -0.181629 
-0.386299 -0.437749 0.609669 -1.09821 0.284248 0.976211 -0.0366015 -1.16504 -0.0358509 0.965206 0.173577 0.320269 0.0410962 -0.473375 0.0327265 -0.438702 -0.174305 0.478328 -0.713457 -0.849008 
-0.207458 0.934678 -0.427501 0.49558 -0.629096 0.0218747 -0.93915 0.606433 -0.669913 -0.121373 1.12129 -0.404902 -0.452636 -0.653578 -0.409417 0.632122 0.922765 0.30725 -0.929816 0.361242 
-0.816099 -0.0408213 1.40845 -0.766734 -1.09743 0.694494 0.951952 -0.984772 0.213934 -0.260794 -0.660613 0.0438834 0.0199202 0.856062 0.551652 -0.599696 -0.059434 0.605948 0.0899388 0.620384 
0.179368 0.199278 -0.157582 0.312773 0.251171 0.819099 -0.231129 -0.10447 -0.430384 0.479245 0.675062 -0.88568 -0.282309 0.561032 -0.898606 -0.545733 -0.417219 -0.539471 -0.789121 0.893187 
-0.655905 0.924224 0.75653 -1.04466 0.700477 0.533235 0.62548 -0.155335 0.379156 0.353207 0.437406 0.695044 0.31391 0.987328 -0.0439003 0.170929 0.0835917 -0.611265 0.712661 0.613102 
-0.925864 -0.466738 -0.095361 0.543106 -0.139748 -0.667201 0.299546 -0.190233 0.205588 0.686682 -0.400732 0.584727 -0.812402 1.01216 -0.203569 0.0523335 0.882804 -0.254937 -0.11374 -0.622787 
0.479733 0.254651 0.244731 0.921604 0.574222 0.942691 -0.954835 0.692551 0.396278 -0.634193 -0.365606 0.438569 0.981605 0.886164 0.688006 -0.317525 -0.747999 -0.278861 -0.607814 -0.360804 
-0.726385 0.928095 -0.34882 0.0354585 0.0324376 0.700054 0.316007 0.885983 0.36219 0.606716 0.222013 0.973997 0.519685 -0.208099 -0.435073 0.545711 -0.741424 0.684093 0.523497 -0.168889 
0.782002 -0.294932 -0.837613 0.688978 0.92433 -0.130008 0.342002 0.280852 -0.803938 -0.818256 0.969372 0.0717513 -0.285063 -0.948997 -0.263997 0.754745 0.174259 -0.523189 0.154344 -0.270834 
-0.117264 0.852101 0.77452 0.237123 -0.698969 0.675451 0.603944 0.0703171 -0.839265 0.198375 -0.405081 -0.878575 0.485062 0.0624191 0.229022 0.556112 0.71806 0.072459 -0.920139 -0.290754 
0.671169 -0.771844 0.572224 0.682912 0.476201 -0.186442 0.341298 0.445964 0.530666 -0.424539 -0.319156 -0.650985 0.471862 0.280162 -0.731327 -0.91927 -0.835769 -0.394974 0.238828 0.59168 
0.133102 -0.384633 -0.413962 0.530896 -0.537144 0.158508 0.331815 -0.0436457 0.593256 0.0218759 -0.936964 -0.0658067 -0.123328 0.144619 -0.484816 -0.637745 1.0078 0.796114 -0.124682 0.568031 
-0.809992 0.394973 0.945625 -0.781455 0.0589435 -0.809022 0.583495 0.211891 0.0958114 0.451042 -0.69915 -0.744566 0.225382 1.01254 0.742104 -0.252757 -0.338837 -0.403432 0.068993 0.808617 
-0.262199 0.290269 0.106799 -0.261873 -0.372841 -0.298894 0.318773 0.409669 -0.245196 -0.44273 0.592086 0.519671 -0.862446 0.639944 0.566369 -0.143924 -0.171927 -0.571978 0.580501 0.938334 
-0.0688887 0.487346 0.987592 0.495162 -0.237523 -0.849547 -0.117615 -0.950585 -0.186583 -0.300189 -0.148567 -0.623243 -0.556991 -0.470424 0.921809 -0.400229 -0.85547 -0.344003 0.737668 -0.386237 
0.662054 -0.165496 0.53388 -0.391198 -0.522298 -0.386141 0.642799 -0.305352 -0.102199 -0.493683 -0.649152 -0.101439 0.0124784 0.396241 -0.477487 -0.0566026 -0.734852 -0.0600996 -0.749398 -0.157635 
-0.707262 -0.494002 -0.612006 0.25085 0.668339 -0.750684 -0.243162 0.108315 -0.343992 -0.339516 -0.487596 -1.06849 -0.321129 0.394882 -0.271364 -0.0825265 0.431835 -0.241222 0.0676595 -0.346967 
0.671576 -0.158633 0.182917 -0.155519 -0.589076 -1.04867 -0.456225 -0.808532 -0.307294 0.396968 0.841542 0.159832 -0.53897 -0.972057 0.715956 -1.10831 -0.26066 0.616034 -1.18749 -0.337089 
-0.205099 -0.0160385 -0.176111 -0.0945753 -0.716097 -0.785014 0.663451 0.624305 -1.28961 -0.390145 -0.573502 -0.443056 -0.517691 -0.491353 0.368704 -0.665717 -0.25194 -0.0294693 -0.587425 0.451106 
-0.361088 0.280135 -0.868457 -0.879569 0.834529 -0.0416981 0.803061 0.171036 -0.0455015 -0.278348 -0.514441 0.260027 -1.29452 0.796391 0.797034 -0.502493 0.592069 -0.430274 0.466756 0.661487 
-0.878081 0.253133 -0.768509 -1.15698 -0.87691 0.536618 0.501761 0.384281 -0.70557 -0.478394 -0.218255 -0.695918 -1.42601 -0.129281 0.536001 -0.575676 0.415169 0.276208 0.000843851 -0.218846 
0.211901 -0.293653 -0.702405 -0.666002 0.163721 -1.10211 -0.438857 0.482223 -0.940071 -0.0590563 0.652721 -0.196932 -0.494407 -0.400887 -0.457513 -0.447399 -0.368538 0.241452 -0.235194 0.776621 
0.472177 0.601735 -1.33005 -0.61913 -0.45505 -0.815582 0.879531 0.318553 0.426906 -0.52373 -0.821029 -0.180397 -0.956485 -1.26576 0.304935 -0.133916 1.38377 0.0345721 1.01628 -0.768581 
0.333687 0.0562814 -1.06959 -0.180889 0.452745 -0.152379 -0.316346 -0.621956 -0.157984 0.7497 0.823125 0.0703462 -0.588002 -0.685532 0.591795 -0.332389 1.09714 0.176128 0.515173 -0.657083 
0.298549 0.649456 -0.206672 -0.318124 0.0314024 0.894311 0.119477 0.769321 0.205372 -0.102058 0.919915 -0.13092 0.633706 -0.603264 0.0102535 0.396178 0.659858 -0.494916 -0.249934 -0.458312 
0.506889 0.289681 -0.550116 -1.05479 0.304421 0.76764 -0.276852 -0.0711783 -0.92337 0.0221329 0.870684 0.364124 0.393524 -0.620257 -1.07491 -0.338136 0.670749 -1.10635 -0.305318 0.212088 
0.413422 0.434093 -0.413096 0.244086 -0.178101 -0.357099 0.0804514 -0.508544 -0.481613 -0.0320524 0.13379 -0.110093 0.413272 -0.830098 -0.4246 -0.290539 -0.345413 -0.474509 -0.212822 -0.485826 
0.735817 0.48855 0.41343 -0.748123 -0.685045 0.315061 0.095414 -0.617644 0.0918658 -0.406685 0.266702 -0.729552 -0.119799 0.466107 0.21353 -0.128874 0.861237 0.75546 -1.30495 0.693901 
-0.311787 -0.219201 0.933134 -1.14331 -0.17757 0.175126 -0.832119 -0.368964 -0.737615 -0.0966142 0.421705 -0.505326 -0.402388 -0.461632 -0.848651 -0.00229814 -0.575438 0.836116 0.474931 0.35082 
0.960211 0.343145 0.649693 -0.684483 -0.456948 0.463474 0.289432 -0.989437 -0.247816 -0.203411 -0.732945 0.519772 -0.58382 0.122772 -0.634994 -0.447552 -0.344706 0.627916 -0.692223 -0.419275 
0.676574 0.768667 -0.637395 0.299798 -0.432059 0.3118 1.00755 -0.723848 -0.89531 0.762854 0.946374 0.0450424 -0.859098 -0.0177149 -0.51305 -0.504011 -0.640753 -0.587745 -0.339285 0.969828 
-1.19137 1.09463 0.963942 -0.42072 0.267325 0.262633 1.01789 -0.677157 0.41356 0.142478 0.961316 -0.350041 0.902504 -0.460548 -0.732479 0.431564 0.66856 -0.401385 -0.409429 -0.0933584 
0.60328 -0.520177 -0.630678 -1.1074 -0.625771 1.03507 0.688638 -0.72194 -0.167483 -0.477718 -0.952636 -0.718727 0.199856 -0.163044 0.999863 -1.1868 0.29154 0.232609 -0.255429 1.12161 
-0.677383 0.750562 -0.412676 -0.282909 0.412935 0.812554 -0.595146 -0.137843 -0.0958147 0.544302 0.37015 0.170531 -0.917832 -0.849539 -0.700529 0.0907093 0.897726 1.001 0.293117 1.03923 
0.734818 0.548885 0.641124 0.570974 -0.771402 -0.674897 0.694076 -0.710678 0.434743 0.819457 0.599307 -0.836829 0.204628 -0.182319 0.851735 -0.769296 -0.0786324 -0.847099 0.153934 0.4928 
0.180095 0.573182 0.526052 -0.440817 0.356943 0.112182 -0.183038 0.00533966 -0.243909 0.321069 -0.393475 0.341275 0.442963 0.847564 -0.407594 -0.335787 -0.560189 0.444365 0.822609 -0.259825 
-0.497998 0.0257724 0.55875 0.952591 0.0069495 0.0058345 0.54302 0.128705 -0.248984 0.0700905 0.395017 0.226446 0.541364 -0.940691 0.219994 -0.28527 -0.0560169 -0.821955 0.657513 0.38466 
0.737347 -0.615109 -0.354499 0.736669 0.634885 0.0301094 0.785794 -0.687981 -0.920329 -0.976103 -0.575032 0.745955 0.204294 0.447958 0.41203 -0.00157218 -0.955486 -0.175613 0.244582 -0.445943 
-0.00796995 -0.457315 -0.860489 -0.986488 -0.683491 -0.576121 0.77618 0.127956 -0.0695006 -0.243737 0.532362 0.262092 -0.126527 -0.554189 0.881957 -0.198024 -0.0112246 -0.428809 0.589943 0.651591 
0.580052 0.547708 -0.423882 -0.830862 0.148828 -0.583839 -0.419369 -0.3203 -0.213966 -0.267135 -0.663969 -0.0965646 0.142654 0.618615 -0.830806 -0.980307 0.605128 -0.611297 -0.161565 -0.0383808 
-0.27252 0.872592 -0.354886 -0.798734 -0.681973 0.202552 -1.00643 -0.751285 -0.672399 -0.899225 -0.623978 0.565347 0.269585 -0.873434 -0.861852 0.107391 0.471741 -0.606234 0.373221 0.89431 
0.402336 -0.325632 -0.26044 -0.999835 0.0138406 0.826657 0.0157585 -0.231809 -1.08987 -0.389005 -0.879824 0.316134 -0.230111 0.131036 -0.549317 0.065266 0.00199213 -0.272311 -0.773626 0.195865 
-0.184679 -0.253968 -0.246346 0.0573496 0.357093 -0.448158 -0.0474756 -0.234054 0.715966 0.139966 -0.278583 -0.161404 -0.500204 -0.6865 -0.525666 -0.329311 -0.0124129 -0.644814 -0.40733 0.998307 
-0.520698 0.446124 -0.302415 -0.708538 -0.706134 0.423839 0.508464 0.0985392 -0.44668 0.753499 0.361185 -0.142466 -0.0370763 -0.94117 0.231341 0.0210152 0.574177 0.704335 -0.412953 -0.371229 
-0.625598 -0.587751 -0.774953 0.0450584 -0.124894 -0.960145 -0.330859 -0.000121259 -0.850173 -0.238132 -0.941225 0.221251 0.294522 0.482523 -0.900261 0.139944 -0.437593 -0.309628 0.428641 0.687435 
-0.386381 0.52902 0.843361 -1.0578 -0.804751 -0.930745 0.904197 0.608453 0.536167 1.02743 -0.0326129 -0.754231 -0.143936 0.0671188 -0.66822 0.797957 -0.122975 0.247419 0.372724 0.769159 
0.0830037 0.507171 0.421336 0.377999 -0.908512 0.664024 -0.0452588 0.595195 -0.136188 0.45493 -0.247299 -0.530406 0.0532309 -1.06371 0.357185 -1.05205 -0.745713 0.614019 0.732714 0.661417 
-1.3405 -0.639662 -0.572182 -0.5134 0.102686 -0.665451 0.099763 0.939683 -0.501209 0.393738 -0.425903 -0.270212 0.178273 0.28836 0.682075 0.280167 -0.0158424 0.284295 -0.493824 0.020966 
-0.859209 0.287128 -0.232453 0.580138 -1.20783 0.145192 0.747467 0.190917 -0.457557 0.0828454 -0.0443913 -0.62174 -0.0529174 -1.01124 0.771664 0.0901401 0.774339 -0.255862 0.400784 0.912792 
-1.95967 0.597625 0.145858 -0.044871 0.307524 -0.508583 -0.289007 0.439912 0.0894879 -0.134308 0.429988 0.224814 -0.453282 -0.987812 -0.106468 -0.941179 -0.417909 -0.356699 0.102989 0.594041 
-1.11343 0.341848 -1.73286 -0.65593 0.160282 -0.755761 -1.13681 -0.338402 0.384119 0.140243 -0.121992 -0.265625 0.471368 -1.01962 -0.741359 0.825369 0.756517 -1.03953 -0.204591 0.434259 
-0.280409 0.738066 0.0432396 -0.691441 -0.887226 -0.0554639 -0.186296 0.420063 -0.324587 0.165627 -0.88068 -0.773436 0.0968027 -0.383063 0.116642 -0.270586 0.876094 0.719265 -0.0585333 0.276022 
-0.0269839 -0.592903 -0.420766 -0.289368 0.264685 0.385255 -0.751304 -1.04779 0.145456 0.588647 -0.219643 -0.766818 1.02016 -0.390343 -0.282433 -0.346237 0.763728 0.757848 0.0272226 -0.42176 
0.52344 0.63548 1.07913 -0.240563 -0.769617 1.01432 0.337186 -0.625427 0.288649 1.22421 0.245974 0.555901 -0.561352 -0.718229 -0.268875 -0.545626 0.72843 -0.202791 -1.54598 -0.227572 
-0.528045 0.625954 0.596819 -0.299821 -0.336679 1.09287 0.532573 -0.372874 -1.30887 1.52733 0.936665 -0.107623 0.654533 -0.230387 -1.00304 -0.45802 0.401333 -0.729865 -1.03731 -0.11441 
0.376741 0.794673 0.127469 -0.576071 0.69986 0.018066 -1.10514 0.008573 0.0987571 0.802661 0.715072 0.379722 -0.862994 -0.691335 -0.54201 -0.162758 0.197771 -0.737227 0.740624 -0.331082 
-0.20674 -0.294755 -0.191299 -1.0261 0.0429928 -0.542182 -0.221925 -1.40682 -0.106833 0.536704 -0.588496 0.342949 0.0352941 0.0955137 -0.153705 0.633796 0.899404 0.202451 -0.395311 0.199354 
-0.331938 -0.15777 -0.233499 0.407922 -0.37543 0.244866 0.278527 0.351784 -0.938485 0.776839 -0.127588 -0.596346 -0.38943 0.399912 0.806458 -0.42187 0.0539048 -1.04159 0.0949258 -0.528711 
0.314071 -0.0575812 0.20462 -0.503785 0.0426772 0.282632 0.920418 0.577616 -0.429534 0.91707 -0.984493 0.220097 -0.862261 0.518042 0.0765549 0.336366 0.343084 0.281979 -0.750813 0.800844 
-0.584352 -0.164865 0.870191 0.125964 -0.270139 0.636795 -0.321992 -0.418493 0.50571 0.948021 0.865428 0.0969568 0.773901 -0.421054 -0.80786 0.645756 -0.25454 0.23226 -0.600908 -0.115452 
-1.06391 -0.239113 1.06888 0.00816876 0.669959 -0.81867 -0.361 0.323596 -0.382962 -0.742219 -0.495649 -0.782978 -0.856711 0.86489 -0.378637 0.419171 -0.775332 -0.704911 -0.379466 0.0135424 
-0.44395 -0.741628 -0.458229 -0.835729 -0.64671 0.496025 -0.813271 -0.302107 0.646639 -0.113686 0.688784 -0.0235156 -0.390285 0.0850991 0.574681 0.576804 0.574325 -0.0477317 0.356399 0.758639 
0.418869 -0.925653 -0.0911993 0.588453 0.291595 -0.540638 -0.582419 -0.972569 -0.562446 -0.843837 -0.35249 0.469273 -0.366942 0.296236 0.823152 0.774852 -0.646602 -0.276979 0.212817 -0.00806379 
0.787789 -0.600973 0.0112648 0.233193 -0.1716 -0.414281 0.677782 -0.798626 -0.948101 -0.357352 0.258012 -0.684302 0.392374 -0.285127 -0.0171138 0.365325 -0.245944 0.171437 -0.980982 0.847246 
0.267001 -0.4901 -0.590289 0.871519 -0.448124 0.873829 -0.0229494 0.696652 0.370018 0.941098 -0.73298 -0.660785 -0.382573 -0.0316404 0.06499 0.32068 -0.345019 -0.272891 -0.0865985 -0.716169 
-0.869335 -0.0660035 -0.443064 0.160378 -0.118995 -0.962328 -0.392397 0.133588 -0.0701694 -0.461283 0.520179 0.723394 0.688311 0.724163 -0.365961 0.226648 0.601872 0.124531 -0.880105 -0.20517 
-0.259993 0.0813278 0.927064 -0.735638 0.42076 0.31886 -0.472414 -0.105156 -0.369081 -0.358998 0.565372 -0.599788 -0.639177 -0.432156 -0.61995 -0.618691 0.854518 -0.257495 0.302588 0.111459 
0.169175 0.556938 -0.938858 0.549773 -0.488013 0.213087 -0.662297 -0.488914 -0.21775 -0.504102 -0.217139 0.652814 0.113443 -0.107665 0.701908 -0.820363 0.67937 -0.312437 0.748393 -0.0301025 
0.296804 -0.798277 -0.510557 0.576181 0.377219 0.480282 -0.509934 -0.365413 -0.303418 0.271546 -0.478457 -0.825022 -0.0371604 0.704565 0.303876 0.408813 -0.254287 -0.882883 0.0805448 0.400151 
0.609658 0.746219 0.306661 0.348816 0.0330599 -0.453092 -0.302211 0.478687 -0.389663 -0.651315 0.118852 -0.0491199 -0.87132 -0.767468 0.736938 -0.630845 -0.597327 -0.672297 -0.314866 -0.881924 
-0.38784 0.131682 -0.170877 -0.644146 -0.504202 -0.885805 -0.12745 0.939037 -0.00831871 0.997389 -0.69945 0.151836 -0.506345 -0.161696 -0.319201 0.85981 0.401338 0.509732 -0.354887 0.402547 
-0.670463 0.0701345 0.683658 0.238388 -0.668477 -0.0388591 0.606876 -0.486058 0.407348 -0.365619 0.0572162 0.538491 0.930468 0.277901 0.668152 0.675271 1.00145 0.183142 0.359417 0.405674 
-1.18203 -0.668942 -0.597209 0.240387 -0.35598 0.913993 0.817484 0.0140196 0.177225 0.547066 -0.89002 0.738345 -0.0860231 -0.245083 0.618519 -0.466357 0.453128 0.18954 -0.194984 0.845009 
-1.58254 -0.676091 -0.499241 -0.434776 0.274848 -0.50774 0.103285 0.4962 -0.77481 0.521463 -0.581843 0.892532 0.730327 0.000203773 -0.154426 0.391139 0.38782 0.145722 -0.702317 0.315329 
-1.46378 0.385398 -0.0528372 -0.937197 0.388328 -0.502864 0.821645 -0.837194 -0.890318 0.790569 -0.533834 0.217657 0.541088 -0.52346 -0.487656 0.371685 -0.337909 1.05081 0.034111 0.338492 
-1.6332 -0.0581213 0.568429 0.27396 -0.831156 -0.388211 0.0475375 -0.300661 -0.847454 -0.438816 0.0238802 0.490053 -1.37916 -0.205263 -0.197819 -0.718585 0.522954 0.905172 0.310043 0.613439 
-1.58847 0.762787 0.0836094 0.0393317 -0.0799771 -0.758516 -0.361444 -0.390588 -0.171755 0.505826 0.178417 -0.433357 0.00880582 -0.891932 0.678347 0.334276 0.178148 0.189249 0.733038 -0.144787 
-0.79548 1.08823 0.313864 -0.798721 0.154789 0.413578 -1.04959 -0.503656 -0.00197175 -0.471483 -1.2864 -0.327596 -0.634746 -1.02533 -0.0947133 -0.291194 -0.329685 -0.47228 0.628543 -0.488902 
0.318678 1.0877 -0.628996 -0.45525 -0.159193 0.951756 0.212171 -0.894711 -0.10582 0.908169 -0.0744256 0.131336 0.73945 -0.285176 0.394479 0.0951333 -0.386179 0.392069 0.956452 0.0492406 
0.420489 1.34919 0.804266 -0.556035 -0.584738 -0.607767 0.130534 -0.156808 0.411077 1.14212 0.388667 0.445473 0.329681 -1.06341 -0.420045 -0.015231 -0.317921 0.284319 0.230377 -0.361073 
-0.0485333 0.838656 0.332678 0.445465 -0.482651 0.909099 -0.503819 -0.912732 0.218243 -0.413763 -0.139728 -0.322548 0.24682 -0.36133 -0.856671 -0.299842 0.193988 0.535167 -0.541407 1.07532 
0.670958 -0.27713 0.743326 -0.116858 0.099737 0.616494 -0.617246 -0.120741 0.295086 1.27647 -0.0152356 -0.715252 -0.981203 0.53217 -0.223143 0.164817 0.150017 0.717124 -0.691072 0.763669 
-0.0430431 0.341966 0.499358 0.944877 -0.416424 0.484075 -0.909096 -1.04736 -0.877591 0.503532 -0.675266 -0.322875 0.583928 0.0609028 -0.29576 0.333895 0.794344 0.120799 -0.410441 0.425993 
0.132538 0.646644 -0.0360895 1.24135 -0.393364 1.06984 0.157709 0.407939 -0.0448362 0.475585 0.627359 -0.194492 0.25297 -0.563727 -0.84966 -0.395425 0.37045 -0.352423 -0.862727 0.175512 
0.0468648 0.0149955 0.522074 0.366554 -0.795221 0.89518 0.086212 0.206858 0.160821 0.594138 0.0399682 -0.170404 0.428051 -0.452764 -0.0777995 -0.546895 0.48942 -1.04729 0.538518 0.807682 
0.0530377 0.290291 -0.0140575 0.238163 0.601053 -0.780896 0.310576 -0.589505 0.204696 0.699957 -0.0769421 0.410916 -0.140607 -0.790069 -0.430948 -0.335706 0.948248 -1.03221 0.25271 0.972827 
0.654247 0.743627 -0.122794 -0.673899 0.579948 -0.355112 0.210384 -1.19355 -0.464716 -0.122335 0.482905 0.0152556 -0.351112 0.493591 0.3997 -0.345893 0.919761 -1.20504 -0.664359 1.09182 
-0.0713299 0.64854 -0.908604 -0.652163 0.0981405 -0.52096 -9.84317e-05 0.45159 -1.00053 -0.336385 -0.260774 0.362201 -0.481084 0.858882 0.805754 0.623503 -0.437208 -0.0719879 0.468093 0.87148 
0.690297 -0.326702 -0.669014 -0.558151 -0.23814 0.414919 0.753155 0.371422 0.627694 -0.545584 0.646703 -0.422995 -0.454786 -0.280342 0.858114 -1.04378 0.0122346 0.136999 0.445464 -0.147495 
-0.643674 -0.374836 -0.689293 -0.101102 0.887304 0.320677 -0.582518 -0.975106 -0.472626 -0.733917 -0.525155 -0.0686642 -0.320985 0.0537195 0.693969 -0.664236 -0.64982 -0.712181 -0.730814 0.463376 
0.748559 0.77119 0.556496 -0.225841 -0.191831 0.662975 -0.773282 0.195288 -0.360721 0.926191 0.668794 -0.464078 -0.45571 0.0205371 -0.74496 -0.998035 -0.970028 0.435536 -0.537806 -0.296418 
-0.47415 -0.152734 -0.899987 -0.586421 0.760396 0.0612245 -0.322626 -0.130373 0.735813 0.00827575 -0.10203 -0.68753 0.133358 -0.646629 0.789053 -0.255371 -0.996059 -0.0699421 -0.275343 0.650736 
-0.481012 -0.131895 -0.825996 0.900912 -0.639044 -0.745037 0.965968 -0.07307 0.312987 -0.637938 -0.219998 -0.182252 0.728113 0.289038 0.712998 -0.059099 -0.777007 -0.203942 -0.269083 -0.159777 
-0.767629 -0.862456 0.637528 0.579347 0.381459 0.249393 -0.345048 -0.153621 0.457028 0.606975 -0.731888 0.027719 -0.227809 0.898231 -0.577867 -0.480686 -0.119244 -0.469815 -0.214042 0.521673 
0.432719 -0.154357 0.0298472 0.803584 -0.978321 0.832124 0.315322 -0.82804 0.771086 0.763897 -0.694606 -0.354381 0.347223 0.115528 0.284174 0.628878 0.58077 0.978975 -0.751188 -0.657421 
-0.647825 0.76106 0.750996 -0.912106 0.697752 0.765396 -0.624553 -0.985874 -0.875528 -0.278491 -0.632498 -0.885477 -0.426181 -0.128187 -0.754365 -0.80515 -0.439214 0.100503 -0.359381 0.283671 
-0.859326 0.169646 -0.406806 -0.50031 0.519659 -0.401683 0.281275 0.55579 0.707492 -0.375026 -0.331747 0.41712 -0.637699 -0.340507 -0.546247 0.0137607 0.87531 1.00621 -0.602712 -0.522228 
0.192546 0.166252 -0.650852 0.969048 -0.166781 -0.790663 -0.712415 -0.864288 -0.460167 0.753437 -0.614755 -0.0826024 0.568548 -0.788017 0.209222 -0.0560432 -0.543459 -0.880572 0.558884 0.323586 
-1.4919 0.0176363 -0.826153 -0.600983 -0.00196521 -0.303018 -0.267022 0.0774701 -0.813702 -0.107309 -0.485622 -0.910817 -0.304258 0.475792 0.690075 0.0811929 -0.768816 0.94019 -0.066864 -0.743323 
-0.622667 -0.929392 -0.0694343 -0.467867 0.605902 0.743782 0.785691 0.718355 0.294327 0.776932 0.347943 -0.5448 0.531043 -0.279859 0.382809 0.513233 -0.861558 0.534634 -0.424252 -0.608681 
-0.669002 0.721647 -0.484239 -0.879351 -0.612055 -0.913225 0.48381 0.267827 -0.104851 -0.775534 0.459755 -0.464795 0.324299 -0.401852 0.794638 1.06904 -0.510138 -0.828097 -0.125608 -0.360434 
-1.14604 -0.963294 0.787062 0.727883 0.232368 0.330253 0.461188 -0.294874 -0.635366 -0.91646 -0.345178 -0.81602 -0.903265 0.0328355 -0.91513 -0.367297 0.583692 -0.794821 -0.150973 0.716039 
-0.927216 0.140845 0.678086 -0.798547 0.297724 -0.248477 1.02059 -0.632178 -0.115627 -0.426329 0.324318 0.915334 -0.842906 0.32159 0.832237 0.350642 -0.985852 -0.24676 -0.714897 -0.753743 
-1.03812 -0.359018 0.220121 0.954692 0.526978 0.872316 0.449859 0.485377 -0.0867872 -0.460512 -0.659957 -0.236486 -0.498378 0.516919 0.82504 -0.111625 -0.724009 0.832472 0.300957 -0.461814 
-1.19421 -0.349697 0.155135 -0.217897 -0.574961 -0.613581 0.401691 -0.444946 -0.19394 0.766673 -0.243637 0.283196 -0.316784 0.152696 -0.00251157 -0.110755 0.672032 0.133027 -0.125677 0.502631 
-0.658662 0.675705 -0.698749 0.173191 0.327122 -1.07123 -0.961291 0.263591 0.236013 -0.221618 -0.10491 -1.05878 0.820786 0.372823 -0.02597 0.800941 0.215444 -0.712965 1.12676 0.763287 
0.267699 -0.483113 -0.676481 -0.0299662 0.0825837 0.838736 -1.40537 0.500234 0.0796999 0.441039 -0.411819 -0.309603 0.912014 0.242243 0.895223 0.857304 1.22068 0.275383 0.455298 0.712977 
0.595562 0.289092 -0.613998 0.00843311 -0.0663139 0.925536 -0.0676182 0.635455 0.971289 -0.810797 -1.47177 -0.415153 -0.055869 -0.458935 -0.871854 0.924233 -0.936425 -0.923617 -1.00407 -0.232113 
0.322203 0.0126794 -0.036497 0.805108 -0.801955 -0.379118 -0.358229 -0.467817 -0.0602671 -1.07185 -1.15929 0.828484 0.589324 0.029751 -0.336597 0.0806473 0.624322 1.096 -0.787022 -0.714368 
0.264984 0.598645 -0.292538 -0.127333 -0.357447 0.229473 -0.0203906 0.0439091 0.527388 -0.163736 -0.37944 0.639735 -0.493482 -0.257443 0.0510393 -0.420445 0.661066 -0.806683 -0.298299 0.667441 
0.222957 -0.247736 -0.779949 0.0728659 -0.591945 -0.0656525 -0.40087 -0.687052 -0.281113 -0.453414 -0.681392 0.71947 -0.783099 0.672687 -0.58608 0.919829 0.53424 0.000743599 -0.00901284 -0.140759 
-0.153667 -0.566358 0.337886 0.57222 -0.35388 0.229896 0.479004 -0.235016 -0.812666 0.985661 -0.594364 0.229276 -0.0453817 -0.0246435 0.415978 0.816423 0.3265 0.0227281 -0.611967 0.0620766 
0.382694 0.770001 -1.13013 -0.133883 0.696139 0.0811789 -0.757509 -0.653242 0.0259398 0.647587 -0.348841 -0.483171 -0.253365 0.170381 0.892535 0.900648 -0.0440298 -0.0171137 0.605304 0.755993 
-1.06525 -0.198024 -0.778878 -0.261156 -0.0377572 0.488226 -0.130915 0.308436 -1.06712 -0.354756 -0.957075 -0.22979 -0.986018 0.1238 0.219478 1.08619 0.00178377 0.312632 -0.796958 -0.29471 
-0.997366 0.200417 -0.776165 0.678384 -0.173129 -0.0363524 -0.280995 0.329812 -0.948296 0.136688 -0.283705 -0.319102 0.548441 0.803469 -0.592548 0.836657 0.0653143 -0.467172 -0.0312989 -0.220159 
0.463024 -0.567814 -0.631724 0.679137 -0.263542 0.196538 0.585007 -0.902684 -1.03037 0.186744 -0.292138 -0.0667821 -0.210078 -0.243145 -0.736555 0.272931 -0.109328 -0.524058 -0.852311 -0.261653 
0.0220552 -0.666974 -0.685574 0.398817 0.261045 -0.738902 -0.224809 0.154426 0.718448 0.967976 0.769894 -0.834189 -0.290491 0.396147 -0.416144 0.925075 -0.314093 0.681091 -0.250317 -0.178697 
-0.535938 -0.457537 -0.649495 -0.959347 0.487654 -0.578619 0.93531 -0.647512 0.744721 -0.579903 0.266493 0.38155 -0.0640298 0.827396 -0.0886805 -0.685085 0.541905 0.684826 -0.360647 -0.0953475 
-0.780256 0.593418 -0.869922 -0.508752 -0.0536924 -0.681342 0.666128 0.176164 0.0766921 -0.565215 0.6165 -0.200667 0.0246434 -0.551092 -0.149755 0.931932 -0.493172 -0.0242578 0.0618704 0.705802 
0.788037 0.465235 -0.238206 0.637761 0.503613 0.460412 0.681092 -0.413474 0.495585 0.122127 0.934886 0.950361 0.559484 0.117531 0.137964 0.466054 0.372975 -0.250001 -0.940064 0.341141 
-0.907002 -0.451994 -0.593998 0.917984 -0.732004 -0.788021 -0.934998 -0.381033 -0.873006 -0.429006 0.114 -0.958009 0.750019 -0.251 0.728 0.260997 0.976995 -0.263977 -0.975015 0.606059 
-0.533248 0.784941 0.94602 0.403866 0.626166 0.152475 -0.833342 -0.46323 0.127071 0.781582 -0.568779 -0.631135 -0.817387 0.346301 -0.276501 0.0816948 0.0673734 0.543667 -0.755042 -0.572705 
-0.553827 0.68277 0.262527 0.0195419 0.695103 0.592648 -0.0197099 0.69388 -0.177053 -0.541453 -0.730912 0.1443 -0.783228 0.334267 -0.596099 -0.839198 0.103259 0.421902 -0.953406 -0.808827 
-0.191936 -0.151834 0.262281 -0.935691 -0.900783 0.540336 0.331106 0.0132165 0.67129 0.182776 -0.248548 -0.336538 0.202697 0.864646 -0.94783 -0.256837 -0.675922 0.654183 -0.92165 -0.0154122 
-0.0304508 0.795576 0.0819837 0.797127 -0.106244 0.967785 0.637047 -0.289801 0.507007 -0.736287 0.549758 0.788852 -0.0282141 -0.765208 0.655882 0.502649 0.937729 0.969575 -0.98683 0.272726 
-0.512234 -0.537974 0.313181 -0.639671 -0.497722 -0.809006 -0.161765 -0.166701 -0.172861 -0.890502 0.166531 0.340981 -0.747695 -0.342231 -0.941945 -0.105884 -0.737549 -0.566502 -0.189422 -0.762248 
-1.55492 -0.581377 0.455026 -0.635363 -0.32698 -0.685496 0.996238 -0.509328 -0.788957 -0.164289 0.128589 0.912882 0.109022 0.499547 0.427864 0.482244 -0.422729 -1.10232 0.0714374 0.762104 
-0.267923 -0.11068 -0.244659 0.159235 -1.10799 -0.565794 0.857526 0.538614 -1.00615 -0.479458 -0.529383 -0.245557 0.879458 -0.693802 -0.523456 0.206475 -0.81224 0.482817 0.741527 -0.0178142 
-1.57755 -0.23394 -0.0886875 0.509989 -0.656081 0.159845 1.35073 -0.451853 -0.719096 0.663435 -0.181518 -0.0625522 0.386708 -0.19256 0.851111 -0.583217 0.23271 -0.898558 0.851011 -0.578013 
-1.43044 -1.04595 -0.147884 0.706326 -0.108039 0.677927 -0.551737 0.390261 -0.74487 -0.183592 -0.893453 0.0225908 0.0501414 -0.259181 0.920458 0.196792 0.595988 0.0140332 1.01365 0.357989 
-0.213222 -0.516942 0.028072 0.979031 -0.569263 0.330599 0.881524 -0.64642 0.0959786 0.256677 0.112867 -0.420332 -0.514966 0.441393 -0.173285 0.89857 0.960322 0.565329 0.924995 -0.39536 
0.468654 -1.05936 0.778781 -0.313857 -0.662831 -0.444656 0.720582 -0.177578 -0.433673 -0.615627 -0.136685 -0.105291 -0.525874 -0.251516 0.240049 -0.115289 0.890087 -0.264199 0.8469 -0.00437353 
0.398196 -0.689948 0.555223 1.01102 0.122646 -0.989526 0.753865 0.773834 -0.58293 -0.700425 -0.0339973 0.761023 0.57223 1.51487 0.767867 0.0561794 -0.580766 0.710085 0.752583 -0.453764 
-0.763629 -0.63687 -0.812616 1.20984 -1.02639 -0.354553 -0.647425 -1.04791 -0.88924 -1.00795 -1.10102 0.232765 0.126644 -0.55033 0.723151 0.633417 0.0185285 -0.607452 0.457405 0.113284 
0.0901554 -0.118053 -1.24603 -0.0950118 -1.16808 0.287321 -1.10564 -0.608765 0.015088 -0.815495 -0.8313 0.354977 0.727076 0.364863 0.979224 0.0710365 0.475496 -0.686212 -0.599256 0.425812 
-0.206125 -0.752975 -0.333141 -0.332824 0.513427 -0.00293822 -0.11362 0.390817 0.846863 -1.48945 -1.47868 1.00008 1.0092 -0.896137 0.414978 0.147228 -0.689973 -0.164662 -0.444226 0.141437 
-0.0557592 0.214137 0.707173 0.15341 0.401794 0.478897 -0.474486 0.466706 -0.885306 -1.15093 0.122732 0.322065 0.676265 0.0545375 -0.657813 0.475921 -0.493161 1.21547 0.570243 -0.412677 
0.638046 -0.183063 -0.31659 -0.287041 0.0219741 -0.383104 1.14313 0.567914 -1.06471 0.32962 0.0437715 -0.547376 -0.649458 -0.111869 -0.0247785 -0.134759 -0.623924 0.257685 -0.823061 -0.989662 
-0.243586 -0.540005 -0.597008 -0.0945681 0.311269 0.568296 -0.539366 -0.27965 -0.867296 -0.276291 0.188894 0.381701 -0.523294 -0.0668158 -0.750774 -0.241029 -0.297014 -0.293771 0.721796 0.00962554 
0.666765 -0.225569 -0.409419 -0.119766 -0.685953 0.584595 -0.0147151 -0.0681699 -0.738254 0.142968 -0.86809 -0.00544288 0.350059 -0.370989 0.832571 0.321953 0.525694 0.813794 0.0938487 -0.188678 
0.0503705 -0.910153 -0.00578575 0.16042 -1.059 0.987891 -0.455687 0.125626 0.29147 -0.246756 0.502551 -0.306465 -0.861427 0.440233 0.908179 1.03578 -0.0163123 -1.06173 -0.544918 0.0552973 
-0.102708 -0.753945 0.314188 0.388759 0.833814 0.459283 0.1103 0.603221 -0.831298 0.11889 -0.63725 0.726854 -0.941066 0.846807 -0.62171 0.204859 -0.0188963 -0.0280456 0.339775 0.0935786 
-0.434178 -1.01193 -0.4971 -0.725197 -0.637972 0.806911 -0.429488 0.11848 0.675545 0.447855 0.58384 0.172869 -1.04382 0.411846 0.754327 -0.347376 -0.254668 0.127342 0.253863 -0.209297 
-0.790441 -1.27901 0.635314 -0.755636 0.997281 -0.347281 0.551777 -0.817037 0.0282926 -0.63243 -0.451443 -0.984175 0.706864 0.0981805 0.364977 0.97168 -0.39785 -1.19941 0.315664 -0.246573 
0.802714 -0.693689 -0.875592 -0.551911 1.09352 0.358133 0.296654 -0.900679 0.0128423 -0.0071356 0.468695 -0.306693 -0.450022 0.150093 -0.189163 -0.577552 -0.824636 0.444469 0.551893 -0.728346 
0.293561 0.335286 0.41181 -0.991198 -0.625122 -0.124364 0.54809 -0.165053 -0.773465 -0.228921 -0.963868 -0.165168 0.650418 -0.549778 -0.332196 0.544957 0.389866 -0.41584 0.612744 -0.62078 
-0.186498 0.167497 -0.639602 -0.783348 -0.584309 0.830935 -0.127536 -0.659547 -0.142894 0.39399 0.426526 -0.442188 -0.992516 0.0596324 -0.21659 0.275806 0.438676 0.971264 -0.170653 -0.944663 
-0.470048 -0.809777 -0.368411 0.36672 -0.362421 0.322121 0.443894 0.00265922 0.995018 -0.914006 0.733696 0.450932 0.275393 -0.459084 0.924852 0.201985 -0.144865 0.303796 -0.621143 0.391908 
-0.566979 0.260014 -0.275 -0.174003 -0.875 -0.31 -0.811053 0.707004 0.935005 0.846984 0.718999 -0.117013 -0.385988 0.42801 -0.687009 -0.951997 -0.974002 -0.360003 0.727002 0.709 
-0.53327 -0.433041 0.957925 0.886541 -0.526737 -0.0240251 0.750369 -0.357028 0.952938 0.229169 -0.490249 0.333167 -0.400118 -0.23233 0.610985 -0.216016 -0.229548 -0.811923 0.563314 0.0019357 
0.967881 -0.0156163 0.34519 0.656217 -0.639188 -0.583818 -0.617204 -1.02522 0.482914 0.615965 -0.0534359 -0.415789 -0.309464 -0.632524 -0.106244 -0.193343 0.141345 -0.780017 -0.389823 -0.909887 
-0.539624 0.337043 -0.38475 0.621508 -0.921034 -0.235297 0.966709 0.0863279 -0.744468 -0.496633 0.944973 0.764678 -0.89259 -0.790506 -0.501989 -0.189893 -0.835288 0.865241 0.245048 0.724331 
0.144739 0.0544634 -0.505353 -0.862271 -0.743753 -0.231562 0.337354 0.219403 -0.652158 0.822441 -0.670028 0.0425878 -0.212595 0.659263 0.460577 0.56195 -0.0241577 -0.599089 -0.326275 0.56571 
-1.18614 0.504076 -0.0367599 1.00598 0.592922 0.89484 0.512189 -0.220436 0.0869511 -0.200653 0.5633 -0.604689 0.552592 -0.049986 -0.487207 -0.2941 -0.14471 -0.903621 -0.245696 -0.68908 
0.264366 -1.28436 -0.382509 -0.476974 -0.772998 -0.358612 0.483244 0.545866 -0.843415 -0.0453074 -0.339474 -0.435942 0.332063 -0.493201 -0.615816 0.0802411 0.112063 0.00397081 -0.322818 -1.07833 
-0.0684195 -1.03599 0.801089 0.403814 0.678237 -0.249362 -0.327845 -0.500513 -0.641772 -0.0594149 -0.535645 0.716684 0.179841 -0.340632 0.688618 0.366856 -0.582155 0.246239 0.469601 -0.19278 
0.0569976 -0.699468 0.504154 1.01134 -0.603277 0.454339 -0.139053 0.804595 -0.140153 -0.888954 -0.034414 0.690148 0.850722 0.659763 -0.396613 0.745821 -0.144724 0.45106 -0.563025 -1.06489 
-0.43591 -0.480234 -0.0392982 -0.201395 -0.432894 0.435692 1.02451 -0.30528 0.0439835 0.503917 0.560184 0.559537 -0.125505 0.488912 0.350377 0.295691 -0.191335 0.849543 0.873599 0.449962 
0.46592 -1.00003 1.10025 0.806266 -0.751648 0.922538 0.451346 0.469902 -0.832959 0.69686 -0.661561 1.01035 0.752151 0.0943232 -0.142519 -0.805933 -0.610205 0.926742 0.954291 0.274247 
-1.39722 -0.426694 0.802791 1.2625 0.430785 -0.622767 -0.0291492 -0.738516 -0.410917 -0.507058 0.480052 1.07684 -0.603388 1.53261 -0.940585 0.100207 0.379647 -0.135454 -0.150608 0.0222181 
0.394613 -1.18805 1.01616 -0.0417199 0.620692 0.693458 -0.394678 -0.163578 -0.566361 0.238223 -0.34347 0.214145 -0.0273216 -0.121821 -0.238126 0.569701 0.52016 -0.0967295 0.243799 -0.974676 
-0.539135 0.0965355 -0.655531 -0.366249 0.325606 -0.157086 0.558254 -0.476447 0.164933 -0.854357 -0.466947 -0.0348584 0.347019 0.834124 -0.582878 1.31823 -0.369918 0.0109836 -0.0473571 -0.577589 
-0.148898 -0.594724 -0.224487 0.376519 -0.330772 -0.290911 -0.762767 0.333466 0.72687 -1.01347 -1.19042 -0.0751628 0.879259 0.460526 0.845181 0.596399 0.178758 -0.460669 -0.16928 -0.464625 
-0.362793 0.529447 0.0461708 -0.0586751 -0.738482 -0.187507 -0.926407 0.461951 -0.0329965 -0.00770981 -0.657213 1.39215 -0.260905 -0.106487 0.129395 -0.189401 0.270556 0.822232 -1.06489 0.381161 
0.0876179 -0.67808 -0.398103 0.567775 -0.466307 -0.461999 -0.175063 -0.123148 0.75521 -0.496642 -0.766898 0.542369 -0.234807 -0.981908 -0.989369 0.346091 -0.848059 0.0316825 -0.716216 -0.512927 
-0.0762774 -0.844939 0.863803 0.0603147 -0.253834 0.396092 -0.124512 0.642104 0.0688591 0.210897 -1.11658 0.399225 0.253375 -0.710854 -0.919286 -0.372328 0.431935 -0.475689 -1.00166 -0.136768 
-0.372607 -0.917103 0.516874 -0.447722 -0.345835 -0.209197 -0.410105 -0.378376 -1.25242 -0.22493 -0.760878 0.63801 0.0730933 -0.802185 -0.649288 0.0563329 -0.592003 -0.562991 -0.4877 0.268672 
-0.454233 -0.24852 -0.397417 0.774125 0.295752 0.587347 -0.0372278 0.665027 0.790241 0.466643 0.267035 -0.238073 -0.305318 -0.365251 0.590727 0.643989 0.34168 0.935764 -0.814599 -0.654075 
0.18238 -0.0206559 -0.029988 0.852848 -0.288033 0.622563 0.989309 0.0620085 0.209344 -0.0541179 -0.000402715 0.42067 -0.659757 -0.0450905 -0.396761 0.639705 0.183313 0.622993 -0.594459 -0.00934673 
-0.364117 -0.822917 -0.571592 -0.145486 -0.217403 -0.133413 -0.183455 -0.642245 -0.214212 0.700905 -0.145647 0.273412 0.920972 -0.93885 0.323224 0.520588 -0.180041 -0.108581 0.193861 0.351379 
0.14558 -1.16297 0.316264 0.442312 1.03238 -0.389568 1.08702 0.517342 1.10186 0.769305 -0.369852 -0.733763 0.460757 0.313636 0.739667 0.984945 0.830586 -0.728539 0.641752 -0.725489 
0.577281 -0.0186142 -1.04704 -0.800159 -0.20374 0.317726 0.365398 0.91223 1.13296 0.829835 0.29779 -0.399378 0.554779 0.324613 -0.244718 -0.770993 -0.0673157 -0.86128 0.460948 0.5441 
-0.700733 0.456408 -0.0770571 -0.260627 -0.678942 0.611135 -0.042813 -0.632059 -0.00683114 0.501877 -0.228626 -0.384161 -0.822504 0.317587 -0.495786 0.06489 0.177437 -0.893254 1.10818 -0.816469 
-0.589423 0.802939 -0.582548 0.494979 -0.683563 0.25293 -0.844503 -0.425452 0.416263 -0.564741 -0.346052 -0.219034 0.961592 -0.631847 0.375788 -0.425846 -0.477163 -0.919887 0.654306 -0.412706 
-0.626921 -0.317393 0.0177265 -0.745399 0.253071 -0.593908 -0.375716 -0.913761 -0.95432 -0.400694 -0.631844 0.190512 0.544462 -0.853454 0.302084 -0.723883 0.953139 0.803124 0.922823 -0.274093 
0.479808 -0.910846 -0.761556 0.702222 -0.129449 0.938235 0.138273 -0.937024 0.805835 0.612269 0.672511 -0.177138 0.954777 -0.374639 0.209917 0.157401 0.389714 0.645585 -0.132499 0.614447 
-0.587018 -0.203998 0.726004 0.0650331 -0.915015 -0.818997 0.829007 0.255979 -0.812002 -0.283997 -0.162011 -0.00190885 0.915 0.499006 -0.778 -0.267218 0.467995 0.629 -0.857052 -0.0839355 
0.0298504 0.662813 -0.213089 -0.576265 0.741083 -0.552851 -0.654574 -0.286788 0.0810085 -0.618019 -0.511444 -0.90003 -0.597011 0.746428 0.389991 0.99532 -0.826713 -0.454951 0.315004 0.344042 
-0.829552 0.279954 0.528648 0.978929 0.925626 0.200767 0.180008 0.0810307 -0.372857 -0.745076 0.396585 0.70723 -0.660285 -0.191917 0.545933 -0.720168 -0.959576 0.904608 -0.281971 0.687115 
0.995599 0.402313 0.401574 0.842791 0.59774 -0.760223 -0.681862 -0.414928 0.141445 -0.122875 -0.992973 0.371618 -0.156755 -0.16461 -0.782273 0.318343 -0.945624 -0.806783 -0.936445 0.857482 
-0.47522 0.468497 0.824813 0.611841 0.112441 -0.0393295 -0.179935 0.928094 0.817702 0.823488 -0.620724 -0.279971 0.914402 0.374595 0.0806053 0.474387 -0.905392 0.482518 -0.841749 -0.0324839 
0.658329 -0.334237 -0.329928 0.0647485 -0.161038 0.75145 0.156331 0.333787 -1.00965 0.452713 0.579931 0.133559 -0.342209 0.878529 0.0540185 0.192587 0.506545 0.752234 -0.0923685 0.310038 
-1.19245 0.22342 0.781526 -0.0324465 -0.595291 0.817656 -0.501152 1.09002 -0.338163 0.784143 0.187747 1.29895 -0.344444 0.442473 -0.902654 0.323716 -0.569425 -0.195412 1.0053 -1.27441 
0.360047 -1.15911 0.480112 1.04541 0.18351 0.407373 0.754275 0.841488 0.819406 0.266478 -0.407567 0.385271 -0.880314 -0.45883 -0.404644 -0.425593 0.400051 -0.660969 1.17039 0.482955 
-0.482479 -0.445942 0.171426 -0.635849 -0.820583 -0.627848 0.868636 0.0806534 0.260772 -0.160975 -0.314142 0.624634 -0.520033 0.424886 0.679601 -0.671335 -0.442998 0.307416 1.05768 0.527468 
0.636304 -1.07036 0.590684 0.903879 0.320223 -0.0292126 -0.651036 0.882431 0.0573254 0.246121 -0.499967 0.0344729 0.300627 -0.0957406 -0.772474 -0.269678 0.738176 -0.979262 -0.547137 -1.12866 
0.0941642 -0.00989972 0.268772 0.516051 1.245 -0.829957 0.787108 -0.0925283 0.010227 0.404345 -0.60122 0.179613 -0.483293 0.718871 0.258132 0.287656 -0.530597 -0.422308 -0.45147 -0.262677 
0.414869 -1.19319 0.400127 0.758943 -0.357048 0.513425 -0.447841 -0.778875 1.01374 0.0462099 -0.805351 0.511933 -0.577202 0.259994 -0.218026 1.06658 0.0210929 -0.673299 0.879104 -0.829995 
0.136392 0.298749 0.588492 0.999871 -0.383803 -0.903917 0.612117 0.431963 -0.219285 -0.770456 -0.123006 -0.279962 0.64779 0.468239 -0.664756 -0.213488 0.322473 -0.714776 -0.284607 -0.457748 
-0.309622 -0.338374 0.631921 -0.777402 -0.571166 -0.110882 -1.13175 -0.446601 -0.40249 -1.16138 -0.607997 0.928249 0.620205 0.00186635 -0.839699 0.86032 -0.0305574 0.611706 -1.07614 0.508118 
0.52686 0.218873 -0.871747 -0.907545 -0.217296 -0.402743 -1.09662 0.256516 -0.441736 0.0863677 -0.243454 0.12146 -0.566338 -0.376819 0.245326 0.959536 -0.838318 -0.603611 0.620549 -0.623276 
0.0911297 -0.662938 -0.142532 0.663681 -0.987794 -0.905083 -0.480748 0.929566 0.351655 -1.7089 -0.0996944 -0.123735 0.066962 0.424147 0.592103 0.381605 -1.22564 0.704826 -0.803052 -0.511198 
-0.376282 -0.0501124 -0.481999 0.0227443 -0.588406 -0.200085 0.831438 0.0923484 0.0674943 -0.756148 -0.595389 1.11404 0.696054 0.288235 -1.00418 -0.386511 -0.783573 1.03733 0.0894072 -0.616676 
0.473495 0.605143 -0.241649 -0.178086 0.508101 0.29715 -0.45383 -0.205118 0.483296 -1.22016 -0.546139 -0.0135958 -0.591864 0.375526 0.747929 0.400602 -0.954251 1.02902 -0.292548 -0.484892 
0.864432 0.377988 1.14341 0.364256 -0.67306 0.124313 0.729467 0.609761 0.287603 -0.443853 0.39135 1.21713 -0.232809 -0.695481 0.323 0.44594 -0.223738 1.0366 -0.365166 -0.216553 
-0.664387 -0.0932457 -0.00526584 0.628722 0.585325 0.0119796 -0.290032 -0.828939 0.464743 -0.65846 -0.951614 -0.630342 -0.931677 0.360658 0.118391 -0.758434 -0.0129103 0.561174 0.126572 0.713761 
0.590032 -0.687255 0.552699 0.0630896 -0.971221 0.771278 0.467434 -0.0287571 0.113338 0.296524 -0.200517 0.5562 -0.0894189 0.148186 -0.963016 0.713489 0.0646866 -0.460046 0.75846 -0.579395 
-0.325877 -0.788263 0.740508 -0.763824 -0.310754 -0.346214 0.552721 0.674777 0.311876 0.646404 -1.02252 -0.196222 -0.410373 0.406584 -0.566001 -0.737807 0.0527331 -1.15465 0.119344 0.0235983 
-0.321774 -1.10343 -0.376306 1.10493 0.0199686 -0.725861 -0.594906 -0.441736 0.134139 -0.629804 0.110271 -0.314028 0.0699339 1.07063 -0.139048 -0.490346 0.370624 0.617251 -0.373063 0.61273 
0.486475 -1.09891 0.721123 0.418958 -0.39643 0.493506 -0.00899536 -0.439365 0.706355 0.172355 -0.170938 -0.433385 0.544694 0.0841084 0.999758 -0.713273 0.463854 -0.374359 0.314165 -1.06013 
0.285602 0.200582 -0.639859 -0.591355 -0.494886 -0.452457 0.648785 0.239365 0.0801145 -0.48675 0.394016 -0.152832 0.532404 0.692352 -0.472822 -0.491032 0.122597 0.100616 0.902837 0.512846 
-0.365184 -0.00818659 -0.698078 0.475344 -0.861622 0.232639 0.161127 0.639083 0.374515 0.531667 0.881147 -0.26304 0.469372 -0.311207 0.195588 -0.425266 0.0362272 -0.193758 -0.419287 0.142041 
-0.703453 -0.185913 -0.285715 0.526406 -0.947819 -0.158519 0.539772 0.270553 -0.913307 -0.456611 -0.683265 -0.494346 -0.622709 -0.456586 -0.366544 -0.128529 0.524208 0.57274 0.173811 0.0177938 
-0.0235675 -0.796338 -0.319391 0.822706 -0.767926 -0.425178 -0.366311 0.13947 0.531228 -0.613982 -0.638603 -0.603344 -0.0471635 -0.192044 -0.965006 -0.879162 -0.463009 0.742961 0.53258 -0.693688 
-0.604006 -0.213998 -0.964997 -0.327005 -0.566004 0.407001 0.804002 -0.193003 0.951999 0.625989 -0.669004 -0.430978 0.808001 -0.469014 0.731 0.706921 0.145997 -0.322 -0.0580233 -0.854968 
0.333706 -0.0389329 -0.952996 -0.230002 0.425824 0.387094 -0.389569 -0.314 0.704964 0.538976 0.363972 0.521018 0.0439984 -0.497997 0.057 -0.880063 -0.282844 -0.961999 0.13142 -0.614081 
0.359148 -0.557009 0.535088 0.895734 0.989199 -0.109718 -0.870423 -0.77285 0.832293 0.433923 0.760327 0.352763 -0.17239 0.786494 0.527988 -0.397711 -0.625639 -0.697577 0.00880777 0.524951 
-0.830506 -0.140142 -0.272128 0.764768 0.909165 0.342194 -0.0538553 0.863457 -0.195433 -0.377554 -0.309438 0.71448 0.451427 -0.840603 0.688821 0.376777 -0.334844 -0.119444 -0.539117 -0.418496 
-0.781979 0.397805 0.129219 0.809047 -0.971852 -0.795785 -0.136081 -0.328797 -0.190504 0.645982 -0.548898 0.588446 -0.770892 -0.861929 0.105852 -0.38368 0.501554 -0.138412 -0.491813 -0.270112 
-0.922855 -1.14603 0.921115 -0.38661 -0.749446 -0.593254 0.292624 -0.0909197 0.683596 -0.461546 0.203785 -0.116455 -0.7587 -0.270468 0.019914 -0.843406 0.0983858 -0.280668 0.240411 -1.07189 
0.296649 0.343814 0.0222554 1.01946 -0.692281 0.423505 -0.740231 -0.528997 0.791574 -0.0427945 -0.378753 0.00981899 -0.302975 0.157065 0.265137 -0.238997 0.310303 -0.632455 1.26942 -0.0308381 
-0.610462 -1.15523 0.0133448 0.114239 0.563577 0.195681 1.18455 1.01091 0.164881 0.401211 0.302391 -0.276885 -0.642454 0.801994 0.549164 0.305206 0.886919 -1.40097 0.509704 -0.325495 
-0.939285 0.560318 0.665315 -0.0020333 0.0670033 0.840654 -0.443387 0.768405 -0.503403 -0.544659 0.924768 0.511932 0.77383 0.680111 0.820738 -0.925561 0.520942 -1.05305 0.816282 -1.27883 
-0.215276 0.352862 0.7387 -0.489609 0.279107 0.512119 0.684251 0.266977 0.665857 0.648167 0.587346 0.576799 -0.159263 0.580515 -0.13724 0.61289 -0.399799 0.552809 -0.588716 -0.11881 
-0.682603 0.839986 -0.0679737 0.0375222 -0.282894 0.713933 -0.320647 0.335244 0.38852 0.113107 -0.195894 0.228232 -0.239288 -0.0278456 -0.712914 0.290371 -0.517295 -0.659906 0.64109 -1.2672 
0.208845 -0.484413 -0.20924 -0.237839 0.443401 -0.274046 0.530853 0.649241 -0.370016 -0.157276 0.304835 0.779574 -0.466568 0.647887 -0.726911 -0.430321 -0.318085 0.940677 -0.00459344 -0.7816 
-0.0385134 -0.94589 0.720564 0.142082 0.55471 0.16443 -0.110787 -0.206135 1.12513 -1.22517 0.475112 -0.25418 0.436859 -0.12211 -0.0948939 1.34568 -0.0569605 -0.158864 -0.289769 0.158012 
0.923606 0.795685 -0.0155808 -0.5482 -0.747276 -0.547321 -0.565824 0.477116 0.188012 0.0987897 0.433978 0.55008 -0.646133 1.40651 -0.0609045 0.134201 -0.348427 0.823597 0.294921 0.903351 
-0.368888 -0.136627 0.730402 0.0504901 -0.248709 0.717973 -0.504708 -0.559175 0.569931 -0.174771 -1.04983 -0.572577 1.02317 0.145886 0.473593 0.870261 -1.07099 1.04322 -0.597637 0.448188 
0.978772 0.266083 -0.289967 0.347559 -0.631919 -0.0591308 -0.299548 1.03125 -0.180039 -1.29024 0.149954 0.471275 0.212447 -0.172725 0.500968 -0.135303 -0.705546 -0.784545 -0.420721 -0.355024 
-0.533083 -0.414795 0.509023 0.454706 -0.554811 -0.013206 0.573544 -0.120162 0.629219 -0.727212 -0.635314 0.724095 0.335936 -0.306813 -0.802307 -0.38679 -0.111724 -0.675595 -0.862313 -0.792828 
-0.772964 -0.0773583 0.34344 -0.161714 0.0454168 -0.715873 0.82451 -0.393388 -0.563707 0.280426 0.15706 0.408492 -0.152763 0.0514473 -0.112596 -0.289733 0.708897 -0.0335527 -0.564126 -1.18473 
-0.376418 0.2802 -0.350985 0.670512 -0.345459 0.670884 -0.319906 0.59739 -0.942626 0.623761 -0.692388 0.198549 0.0703116 -0.506702 -0.918117 -0.0667709 0.733479 -0.252494 -0.350307 -0.346981 
-0.09839 -0.312589 -0.346512 0.0924976 0.410941 -0.221887 0.309874 0.452918 -0.095141 0.314451 -0.733008 -0.0472056 -0.423963 0.138169 -0.555716 -0.924393 0.147952 -0.0306418 1.05256 0.374646 
-0.121827 0.207214 -0.517532 0.370995 0.396462 -0.768411 0.393139 0.705791 -0.0969907 -0.897824 0.459247 0.46243 -0.470409 -0.188945 0.856543 -0.729619 0.142302 0.560091 0.732127 -0.809809 
0.666693 0.554322 -0.0198634 0.395638 -0.362702 -0.160713 -0.52063 0.775265 0.504719 0.729567 -0.73704 -0.845527 -0.975177 -0.21191 0.639664 -0.962856 0.000692393 0.401942 -0.0357936 -0.779999 
-0.347872 -0.561274 -0.864035 -0.206054 -0.299532 -0.284417 -0.658455 0.366279 0.00935406 -0.129797 0.417621 0.462783 0.50438 0.682477 -0.617647 -0.679421 -0.42374 -0.314567 0.808037 -1.27585 
-1.05859 -0.739832 0.83349 -0.572452 1.32765 -1.17994 -0.143757 -0.934283 0.800719 -0.371267 0.807596 0.604892 0.783179 -0.380894 -0.218075 -0.533932 -0.874544 0.0116856 0.25592 -0.054438 
-0.815312 -0.837151 -0.399636 -0.231742 0.483496 0.084076 -0.59751 -0.515304 0.140669 0.681499 0.751942 -0.710593 0.687809 -0.847721 -0.687143 -0.445624 -0.735 0.826243 0.562218 -0.807156 
0.266561 0.783559 0.547937 -0.632029 0.44978 0.681374 0.162672 -0.0332264 -0.576925 -0.489158 0.299638 0.596386 -0.798911 0.149753 0.0980725 0.659692 0.169294 -0.142692 -0.709076 -0.407861 
0.610996 0.369955 -0.897799 0.573185 0.402428 -0.153279 0.162644 -0.189753 -0.0936432 -0.658971 -0.201652 0.229888 0.170914 -0.213349 0.968226 -0.444505 -0.617781 0.241203 -0.984009 0.412113 
-0.838579 0.749925 0.743492 -0.662539 -0.565108 -0.942079 -0.505948 -0.84892 -0.909119 0.513109 -0.461957 -0.603064 -0.49653 -0.666103 0.250995 -0.928102 0.847067 -0.781072 0.476674 0.218933 
0.145 -0.553993 -0.399992 0.49791 -0.202994 -0.858999 0.925 0.84002 -0.801002 0.0089309 0.655998 0.442953 -0.00799406 0.68991 -0.526 0.457959 -0.921006 0.288 -0.0270359 -0.69994 
0.0701817 -0.345991 0.0670024 -0.0704297 0.825933 -0.149675 0.673124 -0.823021 -0.265988 -0.380068 0.892512 0.0229786 0.939995 0.959007 -0.882 0.0280859 0.376556 0.944953 -0.54678 0.0331664 
0.603503 -0.171991 0.662567 -0.300405 -0.111414 -0.478214 -0.0701488 -0.542149 0.970822 -0.820555 0.261413 0.779993 0.767207 -0.493144 -0.013006 0.500762 -0.40503 -0.804133 0.712507 0.730872 
0.798977 0.765315 -0.852327 0.179327 0.614934 -0.389227 0.0557109 0.495049 -0.269102 -0.273477 -0.169671 -0.574412 0.804661 -0.463625 0.220831 -0.322293 0.163797 -0.0901927 0.952231 0.106478 
-0.577842 -0.441835 0.614451 -0.269378 0.387262 0.0727707 -0.528293 0.752537 0.839468 0.40898 0.351109 0.869865 -0.138722 -0.018158 -0.419755 0.941781 -0.333643 -0.182694 0.0721397 0.415788 
-0.0904156 0.224252 -0.0734274 0.0295111 0.910029 0.834202 0.0973797 0.841284 0.673333 0.956157 0.717288 0.884849 0.160541 -0.680564 0.0588474 0.84417 -0.309581 0.066668 0.602502 0.363367 
0.303219 0.464624 1.05729 0.966571 0.288128 -0.474978 0.91467 -0.697952 0.663969 -0.455791 0.766347 0.477078 0.153899 -0.0981316 0.766801 -0.871598 0.800856 -1.11297 0.665982 -0.369047 
-1.10857 0.540239 0.129279 0.414291 0.67473 1.21121 -0.701577 0.16685 0.00872192 0.195309 0.663423 0.31884 -0.898119 -0.556064 0.537467 -0.599501 -1.02991 0.469305 0.476749 -0.424538 
0.515225 0.0330065 0.812762 0.835824 -0.361315 0.803572 -0.0729867 -0.177793 1.12825 0.0510091 0.567662 -0.0725553 -0.569674 -0.174385 -0.606917 0.248803 -0.054311 -0.79029 -0.399549 -1.45854 
-0.859434 -0.556261 0.3666 0.932554 0.656205 0.155133 0.667517 0.154791 0.891488 -0.446186 0.832073 0.570968 0.227022 -0.202258 0.47229 0.0451854 -0.154299 0.277852 0.244656 0.0288231 
0.427878 -0.586111 -0.873346 0.0645796 0.547385 0.300285 0.758634 0.394509 -0.00579318 0.528371 1.09951 0.94675 0.352229 0.816234 0.327066 0.888688 -0.186611 0.736364 0.722244 -0.385285 
-0.384287 0.0108405 0.287134 0.345705 0.450221 -0.176782 -0.0605142 0.511884 0.884029 0.0354673 -0.368198 0.0219461 -0.739844 -0.0357816 0.521111 0.550266 -0.28517 -0.787792 -0.760942 0.830536 
-0.226856 -0.509013 0.104396 -0.15454 -0.307709 -0.485546 -1.06744 0.170764 0.706425 -0.897397 -0.128726 -0.398526 -0.669509 0.32088 -0.255472 0.772918 -0.670155 -0.633749 -1.19933 0.122726 
0.472273 0.572257 -0.335594 0.120677 0.0787463 -0.412407 -0.0851808 -0.0689039 1.26549 -1.48308 -0.970771 0.732571 0.370969 0.1591 -0.108486 0.347343 0.100446 0.7958 -0.128629 -0.143412 
-0.30202 0.555514 -0.293428 -0.234509 0.397628 -0.246651 0.111853 -0.202312 -0.00888493 -0.288932 -1.23589 0.176797 -0.259551 0.740184 -0.288438 -0.396518 -1.11058 0.17394 0.430027 0.0784042 
-0.346668 -0.291844 0.74056 0.616261 0.421727 0.66884 -0.649234 0.965234 0.259051 -0.892582 0.0651158 0.279837 -0.811513 0.709903 0.427296 0.489462 -0.326168 -0.288066 -0.394387 0.627256 
-0.829077 0.611983 0.687914 -0.0537844 -0.0963594 0.958688 -0.000709928 1.13876 -0.834072 -1.08047 -0.417424 0.144305 0.813106 -0.288865 -0.483265 0.154718 -0.131135 -0.324674 -0.195801 0.0156059 
0.520567 -0.214027 0.285069 0.930525 -1.10982 0.0867395 0.790822 0.23508 0.589299 0.204915 0.221406 0.932358 0.702101 -0.692917 0.58604 -0.53005 0.625392 0.438334 -0.0309525 -0.089696 
0.278528 0.485035 0.58347 0.325994 0.312918 -0.374949 -0.219589 0.0803688 -0.398199 0.408986 -0.158553 0.288245 -0.680567 -0.15205 -0.437032 0.335239 -0.574702 0.920359 0.700044 0.351495 
-0.710692 -0.225908 0.1429 0.277526 -0.0472498 0.934562 -0.907946 -0.244674 0.353884 0.226309 0.212307 -0.139235 -0.88814 -0.538209 -0.58133 -0.81412 0.286026 -0.785634 0.375389 -1.05156 
-0.188462 0.0487382 -0.340323 -0.525549 -0.5285 0.02308 -0.786346 0.134245 0.0967287 -0.271747 -0.122153 -0.81738 0.208396 -0.0590335 -0.585274 -0.0948366 0.818057 -0.748462 0.229088 -0.919049 
-0.319535 0.764178 0.984239 -0.440027 0.952017 -0.777064 -0.492463 0.937506 -0.219348 -0.952623 -0.743356 0.722082 -0.627715 0.350937 0.962623 0.0234989 -0.378764 -0.161468 0.950577 -0.905084 
0.262112 0.565838 -0.884891 -0.662218 -0.354461 -1.10455 0.298157 0.960521 0.756819 0.577627 0.330313 -1.11705 -0.443048 0.056774 0.122031 -0.663364 1.09861 -0.383897 0.663589 0.137664 
-0.283329 -0.0393268 0.584217 -0.263654 1.03737 0.29355 -0.694932 -0.169208 0.473169 -0.0469151 0.343211 0.453007 0.322879 0.853281 0.31624 -0.562882 0.939691 0.594877 0.263815 -0.522465 
-0.915378 0.208366 0.287689 0.149075 0.0496093 0.120617 -0.283428 -0.121431 0.840508 0.185825 -0.576044 -0.961934 -0.464256 -0.170778 -0.555757 0.470573 0.909603 0.253794 0.576533 0.121683 
-0.0827215 0.827376 0.728703 -0.331827 1.07535 -0.23852 -0.905415 0.13826 -0.187713 -0.91188 -0.63827 0.6223 0.937234 0.169053 0.124499 -0.376075 0.228568 -0.549625 -0.344494 -0.0541079 
-0.554095 0.647644 -0.0358701 -0.0796421 0.171343 0.276054 0.757668 0.277286 -0.613755 -0.134857 0.475905 0.230244 -0.199728 -0.99447 -0.0302349 0.903956 -0.982696 -0.220101 0.931268 0.27946 
0.891614 -0.987254 0.291462 0.983343 -0.4639 0.461211 -0.897869 0.49806 -0.586167 -0.890779 -0.247885 0.489501 -0.363585 -0.058296 0.966003 0.76949 0.603039 -0.744971 -0.563705 0.923375 
0.487 -0.523 -0.791 0.563 -0.727 -0.969 -0.628 -0.414 -0.909 -0.442 0.392 0.963 0.462 0.183 0.415 0.848 -0.465 0.397 0.025 0.707 
0.185524 0.44406 0.0220011 0.0729068 0.993931 -0.127072 0.402885 -0.440922 -0.0709978 0.992979 0.946818 -0.639061 -0.0719824 0.958962 -0.585 -0.983872 -0.984671 0.466043 -0.337869 0.291512 
-0.893398 -0.599826 -0.674382 0.166202 0.203382 -0.936413 0.911325 -0.911482 0.973097 -0.53848 -0.518516 -0.121563 0.475812 0.345328 -0.739002 -0.760294 -0.179822 0.692977 0.569286 0.899249 
0.584232 1.04678 0.290322 -0.145416 0.495188 0.424306 0.303434 -0.364099 -0.305264 -0.0250292 -0.993388 0.229009 -0.944901 -0.0856433 -0.372451 0.948509 -0.708888 0.631812 0.213742 0.0438447 
-0.0465208 -0.843211 0.822884 0.460494 0.139783 -0.246775 0.516126 -0.221104 -0.966875 0.132334 0.490919 -0.652514 0.294263 0.515031 -0.32795 -0.673395 0.578601 0.738779 -0.424734 -0.331334 
0.193643 -0.69804 0.901739 -0.348198 -0.141595 -0.717962 -0.438092 -0.434239 0.116988 -0.602525 -0.784561 -0.395028 0.119048 0.79063 -0.977163 -0.905219 -0.71827 0.620546 -0.84098 0.103731 
-0.649987 0.918632 0.234932 -0.482096 -0.525462 -0.120208 -0.5939 -0.119761 -0.838975 0.574236 -0.509005 -0.0809115 -0.0223038 -0.650686 0.370215 -0.672372 0.312898 -1.23817 0.0756754 -0.635621 
0.824701 0.197003 -0.540062 0.783385 -0.884795 1.03415 -0.0627222 0.67235 0.816222 0.666672 -0.418837 0.540527 -0.536824 0.843445 0.0532836 0.517736 -0.794372 -0.173302 0.918231 -1.32196 
-0.631412 -0.645086 -0.569212 -0.04966 0.330046 -0.494283 -0.405783 -0.806997 -0.128686 -0.887794 0.115139 0.596588 0.059968 -1.01279 0.222794 0.442365 -1.48566 0.2225 0.71118 -0.158711 
-1.22089 -0.0417332 0.282945 -0.325419 -0.172984 0.299306 1.40666 0.431511 -0.173894 0.997849 -0.30415 -0.395361 0.707957 -0.0501804 -0.467313 1.33816 -0.775748 -1.02591 0.558375 -0.270819 
-0.304342 -0.0186063 -0.45913 0.513285 -0.0075611 1.05375 0.881629 0.833364 0.138841 -0.573931 -0.442203 -0.0514168 0.438481 0.417666 0.106527 0.798216 -0.456859 0.590239 -0.434289 -0.134472 
-0.784932 0.0249425 -0.405499 -0.292228 0.123178 -0.0896288 0.958242 0.0325913 0.408752 -0.795877 -0.0170153 -0.347201 0.41951 0.0465004 -0.189313 0.0599005 -0.583136 0.730748 0.425264 0.0923704 
-0.683742 0.65385 0.214671 0.0265325 -0.623775 0.826095 0.601182 0.641604 0.270528 0.0613752 0.602791 0.0238459 -0.243161 -0.0822634 -0.697475 0.522852 -1.59464 -0.147967 -0.566891 0.975934 
-0.591756 0.80179 -0.0342179 0.327803 -0.609946 0.433999 0.874625 0.395031 1.20631 -0.829426 -0.491918 0.669817 0.310961 0.523711 -0.676479 0.122322 -0.257104 0.0864297 -0.656605 0.110056 
0.469173 0.717641 0.752681 -0.789333 0.431753 0.307996 -0.509108 -0.282849 0.628258 -0.787714 -1.11902 0.265269 0.460852 -0.00987551 -0.314995 0.648769 -1.08708 -0.982801 0.809758 0.0707844 
-0.743458 -0.240905 1.00297 0.767778 -0.107681 0.734644 0.442804 0.397736 0.7737 -0.837215 -0.241204 -0.204676 0.260373 -1.18532 -0.932651 -1.08273 -0.341367 0.753814 -0.42994 -0.390922 
0.0468757 -0.580325 0.111358 0.464638 0.288615 -0.492189 0.664946 -0.222608 -0.38709 0.391377 0.360356 0.0420903 -0.718819 1.1636 -0.227407 0.0735323 0.109739 0.160427 0.827258 0.349499 
0.303227 0.439894 0.667759 0.479738 0.707246 -0.646706 -0.735421 -0.341531 -0.854244 -0.0512537 -0.589419 -0.20931 -0.254805 0.105726 -0.94708 -0.216711 -0.243578 0.10148 0.794925 -0.292208 
-0.0700835 0.561062 0.545336 0.751953 0.612302 -0.849106 -0.111556 0.804803 -0.317254 -0.476027 -0.14724 -0.36985 -0.288314 0.315232 -0.93271 -0.737791 1.2509 1.03513 -0.171144 -1.35146 
0.642555 -0.407771 0.809461 -0.48849 0.636448 -0.000547079 0.761964 -0.667565 -0.129846 -0.617221 -0.777871 0.632352 0.133342 0.285559 -0.885711 -1.13936 -0.197011 0.515753 0.731319 0.0776681 
-0.140243 0.339385 0.0962788 -0.639808 0.830346 -0.860163 0.248658 0.681778 -0.904203 0.0987634 0.712975 -0.950477 -1.0859 -0.363419 0.497411 0.17991 0.204434 -0.410531 0.876166 -0.763665 
-0.484454 0.368431 -0.211034 0.0178793 -0.482029 0.42865 0.269393 -0.256646 0.438092 -0.389703 -0.787798 -0.614118 -0.265029 0.340118 -0.940467 0.0176619 -0.152536 -0.754964 0.943208 -1.15925 
0.409796 0.0687849 -0.0334956 0.162964 1.28738 -0.542169 -0.319309 -0.343753 -0.623422 0.210525 -0.873049 -0.818906 0.600513 -0.682184 -0.796288 0.543173 0.244771 0.617626 -0.257502 -0.389167 
-0.388636 0.0543255 0.353772 0.176993 -0.289492 -0.0557655 0.413338 -0.133924 0.5011 -0.395616 0.655334 -0.635968 -0.744279 -0.796457 -0.0205308 -0.295841 -0.141049 0.377804 0.724066 -0.199326 
0.584071 0.742747 0.117735 -0.295085 -0.159114 -0.296734 -0.365525 0.931915 -0.414322 0.192225 -0.047698 0.265855 -0.921435 0.726255 -0.344389 -0.434806 -0.358051 -0.420175 -0.867903 0.208741 
0.216585 -0.29561 -0.0582842 -0.2083 0.550334 0.549397 -0.315503 0.434502 0.254486 -0.448963 0.894803 -0.805752 0.950893 -0.146269 -0.138732 -0.941115 -0.239435 0.531727 0.724234 -0.828161 
0.485873 1.00988 -0.00221167 -0.25727 -0.644791 -0.0672432 -0.668889 0.226139 0.0625965 -0.0467809 0.46229 0.378312 0.419749 -0.76383 0.604869 -0.947856 0.896785 -0.171415 0.584129 0.754362 
-0.113352 -0.717572 0.529369 0.49473 0.867581 -0.697381 0.331267 0.468115 -0.680391 -0.713941 -0.588858 0.437904 -0.470995 0.034879 -0.0982381 -0.965324 0.878775 -0.572078 0.354295 -0.507011 
-0.702896 -0.326125 -0.923346 0.273395 -0.189982 -0.180645 -0.413997 -0.9098 -0.496013 -0.46984 -0.401759 -0.753343 -0.363754 0.855322 0.452 -0.354883 0.995484 0.272906 -0.126587 -0.978421 
0.894176 0.681959 0.832981 -0.340016 0.249961 -0.0150098 0.643864 -0.616984 0.805899 0.910986 -0.493032 0.205963 -0.918009 -0.308034 0.808 0.894021 0.38112 0.159065 -0.246957 -0.520155 
-0.525346 0.712574 -0.73761 -0.512087 -0.944085 0.554335 0.627597 -0.70739 -0.20556 0.671362 -0.277414 -0.492458 0.219968 -0.961343 -0.0610349 0.602855 0.997319 -0.55455 -0.771598 -0.775723 
1.09149 0.222839 -0.94565 -0.825401 -0.58952 -0.547633 0.620921 0.650153 -0.955614 -0.184564 -0.3256 -0.870864 -0.554962 0.47589 -0.260054 0.490033 -0.201413 0.720739 -0.706568 -0.119882 
