1e-05

3

784 30 10 
-0.533 -0.5 0.724 0.358 -0.536 -0.855 -0.173 -0.509 0.942 0.436 -0.396 -0.847 -0.618 -0.284 0.895 0.726 0.538 0.912 -0.701 0.894 0.811 -0.667 -0.336 0.711 -0.132 0.644 -0.243 -0.141 0.741 -0.222 0.035 0.842 -0.894 -0.058 -0.352 0.805 -0.271 0.35 0.101 0.548 -0.377 0.954 0.84 0.376 -0.692 -0.561 0.323 0.538 -0.918 -0.459 0.115 0.658 0.93 -0.694 -0.614 -0.255 0.072 0.829 0.573 -0.488 0.29 -0.364 -0.233 0.574 -0.948 0.15 0.724 0.43 -0.809 0.337 -0.713 -0.617 -0.091 0.758 -0.412 -0.054 0.03 0.168 -0.409 0.655 -0.641 -0.463 -0.517 -0.959 -0.65 -0.164 0.02 -0.979 0.199 -0.516 -0.266 0.999 0.938 0.788 -0.533 -0.107 -0.517 -0.579 -0.383 0.514 0.616 0.451 0.249 0.556 -0.697 0.008 -0.391 -0.298 -0.515 -0.657 0.587 0.503 0.2 -0.382 0.796 0.281 -0.202 0.157 0.622 -0.708 -0.821 0.657 -0.809 -0.112 0.511 -0.366 -0.945 -0.354 -0.114 -0.567 -0.858 0.416 0.998 -0.349 0.699 -0.524 -0.611 -0.288 -0.49 -0.131 -0.312 0.789 -0.577 -0.415 -0.715 0.426 0.757 -0.068 -0.846 0.189 0.329 -0.308 -0.445 -0.451 0.512 -0.94 0.753 -0.577 0.996 -0.471 0.437 -0.051 0.195 -0.584 -0.895 -0.718 0.734 0.701 -0.329 -0.737 -0.645 -0.947 -0.192 -0.055 0.756 0.558 0.982 -0.856 -0.778 -0.839 -0.55 -0.534 0.659 -0.561 -0.976 0.51 -0.351 -0.687 -0.978 -0.982 0.905 0.391 0.625 -0.586 0.824 0.874 -0.841 -0.93 -0.703 -0.823 -0.73 -0.332 0.985 -0.52 0.627 -0.901 -0.375 0.924 0.972 -0.819 0.432 0.593 0.031 -0.858 0.286 0.9 -0.64 -0.026 0.17 -0.167 0.76 -0.333 -0.45 0.694 0.624 -0.875 0.694 -0.698 -0.534 -0.407 0.484 -0.536 0.152 -0.913 0.926 -0.243 -0.685 -0.773 -0.242 0.109 0.086 0.487 -0.526 0.627 0.928 -0.48 -0.038 -0.404 0.261 -0.475 -0.74 -0.884 -0.674 -0.229 0.547 0.52 -0.076 0.763 -0.149 0.829 0.713 0.578 0.007 0.2 -0.561 -0.24 -0.676 0.108 -0.113 -0.15 -0.572 0.384 -0.46 -0.296 -0.644 0.35 -0.515 0.216 0.357 0.357 0.271 0.361 0.022 -0.888 -0.304 -0.959 -0.871 -0.435 -0.068 0.855 -0.038 0.734 -0.028 -0.631 -0.037 -0.517 0.635 -0.152 -0.062 -0.858 -0.489 -0.825 0.825 0.87 0.934 0.783 0.398 -0.299 -0.266 -0.466 0.993 0.705 -0.452 -0.7 -0.359 -0.145 0.462 -0.123 -0.322 -0.557 -0.327 0.313 -0.928 -0.39 -0.068 -0.305 0.831 -0.512 0.09 -0.411 0.145 0.314 -0.26 0.258 -0.241 0.605 -0.819 0.829 -0.392 0.997 0.556 0.627 0.541 0.24 0.174 -0.923 -0.317 0.992 0.601 0.759 -0.572 -0.916 -0.214 -0.03 0.847 -0.497 -0.337 -0.637 -0.829 -0.76 0.542 -0.087 -0.296 0.232 0.205 0.539 0.422 0.247 0.648 0.864 0.075 -0.288 -0.322 0.262 0.985 0.944 -0.46 0.508 0.87 -0.677 -0.528 0.087 0.763 0.103 0.527 -0.031 0.565 0.543 -0.912 -0.363 -0.537 -0.319 0.342 -0.94 0.758 -0.112 -0.31 -0.157 0.62 0.067 -0.217 -0.774 0.038 0.629 0.748 0.359 -0.234 -0.045 -0.274 0.025 0.001 0.496 0.515 0.342 0.913 0.196 0.072 -0.394 -0.571 -0.295 0.812 -0.907 -0.964 0.141 0.994 -0.348 -0.162 0.355 0.131 0.841 -0.989 -0.814 0.65 0.634 -0.647 0.452 0.262 0.454 -0.366 -0.744 0.124 -0.787 -0.972 0.08 -0.142 -0.845 0.264 0.676 -0.091 0.561 -0.052 0.653 -0.78 -0.077 0.369 -0.741 -0.381 -0.997 0.781 -0.608 0.313 0.589 0.938 -0.59 -0.766 0.961 -0.507 0.269 -0.131 -0.3 -0.736 -0.785 0.815 0.039 0.288 0.954 -0.29 -0.226 0.815 -0.459 0.679 0.898 -0.212 -0.868 -0.311 -0.992 0.79 0.363 0.184 0.2 0.885 0.071 -0.133 -0.705 -0.175 0.629 -0.402 -0.307 -0.92 -0.751 0.528 0.864 -0.595 -0.184 0.726 0.087 0.964 0.686 0.662 -0.936 -0.585 0.873 0.941 0.762 0.531 -0.732 0.602 -0.693 0.012 -0.37 -0.191 0.556 0.293 0.152 0.345 -0.752 0.712 -0.886 0.958 0.704 0.052 0.479 -0.577 -0.134 -0.502 0.196 -0.367 -0.978 -0.608 0.925 0.458 -0.193 0.83 -0.4 -0.201 -0.552 -0.46 -0.425 0.567 -0.603 0.897 0.851 -0.77 -0.075 -0.771 -0.06 0.147 0.655 -0.208 0.754 0.146 -0.054 0.569 0.663 -0.485 -0.525 -0.472 -0.43 0.464 -0.038 -0.476 0.469 0.923 -0.667 -0.09 -0.664 0.278 0.636 -0.836 0.949 -0.495 -0.996 -0.377 0.97 -0.432 0.085 -0.627 -0.806 0.826 0.572 -0.36 -0.181 -0.389 -0.711 0.565 0.585 0.45 -0.391 0.166 -0.926 -0.7 0.573 0.161 0.968 -0.969 0.426 -0.578 -0.221 0.552 0.391 0.764 0.364 -0.745 -0.526 -0.179 0.547 0.789 -0.805 0.95 -0.246 0.012 0.439 0.912 0.967 -0.585 0.223 -0.566 0.486 -0.042 -0.194 -0.3 0.692 -0.468 -0.026 0.021 -0.778 -0.624 -0.052 0.982 -0.224 0.111 0.856 -0.075 -0.514 0.969 0.534 -0.332 0.991 0.783 0.727 0.871 0.612 0.027 0.545 0.185 -0.763 0.313 -0.15 -0.889 -0.851 0.454 -0.319 -0.733 0.793 0.472 -0.17 -0.558 0.877 -0.298 0.381 -0.177 -0.977 -0.405 -0.673 0.31 0.058 0.487 -0.472 -0.742 0.86 0.286 -0.39 0.128 0.841 0.503 -0.135 0.881 -0.25 -0.402 -0.339 -0.244 -0.722 0.435 -0.925 0.386 -0.64 -0.952 0.492 0.84 0.735 0.599 0.892 0.328 0.369 0.794 0.252 0.432 0.208 0.497 0.649 -0.159 -0.9 -0.352 0.851 -0.367 0.2 0.99 -0.081 -0.422 -0.456 0.487 -0.475 0.538 -0.807 0.011 0.834 0.497 -0.471 -0.195 0.392 0.549 -0.021 0.277 -0.807 0.497 0.276 -0.418 0.159 -0.511 0.449 0.072 0.008 -0.792 -0.497 -0.393 -0.926 -0.389 -0.239 -0.11 -0.317 0.932 -0.259 -0.187 -0.604 -0.385 -0.401 -0.32 0.032 -0.416 0.517 -0.33 -0.118 0.523 -0.895 0.095 0.916 -0.822 0.058 -0.25 0.729 -0.005 -0.324 -0.101 0.565 0.608 0.243 0.514 0.055 0.973 -0.252 -0.014 -0.554 -0.483 0.916 
0.791 -0.088 -0.307 0.815 -0.143 -0.948 -0.449 0.226 -0.045 -0.606 -0.903 0.065 0.261 0.078 -0.86 0.947 -0.83 0.489 -0.851 0.865 0.282 0.432 -0.633 -0.118 0.641 -0.813 -0.521 -0.462 0.447 0.646 
0.759 -0.578 -0.514 -0.972 -0.14 0.777 -0.497 -0.569 -0.545 -0.894 


-0.248 0.821 0.296 -0.719 -0.979 -0.545 0.947 0.124 -0.682 0.135 0.376 0.774 0.859 -0.002 -0.926 0.253 -0.078 -0.365 0.643 -0.112 -0.847 0.232 -0.253 -0.32 0.926 0.678 -0.55 -0.199 -0.039 -0.801 
-0.145 -0.637 0.716 -0.427 0.561 0.245 -0.527 -0.726 0.55 -0.647 0.181 -0.713 -0.301 -0.89 -0.357 0.465 0.172 -0.471 0.981 -0.888 0.476 -0.619 -0.753 -0.11 -0.329 -0.195 -0.628 -0.968 0.989 0.32 
0.165 0.431 0.658 0.293 0.206 -0.422 -0.052 -0.794 0.171 -0.834 0.396 -0.303 0.02 0.694 0.529 -0.212 -0.891 0.984 0.969 -0.022 0.617 -0.985 -0.374 0.684 0.168 0.906 0.928 -0.903 -0.882 -0.61 
0.199 0.785 -0.514 0.199 -0.58 -0.29 -0.729 0.813 0.415 -0.915 -0.682 0.58 0.331 0.267 -0.613 0.444 0.186 -0.493 -0.64 0.827 -0.926 -0.569 0.152 -0.729 -0.732 -0.307 0.885 -0.663 0.311 0.604 
-0.323 -0.594 0.768 0.022 0.413 0 -0.458 0.537 -0.962 0.388 0.355 0.289 0.647 0.181 0.093 -0.416 -0.013 -0.239 -0.507 -0.783 0.501 0.482 0.447 0.665 -0.247 -0.896 0.084 0.095 0.525 -0.779 
0.964 0.781 -0.128 -0.894 0.656 0.343 -0.407 0.08 -0.92 -0.132 0.411 0.713 -0.032 0.251 0.216 -0.921 -0.232 0.04 0.531 -0.067 0.779 -0.337 -0.741 -0.347 0.936 -0.905 -0.635 0.874 0.72 -0.165 
0.68 -0.024 -0.545 0.725 -0.929 -0.192 0.559 0.156 0.602 0.832 0.905 -0.56 0.375 0.562 -0.115 0.962 0.08 0.836 -0.203 0.202 -0.492 -0.92 0.34 -0.924 0.058 0.493 0.74 -0.454 -0.526 -0.227 
0.097 -0.12 0.335 0.072 0.4 -0.293 -0.045 -0.334 -0.859 0.588 -0.519 0.168 -0.685 0.396 -0.775 0.009 -0.988 -0.864 0.455 -0.238 0.043 -0.258 -0.979 0.922 -0.488 0.248 -0.982 0.368 0.717 0.714 
0.65 0.29 0.335 -0.241 0.169 0.895 0.303 -0.36 0.979 -0.801 0.105 -0.209 -0.339 -0.319 0.652 -0.247 -0.967 -0.971 0.987 0.042 -0.747 -0.917 0.42 0.814 -0.282 -0.756 0.063 0.229 -0.348 -0.136 
-0.231 -0.53 0.005 0.047 0.594 0.487 -0.674 0.276 0.323 -0.46 0.679 0.99 -0.412 -0.29 0.271 0.945 0.221 -0.53 -0.817 0.589 0.955 -0.022 -0.221 0.006 0.262 -0.865 0.487 0.196 0.033 -0.912 
-0.065 0.779 0.993 -0.21 -0.038 -0.035 0.001 0.105 0.807 -0.433 -0.331 0.134 -0.329 0.457 -0.002 0.545 0.597 -0.782 -0.162 -0.156 0.372 -0.437 0.028 0.264 -0.199 -0.277 0.49 0.604 0.601 -0.773 
0.197 0.692 0.771 -0.637 0.301 -0.637 0.721 0.565 0.421 0.445 -0.39 -0.505 -0.259 0.022 0.812 0.151 0.015 -0.945 0.393 -0.262 0.279 0.882 0.608 -0.346 0.822 -0.293 -0.755 0.338 -0.856 -0.71 
0.339 0.154 -0.396 -0.377 -0.775 -0.922 0.724 0.981 -0.67 0.733 -0.777 -0.406 0.13 -0.154 -0.013 0.445 -0.195 -0.384 0.75 -0.511 0.338 0.963 -0.865 -0.303 -0.791 0.63 0.224 0.908 -0.263 -0.526 
0.92 0.372 -0.707 0.855 -0.266 0.561 0.056 0.606 -0.816 0.075 -0.618 -0.881 -0.259 -0.568 -0.316 -0.221 -0.721 -0.717 -0.333 -0.164 -0.875 -0.882 -0.263 -0.972 -0.881 -0.423 -0.263 -0.909 -0.444 -0.205 
-0.94 0.901 -0.207 0.432 -0.864 -0.42 -0.125 0.907 0.184 -0.926 -0.281 -0.21 -0.524 -0.959 0.351 -0.671 -0.71 -0.026 0.072 0.591 -0.811 0.787 0.49 0.239 -0.107 0.053 0.063 -0.319 0.903 0.005 
-0.824 -0.521 0.695 -0.861 -0.532 0.998 0.083 0.639 0.515 0.621 0.993 0.826 0.722 0.838 -0.172 -0.419 -0.601 -0.022 0.891 0.023 -0.057 -0.166 -0.757 0.349 -0.298 -0.293 -0.498 0.141 -0.313 -0.654 
0.891 -0.363 -0.587 0.4 -0.184 0.69 0.162 -0.065 0.126 0.41 0.877 0.382 -0.74 0.189 -0.295 0.874 -0.337 -0.278 -0.805 -0.434 -0.64 -0.962 -0.412 0.811 -0.755 0.467 -0.575 -0.133 0.189 -0.458 
0.063 0.547 -0.498 0.617 0.099 0.023 0.226 0.203 -0.952 0.051 0.57 -0.364 0.458 0.967 -0.544 0.405 0.531 0.962 -0.181 0.975 -0.444 0.531 0.495 -0.956 -0.409 -0.197 0.388 -0.085 0.45 -0.681 
-0.728 0.791 0.383 -0.867 0.775 -0.358 0.569 -0.7 0.954 -0.922 0.585 -0.743 0.333 -0.107 -0.51 -0.897 -0.25 0.233 -0.278 -0.729 0.611 -0.01 -0.662 0.641 0.258 0.047 -0.648 0.658 -0.521 0.302 
-0.317 -0.01 -0.998 0.568 -0.578 -0.105 -0.865 -0.992 -0.639 -0.258 -0.806 0.699 0.188 -0.822 -0.958 0.357 0.941 0.847 0.469 -0.655 -0.62 0.913 -0.036 0.71 -0.939 0.385 -0.927 0.504 0.462 -0.297 
-0.898 0.069 0.154 0.529 0.552 -0.926 0.149 0.73 -0.756 -0.156 0.049 -0.882 -0.935 -0.637 0.552 -0.227 -0.53 0.731 -0.253 0.511 0.869 -0.602 -0.502 0.103 0.352 0.679 -0.947 0.043 -0.478 0.088 
0.563 0.834 0.85 0.022 0.24 0.911 0.492 0.651 -0.42 0.477 0.616 0.876 0.178 0.22 -0.385 -0.652 -0.202 -0.821 0.635 -0.143 -0.117 0.662 -0.098 -0.738 0.42 0.77 0.022 0.273 0.841 -0.314 
-0.112 0.917 0.717 0.892 0.698 0.267 0.749 -0.935 -0.611 -0.068 0.619 -0.919 -0.997 0.13 0.028 -0.369 -0.411 0.152 -0.37 0.172 0.864 -0.593 -0.705 0.428 0.681 -0.51 -0.39 -0.823 0.071 0.236 
-0.541 -0.357 -0.16 0.633 0.037 0.893 -0.37 -0.726 -0.007 -0.218 -0.797 0.461 -0.71 0.662 -0.693 -0.003 0.151 -0.577 -0.11 -0.283 -0.36 -0.297 0.566 -0.117 0.661 -0.341 -0.755 -0.614 -0.349 -0.235 
0.601 -0.16 0.209 0.497 0.283 0.25 -0.942 -0.579 -0.825 -0.419 -0.213 0.271 -0.713 0.999 -0.496 -0.021 -0.862 -0.3 -0.47 -0.539 -0.882 -0.795 0.54 -0.172 -0.541 0.622 -0.602 0.76 0.098 -0.065 
-0.519 -0.386 0.567 -0.507 -0.404 0.161 0.746 -0.462 0.67 -0.462 0.476 0.555 -0.083 -0.629 -0.24 0.752 0.758 0.433 -0.745 0.065 -0.274 -0.599 0.034 -0.241 -0.607 -0.452 0.273 -0.208 -0.807 -0.067 
-0.863 0.103 0.69 -0.789 0.694 -0.332 -0.373 0.498 -0.011 0.248 0.879 0.647 0.149 -0.069 -0.331 -0.125 0.598 0.449 0.436 -0.401 -0.877 0.443 0.731 -0.846 -0.139 -0.566 0.385 0.967 -0.184 0.393 
-0.296 0.866 -0.047 -0.692 -0.777 -0.316 -0.208 -0.333 -0.952 -0.531 0.93 -0.189 0.814 -0.91 0.427 0.743 0.604 -0.401 -0.526 0.195 -0.494 0.158 0.589 0.858 0.809 0.889 0.447 -0.96 0.818 0.364 
0.975 -0.974 0.089 -0.497 -0.934 -0.588 -0.16 -0.43 -0.324 0.395 -0.359 0.986 0.651 0.109 -0.813 -0.917 0.085 0.39 0.25 -0.314 -0.245 0.381 -0.872 0.502 -0.723 -0.138 -0.576 0.565 0.872 -0.168 
-0.115 -0.572 -0.354 -0.111 -0.522 -0.117 -0.075 0.265 0.26 0.045 -0.222 0.821 0.855 -0.48 -0.073 -0.227 0.134 0.251 -0.325 0.336 -0.666 0.001 -0.263 0.31 0.974 0.59 -0.644 0.071 -0.92 -0.065 
-0.855 0.282 0.825 -0.282 0.573 -0.288 0.037 -0.002 0.905 0.162 0.717 -0.308 0.539 -0.953 -0.054 0.103 -0.769 -0.885 -0.161 0.858 -0.171 -0.355 0.394 0.199 0.645 -0.728 -0.325 0.862 -0.928 0.773 
-0.52 0.238 -0.103 0.542 0.608 0.203 0.277 -0.875 -0.866 0.401 0.078 -0.618 -0.831 -0.264 0.478 0.939 0.138 -0.279 0.426 -0.337 0.677 0.575 -0.276 0.981 0.7 0.961 -0.138 -0.998 -0.552 0.095 
-0.316 -0.984 0.137 0.507 0.993 0.284 -0.056 -0.741 -0.179 0.058 -0.357 0.668 -0.323 -0.881 0.857 0.041 -0.109 0.264 0.623 -0.085 -0.928 0.929 -0.159 -0.285 0.615 -0.464 -0.043 0.759 -0.3 0.452 
0.093 -0.759 0.829 -0.552 0.227 0.798 -0.776 -0.676 -0.726 -0.867 -0.115 0.038 -0.83 -0.138 -0.371 0.084 0.909 -0.122 -0.077 0.085 0.4 0.024 -0.807 0.105 0.412 0.765 0.767 0.407 -0.323 0.784 
-0.296 -0.21 0.834 -0.109 -0.379 -0.915 0.734 0.19 -0.458 0.998 -0.914 -0.982 0.621 -0.576 -0.403 0.376 -0.746 0.669 -0.892 -0.073 -0.507 -0.932 -0.634 0.102 -0.562 -0.4 -0.181 -0.682 -0.71 -0.016 
-0.661 -0.444 0.808 -0.368 0.478 -0.186 0.787 0.239 -0.926 0.02 -0.173 -0.446 0.988 0.441 -0.202 0.642 0.002 -0.679 -0.896 0.946 0.056 -0.491 0.833 0.708 0.761 -0.467 -0.314 -0.196 -0.615 -0.858 
-0.158 0.26 -0.839 0.62 -0.657 0.578 0.187 -0.887 0.063 -0.409 0.934 -0.585 -0.344 0.761 0.012 -0.589 0.959 -0.749 -0.262 0.37 -0.876 0.507 -0.993 0.584 -0.049 0.101 -0.511 -0.042 0.441 0.79 
0.013 -0.588 -0.145 0.06 0.093 -0.528 0.402 -0.324 0.543 0.373 -0.734 0.651 0.275 0.528 -0.468 -0.239 0.469 -0.497 -0.271 0.107 0.892 -0.549 0.953 -0.608 -0.43 0.519 0.472 0.407 -0.506 0.505 
-0.56 -0.617 -0.738 0.409 -0.393 -0.962 -0.64 0.471 0.171 -0.346 0.947 0.514 -0.477 0.229 -0.511 -0.234 0.887 0.756 -0.368 0.47 0.739 -0.334 -0.478 0.283 -0.84 0.553 -0.295 0.091 0.259 0.386 
0.687 -0.371 -0.958 -0.683 -0.955 -0.644 0.388 0.452 0.154 -0.534 0.833 0.76 -0.081 0.631 -0.262 0.267 0.776 0.098 -0.686 -0.68 0.053 -0.993 -0.531 -0.784 0.722 0.842 0.007 0.463 -0.74 -0.053 
0.793 -0.37 -0.283 0.043 0.376 0.314 -0.374 0.117 0.334 -0.38 -0.829 -0.208 -0.036 0.154 -0.134 -0.307 -0.336 0.775 0 -0.788 0.1 0.551 0.476 -0.621 -0.057 0.877 0.789 -0.639 0.385 -0.728 
0.434 0.144 0.561 0.563 -0.496 -0.054 0.888 -0.692 -0.843 0.43 0.123 -0.536 -0.926 -0.654 0.837 0.981 0.318 -0.389 -0.708 0.591 0.832 0.123 -0.539 -0.009 0.461 0.33 -0.502 0.369 0.291 -0.6 
-0.821 -0.883 -0.683 0.914 0.595 0.441 0.936 0.867 0.028 0.453 0.909 0.973 0.981 0.503 -0.431 -0.184 0.883 0.367 0.385 -0.598 0.23 0.157 -0.319 0.567 -0.69 0.866 0.687 0.171 0.477 0.245 
-0.236 -0.762 0.671 -0.953 -0.885 -0.408 0.311 -0.343 0.405 -0.947 0.171 -0.42 -0.26 -0.47 0.675 -0.68 0.79 0.377 -0.002 -0.414 0.604 -0.511 0.631 0.744 -0.612 -0.39 -0.282 -0.081 -0.741 0.927 
-0.391 -0.881 0.479 -0.284 -0.7 0.396 -0.147 0.458 -0.17 -0.407 -0.194 0.849 -0.146 -0.728 -0.84 -0.706 -0.946 -0.667 -0.854 -0.771 -0.529 -0.572 -0.441 -0.759 0.421 -0.312 -0.634 -0.967 -0.315 -0.73 
0.329 -0.739 -0.14 -0.792 -0.018 -0.838 -0.494 -0.122 0.979 0.897 0.887 -0.462 -0.531 -0.217 0.54 -0.205 0.266 -0.367 0.509 -0.443 -0.683 -0.866 -0.947 -0.865 -0.742 -0.407 0.843 0.693 -0.534 -0.049 
-0.86 0.094 -0.063 0.174 -0.488 -0.903 0.551 -0.305 0.817 0.492 0.292 -0.763 0.53 -0.387 0.296 0.71 -0.611 0.628 0.809 -0.214 0.744 -0.16 -0.818 -0.431 -0.88 0.393 -0.708 -0.038 -0.786 -0.473 
-0.193 0.194 -0.295 -0.287 0.011 -0.087 -0.307 0.664 -0.797 -0.005 0.762 -0.619 -0.054 0.909 0.048 0.768 -0.376 -0.489 0.954 -0.765 0.127 -0.367 -0.76 0.862 0.127 0.577 0.817 -0.66 -0.858 0.1 
-0.6 -0.442 0.476 0.154 -0.065 -0.57 0.831 0.295 0.537 0.623 0.922 -0.073 -0.971 -0.789 -0.789 0.754 -0.12 -0.747 0.293 0.321 -0.215 -0.472 -0.557 0 -0.445 -0.329 0.27 0.452 0.375 -0.369 
0.64 -0.066 -0.96 0.986 -0.166 -0.752 0.539 -0.235 -0.204 -0.688 0.262 0.052 -0.269 0.987 -0.536 -0.443 -0.752 0.556 -0.83 0.45 0.182 0.301 0.293 -0.901 0.332 0.044 -0.669 -0.925 0.004 0.05 
0.026 -0.934 0.738 0.801 0.623 0.843 -0.559 0.38 0.695 0.918 0.659 0.363 -0.372 -0.671 0.088 -0.146 -0.387 -0.021 -0.431 -0.334 0.679 0.577 0.837 0.402 0.115 0.292 0.723 -0.128 0.448 -0.677 
0.153 0.948 -0.605 0.197 -0.492 -0.092 0.411 0.993 0.665 -0.219 0.202 0.61 -0.172 0.256 0.705 -0.035 -0.977 -0.231 0.715 -0.747 0.805 0.684 0.478 -0.855 0.84 -0.167 0.285 -0.1 -0.032 0.994 
-0.367 0.885 -0.652 -0.719 -0.968 -0.744 0.91 -0.128 -0.018 0.901 -0.694 -0.365 0.86 -0.529 0.527 0.137 -0.657 0.768 -0.767 0.995 0.171 0.603 -0.058 -0.989 0.879 0.034 -0.488 -0.407 -0.47 -0.839 
0.234 -0.742 0.926 0.906 0.191 -0.557 -0.812 -0.773 -0.281 -0.516 0.224 0.093 -0.565 0.224 -0.906 0.582 -0.133 -0.373 -0.995 0.146 -0.314 -0.411 -0.46 -0.763 -0.15 -0.241 0.578 -0.044 -0.323 -0.597 
-0.958 -0.7 0.811 0.225 0.143 0.595 0.016 -0.385 -0.196 0.006 -0.632 0.641 -0.665 -0.302 0.325 -0.687 -0.977 -0.688 -0.382 -0.543 -0.604 -0.661 0.086 -0.906 0.846 0.043 0.522 -0.089 -0.72 0.455 
-0.642 -0.153 -0.13 -0.01 0.873 -0.673 0.413 0.454 0.896 -0.528 -0.55 0.241 -0.359 0.646 0.525 -0.787 -0.176 0.929 -0.305 0.403 -0.406 0.993 -0.933 -0.813 -0.36 0.079 -0.959 -0.875 -0.466 -0.14 
0 -0.093 -0.379 0.692 0.293 0.117 0.717 -0.597 0.943 0.893 -0.361 0.011 -0.075 -0.972 0.978 -0.252 -0.15 -0.108 -0.556 -0.346 0.623 -0.647 -0.964 0.547 0.346 -0.174 -0.939 0.904 -0.762 0.571 
-0.114 -0.595 0.299 -0.944 0.728 0.267 0.751 -0.981 0.991 -0.834 0.717 0.846 0.093 0.187 0.421 -0.088 -0.133 -0.701 -0.556 0.897 0.201 0.328 -0.058 0.104 0.768 0.768 -0.359 -0.704 0.262 -0.28 
0.244 0.918 0.625 0.219 0.584 -0.826 -0.016 -0.541 0.149 0.014 0.695 -0.497 0.032 0.851 0.537 -0.186 -0.637 -0.349 0.219 -0.71 0.917 0.683 0.918 -0.416 0.252 0.586 0.269 -0.752 -0.863 -0.603 
-0.576 0.168 -0.973 -0.852 0.993 -0.618 0.271 0.669 -0.107 -0.123 0.014 0.104 -0.516 -0.057 0.495 -0.189 0.293 -0.108 -0.202 0.99 0.299 -0.11 -0.507 0.074 0.549 0.774 0.314 -0.827 -0.931 0.218 
-0.135 -0.167 0.238 0.911 0.252 -0.537 -0.492 0.149 0.088 -0.755 -0.769 0.92 -0.894 0.271 -0.632 -0.579 0.258 -0.843 0.647 -0.018 -0.762 -0.878 0.723 -0.094 -0.294 -0.811 0.156 -0.655 -0.649 -0.077 
0.118 0.55 -0.903 0.836 -0.409 0.406 -0.49 0.813 -0.349 0.88 0.844 -0.257 0.741 0.245 -0.422 -0.051 0.705 -0.486 0.785 0.227 -0.376 0.204 -0.644 0.917 -0.773 -0.445 -0.898 -0.714 0.468 0.698 
-0.021 0.411 -0.511 -0.242 0.49 -0.225 -0.59 0.132 0.089 0.296 0.95 0.112 -0.878 -0.471 0.672 0.836 -0.723 0.553 0.976 -0.33 0.085 -0.348 0.751 -0.603 0.751 0.001 -0.565 -0.307 0.072 0.916 
-0.284 0.328 0.511 -0.875 0.838 0.296 -0.061 0.544 0.056 -0.174 -0.098 -0.242 -0.412 -0.979 -0.414 -0.892 0.777 -0.372 0.979 -0.053 -0.451 0.28 0.245 0.128 -0.938 -0.574 -0.281 -0.323 0.091 -0.953 
0.785 0.231 0.406 -0.316 0.954 -0.231 -0.291 0.956 -0.579 0.945 0.465 -0.984 0.86 -0.503 -0.665 0.19 0.677 -0.951 0.005 0.886 0.388 -0.325 0.143 0.377 -0.87 -0.513 -0.445 -0.518 0.253 0 
0.754 -0.711 -0.512 0.215 -0.992 0.31 -0.06 0.799 -0.003 0.707 -0.546 -0.696 -0.763 -0.515 -0.501 -0.208 0.613 -0.388 -0.318 -0.017 0.351 -0.871 0.137 0.033 -0.4 0.864 0.683 0.857 -0.032 0.71 
0.968 0.708 -0.359 0.732 -0.563 0.684 -0.501 -0.299 0.869 -0.417 0.256 0.692 0.64 -0.913 0.012 0.81 0.82 -0.165 0.663 -0.385 0.897 -0.323 -0.226 -0.866 0.553 0.533 -0.122 -0.714 0.624 -0.266 
-0.925 0.349 -0.288 -0.016 -0.376 0.792 -0.496 -0.178 -0.945 -0.087 -0.538 -0.527 -0.916 -0.84 0.122 -0.947 0.397 0.822 0.75 0.337 0.917 -0.994 -0.069 -0.803 0.505 0.236 -0.643 -0.401 -0.71 0.898 
-0.015 0.447 0.084 -0.408 -0.275 -0.004 0.855 -0.172 0.338 0.342 -0.572 0.795 -0.258 -0.963 0.506 -0.233 0.053 0.793 -0.495 -0.854 0.609 0.924 0.854 0.465 -0.761 -0.794 -0.791 0.492 -0.501 -0.825 
0.036 0.061 0.647 0.618 0.013 -0.273 0.712 0.896 0.909 0.841 -0.87 0.09 0.034 0.915 -0.714 0.523 -0.334 0.344 -0.264 -0.963 0.416 0.893 0.949 -0.029 -0.156 -0.223 0.285 -0.8 -0.41 -0.715 
-0.675 0.118 0.668 -0.994 0.729 -0.992 -0.459 -0.775 0.536 0.98 -0.284 -0.53 0.384 -0.253 -0.672 0.936 -0.796 -0.3 0.523 -0.636 0.411 -0.96 -0.75 0.504 0.483 0.766 -0.859 -0.33 -0.155 -0.494 
0.088 0.256 0.107 -0.734 0.857 -0.322 -0.801 -0.326 -0.845 0.191 -0.01 0.832 -0.142 -0.004 -0.083 -0.71 0.967 0.707 -0.766 -0.754 0.462 0.402 -0.761 0.426 0.095 -0.094 -0.686 -0.65 -0.414 0.279 
0.776 0.822 -0.121 -0.699 0.812 0.676 0.164 0.357 -0.43 -0.962 -0.688 -0.856 -0.439 -0.82 -0.8 -0.357 0.856 -0.939 -0.353 0.939 0.808 0.29 0.452 -0.021 -0.382 0.419 -0.993 -0.716 -0.453 0.977 
0.675 -0.387 -0.291 0.371 -0.358 -0.661 -0.664 -0.379 0.501 -0.966 -0.871 0.358 0.436 -0.531 -0.103 -0.496 -0.202 -0.798 0.105 0.238 0.032 -0.935 -0.484 -0.519 0.579 0.023 0.727 0.771 0.313 -0.618 
-0.86 -0.184 -0.512 0.319 0.589 0.513 -0.741 -0.149 -0.729 0.283 -0.636 0.038 0.012 0.184 0.759 0.501 0.574 -0.267 0.059 0.714 0.649 -0.405 -0.478 -0.459 -0.584 0.377 0.052 -0.435 0.891 -0.862 
0.31 -0.033 0.055 0.787 0.224 -0.778 -0.561 0.441 -0.352 -0.196 0.834 0.368 0.441 -0.128 -0.332 0.974 0.176 0.137 -0.367 0.241 0.745 -0.982 0.015 -0.026 0.252 -0.154 -0.044 0.524 -0.034 0.581 
-0.856 -0.76 0.334 0.296 0.876 0.027 0.205 -0.982 -0.709 0.641 0.465 -0.809 -0.529 -0.741 0.7 -0.783 -0.984 0.943 -0.376 0.064 0.505 0.157 0.502 0.666 0.275 -0.954 0.632 0.789 -0.954 -0.855 
-0.997 0.152 0.901 -0.674 0.153 0.184 0.649 -0.65 -0.595 -0.654 0.025 -0.03 -0.664 -0.205 0.793 0.323 0.532 -0.144 0.896 0.21 0.776 0.692 -0.45 0.29 0.795 0.852 0.35 -0.685 -0.964 0.361 
0.76 0.984 -0.271 -0.466 -0.95 -0.918 -0.194 0.936 0.584 -0.21 0.617 0.182 0.066 0.116 -0.612 0.425 0.101 0.61 -0.55 0.982 -0.379 0.193 0.038 -0.246 -0.407 -0.105 -0.72 0.638 0.167 0.42 
-0.655 -0.117 0.865 -0.304 -0.167 -0.61 -0.368 -0.811 0.839 -0.817 0.817 -0.871 -0.247 -0.321 -0.387 -0.4 -0.748 0.145 0.861 -0.849 -0.682 -0.037 0.813 -0.093 0.554 0.476 -0.383 0.211 0.429 -0.736 
0.966 0.531 0.942 -0.302 0.522 0.155 0.587 0.257 0.158 -0.536 0.762 -0.49 -0.054 0.065 -0.62 0.165 0.946 0.54 0.297 -0.958 -0.536 0.194 -0.416 -0.73 -0.285 -0.8 0.206 -0.894 0.302 -0.304 
-0.167 0.611 0.067 -0.585 -0.355 -0.825 -0.646 0.448 -0.081 0.079 0.988 -0.679 0.592 0.597 -0.803 0.509 -0.348 -0.929 -0.342 -0.878 -0.141 0.997 -0.001 0.899 -0.88 0.32 -0.964 -0.016 -0.088 0.915 
0.953 0.485 -0.259 -0.801 0.567 -0.792 -0.156 -0.831 0.681 -0.121 0.108 0.207 0.259 0.706 0.849 -0.925 -0.974 -0.876 0.607 0.774 -0.116 -0.872 -0.454 0.145 -0.519 0.714 -0.851 -0.832 0.338 -0.693 
-0.207 0.504 0.105 0.697 -0.783 0.955 -0.359 -0.657 -0.867 -0.903 -0.321 -0.264 0.555 0.633 0.954 -0.07 -0.748 0.904 -0.721 -0.512 -0.13 0.754 -0.928 -0.824 -0.299 0.415 -0.914 -0.769 0.48 0.975 
-0.74 -0.486 -0.062 -0.343 -0.01 0.438 -0.019 0.447 0.242 -0.382 -0.93 0.631 -0.939 0.219 -0.219 -0.01 -0.167 -0.328 0.563 0.302 -0.498 -0.072 -0.279 -0.102 0.447 -0.055 -0.594 -0.778 -0.314 0.794 
0.577 -0.156 -0.317 0.547 0.24 -0.515 -0.536 0.723 -0.663 -0.347 0.168 -0.87 0.255 0.466 -0.142 -0.488 0.656 0.318 0.201 -0.858 0.276 0.506 -0.298 -0.316 0.023 -0.73 -0.688 -0.75 0.475 -0.689 
-0.15 0.195 0.488 0.52 -0.899 -0.817 -0.202 0.892 -0.152 -0.216 -0.755 -0.813 -0.538 -0.657 -0.742 -0.141 -0.129 -0.984 -0.828 -0.168 -0.559 0.683 -0.912 -0.985 0.976 -0.484 -0.702 -0.961 0.283 0.205 
0.997 0.146 0.769 0.675 -0.083 0.387 0.02 -0.97 0.442 0.735 -0.611 -0.627 0.48 -0.927 -0.223 -0.214 -0.619 0.785 -0.478 -0.655 -0.021 -0.915 0.713 -0.065 0.735 -0.117 -0.814 -0.904 -0.352 -0.915 
-0.248 -0.479 0.26 0.982 -0.364 0.688 0.919 0.236 -0.208 0.065 0.278 -0.802 0.496 -0.614 0.011 -0.024 0.547 -0.879 0.202 0.245 -0.298 -0.436 0.539 -0.428 -0.743 -0.63 0.92 0.654 0.359 0.08 
0.298 0.391 0.96 -0.49 0.591 0.867 -0.967 0.675 -0.864 -0.501 0.775 0.79 -0.624 0.256 -0.728 -0.297 0.086 -0.033 0.515 0.542 0.495 0.566 -0.544 -0.814 -0.563 0.198 -0.374 -0.636 0.085 0.665 
-0.092 -0.66 0.36 -0.186 0.154 -0.988 0.752 0.338 -0.294 -0.475 -0.37 0.249 0.179 0.079 -0.687 -0.162 -0.483 -0.579 -0.855 0.991 0.969 0.839 -0.692 -0.435 0.762 0.473 0.681 0.97 0.147 0.053 
-0.292 -0.492 -0.285 -0.571 0.066 0.689 -0.337 0.771 0.541 -0.741 -0.369 0.572 -0.486 -0.034 0.988 -0.83 -0.832 -0.801 -0.345 0.85 0.444 -0.064 -0.722 0.406 0.427 -0.687 0.523 -0.629 0.327 0.073 
0.461 -0.827 0.934 0.102 0.587 0.417 0.463 -0.847 -0.874 -0.405 0.495 0.213 -0.594 0.37 0.859 0.305 -0.504 -0.167 -0.777 -0.148 0.879 -0.481 -0.874 0.793 0.585 0.465 0.371 0.444 0.107 0.271 
-0.913 -0.901 -0.481 -0.404 0.715 0.552 -0.508 -0.247 -0.743 0.59 -0.041 0.357 -0.114 0.809 0.865 0.686 -0.981 -0.741 -0.687 -0.565 0.028 -0.899 -0.532 -0.131 -0.544 -0.269 0.578 -0.926 0.395 -0.157 
0.274 0.316 0.024 -0.489 -0.415 0.722 -0.029 -0.943 -0.905 -0.826 0.038 -0.817 -0.342 0.295 0.722 -0.017 -0.769 0.503 -0.768 -0.7 0.59 0.48 0.408 0.505 -0.298 -0.142 0.818 -0.443 0.561 -0.88 
0.028 0.656 0.713 0.332 0.092 0.182 -0.533 0.32 0.358 0.074 0.987 0.094 -0.017 0.364 0.264 0.714 -0.254 -0.61 -0.575 -0.745 0.163 0.467 0.792 -0.769 -0.381 -0.12 -0.282 -0.872 0.948 -0.28 
0.079 -0.909 0.766 0.587 0.808 -0.874 -0.175 0.159 0.518 0.22 -0.965 0.314 0.456 -0.853 0.156 -0.866 0.36 -0.249 -0.792 0.478 -0.706 -0.411 0.524 0.976 0.694 -0.91 -0.811 0.372 0.419 -0.699 
0.702 -0.156 -0.477 -0.461 -0.391 0.827 -0.363 -0.814 0.416 0.827 0.169 0.623 -0.101 -0.486 -0.585 0.644 0.436 0.669 -0.622 0.676 0.858 0.952 0.846 0.137 0.915 -0.012 -0.384 0.288 -0.618 -0.926 
-0.667 0.915 0.056 0.656 -0.938 0.616 -0.476 -0.871 0.442 0.984 -0.128 0.049 0.396 -0.974 -0.418 -0.798 -0.225 0.416 -0.335 -0.448 -0.241 -0.245 0.417 -0.156 0.554 0.443 -0.176 0.999 -0.578 -0.879 
0.733 0.413 0.917 0.793 0.873 -0.94 0.175 0.074 0.985 -0.499 0.622 0.208 0.395 0.026 -0.28 -0.709 0.988 -0.071 0.072 -0.023 -0.807 -0.992 -0.746 -0.078 -0.124 0.137 -0.184 0.803 0.09 0.912 
-0.711 0.253 0.979 0.299 -0.678 -0.098 0.602 -0.631 -0.346 -0.271 0.734 -0.562 -0.726 0.226 -0.537 -0.866 -0.028 -0.652 -0.547 0.503 -0.693 0.518 -0.667 0.437 -0.305 0.179 -0.339 0.144 0.659 -0.039 
0.907 -0.424 0.472 -0.355 0.592 -0.028 -0.372 -0.804 -0.189 0.535 0.835 0.229 0.716 0.532 -0.044 -0.842 0.749 -0.38 0.296 0.724 0.12 -0.474 -0.594 -0.017 0.445 -0.426 0.691 -0.412 -0.462 -0.336 
-0.896 -0.123 -0.647 -0.058 0.004 -0.377 -0.148 0.625 0.611 0.842 -0.276 0.149 -0.865 0.59 -0.854 0.328 0.855 0.804 0.741 -0.091 0.381 -0.221 0.102 -0.917 -0.308 -0.468 0.312 -0.901 -0.839 0.047 
-0.595 0.29 0.569 0.959 -0.372 -0.861 0.228 0.58 -0.529 0.778 0.44 -0.544 -0.852 0.444 -0.255 -0.875 0.21 -0.302 0.616 0.18 -0.185 -0.936 -0.774 0.472 0.479 0.593 -0.518 0.005 -0.464 0.333 
0.105 0.587 -0.268 0.638 0.165 0.064 -0.482 -0.601 0.032 0.508 0.896 0.438 0.978 -0.362 -0.755 -0.941 -0.831 -0.256 0.362 -0.231 0.049 -0.482 -0.533 -0.442 -0.857 0.061 0.603 0.19 -0.814 0.226 
0.603 0.004 0.3 0.768 -0.577 0.347 0.396 -0.434 0.23 0.665 -0.848 -1 0.617 0.173 -0.214 -0.332 0.597 0.579 -0.776 0.728 -0.74 -0.842 0.425 0.267 0.312 -0.266 -0.548 0.169 0.562 0.57 
-0.789 0.235 -0.11 0.711 -0.936 -0.25 -0.04 0.545 -0.233 0.754 -0.213 -0.783 -0.435 0.942 -0.912 -0.727 -0.185 0.579 -0.163 0.388 0.269 0.886 0.83 -0.191 -0.36 0.321 -0.681 0.881 0.626 0.02 
0.411 -0.546 0.893 0.984 -0.643 -0.001 -0.664 -0.171 0.95 0.457 -0.595 -0.635 -0.666 -0.951 0.094 -0.408 0.27 -0.881 0.017 0.313 0.253 -0.883 -0.023 0.16 0.505 -0.847 -0.409 -0.438 0.576 -0.146 
-0.928 0.134 0.016 0.05 0.193 0.945 0.852 -0.253 -0.479 -0.939 -0.656 -0.741 -0.634 -0.115 -0.561 -0.282 0.107 0.268 0.554 -0.95 0.432 0.799 -0.98 -0.265 0.098 -0.208 0.916 -0.818 0.029 0.316 
0.059 0.758 -0.417 -0.601 0.135 -0.643 -0.93 0.271 -0.658 0.78 0.877 -0.594 -0.705 0.686 -0.597 -0.748 0.718 0.035 0.285 -0.572 -0.322 0.96 -0.899 -0.051 -0.636 -0.615 0.626 0.157 -0.263 -0.159 
-0.062 0.593 0.096 0.033 -0.507 0.768 0.873 0.935 0.109 -0.904 -0.619 0.561 0.739 0.584 0.923 -0.501 -0.269 0.849 0.442 -0.394 -0.15 -0.713 -0.96 -0.231 0.223 0.588 -0.533 -0.917 0.4 0.158 
0.606 -0.062 0.463 -0.08 -0.634 0.758 0.685 0.023 -0.771 0.298 0.356 0.47 0.175 -0.804 0.683 0.988 0.619 -0.054 -0.81 -0.725 -0.531 0.519 -0.659 -0.803 -0.455 0.654 0.158 -0.942 0.794 0.791 
0.341 -0.163 -0.1 0.232 -0.325 0.736 0.438 0.958 -0.42 0.085 0.013 0.284 0.253 -0.273 -0.715 -0.574 0.67 -0.464 0.281 0.37 -0.451 0.348 0.077 -0.801 -0.165 0.573 -0.863 -0.649 -0.269 0.617 
0.233 -0.429 0.376 0.529 0.731 0.044 -0.658 -0.533 -1 0.528 -0.084 -0.366 -0.001 0.757 0.24 -0.419 0.623 0.941 0.131 0.749 0.539 0.299 0.575 -0.901 -0.637 0.245 -0.274 -0.799 -0.576 -0.917 
0.389 -0.265 -0.976 -0.105 -0.255 -0.83 0.483 -0.283 -0.608 -0.248 0.324 0.773 0.74 -0.745 -0.532 -0.93 -0.157 -0.97 0.756 -0.235 0.114 -0.02 0.458 -0.642 -0.876 -0.992 0.311 -0.333 0.717 0.928 
0.59 0.099 -0.42 0.87 -0.01 0.412 -1 -0.936 -0.725 -0.916 0.682 0.911 -0.894 0.868 -0.356 0.826 -0.564 0.366 0.592 -0.012 -0.162 0.865 0.212 0.947 0.446 0.659 0.052 0.771 0.256 0.11 
-0.943 -0.334 -0.75 -0.33 0.145 0.925 0.148 0.874 0.774 0.043 0.429 0.536 -0.237 -0.984 0.858 0.934 0.301 -0.939 -0.345 0.815 0.174 -0.418 -0.861 -0.918 -0.976 -0.1 0.575 0.337 0.376 0.3 
0.424 0.864 -0.463 -0.305 -0.475 -0.371 -0.149 0.788 -0.206 0.744 0.706 -0.925 -0.929 -0.51 0.884 -0.181 0.979 0.195 0.158 -0.193 -0.155 0.374 0.438 0.156 -0.18 -0.568 0.766 0.222 -0.043 -0.447 
-0.729 -0.045 0.389 0.625 -0.971 0.128 -0.961 0.527 -0.606 -0.51 0.648 -0.946 0.517 -0.808 -0.47 -0.382 0.148 -0.944 -0.01 -0.718 0.743 -0.561 0.301 0.493 0.927 -0.731 -0.607 0.033 -0.569 0.592 
0.135 0.026 0.842 0.08 -0.384 -0.039 -0.283 0.907 0.92 0.245 -0.834 -0.879 0.782 -0.218 0.006 -0.509 0.87 -0.385 -0.805 0.143 0.763 -0.229 0.592 -0.065 0.217 0.412 0.881 0.467 -0.279 -0.048 
0.322 0.828 -0.77 -0.571 0.424 0.699 -0.847 -0.849 0.794 0.041 0.264 -0.617 -0.28 -0.856 -0.612 -0.923 -0.787 0.202 -0.342 -0.798 0.753 -0.751 0.058 -0.425 -0.91 -0.362 -0.177 0.395 -0.299 0.205 
0.558 0.123 -0.713 0.041 -0.974 -0.47 -0.791 -0.18 -0.065 0.043 -0.469 0.674 0.902 -0.9 0.071 -0.225 0.009 -0.57 -0.206 -0.378 0.736 -0.11 0.015 -0.548 -0.246 0.782 0.933 0.188 0.855 0.96 
0.945 0.923 -0.458 -0.341 -0.513 0.943 0.347 -0.416 0.389 0.668 0.788 0.198 -0.72 0.479 -0.293 0.813 -0.14 0.447 0.846 0.271 -0.818 -0.656 0.142 -0.552 0.636 -0.647 0.549 0.888 -0.177 0.825 
0.251 -0.81 0.639 -0.954 0.362 0.775 0.624 -0.922 -0.015 -0.897 -0.219 -0.623 -0.65 -0.952 -0.83 -0.506 -0.784 -0.271 0.726 -0.962 0.915 -0.328 -0.648 0.862 -0.579 0.667 0.128 0.465 -0.671 -0.741 
-0.918 0.389 -0.014 0.419 -0.265 -0.86 -0.334 0.632 0.485 0.822 -0.997 0.161 0.896 -0.859 -0.85 -0.568 0.872 -0.639 -0.23 -0.687 0.165 0.645 -0.88 0.81 -0.872 0.97 -0.379 0.596 0.004 -0.486 
-0.201 0.21 0.269 0.552 -0.765 -0.529 -0.656 0.83 -0.618 0.261 -0.605 0.151 -0.334 -0.917 -0.29 -0.242 0.372 -0.705 0.906 -0.986 0.452 -0.716 0.905 0.812 -0.979 -0.659 -0.425 -0.71 0.525 -0.389 
-0.833 -0.018 0.783 0.387 -0.207 -0.95 0.679 -0.732 0.274 -0.116 -0.371 -0.665 -0.54 -0.895 0.511 -0.008 0.824 0.55 0.016 -0.94 0.801 -0.241 0.309 -0.077 -0.933 0.3 0.225 -0.744 0.14 -0.952 
0.655 0.807 -0.551 -0.509 -0.24 -0.618 -0.164 -0.781 -0.73 0.679 0.725 0.519 -0.191 -0.299 -0.369 -0.676 0.807 -0.275 -0.699 -0.717 0.969 -0.512 0.164 0.963 -0.876 0.534 0.77 -0.149 0.997 0.724 
0.511 -0.933 -0.735 -0.16 0.379 -0.045 -0.972 0.661 -0.568 -0.773 -0.84 -0.861 -0.334 -0.763 -0.952 -0.152 -0.596 0.048 0.565 -0.779 -0.867 0.175 -0.759 -0.486 -0.853 0.362 0.954 0.676 0.454 0.658 
0.721 -0.216 -0.312 -0.534 -0.884 -0.144 -0.82 -0.571 -0.463 0.629 -0.611 0.843 0.004 -0.899 0.384 -0.08 0.987 0.136 0.052 0.582 0.528 -0.634 0.472 0.193 -0.042 -0.821 -0.017 0.987 -0.177 -0.603 
0.096 -0.406 -0.099 0.653 -0.48 -0.497 0.472 -0.98 0.932 -0.047 -0.176 0.033 -0.943 0.665 -0.268 -0.72 0.167 -0.034 0.69 -0.132 0.926 -0.172 0.479 -0.856 0.703 0.449 -0.167 -0.997 -0.09 0.24 
0.027 0.61 -0.473 0.282 -0.607 0.187 0.863 0.961 -0.435 -0.401 0.251 0.318 -0.919 0.558 -0.897 -0.642 0.238 0.178 0.464 0.457 -0.428 0.221 -0.078 0.756 -0.133 0.26 0.298 0.343 0.234 -0.159 
-0.981 0.352 -0.938 -0.589 -0.189 0.793 0.405 -0.119 0.651 0.76 0.898 0.271 0.842 0.694 0.084 0.535 -0.5 -0.045 0.155 -0.677 -0.35 -0.312 0.939 -0.99 -0.983 -0.068 -0.052 0.21 0.495 -0.581 
-0.352 -0.811 -0.829 0.851 0.695 0.223 0.637 -0.351 0.8 -0.593 -0.866 -0.116 0.177 -0.188 -0.359 0.304 -0.504 0.162 -0.463 -0.449 0.851 -0.268 0.565 -0.062 0.445 0.228 -0.806 -0.474 -0.822 0.745 
-0.072 -0.795 0.149 0.257 0.312 0.401 0.199 -0.273 -0.308 -0.647 0.795 -0.458 -0.433 0.149 -0.624 -0.745 -0.258 -0.252 -0.897 -0.185 -0.953 0.073 -0.035 -0.251 -0.863 -0.831 -0.669 0.97 -0.947 -0.232 
-0.948 0.178 0.156 -0.019 -0.305 0.586 0.929 -0.269 -0.722 0.859 -0.248 0.089 0.958 -0.762 0.054 0.972 -0.792 0.656 -0.829 -0.853 -0.497 0.511 -0.826 -0.181 -0.893 -0.795 -0.401 -0.212 0.261 0.045 
-0.565 0.492 0.732 -0.924 -0.333 -0.597 -0.633 -0.101 0.054 -0.833 0.212 -0.886 -0.871 0.793 0.977 0.854 0.012 -0.169 -0.111 0.326 -0.353 0.299 -0.511 0.674 0.836 -0.388 -0.613 0.957 0.503 0.491 
-0.518 -0.171 0.027 0.361 -0.048 -0.504 0.646 0.183 0.597 0.554 0.032 -0.898 0.945 -0.524 -0.776 0.081 -0.805 0.623 0.632 -0.657 -0.398 0.369 0.282 0.989 -0.563 0.599 -0.965 0.179 0.654 -0.348 
0.399 -0.65 -0.868 -0.055 0.293 0.871 -0.351 -0.41 0.204 -0.823 0.705 0.319 -0.25 -0.472 -0.772 0.722 0.668 -0.215 0.774 0.184 -0.349 -0.116 0.037 -0.085 0.189 0.681 0.074 0.759 0.85 -0.454 
0.26 -0.573 -0.767 0.421 0.161 0.818 0.546 0.35 0.263 -0.539 0.846 0.458 0.594 0.371 0.945 0.502 -0.754 -0.58 0.254 0.953 0.76 0.586 0.419 -0.265 -0.384 -0.887 0.335 -0.408 0.018 0.265 
0.37 -0.664 -0.475 -0.254 0.644 0.512 0.482 -0.185 0.105 0.726 0.201 -0.227 0.306 0.08 0.593 0.99 -0.409 -0.786 0.223 0.857 -0.3 -0.151 -0.678 0.285 -0.238 -0.298 0.268 0.374 0.152 0.848 
0.235 -0.362 -0.238 -0.763 -0.728 0.792 -0.8 -0.657 0.519 0.481 0.37 -0.009 0.145 0.984 -0.286 0.085 -0.921 -0.601 -0.718 -0.614 0.119 -0.35 -0.807 -0.815 0.516 -0.392 0.888 0.499 -0.575 -0.104 
0.769 0.331 0.814 0.502 0.97 0.537 0.598 0.077 0.398 -0.149 0.888 -0.537 0.053 0.505 0.741 0.267 0.662 0.655 -0.919 0.695 0.618 -0.128 0.094 0.67 -0.462 0.121 0.445 -0.477 -0.757 -0.635 
-0.282 0.135 -0.063 -0.401 0.499 0.192 -0.446 0.124 -0.969 -0.934 -0.571 -0.278 0.556 0.818 0.875 0.692 0.91 -0.639 0.132 0.728 -0.478 0.149 0.277 0.826 0.348 0.278 0.777 -0.662 0.175 -0.056 
-0.875 -0.861 0.821 -0.66 0.64 0.966 0.081 -0.852 0.547 0.951 -0.093 0.551 0.11 -0.443 0.077 0.009 -0.597 0.576 -0.46 -0.977 -0.426 0.454 -0.631 0.906 -0.515 -0.001 -0.952 0.93 -0.427 -0.342 
0.816 -0.116 -0.627 -0.969 -0.396 0.783 0.791 0.422 -0.99 -0.013 -0.636 -0.432 0.994 -0.421 -0.977 0.709 0.657 -0.859 0.285 -0.523 -0.977 0.272 -0.172 0.435 0.549 -0.483 0.009 0.743 -0.133 0.265 
0.59 -0.109 -0.631 0.538 0.604 0.776 -0.788 -0.009 -0.307 0.409 0.62 -0.803 -0.338 0.128 -0.9 -0.241 -0.158 -0.56 -0.911 0.494 -0.358 0.62 0.486 -0.854 0.964 0.486 0.271 -0.057 0.466 0.474 
0.445 0.788 0.349 0.827 -0.046 0.504 0.281 -0.754 0.757 0.285 -0.886 -0.65 -0.168 0.673 -0.057 -0.688 0.232 -0.117 0.239 0.768 -0.411 0.683 -0.791 0.987 -0.205 0.245 0.912 -0.361 -0.065 -0.752 
0.479 0.207 0.23 0.954 0.601 0.94 -0.957 0.718 0.412 -0.623 -0.377 0.472 0.983 0.885 0.686 -0.28 -0.743 -0.298 -0.561 -0.394 -0.724 0.924 -0.348 0.037 0.035 0.699 0.316 0.89 0.367 0.606 
0.221 0.975 0.52 -0.208 -0.435 0.547 -0.742 0.684 0.531 -0.171 0.782 -0.295 -0.838 0.689 0.923 -0.13 0.342 0.282 -0.804 -0.82 0.969 0.072 -0.285 -0.949 -0.264 0.755 0.174 -0.523 0.154 -0.271 
-0.118 0.851 0.769 0.237 -0.699 0.676 0.604 0.073 -0.839 0.197 -0.405 -0.875 0.485 0.062 0.229 0.56 0.718 0.073 -0.921 -0.291 0.662 -0.776 0.574 0.682 0.475 -0.185 0.343 0.446 0.532 -0.432 
-0.316 -0.639 0.472 0.286 -0.734 -0.911 -0.849 -0.396 0.233 0.594 0.076 -0.402 -0.396 0.533 -0.532 0.184 0.417 -0.036 0.616 0.014 -0.934 -0.004 -0.127 0.148 -0.49 -0.604 0.941 0.791 -0.134 0.589 
-0.98 0.355 0.948 -0.749 0.081 -0.729 0.825 0.228 0.173 0.454 -0.691 -0.57 0.238 0.991 0.739 -0.147 -0.552 -0.433 0.054 0.877 -0.51 0.197 0.056 -0.227 -0.411 -0.138 0.536 0.429 -0.112 -0.461 
0.585 0.841 -0.833 0.52 0.56 0.047 -0.419 -0.618 0.606 0.989 -0.216 0.403 0.96 0.462 -0.268 -0.608 -0.157 -0.937 -0.077 -0.389 -0.26 -0.308 -0.557 -0.73 0.919 -0.151 -0.888 -0.424 0.845 -0.514 
0.556 -0.397 0.364 -0.502 -0.492 -0.122 0.338 -0.277 0.005 -0.589 -0.807 0.117 -0.057 0.227 -0.486 0.29 -0.584 -0.199 -0.661 -0.456 -0.764 -0.988 -0.726 0.433 0.74 -0.599 -0.817 0.135 -0.172 -0.367 
-0.563 -0.866 -0.423 0.671 -0.278 0.263 0.659 -0.46 0.368 -0.718 0.848 -0.634 0.29 0.227 -0.542 -0.929 -0.894 -0.695 0.001 0.434 0.77 0.555 -0.493 -0.701 0.73 -0.925 -0.197 0.439 -0.806 -0.512 
-0.336 -0.327 0.048 0.358 -0.72 -0.513 0.764 0.713 -0.987 -0.548 -0.83 -0.022 -0.234 -0.296 0.416 -0.351 -0.623 -0.163 -0.463 0.459 -0.568 -0.045 -0.895 -0.474 0.937 0.366 0.914 0.155 0.29 -0.554 
-0.818 0.635 -0.907 0.936 0.846 0.238 0.456 -0.597 0.714 0.599 -0.959 -0.075 -0.926 -0.676 -0.656 0.863 0.749 0.276 -0.403 -0.666 -0.353 -0.574 -0.957 0.244 0.592 -0.239 0.269 0.175 0.139 -0.304 
0.481 -0.529 -0.732 -0.287 0.666 -0.97 -0.194 0.109 -0.71 0.059 0.684 -0.454 -0.241 0.103 -0.394 -0.609 -0.907 0.196 -0.417 0.95 0.557 0.435 -0.988 -0.333 -0.131 -0.835 0.903 -0.027 0.791 -0.484 
-0.851 -0.485 -0.882 -0.757 0.388 -0.503 0.711 0.091 0.874 -0.437 0.125 0.007 -0.63 0.121 0.727 -0.342 -0.664 -0.725 0.221 0.576 0.799 -0.081 -0.759 -0.389 0.712 -0.791 0.635 0.263 0.83 -0.486 
0.336 0.783 0.032 -0.012 0.339 0.705 -0.33 0.94 0.868 -0.609 0.728 -0.015 0.537 -0.68 0.124 -0.003 0.354 -0.297 0.494 -0.438 0.865 0.554 -0.3 -0.698 0.714 0.629 -0.206 0.026 -0.537 -0.472 
0.748 0.679 0.351 -0.801 -0.997 -0.558 0.28 -0.984 0.29 0.098 0.858 0.73 -0.447 0.551 0.262 -0.556 0.649 -0.515 0.055 -0.428 -0.111 -0.142 0.552 -0.871 -0.36 -0.14 -0.954 -0.373 0.044 -0.578 
0.936 0.473 0.154 -0.667 -0.244 0.051 0.391 -0.466 0.931 -0.678 0.079 -0.798 0.176 0.58 0.269 0.388 0.429 0.885 -0.998 0.61 -0.673 -0.726 0.76 -0.901 0.042 0.055 -0.607 0.065 -0.072 -0.428 
0.284 -0.274 -0.202 -0.477 -0.799 0.587 -0.912 0.997 0.652 0.175 0.75 -0.322 0.455 -0.107 -0.37 0.406 0.531 -0.511 0.165 -0.479 -0.873 0.964 -0.56 0.113 -0.611 -0.29 -0.512 0.763 -0.68 -0.812 
0.821 0.264 -0.997 0.754 -0.278 0.316 0.854 -0.414 -0.575 0.524 0.818 0.302 -0.88 -0.341 -0.512 -0.318 -0.659 -0.426 -0.5 0.566 -0.778 0.754 0.552 -0.15 0.516 0.226 0.486 -0.398 0.737 -0.099 
0.901 -0.251 0.967 -0.898 -0.735 0.881 0.843 -0.29 -0.492 -0.511 0.858 -0.816 -0.879 -0.894 -0.414 0.987 0.371 -0.51 -0.028 -0.482 -0.927 -0.647 0.281 -0.338 0.996 -0.787 0.451 0.115 -0.196 0.785 
-0.667 0.564 -0.496 -0.163 0.453 0.784 -0.667 -0.028 -0.079 0.544 0.37 0.257 -0.912 -0.871 -0.703 0.34 0.923 0.901 0.343 0.876 0.731 0.5 0.648 0.613 -0.747 -0.689 0.693 -0.668 0.451 0.814 
0.599 -0.784 0.212 -0.166 0.849 -0.748 -0.088 -0.859 0.209 0.45 0.18 0.569 0.535 -0.438 0.365 0.111 -0.183 0.011 -0.237 0.321 -0.394 0.345 0.443 0.85 -0.407 -0.336 -0.558 0.444 0.833 -0.264 
-0.498 0.025 0.559 0.953 0.007 0.006 0.543 0.129 -0.249 0.07 0.395 0.228 0.541 -0.941 0.22 -0.285 -0.056 -0.822 0.658 0.384 0.738 -0.617 -0.362 0.737 0.635 0.03 0.782 -0.685 -0.92 -0.979 
-0.575 0.752 0.204 0.446 0.412 0.004 -0.955 -0.175 0.244 -0.451 -0.006 -0.471 -0.868 -0.991 -0.684 -0.571 0.761 0.133 -0.07 -0.254 0.532 0.283 -0.127 -0.561 0.88 -0.165 -0.013 -0.43 0.589 0.629 
0.56 0.521 -0.403 -0.811 0.163 -0.556 -0.379 -0.295 -0.185 -0.287 -0.666 -0.001 0.137 0.615 -0.836 -0.942 0.511 -0.617 -0.154 -0.057 -0.263 0.831 -0.345 -0.749 -0.649 0.29 -0.948 -0.705 -0.58 -0.939 
-0.64 0.767 0.273 -0.966 -0.867 0.191 0.301 -0.622 0.387 0.879 0.5 -0.385 -0.291 -0.928 0.061 0.952 -0.03 -0.177 -0.936 -0.463 -0.95 0.61 -0.209 -0.022 -0.557 0.161 -0.179 -0.282 -0.702 0.183 
-0.067 -0.305 -0.291 0.072 0.468 -0.297 -0.136 -0.155 0.849 0.05 -0.354 0.142 -0.556 -0.845 -0.541 -0.232 -0.115 -0.699 -0.232 0.847 -0.394 0.187 -0.465 -0.691 -0.636 0.633 0.351 0.14 -0.375 0.724 
0.346 0.2 -0.162 -0.969 0.221 0.217 0.624 0.584 -0.185 -0.656 -0.648 -0.981 -0.93 0.367 -0.081 -0.826 -0.513 0.03 -0.655 -0.284 -0.956 0.699 0.162 0.685 -0.885 0.321 -0.498 -0.459 0.804 0.573 
-0.267 0.452 0.811 -0.771 -0.776 -0.841 0.983 0.665 0.845 0.95 -0.174 -0.409 -0.103 0.213 -0.629 0.986 -0.338 0.19 0.584 0.906 0.418 0.622 0.719 0.666 -0.782 0.991 -0.041 0.566 0.103 0.279 
-0.502 -0.133 0.345 -0.897 0.43 -0.98 -0.975 0.534 0.821 0.833 -0.765 -0.713 -0.607 -0.173 0.348 -0.376 -0.308 0.918 -0.2 0.244 -0.569 0.086 0.695 0.508 0.753 0.597 0.192 0.121 -0.181 -0.093 
0.071 0.022 -0.439 0.991 -0.948 0.251 0.523 -0.035 -0.044 -0.02 0.061 -0.535 0.523 -0.7 0.828 0.235 0.953 -0.388 0.682 0.876 -0.843 0.289 0.292 0.199 0.776 -0.539 -0.158 0.131 0.66 -0.3 
0.638 0.08 -0.38 -0.455 -0.071 -0.832 -0.859 -0.238 -0.166 0.633 -0.73 0.082 -1 -0.44 0.364 -0.859 -0.901 -0.664 0.665 -0.167 0.029 -0.173 0.254 0.028 -0.681 0.984 0.11 -0.832 -0.583 0.397 
-0.875 0.406 0.41 -0.537 -0.952 -0.31 -0.031 0.344 -0.401 -0.357 -0.845 -0.536 -0.463 0.558 0.206 -0.089 0.414 0.947 0.293 0.129 -0.413 -0.92 -0.915 -0.236 0.234 0.076 -0.985 -0.882 0.384 -0.153 
-0.352 -0.453 0.555 -0.168 -0.219 -0.163 0.427 0.896 0.859 -0.676 0.799 0.653 0.701 -0.159 -0.596 0.729 0.215 -0.435 0.65 0.532 0.083 0.719 -0.704 -0.561 -0.222 -0.762 0.241 -0.197 -0.994 -0.38 
-0.33 0.849 0.205 -0.476 0.078 0.787 0.984 -0.371 -0.861 0.898 0.973 -0.362 0.815 0.002 -0.959 -0.515 0.063 -0.789 -0.934 -0.173 0.583 0.93 -0.435 -0.918 0.982 -0.169 -0.765 0.29 0.812 0.256 
0.802 0.448 -0.487 -0.874 -0.503 0.064 0.215 -0.707 0.907 -0.563 -0.582 -0.662 -0.576 -0.93 0.183 -0.655 0.328 -0.941 0.483 0.221 -0.463 0.56 0.349 -0.077 -0.117 0.905 0.847 0.313 -0.214 -0.016 
-0.591 -0.766 -0.5 0.97 -0.161 0.157 0.668 0.856 -0.515 0.592 0.022 -0.267 -0.265 0.383 0.827 -0.501 0.061 -0.91 0.135 -0.9 0.479 -0.427 -0.094 -0.115 0.245 0.209 0.836 0.981 -0.061 0.699 
-0.899 0.407 -0.805 0.219 0.084 0.427 0.355 0.56 -0.867 0.452 -0.2 -0.397 0.688 0.398 -0.125 0.569 -0.696 -0.01 0.843 0.557 0.857 0.319 0.875 -0.851 -0.81 0.946 -0.202 0.467 -0.654 -0.491 
-0.92 -0.521 0.981 0.207 0.719 -0.862 -0.575 0.699 -0.23 -0.986 -0.49 -0.645 -0.768 0.765 -0.382 0.72 -0.763 -0.736 -0.291 -0.297 -0.456 -0.95 -0.459 -0.699 -0.656 0.427 -0.859 -0.09 0.696 -0.176 
0.683 0.098 -0.36 0.131 0.57 0.754 0.535 -0.097 0.445 0.609 0.414 -0.968 -0.083 0.63 0.318 -0.568 -0.587 -0.91 -0.539 -0.868 -0.365 0.517 -0.355 0.321 0.818 0.805 -0.667 -0.279 0.246 -0.03 
0.788 -0.606 0.008 0.227 -0.165 -0.423 0.675 -0.795 -0.95 -0.358 0.254 -0.682 0.39 -0.276 -0.021 0.365 -0.246 0.171 -0.978 0.844 0.267 -0.491 -0.59 0.872 -0.448 0.874 -0.023 0.697 0.37 0.941 
-0.733 -0.659 -0.383 -0.032 0.065 0.321 -0.345 -0.273 -0.086 -0.717 -0.863 -0.068 -0.451 0.162 -0.118 -0.965 -0.408 0.135 -0.07 -0.466 0.52 0.728 0.688 0.724 -0.366 0.233 0.603 0.125 -0.878 -0.218 
-0.24 0.065 0.93 -0.736 0.423 0.322 -0.514 -0.092 -0.362 -0.369 0.565 -0.574 -0.638 -0.437 -0.622 -0.581 0.851 -0.259 0.315 0.076 0.168 0.521 -0.902 0.587 -0.469 0.239 -0.661 -0.448 -0.17 -0.526 
-0.219 0.742 0.118 -0.1 0.7 -0.766 0.606 -0.32 0.79 -0.077 0.399 -0.832 -0.515 0.634 0.455 0.544 -0.556 -0.292 -0.2 0.219 -0.482 -0.651 -0.053 0.58 0.299 0.448 -0.316 -0.881 0.132 0.34 
0.888 0.77 0.297 0.433 0.14 -0.378 -0.455 0.54 -0.273 -0.75 0.082 0.247 -0.901 -0.95 0.73 -0.604 -0.696 -0.669 -0.195 -0.949 0.082 0.139 -0.233 -0.63 -0.324 -0.857 -0.444 0.973 0.116 0.957 
-0.714 0.366 -0.567 -0.157 -0.328 0.814 0.298 0.471 -0.063 0.261 -0.191 -0.08 0.586 0.327 -0.559 0.053 0.323 -0.472 0.491 -0.403 0.099 0.881 0.823 0.31 0.671 0.578 0.993 0.09 0.653 0.234 
-0.734 -0.753 -0.887 0.422 -0.255 0.974 0.488 0.022 0.377 0.519 -0.917 0.966 -0.195 -0.206 0.646 -0.676 0.441 0.089 0.098 0.797 -0.934 -0.54 -0.609 -0.427 0.465 -0.395 -0.194 0.438 -0.604 0.518 
-0.738 0.944 0.726 0.015 -0.107 0.323 0.569 0.124 -0.782 0.369 -0.528 0.67 0.161 -0.985 0.825 -0.271 0.494 -0.963 -0.805 0.83 -0.451 0.3 0.701 -0.206 -0.439 0.303 -0.008 0.959 -0.052 0.206 
-0.387 -0.031 0.639 0.455 -0.439 -0.349 -0.59 -0.323 -0.424 -0.461 0.222 0.502 -0.776 0.196 -0.151 -0.977 0.912 0.723 0.714 0.371 -0.192 0.62 -0.019 0.156 0.298 -0.851 -0.855 -0.503 0.466 0.443 
0.448 -0.608 0.531 -0.796 0.695 0.294 0.45 0.149 0.951 -0.419 0.598 0.845 0.675 -0.755 0.584 0.433 -0.9 -0.601 0.567 -0.703 -0.991 -0.059 -0.769 -0.901 -0.102 -0.026 -0.613 -0.241 0.262 -0.855 
0.729 0.659 0.324 -0.233 -0.034 0.968 0.927 -0.906 -0.151 0.796 0.542 0.923 0.396 0.417 0.411 0.368 -0.952 0.781 0.833 -0.426 -0.312 0.884 0.668 -0.532 -0.575 -0.796 0.844 -0.079 -0.04 0.911 
0.922 0.951 -0.3 -0.658 -0.37 0.425 -0.57 0.451 0.72 -0.802 -0.473 0.48 -0.595 0.382 -0.575 0.614 -0.388 -0.796 0.192 -0.991 -0.062 0.005 -0.134 -0.334 -0.829 0.08 -0.036 0.541 0.026 0.886 
0.935 -0.267 0.251 -0.276 0.076 0.292 -0.841 -0.049 0.596 0.527 -0.193 -0.713 -0.973 0.92 -0.195 0.127 -0.163 0.71 -0.417 0.803 0.137 0.483 0.341 0.635 -0.379 0.277 -0.722 -0.92 -0.566 -0.289 
-0.771 -0.147 0.93 0.408 -0.27 0.448 0.632 0.141 -0.33 0.416 0.063 0.818 -0.185 0.984 -0.491 0.974 0.741 0.885 0.408 -0.04 0.748 0.085 0.778 -0.899 -0.829 -0.495 0.401 -0.204 -0.828 0.109 
-0.269 -0.013 0.67 0.525 -0.816 0.802 0.727 0.746 0.688 0.352 0.197 -0.011 0.895 -0.602 -0.049 -0.982 0.373 -0.743 0.719 0.873 -0.085 0.068 -0.117 0.61 0.859 -0.875 0.596 -0.161 0.583 0.518 
0.159 0.518 0.061 -0.833 -0.397 -0.834 0.938 -0.774 0.193 0.882 0.876 0.76 -0.262 -0.443 0.78 -0.446 0.078 -0.939 -0.132 -0.479 0.673 0.098 -0.243 0.258 0.419 -0.655 0.901 -0.811 -0.784 0.956 
0.239 0.725 -0.875 -0.468 0.178 -0.579 -0.284 0.762 -0.713 -0.792 -0.262 0.53 -0.395 0.49 0.799 0.569 -0.593 0.253 0.413 0.656 0.785 -0.417 -0.652 -0.407 -0.201 0.362 0.606 0.666 0.735 -0.781 
0.671 -0.336 -0.401 -0.392 0.847 -0.986 -0.086 0.212 0.507 -0.378 -0.673 -0.508 -0.68 -0.001 0.898 0.271 -0.614 -0.808 -0.448 -0.783 -0.476 -0.012 -0.307 0.089 0.688 -0.586 -0.704 -0.732 -0.654 0.358 
0.737 0.745 0.568 -0.203 -0.175 0.647 -0.779 0.237 -0.357 0.907 0.67 -0.451 -0.454 0.039 -0.748 -0.988 -0.98 0.431 -0.524 -0.309 -0.475 -0.155 -0.901 -0.584 0.774 0.056 -0.323 -0.128 0.736 0.008 
-0.104 -0.691 0.132 -0.642 0.788 -0.256 -0.996 -0.07 -0.273 0.649 -0.481 -0.132 -0.826 0.901 -0.639 -0.745 0.966 -0.073 0.313 -0.638 -0.22 -0.182 0.728 0.289 0.713 -0.059 -0.777 -0.204 -0.269 -0.16 
-0.769 -0.865 0.632 0.582 0.382 0.25 -0.356 -0.148 0.457 0.601 -0.732 0.033 -0.227 0.894 -0.581 -0.474 -0.117 -0.467 -0.218 0.512 0.436 -0.175 0.052 0.812 -0.976 0.845 0.296 -0.798 0.773 0.758 
-0.695 -0.323 0.358 0.111 0.281 0.65 0.57 0.98 -0.747 -0.673 -0.641 0.716 0.797 -0.882 0.718 0.777 -0.619 -0.935 -0.848 -0.287 -0.629 -0.824 -0.414 -0.126 -0.758 -0.759 -0.491 0.097 -0.338 0.248 
-0.758 0.148 -0.408 -0.464 0.62 -0.383 0.229 0.624 0.781 -0.362 -0.294 0.561 -0.65 -0.453 -0.542 0.039 0.905 0.981 -0.532 -0.586 0.601 0.316 -0.706 0.967 0.045 -0.833 -0.961 -0.837 -0.4 0.774 
-0.556 -0.001 0.525 -0.92 0.217 -0.176 -0.551 -0.914 0.674 0.257 -0.815 0.215 -0.942 -0.725 0.23 -0.418 -0.789 0.037 -0.73 -0.038 -0.409 -0.972 -0.339 0.612 0.696 -0.124 -0.9 0.958 0.171 -0.809 
0.248 -0.878 -0.302 -0.45 0.758 0.728 0.145 0.742 0.438 0.86 0.473 -0.523 0.493 -0.305 0.404 0.213 -0.968 0.525 -0.096 -0.705 0.221 0.848 -0.832 -0.916 -0.38 -0.909 -0.162 0.232 0.119 -0.663 
0.566 -0.568 0.262 -0.466 0.831 0.637 -0.306 -0.898 0.011 -0.486 -0.358 -0.731 0.834 0.547 0.73 0.503 0.041 -0.394 -0.589 -0.703 -0.263 -0.898 -0.985 0.063 -0.883 -0.683 0.999 -0.849 -0.357 0.538 
-0.218 0.454 0.887 -0.988 0.912 -0.078 0.837 -0.826 0.091 -0.192 0.718 0.851 -0.723 0.623 0.852 0.211 -0.77 -0.411 -0.999 -0.985 -0.513 -0.272 0.029 0.921 0.987 0.863 0.327 0.488 0.477 -0.286 
-0.154 -0.525 0.082 0.831 0.839 -0.381 -0.831 0.647 0.362 -0.594 -0.44 -0.248 -0.095 -0.439 -0.28 -0.62 0.441 -0.45 0.339 0.738 0.124 -0.049 0.005 -0.06 -0.011 -0.375 0.482 0.104 -0.347 0.38 
0.43 0.611 -0.394 0.058 0.787 -0.949 -0.673 0.43 0.622 -0.253 0.407 -0.704 0.714 0.205 -0.051 0.406 -0.19 -0.485 0.935 0.588 0.785 -0.666 -0.087 0.023 0.476 0.963 -0.823 0.726 -0.078 0.707 
0.529 0.266 0.627 0.425 0.9 0.248 0.975 0.53 0.757 0.413 0.096 0.016 -0.908 -0.095 0.251 0.807 0.73 0.703 0.547 -0.548 -0.745 -0.316 -0.465 -0.406 -0.854 0.79 -0.964 -0.953 -0.495 -0.393 
0.278 -0.042 -0.719 0.746 -0.701 -0.578 -0.408 -0.587 -0.192 -0.948 -0.959 0.791 0.576 -0.076 -0.343 -0.292 0.946 0.958 -0.368 -0.737 0.627 0.831 -0.559 -0.321 -0.363 0.1 -0.363 -0.091 0.75 -0.346 
-0.46 0.597 -0.173 -0.021 0.046 -0.861 0.838 -0.919 -0.102 0.792 0.221 -0.303 -0.707 -0.187 -0.794 -0.071 -0.307 -0.649 -0.184 -0.806 -0.762 0.988 -0.325 0.971 -0.579 0.98 0.683 -0.034 0.099 -0.244 
-0.391 -0.534 0.668 0.359 -0.605 0.184 0.928 0.094 -0.668 0.866 -0.542 0.266 0.463 -0.087 0.431 0.286 0.36 0.166 -0.551 0.122 0.26 0.883 -0.827 -0.034 0.706 -0.054 -0.526 -0.292 0.346 0.67 
-0.18 -0.734 0.069 0.378 0.927 0.038 -0.116 0.359 0.767 0.978 -0.97 -0.079 -0.809 -0.11 0.093 0.444 -0.191 0.507 -0.96 -0.477 -0.778 -0.353 -0.85 0.225 0.262 0.382 -0.031 0.74 -0.999 -0.145 
-0.695 0.526 -0.713 0.863 -0.021 -0.034 -0.522 0.345 -0.791 -0.114 -0.094 -0.28 0.643 0.606 -0.558 0.361 -0.017 -0.062 -0.183 -0.205 0.709 -0.201 -0.503 0.795 -0.258 0.252 0.367 -0.86 -0.897 -0.145 
-0.245 0.052 -0.144 -0.555 -0.738 -0.003 -0.35 -0.211 -0.935 -0.295 0.127 -0.553 -0.573 0.503 0.276 -0.735 -0.325 0.246 0.781 0.803 0.815 -0.737 -0.24 0.316 -0.419 0.777 -0.467 0.828 -0.216 -0.297 
-0.556 -0.524 -0.626 -0.892 0.535 -0.598 0.935 -0.559 0.786 -0.607 0.32 0.414 -0.056 0.857 -0.088 -0.696 0.496 0.691 -0.294 -0.174 -0.784 0.583 -0.867 -0.489 -0.024 -0.695 0.665 0.206 0.098 -0.582 
0.619 -0.209 0.024 -0.533 -0.15 0.934 -0.505 -0.025 0.075 0.694 0.787 0.465 -0.238 0.639 0.508 0.46 0.682 -0.414 0.495 0.122 0.935 0.948 0.559 0.119 0.138 0.466 0.373 -0.25 -0.94 0.341 
-0.907 -0.452 -0.594 0.918 -0.732 -0.788 -0.935 -0.381 -0.873 -0.429 0.114 -0.958 0.75 -0.251 0.728 0.261 0.977 -0.264 -0.975 0.606 -0.535 0.783 0.953 0.405 0.626 0.153 -0.835 -0.455 0.127 0.78 
-0.569 -0.62 -0.817 0.347 -0.277 0.081 0.063 0.544 -0.751 -0.574 -0.56 0.662 0.291 0.029 0.698 0.598 -0.022 0.727 -0.175 -0.54 -0.731 0.18 -0.777 0.347 -0.598 -0.835 0.082 0.423 -0.945 -0.813 
-0.193 -0.191 0.33 -0.909 -0.889 0.544 0.344 0.075 0.689 0.205 -0.244 -0.276 0.217 0.856 -0.952 -0.24 -0.72 0.65 -0.912 -0.034 0.067 0.778 0.173 0.843 0.048 0.932 0.576 -0.237 0.598 -0.665 
0.616 0.857 -0.02 -0.834 0.661 0.491 0.933 0.929 -0.915 0.25 -0.109 -0.307 0.288 -0.712 -0.214 -0.943 -0.441 -0.173 -0.09 -0.774 0.29 0.241 -0.736 -0.334 -0.926 -0.308 -0.852 -0.588 -0.108 -0.784 
-0.842 -0.173 0.159 -0.958 -0.161 -0.837 0.448 -0.604 -0.75 -0.104 0.196 0.678 0.108 0.486 0.437 0.303 -0.677 -0.999 0.041 0.845 0.63 0.094 -0.6 -0.007 -0.946 -0.606 0.204 0.542 -0.876 -0.431 
-0.419 -0.357 0.827 -0.799 -0.498 0.023 -0.962 0.561 0.834 0.101 -0.795 -0.1 -0.268 0.456 -0.364 0.21 0.917 -0.407 -0.523 0.792 -0.09 -0.01 0.408 -0.225 0.889 -0.931 0.391 -0.861 0.835 -0.694 
-0.961 -0.827 0.069 0.573 0.444 0.827 -0.805 0.336 -0.605 0.102 -0.684 0.007 0.022 -0.236 0.948 0.008 0.772 0.008 0.79 0.157 0.047 -0.169 0.086 0.696 -0.094 0.467 0.814 -0.81 0.467 0.605 
0.511 -0.617 -0.347 0.439 -0.174 0.942 0.929 0.44 0.527 -0.46 0.886 -0.557 0.047 -0.847 -0.53 -0.39 0.605 -0.291 -0.029 -0.529 0.242 -0.668 -0.158 -0.58 0.225 -0.119 0.718 -0.412 0.351 0.252 
0.857 -0.135 -0.025 0.43 0.351 -0.898 0.75 0.788 -0.253 -0.928 0.29 0.219 0.717 0.993 0.76 -0.244 -0.908 0.693 0.199 0.032 -0.151 -0.127 -0.657 0.933 -0.556 -0.144 -0.514 -0.975 -0.636 -1 
-0.668 0.022 0.145 -0.947 0.709 -0.105 -0.253 -0.492 0.319 0.634 0.136 0.123 -0.756 -0.018 -0.51 0.375 -0.454 -0.561 0.048 -0.435 -0.038 0.168 0.719 0.469 0.982 -0.887 0.287 -0.66 -0.234 0.633 
-0.71 -0.679 -0.364 -0.323 0.995 -0.094 0.463 0.249 0.62 -0.944 -0.867 0.566 0.955 -0.943 0.421 -0.539 -0.499 -0.34 -0.084 0.163 -0.262 0.378 0.397 0.334 0.588 0.499 -0.53 0.199 -0.885 -0.634 
0.465 0.232 0.874 0.078 -0.663 -0.2 -0.152 0.993 0.958 -0.243 0.671 0.058 -0.318 -0.383 0.065 -0.294 0.82 0.312 -0.796 0.602 0.197 -0.864 -0.357 0.116 -0.022 -0.694 -0.376 0.115 -0.527 -0.84 
-0.322 -0.664 -0.281 -0.392 0.188 0.782 -0.679 -0.384 -0.777 -0.288 0.186 0.17 -0.234 0.042 -0.732 -0.542 -0.124 -0.338 0.946 -0.019 0.753 -0.296 -0.162 -0.403 -0.678 0.595 -0.089 0.115 -0.613 0.221 
-0.763 -0.396 0.578 -0.36 0.864 -0.434 0.694 0.931 0.365 -0.244 0.184 -0.935 0.106 0.265 -1 0.984 -0.611 0.402 0.411 -0.043 0.807 -0.593 -0.773 0.686 0.943 0.035 0.112 -0.769 -0.323 0.049 
0.206 -0.599 0.435 0.546 0.959 0.576 -0.189 0.708 -0.91 0.164 -0.403 0.725 -0.893 0.883 -0.585 -0.623 0.094 0.38 0.355 0.168 -0.066 -0.617 -0.389 -0.684 -0.597 0.948 -0.8 0.041 0.66 0.273 
0.723 0.189 -0.968 0.223 0.787 -0.822 -0.261 0.503 0.137 -0.11 -0.537 -0.823 0.801 -0.797 0.913 -0.17 0.314 -0.901 -0.002 -0.897 -0.402 -0.883 0.79 -0.132 0.374 0.692 -0.552 -0.894 0.184 -0.152 
0.926 -0.433 -0.765 -0.593 0.977 0.471 0.205 -0.97 -0.08 -0.155 0.458 -0.241 -0.402 0.042 -0.192 -0.723 -0.934 0.633 0.505 -0.722 0.29 0.311 0.44 -0.983 -0.598 -0.131 0.543 -0.152 -0.774 -0.24 
-0.943 -0.137 0.646 -0.51 -0.332 0.526 0.386 -0.39 0.649 -0.661 -0.187 0.162 -0.642 -0.78 -0.563 0.815 -0.125 -0.628 -0.124 0.39 0.429 -0.445 -0.99 0.077 -0.216 0.275 0.435 0.976 -0.16 -0.952 
-0.471 -0.81 -0.367 0.367 -0.363 0.323 0.445 0.003 0.994 -0.914 0.734 0.452 0.275 -0.459 0.925 0.201 -0.145 0.304 -0.622 0.391 -0.567 0.26 -0.275 -0.174 -0.875 -0.31 -0.811 0.707 0.935 0.847 
0.719 -0.117 -0.386 0.428 -0.687 -0.952 -0.974 -0.36 0.727 0.709 -0.534 -0.435 0.965 0.887 -0.527 -0.024 0.75 -0.347 0.953 0.229 -0.491 0.343 -0.4 -0.229 0.611 -0.222 -0.237 -0.812 0.568 0.002 
0.96 -0.032 0.373 0.666 -0.64 -0.582 -0.615 -0.999 0.485 0.619 -0.054 -0.387 -0.304 -0.611 -0.106 -0.196 0.119 -0.781 -0.373 -0.912 -0.539 0.295 -0.348 0.643 -0.91 -0.253 0.965 0.124 -0.716 -0.475 
0.953 0.792 -0.89 -0.803 -0.503 -0.195 -0.888 0.856 0.256 0.73 0.231 0.034 -0.499 -0.829 -0.562 -0.344 0.265 0.236 -0.531 0.924 -0.614 -0.028 -0.198 0.652 0.471 0.58 -0.075 -0.62 -0.292 0.599 
-0.863 0.867 -0.272 0.812 0.831 0.684 0.293 -0.342 0.14 -0.113 0.688 -0.923 0.559 -0.041 -0.47 -0.37 -0.324 -0.86 -0.362 -0.609 0.86 -0.724 -0.94 -0.906 -0.672 -0.563 0.053 0.385 -0.861 -0.073 
-0.272 -0.804 0.304 -0.632 -0.604 -0.025 -0.187 0.183 -0.609 -0.852 0.646 -0.667 0.559 0.127 0.773 -0.399 -0.793 -0.505 -0.448 -0.165 -0.54 0.652 0.171 -0.405 0.72 0.273 -0.912 0.467 0.375 0.163 
0.612 -0.526 0.649 0.93 -0.372 0.395 -0.417 0.833 0.127 -0.955 0 0.985 0.99 0.772 -0.362 0.771 -0.207 0.696 -0.627 -0.939 -0.092 -0.284 0.3 -0.261 -0.173 0.497 0.872 -0.422 0.289 0.772 
0.693 0.658 -0.001 0.478 0.366 0.61 -0.358 0.995 0.567 0.577 0.854 -0.546 0.992 0.602 -0.774 0.994 0.045 0.374 -0.452 0.883 -0.556 0.881 0.975 -0.33 -0.153 -0.682 -0.902 0.967 0.594 0.572 
-0.933 0.138 -0.009 0.789 0.268 -0.54 -0.488 -0.7 -0.188 -0.566 0.677 0.575 -0.383 0.89 -0.953 -0.01 0.34 -0.295 -0.516 0.643 0.814 -0.436 0.5 -0.702 0.682 0.875 -0.63 -0.077 -0.502 0.051 
-0.136 -0.323 0.023 -0.74 -0.236 0.117 0.467 -0.23 -0.081 -0.145 -0.703 0.727 -0.335 -0.7 0.888 -0.031 0.813 -0.602 0.244 -0.641 -0.15 -0.544 0.605 0.81 -0.572 0.913 -0.58 -0.118 0.032 0.266 
-0.613 -0.369 0.464 0.501 0.38 -0.415 -0.298 0.073 0.653 -0.406 -0.773 -0.612 0.954 0.802 0.866 0.168 0.147 -0.629 0.137 -0.367 -0.688 0.862 0.32 0.101 -0.445 -0.315 -0.914 0.117 -0.259 0.763 
-0.352 0.932 -0.333 -0.047 0.146 -0.787 0.594 0.707 -0.925 0.266 -0.271 -0.518 -0.492 0.802 -0.506 -0.429 -0.494 -0.302 0.955 0.144 -0.556 0.224 -0.222 -0.899 -0.969 -0.26 -0.697 -0.075 -0.472 -0.441 
-0.411 -0.73 0.849 -0.088 -0.212 0.563 -0.6 0.541 0.514 0.505 -0.956 -0.289 0.375 -0.716 -0.894 -0.742 0.397 -0.606 -0.841 0.123 -0.585 -0.904 0.822 -0.742 -0.127 -0.124 -0.604 -0.294 -0.895 -0.205 
-0.613 0.143 0.141 -0.861 -0.612 -0.161 -0.723 -0.628 -0.248 0.396 -0.318 -0.229 -0.415 0.529 0.584 0.447 -0.132 0.939 0.999 0.615 0.522 -0.758 -0.288 -0.293 0.631 -0.152 0.454 0.971 -0.51 -0.791 
0.458 -0.075 -0.273 0.868 -0.036 0.555 0.905 0.289 0.207 0.355 0.396 0.323 -0.659 0.049 -0.366 -0.216 0.426 0.786 -0.389 -0.178 -0.131 -0.742 -0.589 -0.2 -0.196 -0.015 -0.497 -0.638 -0.392 0.922 
0.04 0.401 0.937 -0.988 0.347 -0.081 0.091 0.148 0.16 0.405 0.425 -0.91 0.33 0.281 0.888 -0.205 0.638 0.411 0.984 0.647 -0.345 -0.629 0.502 0.1 0.761 0.717 0.965 -0.461 0.501 -0.577 
0.815 0.409 -0.947 -0.998 -0.569 0.585 0.089 0.807 0.944 0.535 0.264 -0.188 0.627 -0.016 -0.245 -0.905 -0.115 -0.551 0.238 0.755 -0.585 0.741 0.056 -0.391 -0.981 0.827 -0.138 -0.752 -0.221 0.343 
-0.269 -0.249 -0.749 0.096 -0.502 -0.021 0.138 -0.694 0.991 -0.699 -0.587 0.781 -0.549 0.469 -0.714 0.277 -0.858 -0.459 0.355 -0.565 -0.342 -0.201 0.961 -0.62 0.374 -0.416 -0.462 -0.887 0.656 -0.407 
-0.627 -0.329 0.031 -0.748 0.253 -0.601 -0.377 -0.9 -0.964 -0.4 -0.634 0.192 0.546 -0.836 0.303 -0.719 0.952 0.809 0.933 -0.278 0.482 -0.911 -0.758 0.704 -0.131 0.94 0.136 -0.935 0.805 0.612 
0.672 -0.174 0.955 -0.375 0.21 0.156 0.388 0.646 -0.132 0.614 -0.587 -0.204 0.726 0.065 -0.915 -0.819 0.829 0.256 -0.812 -0.284 -0.162 -0.002 0.915 0.499 -0.778 -0.267 0.468 0.629 -0.857 -0.084 
0.028 0.661 -0.21 -0.576 0.741 -0.553 -0.653 -0.281 0.081 -0.618 -0.511 -0.895 -0.597 0.749 0.39 0.991 -0.832 -0.455 0.317 0.345 -0.833 0.27 0.538 0.986 0.925 0.202 0.182 0.095 -0.372 -0.745 
0.396 0.72 -0.659 -0.187 0.546 -0.722 -0.973 0.903 -0.276 0.686 0.986 0.365 0.397 0.868 0.616 -0.782 -0.656 -0.396 0.163 -0.121 -0.985 0.372 -0.157 -0.193 -0.783 0.326 -0.983 -0.82 -0.943 0.869 
-0.464 0.458 0.7 0.622 0.274 -0.165 -0.172 0.914 0.958 0.899 -0.573 -0.408 0.921 0.34 0.089 0.536 -0.957 0.493 -0.854 0.021 0.828 0.094 -0.782 -0.198 -0.057 0.496 0.027 0.217 -0.915 0.403 
0.672 -0.224 -0.315 0.711 0.066 0.254 0.354 0.942 -0.357 0.5 -0.85 0.866 0.209 -0.466 -0.602 0.5 -0.818 0.916 -0.315 0.693 0.253 0.924 -0.379 0.248 -0.889 0.275 -0.957 0.103 0.623 -0.884 
0.723 -0.715 0.203 0.712 0.117 0.084 0.469 0.807 0.966 0.104 -0.416 0.381 -0.935 -0.628 -0.37 -0.44 0.087 -0.285 0.945 0.993 -0.379 -0.158 0.465 -0.751 -0.842 -0.852 0.766 0.07 0.496 -0.307 
-0.297 0.967 -0.317 0.46 0.714 -0.556 -0.585 0.714 0.924 0.961 0.725 -0.8 0.667 0.772 0.249 -0.183 -0.782 0.813 0.358 0.379 -0.531 0.086 0.475 -0.276 -0.754 0.187 0.517 -0.718 -0.929 -0.66 
0.501 0.235 -0.375 0.273 0.947 -0.994 0.388 -0.083 0.243 0.338 -0.816 -0.043 -0.361 0.094 0.26 0.531 -0.747 -0.335 -0.763 0.39 0.971 -0.973 -0.503 0.46 -0.816 0.491 -0.901 -0.509 0.94 -0.11 
-0.894 0.413 -0.502 -0.777 -0.21 0.562 0.125 -0.779 0.995 -0.054 0.578 0.754 0.201 0.523 -0.587 -0.902 0.546 0.687 -0.522 -0.788 -0.082 -0.518 0.684 -0.286 -0.644 -0.981 0.458 -0.873 -0.27 0.401 
-0.174 -0.108 0.766 -0.976 -0.456 -0.245 -0.898 -0.381 -0.712 -0.616 -0.579 0.756 0.635 -0.332 -0.801 0.41 0.213 0.508 -0.865 0.915 0.562 0.354 -0.698 -0.766 0.115 -0.59 -0.737 0.074 -0.908 0.984 
-0.119 -0.052 -0.96 -0.576 0.301 0.781 -0.298 -0.707 0.896 -0.98 -0.099 -0.545 -0.021 0.978 -0.986 -0.993 -0.327 0.699 0.066 -0.932 -0.015 -0.476 -0.236 0.587 0.629 0.118 -0.889 0.602 -0.678 -0.958 
-0.813 -0.058 -0.503 0.188 -0.628 -0.162 0.613 -0.067 0.348 -0.169 -0.45 0.596 0.659 0.609 -0.971 -0.883 -0.676 0.906 0.321 -0.811 0.225 0.738 -0.591 -0.531 0.881 0.239 -0.893 -0.371 0.913 -0.846 
-0.315 -0.95 -0.607 0.249 0.794 0.202 -0.992 0.934 -0.273 -0.328 0.707 0.496 0.942 -0.028 -0.35 0.008 0.819 0.621 0.483 -0.273 0.573 0.705 -0.356 -0.842 0.375 0.644 -0.509 0.934 -0.248 -0.017 
-0.776 -0.014 -0.537 0.331 0.901 -0.247 -0.045 -0.674 0.596 -0.272 -0.749 -0.939 -0.99 0.48 0.153 -0.973 -0.109 0.491 0.252 0.809 0.726 -0.731 0.134 -0.137 -0.87 0.721 0.667 0.049 0.017 0.665 
0.011 0.725 -0.092 0.162 -0.95 0.524 0.215 -0.401 0.67 -0.545 -0.289 -0.779 0.68 -0.963 -0.431 -0.193 0.535 0.666 0.092 0.882 -0.951 0.106 -0.406 0.324 -0.556 -0.93 0.259 -0.967 -0.044 0.093 
-0.109 -0.978 -0.395 0.887 -0.243 -0.502 -0.972 -0.554 -0.08 -0.703 0.129 -0.026 0.089 0.859 -0.136 -0.521 0.472 0.869 -0.592 0.817 0.663 -0.778 0.818 0.183 -0.823 0.82 -0.322 -0.546 0.464 -0.153 
-0.197 -0.176 0.626 -0.337 0.991 -0.708 0.492 -0.046 0.03 -0.751 0.375 0.425 -0.507 -0.709 -0.838 -0.229 0.537 0.14 -0.112 -0.646 0.363 -0.033 0.636 0.461 -0.481 -0.487 0.106 0.285 0.75 0.704 
-0.36 -0.028 -0.647 0.465 -0.955 0.306 0.126 0.557 0.296 0.546 0.88 -0.204 0.484 -0.307 0.194 -0.395 0.059 -0.162 -0.444 0.179 -0.704 -0.218 -0.271 0.556 -0.958 -0.16 0.536 0.279 -0.906 -0.457 
-0.694 -0.468 -0.621 -0.41 -0.365 -0.119 0.516 0.577 0.173 0.017 -0.022 -0.797 -0.319 0.823 -0.768 -0.425 -0.368 0.14 0.531 -0.614 -0.639 -0.603 -0.047 -0.191 -0.965 -0.879 -0.463 0.743 0.533 -0.694 
-0.604 -0.214 -0.965 -0.327 -0.566 0.407 0.804 -0.193 0.952 0.626 -0.669 -0.431 0.808 -0.469 0.731 0.707 0.146 -0.322 -0.058 -0.855 0.33 -0.039 -0.953 -0.23 0.426 0.387 -0.386 -0.314 0.705 0.539 
0.365 0.521 0.044 -0.498 0.057 -0.88 -0.284 -0.962 0.131 -0.612 0.344 -0.561 0.535 0.901 0.988 -0.109 -0.86 -0.768 0.834 0.441 0.765 0.356 -0.167 0.786 0.528 -0.391 -0.637 -0.7 0.005 0.53 
-0.869 -0.19 -0.295 0.797 0.918 0.316 -0.004 0.889 -0.167 -0.382 -0.297 0.711 0.46 -0.865 0.69 0.42 -0.354 -0.14 -0.555 -0.41 -0.855 0.37 0.013 0.836 -0.89 -0.932 -0.094 -0.293 -0.044 0.701 
-0.521 0.494 -0.746 -0.874 0.113 -0.354 0.443 -0.086 -0.485 -0.213 -0.91 -0.803 0.569 -0.567 -0.852 -0.87 0.204 -0.138 0.836 -0.54 0.23 -0.389 -0.691 -0.432 0.03 -0.862 -0.068 0.001 0.102 -0.809 
0.406 0.804 -0.421 0.673 -0.79 -0.035 -0.963 -0.781 0.818 0.049 -0.288 -0.354 -0.282 0.038 0.289 -0.31 0.033 -0.328 0.989 0.453 -0.456 -0.835 -0.497 -0.23 0.569 -0.261 0.968 0.837 0.224 0.456 
0.388 -0.634 -0.704 0.658 0.586 0.42 0.832 -0.975 0.276 0.309 -0.909 0.842 0.721 -0.213 0.109 0.389 -0.617 0.721 -0.413 -0.623 0.924 0.438 0.914 0.662 0.855 -0.823 0.706 -0.581 0.643 -0.698 
-0.388 0.521 0.692 -0.593 0.218 0.144 0.748 0.415 0.879 0.521 0.448 0.651 0.087 0.475 -0.121 0.858 -0.417 0.946 -0.813 0.407 -0.712 0.925 -0.605 -0.14 -0.68 0.39 -0.233 0.656 0.354 -0.328 
-0.554 0.156 -0.121 -0.5 -0.707 0.203 -0.691 -0.492 0.585 -0.711 0.271 -0.42 -0.873 -0.45 -0.059 -0.498 0.793 0.994 -0.843 -0.379 0.156 0.803 -0.534 -0.172 -0.712 -0.988 -0.236 0.935 0.072 -0.167 
-0.08 -0.998 0.202 0.048 0.506 -0.087 0.361 0.21 0.784 -0.936 0.585 -0.229 0.392 -0.988 -0.062 0.789 0.101 -0.231 -0.191 0.588 0.774 0.774 -0.133 -0.162 -0.544 -0.802 0.228 0.753 -0.291 0.864 
0.72 0.809 -0.875 0.905 0.007 -0.582 -0.1 0.728 0.878 0.827 -0.597 -0.045 0.739 0.54 0.019 0.68 0.393 -0.743 -0.208 0.726 -0.763 -0.641 0.539 -0.019 0.552 0.383 -0.558 0.979 -0.193 -0.111 
0.78 0.265 -0.217 0.794 -0.537 0.013 -0.075 0.961 -0.603 -0.639 0.485 0.095 0.007 0.156 0.544 -0.395 -0.376 -0.944 -0.108 -0.75 -0.915 -0.58 0.431 0.516 -0.214 0.034 0.491 -0.353 0.617 -0.053 
-0.111 0.092 0.296 -0.166 -0.777 -0.828 0.048 -0.977 -0.709 -0.834 -0.739 -0.019 -0.059 -0.539 0.443 -0.755 0.696 -0.771 -0.627 0.9 0.65 -0.297 -0.172 -0.269 -0.059 -0.477 0.942 -0.29 -0.612 -0.987 
-0.212 0.479 -0.927 0.22 -0.263 0.555 -0.186 0.431 -1 0.997 -0.589 0.008 -0.083 -0.798 -0.872 0.245 0.639 -0.371 -0.301 -0.067 -0.404 -0.116 -0.924 -0.271 0.413 -0.397 0.591 0.403 -0.036 0.695 
-0.702 0.042 -0.46 0.245 -0.536 -0.778 -0.185 -0.14 0.989 0.77 -0.251 0.297 -0.909 0.024 0.252 -0.679 0.74 0.713 -0.165 -0.684 0.489 0.796 -0.452 -0.336 0.858 -0.457 0.081 0.58 0.407 -0.564 
0.67 0.662 -0.137 0.166 -0.537 0.055 -0.402 0.772 0.331 0.861 -0.7 -0.507 -0.959 -0.351 0.644 -0.763 0.082 0.619 -0.333 -0.537 -0.184 -0.39 -0.958 -0.381 -0.587 -0.12 -0.892 0.306 -0.153 -0.194 
0.452 0.696 0.571 0.5 -0.623 -0.544 -0.465 0.011 0.587 -0.898 -0.916 -0.577 0.883 -0.687 0.932 -0.921 -0.418 -1 0.616 -0.642 0.843 0.807 0.909 -0.585 -0.235 -0.47 -0.928 0.317 0.058 0.281 
-0.728 -0.743 -0.243 -0.26 0.107 0.311 -0.743 -0.607 -0.029 0.587 0.743 -0.532 0.802 -0.912 -0.702 -0.418 -0.748 0.977 0.457 -0.615 0.293 0.716 0.628 -0.606 0.291 0.771 0.107 -0.088 -0.668 -0.491 
0.292 0.677 -0.773 0.205 0.091 0.691 0.183 -0.119 -0.73 -0.368 0.604 0.318 -0.886 0.613 0.374 -0.151 0.152 -0.173 -0.085 -0.663 -0.212 0.255 0.177 -0.149 0.968 -0.416 -0.623 0.246 -0.98 0.406 
-0.838 0.745 0.745 -0.659 -0.568 -0.942 -0.506 -0.846 -0.906 0.513 -0.462 -0.602 -0.495 -0.661 0.251 -0.927 0.847 -0.781 0.479 0.217 0.145 -0.554 -0.4 0.498 -0.203 -0.859 0.925 0.84 -0.801 0.009 
0.656 0.443 -0.008 0.69 -0.526 0.458 -0.921 0.288 -0.027 -0.7 0.064 -0.346 0.067 -0.07 0.826 -0.148 0.675 -0.823 -0.266 -0.38 0.893 0.023 0.94 0.959 -0.882 0.028 0.376 0.945 -0.547 0.035 
0.565 -0.174 0.67 -0.288 -0.12 -0.474 -0.041 -0.54 0.977 -0.8 0.274 0.783 0.781 -0.494 -0.013 0.501 -0.432 -0.808 0.714 0.741 0.705 0.694 -0.87 0.23 0.614 -0.402 0.139 0.546 -0.238 -0.233 
-0.146 -0.552 0.828 -0.47 0.224 -0.308 0.114 -0.113 0.96 0.114 -0.755 -0.536 0.643 -0.181 0.326 -0.052 -0.456 0.863 0.97 0.455 0.36 0.908 -0.102 0.063 -0.416 0.925 -0.442 -0.086 0.13 0.479 
-0.197 0.399 -0.215 0 0.651 0.554 -0.02 0.888 0.908 0.852 0.66 0.829 0.243 -0.718 0.065 0.881 -0.526 0.38 0.57 0.639 0.352 0.641 0.644 0.775 0.072 -0.967 0.694 -0.859 0.709 -0.405 
0.826 0.345 0.204 -0.223 0.789 -0.75 0.778 -0.84 0.571 0.06 -0.896 0.716 -0.403 0.188 0.716 0.756 -0.972 -0.071 -0.07 0.346 0.787 0.094 -0.886 -0.722 0.568 -0.467 -0.78 0.891 0.323 0.246 
0.778 0.089 0.698 0.616 -0.1 0.357 -0.468 -0.297 0.962 -0.018 0.596 -0.241 -0.459 -0.239 -0.575 0.184 0.415 -0.248 -0.476 -0.982 -0.907 -0.626 0.569 0.899 0.897 -0.202 0.634 0.327 0.725 -0.628 
0.688 0.551 0.557 -0.02 0.491 -0.139 -0.012 0.739 0.26 0.199 0.57 -0.589 -0.767 0.026 0.452 -0.054 0.921 0.68 -0.364 0.036 0.745 0.925 0.523 0.976 0.342 0.599 -0.276 0.929 0.851 -0.372 
-0.333 0.198 0.357 0.241 0.15 -0.548 0.149 0.6 0.491 -0.189 -0.586 -0.247 -0.79 -0.258 0.553 0.228 -0.236 -0.785 -0.787 0.949 -0.476 -0.558 0.154 0.217 -0.06 -0.888 -0.816 0.449 0.628 -0.537 
-0.037 -0.603 -0.713 0 -0.214 0.443 -0.562 -0.782 -0.88 -0.088 -0.103 0.605 -0.054 0.789 0.57 -0.663 0.435 -0.01 0.797 -0.808 -0.683 0.903 0.23 -0.135 -0.048 -0.281 0.297 0.654 0.528 -0.726 
-0.817 0.561 -0.087 0.154 0.824 -0.302 0.55 -0.61 -0.852 0.356 -0.876 -0.099 -0.682 0.905 -0.232 -0.86 -0.813 0.155 0.728 -0.345 -0.665 -0.515 0.6 0.629 0.754 0.801 -0.925 0.815 -0.063 -0.469 
0.461 -0.39 -0.953 0.981 0.455 0.674 -0.162 -0.412 -0.189 0.721 -0.984 0.315 0.312 -0.303 0.331 0.943 -0.392 0.974 -0.931 -0.548 0.016 -0.336 0.859 -0.314 -0.449 0.087 -0.128 -0.655 -0.037 0.376 
0.901 -0.187 -0.111 0.632 -0.812 0.012 0.539 -0.01 0.657 0.718 0.615 0.717 0.859 -0.928 0.645 -0.551 0.671 0.168 0.081 0.171 0.606 0.852 0.386 -0.056 0.24 -0.469 -0.222 -0.121 -0.327 0.659 
-0.208 0.298 -0.613 0.021 -0.398 0.62 -0.884 0.847 0.622 0.925 -0.998 0.12 -0.101 -0.166 -0.196 0.969 -0.717 -0.432 0.538 0.474 0.156 0.017 -0.8 -0.421 -0.568 -0.552 0.047 -0.956 0.009 -0.454 
-0.444 0.27 -0.759 -0.961 -0.707 0.196 -0.487 0.031 0.121 -0.028 -0.104 -0.672 0.288 -0.261 -0.585 0.399 0.755 -0.816 -0.342 -0.516 -0.475 0.975 0.689 -0.629 0.794 -0.615 -0.056 0.92 -0.225 -0.839 
-0.676 0.971 -0.534 0.235 0.959 0.54 -0.557 0.056 0.654 -0.503 0.339 0.709 -0.943 -0.698 -0.677 -0.963 0.338 0.916 0.697 0.491 0.402 -0.811 -0.313 -0.003 0.12 -0.433 0.949 -0.074 0.523 0.591 
-0.152 0.035 0.691 -0.256 0.658 0.512 -0.902 -0.228 0.355 -0.229 0.409 0.753 0.448 0.745 0.304 -0.488 0.916 0.855 0.198 -0.238 -0.843 0.196 0.418 0.164 -0.296 0.318 -0.455 -0.187 0.695 0.154 
-0.567 -0.746 -0.382 -0.2 -0.571 0.561 0.932 0.358 0.546 0.26 -0.057 0.723 0.817 -0.288 0.906 -0.169 -0.961 0.109 -0.27 -0.91 -0.663 0.721 0.975 0.274 0.116 -0.319 0.257 -0.535 -0.357 -0.041 
-0.55 0.621 -0.022 -0.044 0.134 0.274 0.747 0.295 -0.6 -0.139 0.463 0.255 -0.186 -0.95 -0.032 0.926 -0.983 -0.215 0.932 0.27 0.894 -0.988 0.292 0.984 -0.464 0.461 -0.898 0.499 -0.583 -0.891 
-0.248 0.49 -0.362 -0.056 0.966 0.77 0.603 -0.745 -0.563 0.922 0.487 -0.523 -0.791 0.563 -0.727 -0.969 -0.628 -0.414 -0.909 -0.442 0.392 0.963 0.462 0.183 0.415 0.848 -0.465 0.397 0.025 0.707 
0.184 0.444 0.022 0.073 0.994 -0.127 0.404 -0.441 -0.071 0.993 0.947 -0.639 -0.072 0.959 -0.585 -0.984 -0.985 0.466 -0.338 0.292 -0.942 -0.602 -0.669 0.179 0.188 -0.927 0.946 -0.911 0.98 -0.519 
-0.5 -0.12 0.487 0.341 -0.739 -0.759 -0.202 0.689 0.573 0.908 0.409 0.95 0.308 -0.059 0.467 0.425 0.45 -0.296 -0.264 0.067 -0.946 0.285 -0.915 -0.079 -0.372 0.935 -0.785 0.604 0.244 0.05 
-0.345 -0.981 0.881 0.619 -0.052 -0.344 0.631 -0.059 -0.822 0.273 0.489 -0.503 0.338 0.576 -0.326 -0.675 0.465 0.829 -0.35 -0.264 -0.011 -0.702 0.883 -0.251 -0.579 -0.961 -0.563 -0.266 0.384 -0.785 
-0.978 -0.213 0.193 0.842 -0.978 -0.684 -0.878 0.925 -0.821 0.291 -0.729 0.871 -0.096 -0.507 -0.9 -0.538 -0.917 -0.11 -0.711 0.417 -0.609 0.018 0.02 -0.697 0.375 -0.333 0.392 -0.968 0.108 -0.359 
0.998 0.258 -0.887 0.693 -0.999 0.687 -0.484 0.618 0.718 0.668 -0.464 0.747 -0.477 0.797 0.073 0.552 -0.385 0.256 0.928 -0.885 -0.381 -0.657 -0.752 -0.29 0.544 -0.79 -0.896 -0.96 -0.663 -0.988 
0.034 0.744 0.217 -0.932 0.235 0.104 -0.968 0.816 0.691 0.197 -0.854 -0.147 0.223 -0.522 0.233 -0.038 0.99 0.428 -0.876 0.981 -0.511 -0.575 0.984 0.286 -0.465 0.996 -0.338 -0.637 0.535 -0.333 
0.437 0.155 -0.425 0.154 -0.03 0.663 0.46 0.763 -0.684 -0.906 -0.853 -0.482 0.509 0.664 0.112 0.524 -0.066 0.806 -0.619 -0.41 -0.366 0.415 -0.138 -0.42 -0.081 -0.474 0.37 -0.15 -0.056 -0.982 
-0.284 -0.939 0.422 0.006 -0.174 -0.297 0.039 0.81 0.214 -0.249 -0.568 0.985 0.684 0.301 -0.465 0.502 -0.037 0.564 0.012 0.44 0.711 -0.463 -0.222 -0.219 -0.666 0.051 -0.96 -0.29 -0.462 0.507 
-0.651 0.951 0.35 0.606 -0.205 0.171 0.621 0.088 0.675 -0.275 -0.193 0.628 0.265 0.786 -0.627 -0.711 0.185 -0.019 -0.345 -0.313 0.394 0.506 0.716 -0.909 0.651 0.287 -0.758 -0.818 -0.029 -0.448 
-0.905 0.221 0.301 0.387 -0.273 0.325 -0.86 -0.909 0.83 -0.043 -0.949 -0.696 0.672 0.521 0.017 0.855 0.023 0.251 0.578 -0.602 -0.114 -0.612 0.321 -0.989 -0.9 -0.972 -0.491 0.822 -0.422 -0.041 
-0.047 -0.941 -0.632 0.041 0.617 -0.54 0.253 -0.35 -0.414 0.807 0.526 -0.251 -0.727 0.964 -0.175 0.27 -0.105 -0.078 0.946 0.746 0.531 0.57 0.31 0.268 0.808 -0.741 -0.93 -0.547 -0.696 0.256 
-0.546 0.003 0.001 0.143 -0.881 -0.266 -0.656 -0.172 0.993 0.191 0.34 0.957 0.517 0.465 0.372 -0.969 -0.294 0.588 -0.045 -0.455 -0.346 -0.177 0.018 0.687 -0.904 -0.593 0.951 0.922 -0.196 -0.81 
0.381 -0.09 0.798 -0.883 0.444 0.012 0.914 -0.836 0.154 -0.407 -0.941 0.657 0.386 0.479 -0.885 -0.944 -0.46 0.282 0.339 0.827 -0.434 0.582 -0.069 -0.91 0.713 -0.769 0.604 0.684 -0.842 0.504 
0.748 -0.842 -0.917 -0.448 0.498 0.507 0.153 -0.526 0.522 -0.315 -0.816 0.541 -0.245 -0.061 -0.747 0.676 0.903 -0.197 0.434 -0.218 -0.669 -0.254 -0.13 0.255 -0.936 0.41 -0.32 -0.64 0.778 -0.773 
0.382 0.11 0.087 0.23 0.842 -0.297 -0.047 -0.283 -0.688 0.17 -0.785 -0.329 0.729 -0.794 -0.799 0.794 0.084 0.915 -0.333 0.01 -0.363 -0.031 0.484 0.282 -0.674 0.158 0.311 -0.096 0.445 -0.548 
0.681 -0.267 -0.65 -0.862 -0.028 -0.163 -0.141 0.561 0.756 0.004 0.649 0.57 0.233 -0.246 -0.451 -0.194 -0.596 0.929 -0.505 0.166 -0.075 0.468 -0.875 0.804 -0.356 -0.294 -0.301 -0.358 -0.802 0.251 
0.234 -0.438 0.034 -0.158 0.407 0.589 -0.403 0.436 0.189 -0.456 0.851 -0.736 0.973 -0.021 -0.145 -0.873 -0.203 0.54 0.725 -0.85 0.486 0.996 0.006 -0.239 -0.661 -0.072 -0.685 0.235 0.071 -0.037 
0.454 0.388 0.43 -0.734 0.605 -0.935 0.903 -0.168 0.584 0.738 -0.112 -0.718 0.534 0.496 0.867 -0.698 0.331 0.47 -0.68 -0.712 -0.588 0.441 -0.47 0.037 -0.098 -0.965 0.878 -0.572 0.355 -0.508 
-0.703 -0.327 -0.922 0.274 -0.19 -0.181 -0.414 -0.909 -0.496 -0.471 -0.402 -0.752 -0.363 0.857 0.452 -0.355 0.995 0.273 -0.125 -0.978 0.894 0.682 0.833 -0.34 0.25 -0.015 0.644 -0.617 0.806 0.911 
-0.493 0.206 -0.918 -0.308 0.808 0.894 0.381 0.159 -0.247 -0.52 -0.582 0.713 -0.729 -0.506 -0.957 0.564 0.679 -0.706 -0.202 0.694 -0.256 -0.489 0.223 -0.966 -0.061 0.604 0.975 -0.56 -0.766 -0.768 
0.812 0.131 -0.902 -0.719 -0.631 -0.532 0.882 0.719 -0.921 -0.027 -0.231 -0.802 -0.533 0.481 -0.261 0.491 -0.286 0.682 -0.667 -0.1 -0.205 -0.501 0.393 -0.773 -0.06 0.64 -0.428 -0.589 0.416 0.762 
0.942 0.491 0.583 -0.409 -0.655 -0.972 0.486 0.353 -0.258 -0.914 -0.536 0.933 0.652 0.624 -0.819 0.76 -0.126 -0.649 0.347 -0.827 -0.041 0.862 0.818 0.154 0.552 0.943 -0.396 -0.524 -0.31 -0.839 
0.293 -0.553 -0.991 -0.365 0.895 -0.525 0.352 0.4 -0.999 -0.237 -0.366 -0.253 -0.135 0.088 -0.696 0.004 -0.76 -0.923 0.051 -0.397 -0.363 -0.788 -0.315 0.685 -0.292 -0.742 0.915 0.462 0.472 -0.498 
-0.626 0.806 0.406 -0.177 0.643 -0.61 0.061 -0.513 0.271 0.988 0.331 0.41 0.47 0.549 0.465 0.772 0.214 -0.701 -0.67 -0.206 0.616 -0.825 0.904 -0.041 -0.473 -0.719 0.92 -0.062 -0.317 0.91 
0.727 -0.874 0.824 0.24 0.332 -0.485 0.859 0.74 -0.521 0.707 -0.555 -0.975 -0.333 0.911 0.74 -0.403 -0.855 0.77 0.526 -0.732 0.917 0.87 -0.585 -0.357 0.7 -0.978 0.852 -0.495 -0.85 -0.772 
0.56 -0.633 -0.055 0.74 -0.176 0.466 -0.738 0.049 -0.893 0.463 -0.984 -0.265 -0.196 0.918 -0.487 0.408 0.594 0.018 0.247 -0.454 -0.265 -0.848 -0.152 -0.439 0.568 0.213 0.97 -0.311 0.149 -0.219 
0.711 -0.545 -0.782 0.706 0.934 0.417 -0.419 -0.878 -0.908 0.714 -0.127 -0.876 0.997 0.387 0.394 0.948 -0.314 0.414 -0.006 0.429 0.741 -0.219 0.923 0.062 -0.556 0.259 0.629 0.048 -0.647 0.768 
0.258 0.247 0.921 -0.221 -0.399 -0.873 -0.873 0.211 -0.648 0.793 -0.361 -0.065 0.078 0.013 -0.856 0.159 0.616 0.802 -0.687 0.506 0.098 0.773 0.827 0.905 -0.176 -0.249 -0.128 0.652 -0.811 0.866 
0.418 -0.021 -0.557 -0.324 -0.817 0.96 0.852 0.781 -0.045 -0.604 -0.95 -0.066 -0.578 0.198 0.45 -0.254 -0.664 0.995 0.526 0.346 -0.702 0.626 -0.43 -0.749 0.863 -0.736 -0.705 -0.622 -0.62 0.028 
-0.193 -0.124 -0.341 -0.973 0.016 0.719 0.206 0.59 -0.843 -0.851 -0.526 0.154 -0.759 -0.358 0.577 0.361 0.917 -0.805 0.685 0.359 -0.237 0.545 -0.142 0.016 -0.188 -0.449 -0.629 -0.048 0.544 0.744 
-0.312 -0.725 0.316 0.845 0.271 0.062 0.945 -0.57 0.48 -0.907 -0.102 0.43 0.669 0.959 -0.227 0.42 -0.215 0.575 -0.322 0.719 -0.304 0.628 -0.911 -0.223 0.056 0.283 -0.273 -0.544 0.567 0.979 
-0.102 -0.943 -0.331 -0.655 -0.252 0.565 0.067 -0.779 0.781 0.041 -0.196 0.493 0.732 -0.615 0.987 -0.807 0.688 0.181 -0.499 0.591 -0.633 0.006 0.568 -0.608 -0.85 -0.638 -0.804 -0.902 -0.278 -0.066 
-0.871 -0.129 0.807 0.164 -0.334 0.79 0.639 -0.682 0.865 0.321 0.269 -0.111 0.058 0.879 -0.718 -0.971 0.804 0.69 -0.392 -0.524 -0.203 -0.237 -0.81 -0.999 0.429 0.229 0.947 0.187 -0.569 0.503 
-0.594 0.05 -0.405 -0.93 -0.931 -0.678 -0.361 0.995 0.564 -0.826 0.64 -0.84 0.665 0.486 -0.333 0.705 0.214 0.939 -0.112 -0.735 -0.722 -0.502 0.218 -0.494 0.788 -0.096 -0.664 -0.839 0.6 -0.379 
0.224 -0.167 0.659 0.356 -0.268 0.999 -0.395 -0.806 -0.675 0.174 -0.467 -0.003 -0.008 0.756 0.185 0.751 0.83 -0.276 -0.146 0.179 0.472 0.718 0.794 0.847 -0.077 0.836 0.072 -0.062 -0.496 0.662 
0.581 -0.632 -0.721 0.024 0.865 0.427 0.237 0.53 -0.009 -0.451 0.235 -0.624 -0.944 -0.86 0.29 -0.964 -0.14 -0.523 -0.173 0.057 -0.893 0.836 0.948 -0.239 -0.092 0.762 -0.152 -0.399 -0.308 0.888 
-0.387 0.418 -0.751 -0.693 -0.548 -0.388 -0.625 -0.368 0.733 0.519 0.619 -0.902 0.266 -0.75 0.918 0.514 0.756 0.215 -0.156 0.863 0.251 -0.114 0.541 0.022 -0.598 -0.91 -0.044 0.659 -0.223 0.481 
-0.506 -0.743 -0.728 0.871 -0.683 -0.506 0.304 -0.803 -0.954 0.363 0.236 0.27 0.536 0.426 -0.448 -0.725 0.103 0.288 -0.151 0.655 0.943 -0.25 0.237 0.997 0.532 0.643 0.084 -0.615 0.161 -0.172 
-0.265 -0.244 -0.096 0.11 -0.52 0.604 0.154 0.322 -0.222 -0.253 0.703 0.499 0.227 -0.465 0.376 0.293 0.775 -0.238 0.634 0.886 -0.586 0.699 0.014 -0.079 0.465 0.005 0.656 -0.144 -0.295 0.238 
0.1 0.194 -0.175 -0.998 -0.992 -0.466 0.933 0.953 -0.058 0.359 -0.405 -0.474 0.208 0.48 -0.12 -0.718 0.657 -0.67 0.998 0.625 -0.263 -0.709 -0.235 -0.557 -0.663 -0.503 0.928 0.357 0.76 0.616 
0.369 0.761 0.469 -0.136 -1 0.467 -0.066 -0.894 0.792 -0.298 -0.015 -0.884 -0.75 -0.833 0.625 -0.996 0.533 -0.305 -0.98 -0.423 -0.01 -0.929 0.906 -0.024 0.605 -0.641 0.312 0.774 -0.303 -0.897 
0.661 -0.639 -0.123 0.21 -0.916 -0.42 0.45 0.624 -0.22 -0.27 -0.393 0.619 -0.987 -0.326 -0.145 0.132 -0.708 0.556 0.914 0.942 -0.544 0.484 -0.098 0.675 -0.394 -0.028 -0.665 -0.793 -0.846 -0.545 
-0.148 -0.646 0.911 -0.141 0.956 -0.639 0.881 -0.042 -0.551 0.615 -0.855 -0.203 0.861 0.384 -0.2 0.825 0.762 -0.818 0.743 -0.118 -0.25 0.872 -0.153 -0.632 0.662 0.615 0.805 -0.2 -0.95 0.659 
-0.496 -0.884 -0.678 -0.178 -0.898 -0.169 0.031 -0.097 -0.085 0.559 0.581 0.881 0.132 0.724 0.495 -0.803 -0.221 -0.769 0.172 0.982 0.556 -0.018 0.393 0.547 -0.345 -0.272 0.743 -0.638 0.207 -0.996 
-0.226 -0.629 0.586 0.279 -0.191 0.819 0.49 -0.907 0.916 0.274 -0.636 0.047 0.508 -0.537 0.046 0.95 -0.153 0.938 0.734 -0.569 0.828 -0.046 -0.495 -0.816 0.659 -0.52 0.234 -0.302 -0.073 -0.244 
-0.213 -0.313 0.155 0.983 0.744 0.565 -0.9 -0.047 -0.326 0.948 -0.107 -0.637 -0.782 -0.739 -0.632 -0.769 0.463 0.708 -0.052 -0.065 -0.895 0.439 0.018 0.428 -0.593 -0.233 -0.707 0.704 0.822 0.054 
-0.687 0.701 0.722 0.209 -0.39 -0.721 -0.558 -0.991 -0.016 0.432 -0.617 0.957 -0.598 -0.725 0.43 0.45 0.449 -0.877 0.463 -0.283 -0.474 0.5 -0.62 0.072 0.343 0.794 0.045 0.107 -0.338 0.626 
-0.525 0.981 0.538 -0.531 -0.308 -0.812 -0.59 -0.436 0.032 0.049 0.871 0.6 -0.311 0.471 0.809 -0.975 0 0.965 -0.723 -0.022 -0.139 -0.974 0.702 -0.606 0.702 0.625 -0.286 0.742 -0.827 -0.699 
-0.098 -0.827 -0.325 -0.697 -0.676 0.629 -0.351 -0.971 0.059 -0.412 -0.551 0.765 -0.824 0.561 -0.904 -0.597 -0.052 -0.084 0.047 -0.897 0.694 -0.373 -0.326 -0.366 -0.709 -0.641 0.105 0.731 0.587 -0.137 
0.813 -0.995 0.774 0.723 0.485 -0.749 0.398 0.347 0.745 0.399 0.686 0.785 -0.25 0.414 0.395 0.323 0.38 -0.384 0.811 0.166 -0.652 -0.969 0.388 -0.192 -0.041 0.638 -0.427 0.053 0.203 -0.803 
-0.502 0.277 -0.274 0.362 -0.036 0.867 0.088 0.465 0.568 0.392 0.636 -0.249 0.418 0.105 -0.353 -0.644 0.569 -0.345 -0.484 0.303 0.012 -0.026 -0.968 0.326 -0.947 0.32 0.274 0.622 0.453 0.65 
-0.5 -0.992 -0.776 -0.297 -0.592 -0.923 -0.373 0.876 -0.979 -0.309 -0.509 -0.635 -0.751 -0.664 -0.993 0.646 -0.564 0.126 -0.951 0.227 -0.478 0.144 -0.295 -0.78 -0.191 0.74 0.699 0.563 0.611 0.425 
-0.702 -0.76 0.086 -0.517 0.925 0.999 -0.373 -0.427 -0.696 0.776 -0.756 0.615 0.294 0.696 -0.287 -0.648 -0.866 0.254 0.532 -0.099 -0.269 -0.223 0.612 -0.854 -0.871 -0.233 0.279 -0.408 -0.587 -0.767 
0.004 0.68 0.404 0.662 0.704 -0.345 -0.465 0.78 0.582 0.371 0.237 0.27 0.764 -0.435 0.953 -0.885 0.66 0.095 0.71 -0.005 0.705 -0.736 -0.944 0.871 0.811 0.501 -0.475 0.697 -0.3 -0.549 
-0.94 0.162 -0.549 -0.19 0.228 -0.565 -0.319 -0.34 -1 0.03 -0.485 0.71 -0.639 0.278 0.247 0.742 -0.475 0.02 -0.238 0.118 -0.961 -0.62 -0.855 0.672 0.311 0.143 -0.193 -0.965 -0.78 -0.463 
0.142 0.452 -0.418 0.478 0.225 0.496 -0.311 -0.703 0.77 -0.959 0.879 0.101 0.4 -0.377 -0.995 0.472 0.707 -0.711 -0.927 -0.659 -0.413 -0.539 -0.414 0.369 -0.907 -0.476 0.56 -0.641 -0.905 -0.015 
0.846 -0.968 -0.433 -0.324 0.702 -0.323 0.799 -0.326 0.331 -0.801 -0.997 0.751 -0.724 -0.358 -0.05 0.398 0.728 0.668 -0.951 -0.544 -0.027 -0.932 0.046 0.723 0.278 0.137 0.445 -0.907 0.644 -0.415 
-0.163 0.69 0.587 -0.092 0.285 0.842 0.217 -0.681 0.682 0.071 0.93 0.077 0.372 -0.851 0.072 -0.637 0.845 -0.35 -0.054 -0.565 0.529 -0.336 -0.55 -0.901 -0.516 -0.471 0.739 -0.922 -0.551 0.523 
-0.982 0.252 0.535 0.74 0.164 -0.962 -0.735 0.311 0.473 -0.203 0.589 0.207 -0.809 -0.221 0.148 -0.764 -0.774 0.649 -0.428 -0.82 0.843 -0.213 -0.477 0.211 -0.265 0.625 -0.251 -0.242 -0.783 0.335 
-0.992 0.669 -0.086 -0.68 0.59 0.751 -0.848 -0.418 -0.478 -0.918 -0.875 -0.131 -0.498 0.091 0.209 0.905 -0.203 -0.885 -0.757 -0.123 0.285 0.883 -0.54 -0.507 0.759 0.337 0.372 0.902 -0.575 0.315 
0.425 0.428 0.075 -0.045 -0.659 0.653 -0.79 -0.404 -0.409 0.845 0.266 -0.9 -0.395 -0.408 -0.393 -0.477 0.777 0.503 -0.403 -0.629 -0.831 0.557 0.174 0.912 0.3 -0.303 0.852 0.385 0.217 0.322 
-0.632 -0.104 0.002 -0.602 -0.974 -0.713 0.154 -0.589 -0.43 -0.061 -0.782 0.417 0.287 0.645 0.194 -0.609 0.894 0.558 0.15 0.069 -0.283 0.923 0.902 -0.966 -0.832 0.442 0.795 -0.936 -0.461 0.876 
-0.561 0.573 -0.367 -0.548 0.517 0.499 0.589 0.67 0.985 0.354 0.816 0.699 -0.376 0.035 -0.502 0.172 0.947 -0.248 0.556 -0.187 0.208 0.315 -0.555 0.101 0.114 0.485 -0.069 0.138 -0.694 0.24 
0.14 -0.566 -0.483 -0.289 0.55 0.959 -0.536 0.668 0.612 -0.013 0.546 -0.926 -0.102 0.589 -0.063 -0.58 -0.605 0.314 -0.768 0.765 -0.248 -0.609 -0.705 0.706 0.42 0.174 0.251 0.917 -0.138 -0.008 
0.352 0.019 -0.601 0.162 -0.292 -0.912 0.413 -0.582 -0.731 0.057 0.527 -0.404 0.094 0.763 -0.567 -0.656 0.374 0.738 0.898 0.806 -0.27 -0.651 -0.548 -0.043 0.684 0.08 0.172 0.752 0.843 -0.831 
0.635 -0.517 0.917 -0.056 0.108 0.732 0.579 -0.808 0.559 -0.379 0.052 0.803 0.421 -0.575 -0.572 -0.859 -0.923 -0.275 0.382 0.911 -0.722 -0.439 0.896 -0.745 -0.946 0.127 -0.194 0.334 -0.653 -0.381 
0.265 -0.317 0.352 -0.117 0.146 0.774 -0.75 -0.238 0.778 -0.193 0.756 -0.153 -0.677 0.72 0.735 0.347 -0.34 -0.632 -0.778 -0.021 0.801 -0.23 -0.607 0.363 0.802 -0.931 0.999 -0.62 -0.211 -0.491 
-0.59 0.734 0.366 0.962 0.158 0.722 0.878 0.951 -0.141 -0.263 -0.039 0.318 -0.957 0.937 -0.94 -0.39 -0.203 -0.894 0.447 0.829 -0.237 -0.317 -0.296 -0.101 -0.015 -0.061 0.992 0.206 0.927 -0.084 
-0.542 -0.373 0.017 0.394 0.609 -0.122 0.701 0.549 -0.655 -0.334 -0.379 0.555 -0.599 0.939 0.965 -0.013 -0.601 -0.281 -0.481 0.621 -0.476 -0.422 -0.971 -0.867 0.554 0.793 -0.313 0.121 -0.605 -0.782 
-0.018 -0.271 -0.972 -0.07 -0.36 -0.161 0.234 -0.633 -0.171 0.479 -0.525 -0.977 0.577 0.288 -0.623 -0.512 0.035 -0.884 0.938 -0.719 -0.3 -0.315 -0.828 0.2 -0.075 -0.816 0.975 -0.53 0.715 0.15 
0.178 0.417 -0.42 0.296 0.411 0.873 -0.13 -0.284 0.562 -0.803 0.893 0.342 -0.339 -0.122 0.654 0.112 0.249 -0.925 0.035 -0.532 0.903 -0.561 0.494 0.497 0.981 -0.352 0.552 -0.283 -0.177 -0.143 
-0.828 0.674 0.358 0.483 -0.896 -0.34 -0.784 -0.177 0.188 -0.223 0.687 0.736 0.287 0.53 0.454 -0.465 0.134 -0.622 -0.614 0.718 -0.819 -0.788 -0.25 0.856 -0.061 0.666 -0.447 -0.295 0.985 0.867 
0.115 -0.902 0.284 0.516 0.726 0.464 -0.093 -0.349 -0.79 0.438 -0.805 -0.049 -0.98 0.184 0.065 -0.308 -0.201 -0.254 -0.353 0.078 0.539 -0.041 0.267 -0.46 -0.675 -0.122 0.428 -0.793 -0.897 -0.246 
-0.433 -0.205 0.258 -0.143 0.857 0.069 0.922 0.704 0.381 0.821 -0.911 0.517 -0.927 -0.426 0.046 -0.195 -0.676 0.268 0.103 0.247 -0.286 -0.387 -0.3 -0.056 -0.253 -0.101 -0.058 -0.704 -0.527 0.241 
0.856 -0.291 0.913 -0.548 -0.107 0.175 0.356 0.972 0.826 -0.853 0.886 0.283 0.477 0.612 -0.106 -0.147 0.031 0.999 -0.104 0.953 -0.53 -0.778 -0.025 -0.745 0.942 -0.584 -0.881 -0.934 0.536 0.654 
0.474 0.064 -0.349 -0.615 -0.696 -0.953 0.819 -0.39 -0.171 0.434 -0.065 0.57 -0.714 -0.595 0.231 -0.277 -0.38 0.173 -0.218 -0.306 0.348 0.699 0.164 -0.697 -0.81 -0.781 0.879 -0.049 0.613 -0.232 
0.812 0.408 -0.354 -0.853 -0.2 -0.106 -0.404 0.043 -0.236 0.635 -0.253 -0.161 -0.48 -0.189 0.644 -0.654 0.294 -0.702 -0.975 -0.211 0.955 0.955 -0.014 -0.212 0.61 -0.126 -0.298 0.058 -0.558 -0.812 
-0.802 -0.706 -0.44 0.998 -0.138 0.298 -0.768 -0.053 -0.923 -0.767 -0.848 0.01 0.632 0.746 -0.603 -0.385 -0.166 0.754 0.611 -0.463 -0.922 0.134 0.215 -0.86 -0.848 -0.783 -0.305 -0.768 0.513 -0.733 
-0.132 -0.863 0.577 0.723 0.807 0.848 -0.886 -0.729 0.418 -0.91 -0.693 0.129 0.032 -0.128 -0.342 0.587 0.695 0.487 0.158 -0.393 -0.715 0.784 0.027 -0.256 -0.159 0.979 -0.145 -0.683 0.467 -0.345 
0.973 -0.249 -0.057 -0.131 -0.04 0.625 0.734 -0.706 -0.254 -0.777 -0.394 -0.302 -0.187 0.802 -0.549 -0.125 0.354 0.667 -0.611 0.065 -0.039 0.598 -0.652 0.904 -0.456 0.866 -0.415 -0.738 -0.857 -0.402 
0.903 0.641 0.787 0.286 -0.006 0.288 0.521 0.589 -0.009 -0.807 -0.01 -0.811 -0.108 0.515 -0.835 -0.419 -0.919 0.589 0.136 0.002 0.927 -0.713 0.786 0.218 -0.008 0.207 -0.347 0.085 -0.416 -0.385 
0.799 -0.796 0.674 0.132 -0.453 -0.481 0.43 0.899 -0.291 -0.463 -0.151 -0.457 -0.338 0.071 0.149 0.814 0.361 -0.951 0.595 0.1 0.004 0.712 -0.858 0.224 -0.781 -0.487 -0.358 -0.546 0.265 -0.304 
0.213 0.029 0.113 -0.768 -0.388 -0.71 -0.803 0.578 0.201 -0.196 -0.292 -0.427 0.044 0.865 0.465 -0.747 -0.208 0.233 0.674 0.351 0.752 -0.59 -0.386 -0.445 0.105 -0.525 0.274 -0.517 0.577 -0.146 
0.11 -0.436 0.696 0.559 -0.429 -0.198 0.014 -0.742 0.336 0.16 0.806 -0.828 -0.562 0.896 -0.759 -0.64 -0.776 0.92 -0.914 0.781 0.111 0.886 0.312 0.734 0.205 -0.53 -0.496 0.778 -0.456 -0.775 
-0.155 -0.635 -0.662 0.032 0.802 -0.673 0.702 0.361 0.799 0.091 -0.387 -0.863 -0.182 0.003 0.554 -0.037 -0.201 0.442 -0.885 -0.264 -0.699 0.226 0.954 -0.921 0.196 -0.96 0.906 0.799 0.036 -0.836 
0.749 0.555 -0.417 -0.371 0.917 -0.219 -0.391 0.82 -0.23 0.31 0.119 0.599 -0.132 0.556 -0.177 0.13 0.218 0.717 0.702 -0.023 0.434 -0.532 -0.977 0.241 0.681 0.378 -0.518 0.207 -0.803 0.99 
0.476 0.033 -0.279 -0.92 -0.842 -0.5 -0.759 0.434 -0.792 -0.874 0.239 0.376 0.287 0.037 0.757 0.57 -0.98 -0.249 0.324 -0.801 0.935 0.58 0.132 0.061 0.452 0.56 0.277 0.486 -0.283 0.101 
0.446 -0.332 -0.624 -0.383 -0.044 0.201 -0.366 0.284 -0.483 -0.512 0.068 0.861 0.613 -0.456 -0.227 0.109 -0.944 -0.494 0.617 -0.868 -0.495 0.633 -0.663 -0.222 -0.789 -0.67 0.49 0.985 0.998 -0.332 
-0.166 -0.199 0.373 0.633 0.136 0.212 0.453 0.805 0.7 0.804 0.84 -0.153 0.135 0.545 0.595 -0.178 0.748 0.503 0.196 -0.899 -0.097 -0.633 -0.103 0.338 -0.484 -0.147 0.093 0.5 -0.805 0.45 
0.532 -0.325 0.467 0.835 -0.951 0.02 -0.835 -0.286 -0.283 -0.427 0.043 -0.741 -0.573 -0.946 -0.264 0.458 -0.302 -0.527 -0.159 0.123 0.427 0.195 0.709 0.386 0.371 -0.877 0.169 0.764 -0.445 -0.566 
0.095 -0.347 0.374 0.82 0.711 -0.821 -0.797 0.91 -0.282 0.851 0.524 0.976 0.439 -0.629 0.614 0.062 0.672 -0.448 0.33 -0.679 0.31 0.785 0.651 0.571 -0.589 0.483 -0.695 -0.413 -0.778 0.455 
-0.043 0.173 -0.436 -0.039 0.454 0.902 0.287 0.33 -0.853 -0.978 0.828 -0.049 -0.686 0.975 0.2 -0.693 0.089 0.462 -0.875 -0.693 0.243 -0.321 -0.894 -0.175 0.893 0.654 0.465 0.02 -0.191 -0.181 
-0.466 0.55 -0.149 0.629 0.06 0.501 -0.262 0.746 -0.623 -0.842 -0.919 -0.051 0.837 -0.593 -0.897 -0.678 -0.041 0.915 0.659 -0.745 0.289 0.804 0.852 -0.117 -0.355 -0.508 -0.007 -0.029 0.104 -0.58 
0.964 -0.766 0.886 -0.575 0.3 0.121 0.278 0.307 -0.069 -0.265 -0.441 0.056 0.789 0.995 -0.597 -0.791 0.106 0.792 -0.117 0.331 -0.978 0.848 -0.1 -0.047 0.615 -0.172 -0.032 0.784 -0.554 -0.237 
0.64 -0.525 0.122 -0.031 0.456 -0.864 0.097 -0.623 -0.237 0.938 -0.063 -0.49 0.409 -0.136 -0.522 -0.969 -0.042 0.183 0.508 -0.814 -0.003 0.299 0.224 0.754 -0.692 -0.5 -0.814 -0.333 0.578 -0.85 
0.638 -0.859 -0.305 -0.191 0.603 -0.513 -0.581 0.955 0.082 0.999 -0.63 0.322 0.467 -0.801 -0.643 0.639 -0.058 0.642 0.78 0.751 0.302 0.559 0.02 -0.149 0.434 -0.572 -0.661 0.555 0.03 -0.961 
-0.324 -0.281 0.535 -0.142 -0.097 0.11 0.766 -0.795 -0.425 -0.63 0.215 -0.24 0.963 -0.781 0.667 -0.743 -0.931 0.883 0.555 -0.485 0.695 0.635 0.677 -0.472 0.136 -0.3 -0.596 -0.801 -0.799 -0.472 
-0.493 0.913 0.852 -0.863 -0.774 -0.927 -0.025 0.434 -0.596 -0.597 0.421 0.085 0.344 0.311 0.022 -0.779 -0.817 0.397 -0.399 -0.45 -0.114 -0.486 -0.465 0.689 -0.436 0.196 -0.847 0.54 -0.923 0.571 
0.34 0.425 -0.679 -0.255 0.628 0.198 -0.081 -0.181 -0.529 0.901 0.35 0.776 0.38 0.021 0.205 0.242 0.268 0.752 -0.296 0.818 -0.529 0.342 -0.218 -0.087 -0.486 -0.933 0.394 -0.308 0.344 -0.02 
-0.553 -0.081 0.286 0.856 -0.393 -0.218 0.756 -0.788 0.941 0.84 -0.576 0.463 0.634 -0.347 0.805 -0.224 -0.419 -0.519 -0.964 -0.163 -0.882 0.049 0.593 0.645 -0.947 -0.914 0.322 0.287 -0.666 -0.297 
-0.092 -0.851 -0.84 -0.972 -0.585 0.492 -0.762 -0.471 -0.39 -0.595 -0.258 -0.785 -0.751 0.441 -0.44 0.313 0.742 0.703 -0.319 0.901 0.671 -0.206 0.281 0.338 0.575 -0.174 0.553 0.353 0.03 0.935 
0.825 0.175 0.205 0.853 0.449 -0.911 -0.427 0.604 0.126 0.513 -0.736 -0.48 0.888 -0.567 0.603 0.681 -0.83 0.061 0.633 -0.165 0.833 0.014 -0.405 -0.152 -0.144 -0.741 -0.513 0.164 -0.973 0.907 
0.183 0.426 -0.725 -0.231 0.828 -0.882 -0.566 -0.065 -0.542 -0.702 0.615 0.823 -0.515 -0.323 -0.7 0.925 0.756 0.936 0.238 -0.472 0.918 -0.581 0.949 0.203 -0.454 -0.248 -0.291 -0.889 -0.741 -0.539 
0.339 -0.652 0.708 -0.224 -0.94 0.015 -0.776 0.414 0.891 -0.73 -0.155 -0.491 0.857 0.034 0.202 -0.949 -0.982 -0.54 0.454 0.255 0.277 0.067 -0.877 0.918 -0.94 -0.203 -0.732 -0.376 0.438 -0.484 
0.586 -0.804 -0.527 -0.317 -0.227 -0.399 0.828 -0.839 0.073 0.431 0.875 -0.259 0.519 -0.227 -0.564 0.747 -0.962 0.964 -0.03 -0.251 -0.407 0.516 -0.161 -0.41 0.778 -0.218 0.856 0.995 -0.881 0.882 
0.916 -0.413 0.021 0.065 0.533 -0.208 -0.837 -0.187 -0.502 0.478 0.216 -0.392 0.868 0.636 -0.657 0.69 -0.025 0.585 -0.223 0.719 -0.797 -0.855 0.307 -0.799 -0.86 -0.504 0.802 -0.398 -0.393 0.638 
-0.763 0.076 -0.785 0.691 0.579 -0.788 -0.794 0.965 0.9 0.692 -0.345 -0.969 0.188 0.529 -0.532 0.348 -0.507 -0.772 -0.701 0.965 -0.101 0.836 -0.185 0.872 0.814 -0.612 0.204 0.978 0.58 -0.975 
0.938 0.973 -0.466 0.592 -0.786 -0.475 0.204 -0.699 -0.627 0.663 -0.142 -0.65 -0.309 0.14 -0.083 0.529 -0.372 0.981 -0.847 0.884 0.504 -0.441 -0.187 -0.484 0.628 0.329 -0.894 -0.545 0.254 0.251 
0.887 0.077 -0.103 -0.343 -0.464 0.34 -0.774 0.272 -1 -0.396 -0.574 0.225 -0.547 0.964 -0.802 0.916 0.563 -0.606 -0.581 -0.258 0.124 -0.944 -0.578 -0.17 0.854 0.477 0.979 -0.444 0.021 0.145 
0.787 -0.677 0.195 -0.467 -0.42 0.218 -0.987 0.37 -0.164 -0.627 -0.464 0.45 0.717 -0.375 0.412 -0.924 0.808 0.727 -0.089 0.891 0.035 -0.752 -0.019 -0.791 -0.147 0.731 0.519 0.352 0.395 0.003 
-0.591 0.266 -0.732 0.924 0.673 -0.615 -0.726 -0.873 -0.652 -0.671 0.826 0.596 0.539 -0.923 0.182 -0.985 0.007 -0.705 -0.88 -0.034 0.976 0.468 -0.982 -0.478 -0.388 0.103 0.636 -0.227 0.766 0.989 
-0.01 0.987 0.733 0.993 0.662 -0.892 0.647 -0.695 -0.452 -0.808 -0.298 0.393 0.556 -0.34 0.897 -0.058 0.34 0.42 0.054 -0.706 -0.065 0.817 0.935 0.789 -0.199 -0.771 -0.318 0.867 0.58 0.725 
-0.283 -0.547 -0.774 0.007 0.93 -0.432 -0.556 0.187 0.608 -0.282 -0.07 -0.297 -0.99 0.642 0.284 -0.851 -0.037 -0.514 -0.095 0.04 0.45 -0.585 0.861 0.951 0.355 0.503 0.168 0.441 0.934 0.995 
0.461 0.378 -0.812 0.79 0.993 0.429 -0.681 0.062 0.053 0.73 0.273 -0.042 -0.772 0.745 -0.944 -0.316 -0.159 0.832 0.016 -0.941 0.867 -0.822 0.866 0.228 -0.526 0.137 -0.196 0.704 -0.209 -0.131 
0.192 0.513 -0.673 -0.683 0.385 0.498 0.225 0.565 0.996 0.147 -0.8 -0.903 -0.476 0.882 0.442 -0.343 0.168 0.727 0.722 -0.195 0.729 0.303 0.643 0.851 -0.178 0.971 0.086 0.558 0.474 0.169 
0.694 0.866 0.521 0.579 0.194 -0.386 0.982 0.983 0.514 -0.936 0.065 0.328 0.798 0.671 0.864 -0.51 -0.612 -0.659 -0.781 -0.653 -1 0.651 -0.996 -1 -0.231 0.41 0.847 -0.586 0.977 -0.737 
0.022 -0.805 -0.748 0.959 0.6 0.883 -0.883 -0.1 -0.421 -0.289 0.574 -0.482 -0.217 0.403 -0.969 -0.139 -0.435 0.303 -0.999 -0.355 -0.84 -0.816 0.411 -0.717 0.371 0.152 0.364 0.152 0.316 0.46 
0.234 -0.444 -0.505 0.988 -0.269 -0.452 0.885 0.248 -0.646 0.295 0.934 0.752 -0.532 0.926 0.109 0.845 -0.413 0.562 -0.476 -0.481 -0.358 0.29 -0.816 -0.057 -0.27 0.333 -0.411 -0.49 0.437 -0.988 
0.845 0.308 -0.854 -0.54 0.405 0.741 -0.487 0.675 -0.855 -0.438 0.895 -0.52 -0.495 -0.764 -0.621 0.624 0.62 -0.114 -0.647 0.767 0.332 0.556 -0.281 -0.828 -0.367 -0.306 -0.297 -0.544 -0.421 0.505 
0.349 -0.969 -0.566 0.76 0.969 0.328 -0.807 0.863 0.335 -0.678 -0.309 -0.687 0.773 -0.377 -0.093 -0.334 0.38 -0.338 0.666 0.127 0.259 0.419 0.509 -0.724 -0.472 0.058 0.325 -0.658 -0.656 0.868 
0.652 -0.213 -0.886 -0.039 0.092 -0.785 -0.001 -0.233 0.458 -0.559 -0.18 0.345 0.147 0.052 -0.317 0.683 -0.011 0.834 0.127 -0.275 0.449 0.23 -0.569 0.023 -0.496 0.297 -0.748 0.893 -0.844 0.624 
0.87 -0.958 0.352 -0.781 -0.204 0.657 -0.63 0.369 0.499 -0.823 -0.272 0.546 -0.054 0.473 0.681 -0.067 0.899 -0.819 0.222 0.444 -0.605 0.84 -0.823 -0.003 -0.962 0.339 -0.308 -0.086 -0.571 0.26 
0.868 0.57 -0.463 -0.526 -0.848 -0.887 -0.347 0.152 0.669 0.822 -0.529 -0.552 0.996 0.236 -0.961 -0.622 0.31 0.708 0.891 0.821 0.006 -0.584 0.386 0.277 -0.632 0.986 0.912 0.686 -0.855 0.87 
-0.287 -0.152 -0.321 0.886 -0.199 0.683 0.914 -0.235 -0.477 0.117 -0.836 -0.298 0.185 -0.742 -0.355 -0.522 0.084 -0.165 0.289 0.191 -0.364 -0.598 -0.026 -0.114 0.578 0.108 0.856 -0.569 0.228 0.336 
-0.673 -0.105 0.113 -0.944 0.189 -0.965 0.39 0.678 -0.032 -0.081 0.6 0.865 -0.657 0.969 -0.118 0.311 0.755 -0.776 0.881 -0.436 -0.509 -0.201 0.31 -0.252 -0.62 -0.794 0.876 0.886 0.784 -0.677 
-0.172 -0.573 0.935 0.932 0.525 -0.075 -0.764 0.848 -0.769 -0.438 0.802 0.767 -0.806 -0.653 -0.53 -0.28 -0.694 -0.664 -0.434 0.41 -0.578 0.159 -0.974 0.244 -0.103 -0.595 -0.054 -0.056 0.536 -0.501 
-0.391 -0.211 0.054 0.044 0.057 -0.395 -0.803 0.831 -0.722 0.223 0.061 0.16 0.831 -0.514 0.274 0.692 -0.574 -0.423 0.401 0.085 0.551 0.883 0.978 0.618 -0.375 0.142 -0.651 0.474 -0.448 -0.884 
-0.066 0.546 -0.438 -0.745 0.291 0.07 -0.293 0.29 0.264 0.629 -0.222 0.191 -0.184 -0.912 -0.065 0.93 0.391 0.667 -0.67 -0.699 -0.314 -0.667 -0.427 -0.754 -0.985 0.581 -0.211 -0.594 -0.415 0.853 
-0.227 0.955 0.566 0.196 0.187 -0.72 0.355 -0.057 0.599 -0.957 0.215 -0.721 -0.487 0.312 0.168 -0.783 0.618 -0.524 -0.781 -0.319 0.918 -0.283 0.578 0.88 0.657 -0.224 -0.957 0.329 -0.664 0.01 
-0.97 -0.842 -0.887 0.907 0.279 -0.904 -0.891 -0.048 -0.899 0.055 0.372 -0.096 0.658 -0.617 -0.662 0.514 0.293 -0.789 -0.151 0.877 0.78 0.782 0.167 0.479 -0.931 0.784 0.29 -0.494 0.767 -0.451 
-0.143 -0.932 -0.852 -0.667 0.236 0.87 -0.422 -0.537 -0.273 0.495 0.587 -0.337 0.362 0.593 -0.447 -0.286 -0.115 -0.443 0.102 -0.009 -0.477 -0.061 0.523 -0.807 0.668 0.077 -0.417 0.89 -0.88 -0.852 
-0.061 0.106 0.56 -0.246 0.299 0.809 -0.497 -0.046 -0.985 -0.007 -0.479 0.197 -0.861 -0.793 0.53 0.047 0.748 -0.309 -0.902 0.265 -0.22 -0.963 -0.768 0.08 -0.824 -0.757 -0.979 -0.635 -0.416 0.073 
0.259 0.63 -0.266 -0.264 0.894 -0.69 -0.581 0.81 0.969 0.489 -0.666 0.485 -0.253 -0.822 0.59 0.454 0.067 -0.048 -0.789 -0.632 -0.998 0.598 -0.52 -0.684 -0.807 0.538 -0.805 0.971 -0.093 0.497 
-0.265 0.227 -0.556 0.329 0.146 0.046 0.385 0.11 -0.589 0.817 -0.686 0.017 0.863 -0.621 0.974 0.39 -0.796 -0.571 -0.906 -0.323 0.261 0.209 -0.604 -0.956 -0.681 -0.411 -0.379 -0.837 0.779 -0.478 
0.549 0.456 0.974 -0.496 0.874 0.603 0.589 -0.411 0.644 -0.94 -0.851 0.102 -0.781 0.532 -0.487 -0.708 0.617 -0.846 -0.947 -0.053 -0.879 -0.961 0.339 0.319 0.625 0.459 -0.308 0.104 -0.644 -0.678 
-0.142 0.679 -0.517 0.129 0.203 -0.151 0.445 0.262 0.528 0.788 0.284 -0.569 0.543 0.96 0.754 -0.759 -0.61 0.712 0.332 0.852 -0.591 -0.687 0.126 -0.164 -0.995 -0.79 -0.121 0.532 -0.738 0.436 
-0.297 0.83 -0.362 0.403 -0.21 -0.602 0.599 -0.538 -0.554 0.096 -0.381 -0.524 0.771 0.095 -0.062 -0.824 0.922 0.567 -0.124 -0.466 -0.144 0.165 -0.185 0.622 -0.987 -0.914 -0.293 -0.967 -0.64 -0.219 
0.356 -0.351 0.125 -0.047 0.752 0.062 0.629 0.046 0.538 0.334 0.86 -0.189 -0.434 0.893 -0.656 -0.78 0.717 -0.907 -0.352 -0.616 -0.684 -0.169 0.236 0.446 -0.216 -0.469 0.076 -0.516 0.708 -0.651 
0.116 -0.44 -0.889 -0.168 -0.218 0.938 0.184 -0.641 0.168 0.689 -0.565 -0.518 -0.633 0.629 0.728 0.918 0.556 0.11 -0.998 0.08 -0.674 0.547 -0.667 0.779 -0.168 0.805 0.332 -0.353 -0.387 -0.291 
0.93 0.357 0.201 0.819 -0.369 0.097 -0.774 0.481 -0.731 0.479 0.191 0.471 -0.092 0.945 -0.96 0.688 -0.645 0.071 0.27 0.597 0.879 0.528 0.203 -0.176 -0.255 -0.271 -0.451 0.724 -0.021 -0.86 
-0.993 0.891 0.411 0.898 -0.711 0.112 -0.476 0.115 -0.99 -0.274 -0.767 0.709 0.723 0.44 -0.389 0.252 0.413 0.107 -0.259 -0.487 0.894 0.881 -0.827 -0.45 -0.704 -0.729 0.414 -0.095 0.834 -0.719 
-0.787 -0.033 -0.821 0.141 -0.456 -0.781 0.524 -0.251 -0.403 -0.953 -0.459 0.569 0.882 -0.022 -0.597 0.94 0.633 0.722 0.185 0.222 0.375 0.58 0.916 -0.47 0.516 0.354 0.244 -0.912 0.629 -0.524 
0.447 0.854 -0.743 0.346 -0.632 -0.981 -0.159 0.977 0.2 -0.516 -0.764 0.308 -0.308 -0.95 0.449 0.389 0.88 -0.084 0.102 -0.996 0.745 0.817 0.56 -0.753 -0.935 0.872 -0.796 -0.365 0.383 0.228 
0.03 0.482 -0.771 0.954 0.376 0.749 -0.418 -0.467 -0.834 0.468 -0.681 0.828 -0.049 -0.125 -0.739 -0.503 -0.25 -0.081 -0.888 0.91 -0.119 0.93 -0.585 0.124 0.258 0.899 -0.78 -0.86 0.573 -0.118 
-0.023 -0.679 -0.159 -0.398 -0.973 -0.379 0.034 -0.56 0.453 0.907 0.806 -0.605 0.032 -0.339 -0.633 -0.02 -0.254 -0.849 0.185 -0.048 0.141 0.763 -0.196 0.427 0.906 -0.105 0.243 -0.745 -0.035 -0.14 
-0.074 -0.93 0.219 0.216 -0.058 0.157 -0.231 0.031 -0.801 0.473 -0.922 0.349 -0.67 -0.666 -0.036 0.695 0.772 0.646 0.803 -0.302 0.577 0.047 0.551 0.684 -0.795 0.144 -0.069 -0.742 0.716 -0.716 
0.269 0.161 0.84 0.968 -0.772 0.746 -0.204 0.41 0.696 -0.577 -0.425 0.627 0.712 0.747 0.266 0.039 -0.414 -0.526 0.957 -0.615 0.247 0.347 -0.665 -0.364 -0.532 0.711 0.925 0.52 -0.944 0.861 
0.693 -0.478 0.875 0.004 -0.676 -0.097 0.82 -0.811 0.292 -0.27 -0.41 0.639 -0.399 0.004 -0.46 0.973 0.422 -0.869 0.682 -0.394 0.22 0.271 0.358 -0.781 0.755 0.024 -0.666 -0.282 -0.228 0.556 
0.084 -0.2 -0.154 -0.552 0.303 -0.285 -0.041 0.156 0.972 0.274 -0.866 0.892 0.317 -0.185 0.759 0.964 0.209 0.347 0.03 0.413 0.813 0.603 -0.409 -0.371 0.344 0.416 -0.515 0.227 -0.867 0.639 
-0.406 0.739 0.204 0.387 0.967 0.415 -0.078 -0.616 0.996 -0.665 0.587 0.714 -0.854 0.849 0.981 0.221 0.191 0.125 -0.009 -0.594 0.442 0.323 -0.383 -0.263 0.375 0.814 0.806 -0.276 -0.707 -0.404 
-0.073 -0.452 0.67 -0.954 -0.158 -0.617 -0.337 -0.818 -0.357 -0.23 -0.279 0.071 -0.503 -0.332 -0.96 -0.343 -0.699 0.426 -0.382 -0.876 0.622 -0.1 -0.175 -0.059 -0.256 0.648 -0.924 -0.569 -0.426 -0.322 
-0.933 -0.34 -0.21 -0.188 -0.446 0.317 -0.723 -0.006 0.968 -0.851 -0.078 0.928 0.16 -0.284 0.767 0.743 0.647 0.315 -0.459 -0.634 0.423 0.164 0.767 0.03 -0.228 -0.244 0.226 0.576 -0.298 0.419 
0.643 0.493 0.046 0.123 -0.823 0.398 -0.468 0.575 -0.443 0.182 -0.504 0.662 -0.24 0.98 0.303 -0.28 0.548 0.301 -0.616 0.928 -0.259 0.809 -0.2 -0.302 0.017 0.445 0.227 0.896 0.334 0.826 
0.996 -0.568 -0.606 0.371 0.127 -0.208 -0.751 -0.892 -0.603 -0.828 0.819 -0.415 -0.248 -0.369 0.236 0.413 -0.353 0.248 -0.24 -0.387 0.555 -0.225 0.022 0.588 -0.629 -0.327 -0.34 -0.688 -0.05 -0.872 
-0.58 -0.468 0.744 -0.082 -0.787 -0.809 0.022 -0.349 0.317 0.573 0.677 0.485 0.43 -0.939 0.591 0.448 0.974 -0.221 0.728 -0.737 -0.821 0.703 -0.648 0.545 0.583 0.133 0.57 0.591 -0.391 0.942 
0.66 0.396 -0.62 -0.801 0.392 0.35 -0.661 0.353 -0.133 -0.211 0.165 -0.975 -0.365 -0.39 -0.546 0.681 -0.009 -0.158 0.142 0.766 0.977 -0.253 -0.418 0.507 -0.217 0.797 -0.904 -0.29 -0.741 -0.02 
-0.993 -0.367 -0.641 -0.714 0.655 -0.372 -0.803 -0.544 0.245 0.633 -0.154 0.774 0.194 0.76 0.041 0.97 0.348 -0.268 -0.954 0.717 -0.011 0.822 0.403 0.94 0.368 -0.519 0.048 -0.5 0.386 0.413 
-0.426 -0.375 -0.074 -0.336 0.469 0.252 -0.7 0.986 -0.386 0.523 -0.67 -0.905 -0.434 0.741 -0.422 0.442 -0.371 0.014 0.494 -0.816 -0.027 -0.616 -0.694 -0.701 0.215 0.643 0.634 -0.239 -0.374 -0.97 
-0.484 0.94 0.389 -0.13 0.598 0.994 -0.001 -0.074 0.075 -0.496 -0.859 -0.904 0.618 0.483 -0.244 0.771 0.807 0.031 -0.824 0.91 -0.257 -0.476 0.108 0.027 -0.57 0.077 -0.877 0.912 -0.829 -0.069 
0.19 -0.366 0.862 0.818 0.078 -0.99 0.184 -0.431 -0.155 -0.419 0.892 -0.984 -0.296 0.974 0.901 -0.779 -0.04 0.583 0.913 -0.144 -0.878 -0.847 -0.668 -0.616 0.371 -0.992 -0.992 0.173 0.575 0.058 
-0.301 0.559 -0.54 -0.263 0.881 0.406 -0.245 -0.562 -0.461 -0.988 0.255 -0.103 0.672 -0.583 -0.495 0.982 0.828 -0.747 -0.39 0.538 0.239 -0.925 0.482 0.495 0.967 0.148 -0.895 0.556 0 0.665 
0.293 0.185 0.562 -0.571 0.116 -0.83 0.572 0.13 0.498 -0.967 -0.32 -0.301 -0.636 -0.575 0.879 -0.262 0.246 -0.728 0.742 0.204 -0.438 -0.364 0.441 0.913 -0.526 -0.287 -0.257 0.416 0.24 -0.918 
0.142 -0.534 -0.805 0.423 0.873 -0.762 -0.651 0.869 -0.521 -0.451 0.428 0.7 0.086 -0.314 -0.339 0.893 -0.945 0.773 0.367 -0.053 -0.548 0.144 -0.049 -0.948 -0.281 0.195 -0.952 -0.161 -0.011 -0.3 
0.054 0.096 -0.749 -0.679 0.475 0.921 0.367 0.968 0.545 0.716 0.458 -0.481 0.096 -0.865 0.861 -0.986 0.754 -0.33 -0.71 -0.015 0.278 -0.329 -0.844 -0.87 -0.429 -0.166 0.354 -0.657 0.429 -0.304 
-0.577 -0.2 0.716 -0.41 -0.778 0.572 0.523 -0.678 -0.292 -0.252 -0.098 0.461 0.446 -0.272 -0.136 0.521 0.109 -0.599 0.603 -0.236 0.215 0.598 -0.575 0.134 -0.248 0.435 -0.9 -0.792 0.865 0.847 
0.041 -0.099 -0.073 0.66 0.282 0.357 0.191 0.397 -0.461 0.592 0.025 0.691 -0.187 0.496 0.618 -1 0.522 0.37 -0.209 -0.216 -0.944 -0.641 -0.689 0.972 0.922 0.045 0.064 -0.991 -0.429 0.267 
0.156 0.793 0.58 -0.211 0.613 0.209 -0.377 0.901 -0.857 -0.43 0.157 -0.045 -0.163 0.891 -0.818 -0.61 -0.233 0.687 -0.865 0.915 -0.902 0.619 0.313 0.974 0.296 0.764 -0.777 -0.393 -0.926 -0.21 
-0.401 -0.482 0.14 0.103 0.245 -0.743 -0.784 0.357 -0.963 0.365 0.373 -0.603 0.048 0.124 -0.64 -0.874 0.64 -0.881 -0.772 -0.259 0.271 0.948 0.15 -0.261 -0.771 -0.391 -0.26 0.764 0.449 0.346 
-1 0.929 0.458 0.102 0.808 -0.24 -0.794 -0.007 -0.528 -0.071 -0.366 -0.234 -0.047 -0.147 0.851 -0.861 -0.725 -0.613 0.101 -0.006 0.113 -0.517 -0.766 0.748 -0.772 -0.274 0.709 0.601 0.755 -0.939 
