2e-06

5

784 16 16 16 10 
-0.533 -0.5 0.724 0.358 -0.536 -0.855 -0.173 -0.509 0.942 0.436 -0.396 -0.847 -0.618 -0.284 0.895 0.726 0.538 0.912 -0.701 0.894 0.811 -0.667 -0.336 0.711 -0.132 0.644 -0.243 -0.141 0.741 -0.222 0.035 0.842 -0.894 -0.058 -0.352 0.805 -0.271 0.35 0.101 0.548 -0.377 0.954 0.84 0.376 -0.692 -0.561 0.323 0.538 -0.918 -0.459 0.115 0.658 0.93 -0.694 -0.614 -0.255 0.072 0.829 0.573 -0.488 0.29 -0.364 -0.233 0.574 -0.948 0.15 0.724 0.43 -0.809 0.337 -0.713 -0.617 -0.091 0.758 -0.412 -0.054 0.03 0.168 -0.409 0.655 -0.641 -0.463 -0.517 -0.959 -0.65 -0.164 0.02 -0.979 0.199 -0.516 -0.266 0.999 0.938 0.788 -0.533 -0.107 -0.517 -0.579 -0.383 0.514 0.616 0.451 0.249 0.556 -0.697 0.008 -0.391 -0.298 -0.515 -0.657 0.587 0.503 0.2 -0.382 0.796 0.281 -0.202 0.157 0.622 -0.708 -0.821 0.657 -0.809 -0.112 0.511 -0.366 -0.945 -0.354 -0.114 -0.567 -0.858 0.416 0.998 -0.349 0.699 -0.524 -0.611 -0.288 -0.49 -0.131 -0.312 0.789 -0.577 -0.415 -0.715 0.426 0.757 -0.068 -0.846 0.189 0.329 -0.308 -0.445 -0.451 0.512 -0.94 0.753 -0.577 0.996 -0.471 0.437 -0.051 0.195 -0.584 -0.895 -0.718 0.734 0.701 -0.329 -0.737 -0.645 -0.947 -0.192 -0.055 0.756 0.558 0.982 -0.856 -0.778 -0.839 -0.55 -0.534 0.659 -0.561 -0.976 0.51 -0.351 -0.687 -0.978 -0.982 0.905 0.391 0.625 -0.586 0.824 0.874 -0.841 -0.93 -0.703 -0.823 -0.73 -0.332 0.985 -0.52 0.627 -0.901 -0.375 0.924 0.972 -0.819 0.432 0.593 0.031 -0.858 0.286 0.9 -0.64 -0.026 0.17 -0.167 0.76 -0.333 -0.45 0.694 0.624 -0.875 0.694 -0.698 -0.534 -0.407 0.484 -0.536 0.152 -0.913 0.926 -0.243 -0.685 -0.773 -0.242 0.109 0.086 0.487 -0.526 0.627 0.928 -0.48 -0.038 -0.404 0.261 -0.475 -0.74 -0.884 -0.674 -0.229 0.547 0.52 -0.076 0.763 -0.149 0.829 0.713 0.578 0.007 0.2 -0.561 -0.24 -0.676 0.108 -0.113 -0.15 -0.572 0.384 -0.46 -0.296 -0.644 0.35 -0.515 0.216 0.357 0.357 0.271 0.361 0.022 -0.888 -0.304 -0.959 -0.871 -0.435 -0.068 0.855 -0.038 0.734 -0.028 -0.631 -0.037 -0.517 0.635 -0.152 -0.062 -0.858 -0.489 -0.825 0.825 0.87 0.934 0.783 0.398 -0.299 -0.266 -0.466 0.993 0.705 -0.452 -0.7 -0.359 -0.145 0.462 -0.123 -0.322 -0.557 -0.327 0.313 -0.928 -0.39 -0.068 -0.305 0.831 -0.512 0.09 -0.411 0.145 0.314 -0.26 0.258 -0.241 0.605 -0.819 0.829 -0.392 0.997 0.556 0.627 0.541 0.24 0.174 -0.923 -0.317 0.992 0.601 0.759 -0.572 -0.916 -0.214 -0.03 0.847 -0.497 -0.337 -0.637 -0.829 -0.76 0.542 -0.087 -0.296 0.232 0.205 0.539 0.422 0.247 0.648 0.864 0.075 -0.288 -0.322 0.262 0.985 0.944 -0.46 0.508 0.87 -0.677 -0.528 0.087 0.763 0.103 0.527 -0.031 0.565 0.543 -0.912 -0.363 -0.537 -0.319 0.342 -0.94 0.758 -0.112 -0.31 -0.157 0.62 0.067 -0.217 -0.774 0.038 0.629 0.748 0.359 -0.234 -0.045 -0.274 0.025 0.001 0.496 0.515 0.342 0.913 0.196 0.072 -0.394 -0.571 -0.295 0.812 -0.907 -0.964 0.141 0.994 -0.348 -0.162 0.355 0.131 0.841 -0.989 -0.814 0.65 0.634 -0.647 0.452 0.262 0.454 -0.366 -0.744 0.124 -0.787 -0.972 0.08 -0.142 -0.845 0.264 0.676 -0.091 0.561 -0.052 0.653 -0.78 -0.077 0.369 -0.741 -0.381 -0.997 0.781 -0.608 0.313 0.589 0.938 -0.59 -0.766 0.961 -0.507 0.269 -0.131 -0.3 -0.736 -0.785 0.815 0.039 0.288 0.954 -0.29 -0.226 0.815 -0.459 0.679 0.898 -0.212 -0.868 -0.311 -0.992 0.79 0.363 0.184 0.2 0.885 0.071 -0.133 -0.705 -0.175 0.629 -0.402 -0.307 -0.92 -0.751 0.528 0.864 -0.595 -0.184 0.726 0.087 0.964 0.686 0.662 -0.936 -0.585 0.873 0.941 0.762 0.531 -0.732 0.602 -0.693 0.012 -0.37 -0.191 0.556 0.293 0.152 0.345 -0.752 0.712 -0.886 0.958 0.704 0.052 0.479 -0.577 -0.134 -0.502 0.196 -0.367 -0.978 -0.608 0.925 0.458 -0.193 0.83 -0.4 -0.201 -0.552 -0.46 -0.425 0.567 -0.603 0.897 0.851 -0.77 -0.075 -0.771 -0.06 0.147 0.655 -0.208 0.754 0.146 -0.054 0.569 0.663 -0.485 -0.525 -0.472 -0.43 0.464 -0.038 -0.476 0.469 0.923 -0.667 -0.09 -0.664 0.278 0.636 -0.836 0.949 -0.495 -0.996 -0.377 0.97 -0.432 0.085 -0.627 -0.806 0.826 0.572 -0.36 -0.181 -0.389 -0.711 0.565 0.585 0.45 -0.391 0.166 -0.926 -0.7 0.573 0.161 0.968 -0.969 0.426 -0.578 -0.221 0.552 0.391 0.764 0.364 -0.745 -0.526 -0.179 0.547 0.789 -0.805 0.95 -0.246 0.012 0.439 0.912 0.967 -0.585 0.223 -0.566 0.486 -0.042 -0.194 -0.3 0.692 -0.468 -0.026 0.021 -0.778 -0.624 -0.052 0.982 -0.224 0.111 0.856 -0.075 -0.514 0.969 0.534 -0.332 0.991 0.783 0.727 0.871 0.612 0.027 0.545 0.185 -0.763 0.313 -0.15 -0.889 -0.851 0.454 -0.319 -0.733 0.793 0.472 -0.17 -0.558 0.877 -0.298 0.381 -0.177 -0.977 -0.405 -0.673 0.31 0.058 0.487 -0.472 -0.742 0.86 0.286 -0.39 0.128 0.841 0.503 -0.135 0.881 -0.25 -0.402 -0.339 -0.244 -0.722 0.435 -0.925 0.386 -0.64 -0.952 0.492 0.84 0.735 0.599 0.892 0.328 0.369 0.794 0.252 0.432 0.208 0.497 0.649 -0.159 -0.9 -0.352 0.851 -0.367 0.2 0.99 -0.081 -0.422 -0.456 0.487 -0.475 0.538 -0.807 0.011 0.834 0.497 -0.471 -0.195 0.392 0.549 -0.021 0.277 -0.807 0.497 0.276 -0.418 0.159 -0.511 0.449 0.072 0.008 -0.792 -0.497 -0.393 -0.926 -0.389 -0.239 -0.11 -0.317 0.932 -0.259 -0.187 -0.604 -0.385 -0.401 -0.32 0.032 -0.416 0.517 -0.33 -0.118 0.523 -0.895 0.095 0.916 -0.822 0.058 -0.25 0.729 -0.005 -0.324 -0.101 0.565 0.608 0.243 0.514 0.055 0.973 -0.252 -0.014 -0.554 -0.483 0.916 
0.80185 -0.0930063 -0.314648 0.832094 -0.162945 -0.938774 -0.469701 0.237702 -0.0499464 -0.60591 -0.909048 0.048249 0.258132 0.0758612 -0.859518 0.970405 
-0.808956 0.448365 -0.849704 0.816365 0.23699 0.387124 -0.556129 -0.118481 0.642532 -0.767788 -0.454981 -0.490795 0.450828 0.627538 0.826038 -0.511976 
-0.618871 -0.85217 0.0219772 0.739054 -0.509749 -0.401701 -0.627783 -0.83983 0.855276 -0.779246 -0.54867 0.270999 0.0443736 0.719405 -0.025164 0.378305 
-0.550811 -0.1408 0.151624 -0.719103 0.131215 -0.540507 -0.933268 -1.10851 -0.593938 0.00920101 


-0.527 -0.726 0.55 -0.647 0.181 -0.713 -0.301 -0.89 -0.357 0.465 0.172 -0.471 0.981 -0.888 0.476 -0.619 
-0.753 -0.11 -0.329 -0.195 -0.628 -0.968 0.989 0.32 0.165 0.431 0.658 0.293 0.206 -0.422 -0.052 -0.794 
0.171 -0.834 0.396 -0.303 0.02 0.694 0.529 -0.212 -0.891 0.984 0.969 -0.022 0.617 -0.985 -0.374 0.684 
0.168 0.906 0.928 -0.903 -0.882 -0.61 0.199 0.785 -0.514 0.199 -0.58 -0.29 -0.729 0.813 0.415 -0.915 
-0.682 0.58 0.331 0.267 -0.613 0.444 0.186 -0.493 -0.64 0.827 -0.926 -0.569 0.152 -0.729 -0.732 -0.307 
0.885 -0.663 0.311 0.604 -0.323 -0.594 0.768 0.022 0.413 0 -0.458 0.537 -0.962 0.388 0.355 0.289 
0.647 0.181 0.093 -0.416 -0.013 -0.239 -0.507 -0.783 0.501 0.482 0.447 0.665 -0.247 -0.896 0.084 0.095 
0.525 -0.779 0.964 0.781 -0.128 -0.894 0.656 0.343 -0.407 0.08 -0.92 -0.132 0.411 0.713 -0.032 0.251 
0.216 -0.921 -0.232 0.04 0.531 -0.067 0.779 -0.337 -0.741 -0.347 0.936 -0.905 -0.635 0.874 0.72 -0.165 
0.68 -0.024 -0.545 0.725 -0.929 -0.192 0.559 0.156 0.602 0.832 0.905 -0.56 0.375 0.562 -0.115 0.962 
0.08 0.836 -0.203 0.202 -0.492 -0.92 0.34 -0.924 0.058 0.493 0.74 -0.454 -0.526 -0.227 0.097 -0.12 
0.335 0.072 0.4 -0.293 -0.045 -0.334 -0.859 0.588 -0.519 0.168 -0.685 0.396 -0.775 0.009 -0.988 -0.864 
0.454999 -0.238002 0.0429995 -0.258001 -0.978999 0.922 -0.488 0.248003 -0.982 0.368 0.717 0.714005 0.65 0.29 0.335 -0.241 
0.168999 0.894996 0.302995 -0.360002 0.978997 -0.800999 0.105 -0.208991 -0.338999 -0.319001 0.652 -0.24699 -0.967 -0.971003 0.987 0.0420069 
-0.747 -0.917 0.419996 0.814 -0.282005 -0.755999 0.063 0.229003 -0.347999 -0.136001 -0.231 -0.53 0.005 0.0469971 0.594 0.487007 
-0.674 0.276 0.323 -0.46 0.679 0.99 -0.412 -0.29 0.271 0.945 0.221 -0.53 -0.817 0.589 0.955 -0.0219997 
-0.221 0.006 0.262 -0.865 0.487 0.196 0.033 -0.912 -0.065 0.779 0.993 -0.21 -0.038 -0.035 0.001 0.105 
0.807 -0.433 -0.331 0.134 -0.329 0.457 -0.002 0.545 0.597 -0.782 -0.162 -0.156 0.372 -0.437 0.028 0.264 
-0.199 -0.277 0.49 0.604 0.601 -0.773 0.197 0.692 0.771 -0.637 0.301 -0.637 0.721 0.565 0.421 0.445 
-0.39 -0.505 -0.259 0.022 0.812 0.151 0.015 -0.945 0.393 -0.262 0.279 0.882 0.608 -0.346 0.822 -0.293 
-0.755 0.338 -0.856 -0.71 0.339 0.154 -0.396 -0.377 -0.775 -0.922 0.724 0.981 -0.67 0.733 -0.777 -0.406 
0.13 -0.154 -0.013 0.445 -0.195 -0.384 0.75 -0.511 0.338 0.963 -0.865 -0.303 -0.791 0.63 0.224 0.908 
-0.263 -0.526 0.92 0.372 -0.707 0.855 -0.266 0.561 0.056 0.606 -0.816 0.075 -0.618 -0.881 -0.259 -0.568 
-0.316 -0.221 -0.721 -0.717 -0.333 -0.164 -0.875 -0.882 -0.263 -0.972 -0.881 -0.423 -0.263 -0.909 -0.444 -0.205 
-0.94 0.901 -0.207 0.432 -0.864 -0.42 -0.125 0.907 0.184 -0.926 -0.281 -0.21 -0.524 -0.959 0.351 -0.671 
-0.71 -0.026 0.072 0.591 -0.811 0.787 0.49 0.239 -0.107 0.053 0.063 -0.319 0.903 0.005 -0.824 -0.521 
0.695 -0.861 -0.532 0.998 0.083 0.639 0.515 0.621 0.993 0.826 0.722 0.838 -0.172 -0.419 -0.601 -0.022 
0.891 0.023 -0.057 -0.166 -0.757 0.349 -0.298 -0.293 -0.498 0.141 -0.313 -0.654 0.891 -0.363 -0.587 0.4 
-0.184 0.69 0.162 -0.065 0.126 0.41 0.877 0.382 -0.74 0.189 -0.295 0.874 -0.337 -0.278 -0.805 -0.434 
-0.64 -0.962 -0.412 0.811 -0.755 0.467 -0.575 -0.133 0.189 -0.458 0.063 0.547 -0.498 0.617 0.099 0.023 
0.226 0.203 -0.952 0.051 0.57 -0.364 0.458 0.967 -0.544 0.405 0.531 0.962 -0.181 0.975 -0.444 0.531 
0.495 -0.956 -0.409 -0.197 0.388 -0.085 0.45 -0.681 -0.728 0.791 0.383 -0.867 0.775 -0.358 0.569 -0.7 
0.954 -0.922 0.585 -0.743 0.333 -0.107 -0.51 -0.897 -0.25 0.233 -0.278 -0.729 0.611 -0.01 -0.662 0.641 
0.258 0.0469995 -0.648 0.658 -0.521 0.302 -0.317 -0.00999996 -0.998 0.568 -0.578 -0.105 -0.865 -0.992 -0.639 -0.258 
-0.806002 0.699 0.187998 -0.822005 -0.957993 0.357001 0.941005 0.847009 0.469006 -0.655007 -0.62 0.913 -0.036 0.71 -0.938999 0.384998 
-0.927005 0.503997 0.46199 -0.297008 -0.897987 0.0690011 0.15401 0.529023 0.552016 -0.926016 0.149 0.730002 -0.756 -0.156001 0.0490011 -0.882003 
-0.935009 -0.637016 0.551976 -0.227003 -0.529999 0.731004 -0.252993 0.511037 0.869024 -0.602019 -0.501999 0.103007 0.352002 0.678991 -0.946999 0.0430007 
-0.478009 0.0879782 0.56297 0.833993 0.849997 0.0220042 0.240004 0.911035 0.492029 0.650974 -0.419998 0.477011 0.616004 0.875981 0.178001 0.220001 
-0.385014 -0.652042 -0.20204 -0.821015 0.634997 -0.142996 -0.116994 0.662048 -0.0979422 -0.738041 0.419999 0.770046 0.0220016 0.272962 0.841009 -0.314006 
-0.112016 0.916958 0.716962 0.891986 0.698004 0.26701 0.74901 -0.93495 -0.610929 -0.0680385 0.618982 -0.918896 -0.996999 0.129969 0.0280188 -0.369004 
-0.411014 0.151966 -0.370026 0.171978 0.864035 -0.592985 -0.704988 0.428055 0.681058 -0.510023 -0.390034 -0.82287 0.0710023 0.235982 -0.540978 -0.35702 
-0.160014 0.632965 0.0369839 0.892958 -0.369927 -0.72599 -0.00698586 -0.217931 -0.796961 0.460979 -0.710028 0.6621 -0.692996 -0.00301785 0.151026 -0.577016 
-0.110015 -0.28303 -0.360017 -0.297053 0.566079 -0.11698 0.661007 -0.340949 -0.75496 -0.614029 -0.349022 -0.234943 0.601006 -0.160014 0.209024 0.497002 
0.282991 0.249983 -0.942024 -0.579055 -0.824933 -0.418963 -0.212998 0.271044 -0.712956 0.998958 -0.496016 -0.0209964 -0.861996 -0.300006 -0.469982 -0.538986 
-0.882006 -0.795019 0.539927 -0.172037 -0.540946 0.622046 -0.601989 0.760066 0.0980618 -0.0650712 -0.519011 -0.385994 0.567009 -0.507009 -0.403988 0.161027 
0.745994 -0.462033 0.669936 -0.462025 0.476066 0.555021 -0.0829851 -0.628942 -0.239945 0.751931 0.75799 0.433032 -0.744994 0.0649896 -0.27399 -0.598975 
0.0339932 -0.24106 -0.607033 -0.452009 0.273063 -0.207992 -0.80699 -0.0669626 -0.862963 0.102973 0.689995 -0.788932 0.694003 -0.332008 -0.372986 0.498005 
-0.0110044 0.247962 0.878971 0.646996 0.149059 -0.0689868 -0.330993 -0.124969 0.598019 0.448986 0.435998 -0.400936 -0.876998 0.442994 0.731005 -0.845999 
-0.139001 -0.566021 0.384973 0.966999 -0.183958 0.393019 -0.295996 0.866022 -0.0469903 -0.69201 -0.777001 -0.315962 -0.208 -0.333005 -0.951994 -0.530998 
0.929999 -0.189003 0.813971 -0.91 0.427009 0.743006 0.604007 -0.400994 -0.525992 0.194998 -0.494 0.158008 0.589001 0.857993 0.809005 0.889002 
0.446999 -0.960001 0.817985 0.364 0.975004 -0.973997 0.0890052 -0.496997 -0.933995 -0.588001 -0.16 -0.429994 -0.324 0.394996 -0.358998 0.986 
0.651 0.108999 -0.813001 -0.917001 0.085001 0.39 0.25 -0.313998 -0.245 0.381 -0.872 0.502005 -0.723 -0.138003 -0.575999 0.565 
0.872 -0.168 -0.115 -0.572 -0.354 -0.111 -0.522 -0.117 -0.075 0.265 0.26 0.045 -0.222 0.821 0.855 -0.48 
-0.073 -0.227 0.134 0.251 -0.325 0.336 -0.666 0.001 -0.263 0.31 0.974 0.59 -0.644 0.071 -0.92 -0.065 
-0.855 0.282 0.825 -0.282 0.573 -0.288 0.037 -0.002 0.905 0.162 0.717 -0.308 0.539 -0.953 -0.054 0.103 
-0.769 -0.885 -0.161 0.858 -0.171 -0.355 0.394 0.199 0.645 -0.728 -0.325 0.862 -0.928 0.773 -0.52 0.238 
-0.103 0.542 0.608 0.203 0.277 -0.875 -0.866 0.401 0.078 -0.618 -0.831 -0.264 0.478 0.939 0.138 -0.279 
0.426 -0.337 0.677 0.575 -0.276 0.981 0.7 0.961 -0.138 -0.998 -0.552 0.095 -0.316 -0.984 0.137 0.507 
0.993 0.284 -0.056 -0.741 -0.178998 0.058 -0.357 0.668 -0.323 -0.881 0.857 0.0410004 -0.109 0.264 0.623 -0.0849998 
-0.928 0.929 -0.159 -0.285 0.615 -0.464 -0.0429998 0.759 -0.299999 0.452 0.093 -0.759 0.829 -0.552 0.227 0.798 
-0.776 -0.676001 -0.726003 -0.867 -0.114998 0.0380022 -0.829999 -0.137997 -0.370997 0.0839983 0.909 -0.121995 -0.077 0.0849993 0.400002 0.0240001 
-0.807 0.104999 0.411999 0.764998 0.767001 0.407001 -0.322999 0.784001 -0.295999 -0.210001 0.834 -0.108997 -0.379 -0.915001 0.734 0.19 
-0.458007 0.997998 -0.91401 -0.982015 0.621014 -0.575992 -0.402984 0.376014 -0.745984 0.668983 -0.891996 -0.0729866 -0.507 -0.932012 -0.633998 0.102 
-0.562031 -0.400016 -0.18105 -0.682021 -0.709976 -0.0159802 -0.66096 -0.443929 0.80804 -0.368049 0.478003 -0.185943 0.787008 0.238952 -0.925996 0.0199968 
-0.173069 -0.446051 0.987894 0.440982 -0.201997 0.642031 0.00205711 -0.678843 -0.895923 0.945891 0.0560076 -0.490921 0.833019 0.707909 0.761006 -0.466991 
-0.314116 -0.196118 -0.615187 -0.858028 -0.158044 0.260054 -0.838948 0.620261 -0.656828 0.57779 0.187017 -0.886867 0.0630269 -0.409124 0.934011 -0.58498 
-0.344179 0.760725 0.0116898 -0.589051 0.958971 -0.748914 -0.261959 0.37037 -0.875682 0.506703 -0.993012 0.584327 -0.0489732 0.100844 -0.510963 -0.0419902 
0.44079 0.789672 0.0126119 -0.588105 -0.144882 0.0601218 0.093056 -0.527501 0.40241 -0.324309 0.542921 0.373711 -0.733975 0.65081 0.27508 0.527974 
-0.468214 -0.23929 0.468571 -0.497246 -0.270474 0.107223 0.892151 -0.548307 0.953537 -0.608341 -0.430213 0.520089 0.472042 0.406784 -0.505875 0.504915 
-0.560192 -0.617332 -0.738395 0.408552 -0.392014 -0.961628 -0.639784 0.47193 0.171663 -0.346388 0.946635 0.515068 -0.476948 0.228759 -0.510787 -0.234078 
0.886786 0.755459 -0.368498 0.469325 0.74031 -0.333379 -0.477742 0.284111 -0.839111 0.552396 -0.295331 0.0917209 0.259059 0.38566 0.687332 -0.370981 
-0.958161 -0.683549 -0.955708 -0.644733 0.389447 0.452764 0.154356 -0.532703 0.834208 0.759066 -0.0812116 0.6313 -0.261946 0.266566 0.77636 0.098029 
-0.686094 -0.680709 0.0520733 -0.99358 -0.529536 -0.783399 0.722565 0.843448 0.00840038 0.461986 -0.740186 -0.0525965 0.793056 -0.370479 -0.282691 0.0429085 
0.375899 0.312694 -0.37489 0.116663 0.33535 -0.379707 -0.828343 -0.206641 -0.0347222 0.153224 -0.1342 -0.305873 -0.335941 0.774499 0.00027676 -0.788145 
0.0998958 0.549347 0.475304 -0.62113 -0.0558998 0.87717 0.789593 -0.637871 0.38588 -0.728488 0.433824 0.145817 0.561048 0.562579 -0.495765 -0.0541231 
0.887925 -0.693092 -0.843574 0.429946 0.123769 -0.535856 -0.925688 -0.653191 0.837492 0.980672 0.31788 -0.387312 -0.707968 0.590758 0.832156 0.122992 
-0.53904 -0.00950783 0.460527 0.32998 -0.501599 0.369165 0.291123 -0.599516 -0.820792 -0.883194 -0.683033 0.915042 0.595022 0.440907 0.936076 0.867037 
0.027972 0.452773 0.908644 0.972996 0.981194 0.50314 -0.430938 -0.183716 0.883095 0.366897 0.384986 -0.597422 0.230017 0.156942 -0.318965 0.567021 
-0.690014 0.865884 0.686795 0.171 0.47709 0.245073 -0.235965 -0.761871 0.671046 -0.95304 -0.885011 -0.407733 0.311014 -0.343036 0.405019 -0.946993 
0.170996 -0.420044 -0.260059 -0.470001 0.675025 -0.679981 0.790012 0.377042 -0.00198966 -0.414013 0.60399 -0.510903 0.631013 0.743983 -0.611995 -0.389993 
-0.282001 -0.081014 -0.741016 0.927 -0.391004 -0.880994 0.479003 -0.28398 -0.699998 0.395993 -0.147003 0.45803 -0.169994 -0.407005 -0.193999 0.849003 
-0.146 -0.728 -0.840002 -0.706 -0.946005 -0.667 -0.853999 -0.770995 -0.528999 -0.572002 -0.441 -0.758996 0.421001 -0.312 -0.634 -0.967 
-0.315 -0.73 0.329 -0.739 -0.14 -0.792 -0.018 -0.838 -0.494 -0.122 0.979 0.897 0.887 -0.462 -0.531 -0.217 
0.54 -0.205 0.266 -0.367 0.509 -0.443 -0.683 -0.866 -0.947 -0.865 -0.742 -0.407 0.843 0.693 -0.534 -0.049 
-0.86 0.094 -0.063 0.174 -0.488 -0.903 0.551 -0.305 0.817 0.492 0.292 -0.763 0.53 -0.387 0.296 0.71 
-0.611 0.628 0.809 -0.214 0.744 -0.16 -0.818 -0.431 -0.88 0.393 -0.708 -0.038 -0.786 -0.473 -0.193 0.194 
-0.295 -0.287 0.011 -0.0870004 -0.306996 0.664 -0.797001 -0.00499986 0.762 -0.619 -0.0540003 0.909001 0.048 0.768 -0.376 -0.489 
0.954 -0.765001 0.126999 -0.367 -0.76 0.862 0.127001 0.577001 0.817003 -0.660001 -0.858 0.1 -0.600001 -0.442001 0.476 0.153999 
-0.0649992 -0.570005 0.831 0.294998 0.537001 0.623002 0.922002 -0.0729963 -0.970995 -0.789002 -0.789 0.754001 -0.12 -0.747003 0.293 0.320998 
-0.215014 -0.472002 -0.556998 -1.05968e-05 -0.445009 -0.328993 0.269995 0.452013 0.375012 -0.369009 0.640027 -0.0660042 -0.959997 0.98599 -0.166001 -0.751994 
0.538935 -0.235 -0.204034 -0.688023 0.261973 0.0520383 -0.268995 0.987053 -0.53597 -0.44305 -0.751942 0.556004 -0.829991 0.449953 0.181997 0.301027 
0.292821 -0.901029 0.331858 0.0439754 -0.669103 -0.924925 0.00399985 0.0501746 0.0261059 -0.934157 0.738124 0.801028 0.623038 0.842856 -0.559003 0.38007 
0.694658 0.91788 0.658682 0.362988 -0.372332 -0.670849 0.0879616 -0.145586 -0.386775 -0.0214014 -0.430711 -0.333985 0.679074 0.576738 0.836985 0.402148 
0.114428 0.291724 0.722399 -0.128003 0.447257 -0.676657 0.152807 0.948796 -0.604536 0.196246 -0.491445 -0.0919595 0.41112 0.992593 0.664983 -0.218716 
0.201208 0.609544 -0.172924 0.255948 0.703979 -0.0343891 -0.977383 -0.22982 0.715731 -0.748113 0.805791 0.68439 0.478158 -0.855494 0.84005 -0.166583 
0.284093 -0.100569 -0.0331911 0.9938 -0.367993 0.885991 -0.652617 -0.717382 -0.966995 -0.745514 0.911003 -0.127146 -0.0177801 0.900436 -0.693814 -0.364355 
0.859145 -0.529571 0.525614 0.136481 -0.657476 0.769434 -0.767702 0.997057 0.172277 0.601139 -0.0569191 -0.987838 0.8793 0.0334309 -0.487647 -0.406031 
-0.470756 -0.839783 0.232263 -0.743072 0.926243 0.907951 0.190327 -0.554464 -0.810239 -0.775284 -0.279763 -0.515162 0.224349 0.0923699 -0.564418 0.225471 
-0.906616 0.580873 -0.135441 -0.374492 -0.993907 0.148349 -0.314568 -0.407892 -0.45755 -0.76596 -0.148756 -0.240641 0.578353 -0.0448361 -0.322218 -0.595259 
-0.958433 -0.701524 0.807765 0.223492 0.144771 0.597297 0.0157281 -0.381331 -0.192874 0.00251656 -0.630889 0.641574 -0.664641 -0.303079 0.325845 -0.685299 
-0.977285 -0.690462 -0.385509 -0.54417 -0.601771 -0.659422 0.086345 -0.902035 0.849294 0.0397516 0.522679 -0.0866478 -0.719622 0.453686 -0.641232 -0.151683 
-0.130269 -0.0134807 0.869707 -0.673699 0.415318 0.454827 0.896755 -0.524204 -0.547271 0.238398 -0.3588 0.650395 0.525353 -0.788273 -0.175347 0.930015 
-0.305221 0.399669 -0.408776 0.992685 -0.931037 -0.81251 -0.359432 0.0821994 -0.957151 -0.876869 -0.466047 -0.135052 0.000276093 -0.0939349 -0.378452 0.692725 
0.292806 0.11494 0.714794 -0.597163 0.944342 0.893507 -0.36072 0.0132905 -0.0739311 -0.97324 0.97785 -0.248047 -0.149799 -0.10854 -0.555575 -0.345475 
0.622837 -0.64795 -0.965417 0.546936 0.346641 -0.173489 -0.938878 0.905338 -0.761476 0.570302 -0.114102 -0.592627 0.299142 -0.944243 0.728268 0.267276 
0.750884 -0.981523 0.990172 -0.834008 0.717262 0.846386 0.0931145 0.18769 0.421238 -0.0883281 -0.133088 -0.69975 -0.555913 0.896835 0.201145 0.328136 
-0.0580616 0.103656 0.767594 0.767991 -0.358898 -0.703794 0.262104 -0.279685 0.244106 0.917862 0.624913 0.219609 0.584065 -0.826114 -0.0159232 -0.540954 
0.148983 0.013822 0.694871 -0.497006 0.0320339 0.851089 0.537073 -0.185871 -0.63697 -0.349041 0.218922 -0.709725 0.917041 0.682934 0.918034 -0.416002 
0.251989 0.585917 0.268951 -0.752008 -0.862994 -0.60296 -0.575967 0.168055 -0.972991 -0.852014 0.992952 -0.617874 0.271023 0.668966 -0.106984 -0.123008 
0.0139976 0.10399 -0.516006 -0.0570018 0.494995 -0.188992 0.293007 -0.10799 -0.201999 0.989996 0.298994 -0.109985 -0.506995 0.0739958 0.549004 0.773999 
0.314 -0.827 -0.931002 0.218 -0.134998 -0.166998 0.238002 0.911002 0.252002 -0.537002 -0.492 0.149004 0.0880001 -0.755 -0.769 0.92 
-0.894 0.271 -0.632 -0.579 0.258 -0.843 0.647 -0.018 -0.762 -0.878 0.723 -0.094 -0.294 -0.811 0.156 -0.655 
-0.649 -0.077 0.118 0.55 -0.903 0.836 -0.409 0.406 -0.49 0.813 -0.349 0.88 0.844 -0.257 0.741 0.245 
-0.422 -0.0509998 0.705 -0.486 0.785 0.227 -0.376 0.204 -0.644 0.917 -0.773 -0.445001 -0.898 -0.714 0.468 0.698 
-0.0209998 0.411 -0.511 -0.241999 0.489999 -0.225 -0.590005 0.132001 0.0890005 0.296002 0.949999 0.111998 -0.878 -0.471 0.672 0.836001 
-0.722999 0.553 0.975998 -0.329999 0.0849966 -0.347999 0.751 -0.602998 0.751001 0.00100125 -0.564999 -0.307002 0.0719991 0.916 -0.284 0.328001 
0.510992 -0.874993 0.837991 0.296007 -0.0610333 0.544005 0.0559846 -0.173995 -0.0979995 -0.242002 -0.411982 -0.979039 -0.414003 -0.892003 0.776996 -0.371982 
0.978919 -0.0529684 -0.451015 0.280012 0.244864 0.128038 -0.938073 -0.573965 -0.281018 -0.323037 0.0910972 -0.953159 0.785006 0.230965 0.405984 -0.31586 
0.953784 -0.23093 -0.291083 0.95604 -0.579368 0.945107 0.464844 -0.98388 0.859956 -0.503123 -0.664714 0.189571 0.677021 -0.951105 0.00496455 0.886292 
0.387495 -0.324902 0.142745 0.37712 -0.870967 -0.512751 -0.445377 -0.517667 0.252957 -0.000389875 0.754737 -0.71193 -0.51195 0.214726 -0.992067 0.310559 
-0.0608846 0.799094 -0.00361692 0.707255 -0.547995 -0.695461 -0.763769 -0.514196 -0.500953 -0.208906 0.614556 -0.389685 -0.317901 -0.0174965 0.350909 -0.869991 
0.135712 0.0329708 -0.401109 0.864461 0.679706 0.858021 -0.0333635 0.711446 0.968165 0.706358 -0.356302 0.729435 -0.562872 0.68327 -0.50105 -0.297319 
0.86744 -0.417175 0.254465 0.692684 0.635487 -0.911419 0.00983336 0.812028 0.820183 -0.167343 0.667053 -0.388203 0.897136 -0.323822 -0.225891 -0.863502 
0.551437 0.532726 -0.123842 -0.713316 0.619006 -0.263824 -0.927992 0.351555 -0.287559 -0.0189864 -0.370639 0.788342 -0.495838 -0.178836 -0.94457 -0.0836274 
-0.539551 -0.527405 -0.917959 -0.839864 0.117243 -0.94416 0.393482 0.824947 0.751257 0.333609 0.923524 -0.999 -0.0687838 -0.8036 0.505685 0.240454 
-0.644629 -0.40203 -0.712283 0.897411 -0.0191287 0.450586 0.0801983 -0.404585 -0.272214 -0.00799732 0.862368 -0.179453 0.338241 0.341677 -0.571036 0.801001 
-0.259433 -0.965619 0.503353 -0.233809 0.0500069 0.797006 -0.500099 -0.849581 0.613054 0.91954 0.861255 0.455927 -0.760763 -0.794605 -0.789701 0.499233 
-0.501832 -0.82957 0.0332434 0.0603516 0.645431 0.621492 0.00599975 -0.267514 0.71557 0.892041 0.914773 0.834983 -0.869743 0.0889379 0.0358189 0.921419 
-0.714319 0.516824 -0.336972 0.343348 -0.264466 -0.960739 0.409659 0.899096 0.951294 -0.0322563 -0.152221 -0.22209 0.285276 -0.801626 -0.407486 -0.710841 
-0.675014 0.111893 0.663952 -0.995379 0.729046 -0.99075 -0.464533 -0.76947 0.537506 0.977775 -0.281754 -0.524796 0.384289 -0.254688 -0.669179 0.939336 
-0.796085 -0.304654 0.518267 -0.637575 0.411017 -0.959095 -0.755854 0.508255 0.484142 0.764756 -0.857823 -0.324918 -0.154645 -0.495118 0.0901413 0.259203 
0.106368 -0.736791 0.852748 -0.322976 -0.801312 -0.324961 -0.850139 0.193664 -0.00891247 0.831444 -0.1415 -0.000947177 -0.0824654 -0.710429 0.96816 0.709719 
-0.767013 -0.755511 0.459296 0.401864 -0.761441 0.426904 0.091973 -0.0926609 -0.685245 -0.650316 -0.413871 0.280678 0.776478 0.82201 -0.120213 -0.697193 
0.811196 0.674933 0.162696 0.357265 -0.430363 -0.961431 -0.689117 -0.85536 -0.438657 -0.820107 -0.800136 -0.355838 0.856183 -0.938944 -0.352329 0.939923 
0.807635 0.289209 0.451513 -0.0207539 -0.382283 0.419339 -0.993217 -0.715712 -0.452893 0.977053 0.674785 -0.386395 -0.29099 0.370998 -0.357585 -0.66071 
-0.66412 -0.37958 0.500913 -0.965845 -0.871095 0.358205 0.436082 -0.530901 -0.103065 -0.495948 -0.20217 -0.797677 0.104885 0.237943 0.0321621 -0.935001 
-0.484026 -0.519306 0.579002 0.0230682 0.727007 0.771096 0.313074 -0.617967 -0.860084 -0.183996 -0.512088 0.319178 0.588899 0.512953 -0.740948 -0.149058 
-0.728993 0.282909 -0.635974 0.0380362 0.0120141 0.184039 0.759031 0.501008 0.573957 -0.267008 0.0589783 0.71405 0.648947 -0.405013 -0.477988 -0.459025 
-0.583995 0.376984 0.0520089 -0.434982 0.891009 -0.86199 0.310014 -0.0330004 0.0549934 0.786998 0.223996 -0.777989 -0.561012 0.440991 -0.351998 -0.196004 
0.834001 0.367997 0.441001 -0.127997 -0.331998 0.974001 0.176002 0.137 -0.367 0.240999 0.745 -0.981998 0.0149992 -0.0260023 0.252 -0.154 
-0.044 0.524 -0.034 0.581 -0.856 -0.76 0.334 0.296 0.876 0.027 0.205 -0.982 -0.709 0.641 0.465 -0.809 
-0.529 -0.741 0.7 -0.783 -0.984 0.943 -0.376 0.064 0.505 0.157 0.502 0.666 0.275 -0.954 0.632 0.789 
-0.954 -0.855002 -0.997001 0.151999 0.900997 -0.674 0.152997 0.184003 0.649002 -0.65 -0.595 -0.653998 0.0250002 -0.0299991 -0.664 -0.204999 
0.792997 0.323022 0.531997 -0.143992 0.895979 0.210005 0.775985 0.691999 -0.450009 0.290007 0.795008 0.85196 0.349992 -0.685001 -0.964004 0.361023 
0.759978 0.984081 -0.271014 -0.465937 -0.95013 -0.917975 -0.194088 0.936013 0.583941 -0.210004 0.617062 0.18175 0.065968 0.115988 -0.612015 0.425137 
0.100816 0.610229 -0.550039 0.982166 -0.379582 0.193089 0.0376907 -0.245948 -0.407188 -0.105045 -0.719708 0.63717 0.166956 0.419944 -0.655061 -0.116527 
0.86454 -0.303578 -0.167147 -0.609642 -0.369554 -0.810753 0.838275 -0.816812 0.816512 -0.871182 -0.246094 -0.322928 -0.38708 -0.400189 -0.748116 0.146011 
0.860124 -0.848455 -0.682443 -0.0363442 0.809937 -0.0923996 0.55259 0.476555 -0.383873 0.210326 0.43108 -0.73954 0.965897 0.530503 0.941801 -0.300249 
0.520798 0.155555 0.586013 0.258144 0.152929 -0.534834 0.759724 -0.488776 -0.0552491 0.0634928 -0.616149 0.159285 0.94583 0.539093 0.296819 -0.955163 
-0.537266 0.1943 -0.417486 -0.728314 -0.292218 -0.798146 0.202596 -0.892051 0.30017 -0.306608 -0.160957 0.603223 0.0667644 -0.586168 -0.354844 -0.820899 
-0.646856 0.447676 -0.0826437 0.0811795 0.979354 -0.676522 0.587438 0.599553 -0.805743 0.505283 -0.339767 -0.93806 -0.3424 -0.879288 -0.140227 1.00199 
-0.000940945 0.897562 -0.881259 0.322532 -0.972547 -0.0128569 -0.0935281 0.91798 0.949432 0.480546 -0.248796 -0.811072 0.566444 -0.793466 -0.154586 -0.825446 
0.681741 -0.123989 0.107495 0.209494 0.251378 0.709955 0.842896 -0.921811 -0.977888 -0.880987 0.618683 0.761549 -0.116631 -0.873373 -0.452177 0.151849 
-0.517755 0.708607 -0.850419 -0.829155 0.331039 -0.688373 -0.213598 0.507471 0.101812 0.691158 -0.770325 0.939112 -0.359843 -0.658395 -0.86518 -0.893721 
-0.318872 -0.272806 0.556798 0.636798 0.947996 -0.0653669 -0.757318 0.908443 -0.723914 -0.517777 -0.118005 0.737225 -0.929102 -0.826119 -0.296869 0.4259 
-0.910445 -0.781257 0.48283 0.980079 -0.745039 -0.482109 -0.0748313 -0.337191 -0.0150339 0.432911 -0.00911692 0.435219 0.240637 -0.385115 -0.92666 0.640749 
-0.93411 0.205797 -0.216705 -0.00512837 -0.171141 -0.325025 0.550313 0.308453 -0.505534 -0.076639 -0.271355 -0.105813 0.445482 -0.0588523 -0.588763 -0.771731 
-0.308826 0.782412 0.576846 -0.152425 -0.320474 0.549497 0.228743 -0.509373 -0.544057 0.718778 -0.657401 -0.345734 0.166584 -0.873943 0.26118 0.470367 
-0.138092 -0.4963 0.653687 0.320449 0.198216 -0.855918 0.26539 0.509785 -0.304601 -0.318843 0.0266769 -0.727909 -0.6887 -0.752833 0.480391 -0.684793 
-0.148184 0.189802 0.485356 0.522117 -0.901008 -0.815266 -0.210479 0.893979 -0.156733 -0.217484 -0.752986 -0.811345 -0.537919 -0.658608 -0.737891 -0.137501 
-0.128662 -0.987299 -0.829722 -0.165917 -0.560351 0.684411 -0.917154 -0.984105 0.972685 -0.484666 -0.701148 -0.959664 0.283244 0.204351 1.00007 0.148037 
0.769176 0.672368 -0.0834219 0.388916 0.0191166 -0.969012 0.440281 0.735378 -0.613329 -0.627321 0.479957 -0.925774 -0.223084 -0.214335 -0.616642 0.78559 
-0.477626 -0.657216 -0.020859 -0.91354 0.71253 -0.064281 0.734926 -0.116837 -0.815495 -0.904083 -0.352468 -0.914065 -0.248354 -0.479224 0.261399 0.981832 
-0.363627 0.686339 0.919305 0.23702 -0.208208 0.065515 0.278277 -0.802002 0.495009 -0.613937 0.0105191 -0.0233943 0.546501 -0.879153 0.202615 0.244615 
-0.297763 -0.436954 0.539247 -0.427432 -0.742951 -0.629657 0.920222 0.653995 0.358337 0.0800178 0.297736 0.391369 0.959559 -0.49014 0.591172 0.866648 
-0.966876 0.674676 -0.863871 -0.500779 0.775091 0.790163 -0.62391 0.255994 -0.728296 -0.297015 0.0859266 -0.0328578 0.514793 0.541924 0.495034 0.565837 
-0.543967 -0.814061 -0.562975 0.198045 -0.373965 -0.635958 0.0850224 0.664997 -0.0920643 -0.660004 0.359989 -0.185968 0.153951 -0.988027 0.752007 0.337962 
-0.293999 -0.475004 -0.37 0.249001 0.179003 0.0790025 -0.686999 -0.162 -0.483002 -0.579001 -0.855 0.991002 0.968999 0.838998 -0.692 -0.435001 
0.762 0.473 0.681 0.97 0.147 0.053 -0.292 -0.492 -0.285 -0.571 0.066 0.689 -0.337 0.771 0.541 -0.741 
-0.369 0.572 -0.486 -0.034 0.988 -0.83 -0.832 -0.801 -0.345 0.85 0.444 -0.0640002 -0.722 0.406 0.427 -0.687 
0.523001 -0.628997 0.326999 0.0730051 0.460997 -0.826998 0.933999 0.101997 0.586993 0.417007 0.462997 -0.847007 -0.874001 -0.405001 0.494999 0.213002 
-0.594004 0.370071 0.858997 0.305052 -0.504068 -0.166987 -0.777064 -0.148012 0.87894 -0.480965 -0.87397 0.792816 0.584975 0.46499 0.370985 0.444058 
0.106989 0.271246 -0.913017 -0.900764 -0.481322 -0.40394 0.714795 0.551983 -0.50826 -0.246937 -0.742885 0.589288 -0.041099 0.356946 -0.114048 0.80927 
0.864829 0.686521 -0.981049 -0.740507 -0.688145 -0.564809 0.0274128 -0.898996 -0.532668 -0.130961 -0.54359 -0.27074 0.577816 -0.926153 0.394868 -0.156294 
0.273553 0.316829 0.0237856 -0.488137 -0.417683 0.722544 -0.0302276 -0.942837 -0.906507 -0.826188 0.0392598 -0.820503 -0.342308 0.294596 0.721761 -0.0154133 
-0.769721 0.50401 -0.768554 -0.698611 0.585235 0.481145 0.40592 0.505618 -0.300537 -0.142846 0.820841 -0.449048 0.560497 -0.880876 0.0277079 0.658778 
0.712399 0.332856 0.0909896 0.184205 -0.539937 0.32181 0.35502 0.0752946 0.98322 0.092042 -0.0120405 0.355301 0.2633 0.712533 -0.254093 -0.605949 
-0.574722 -0.745092 0.161793 0.469992 0.783646 -0.766586 -0.384948 -0.117896 -0.287367 -0.875588 0.955215 -0.290114 0.0780595 -0.910945 0.76662 0.591924 
0.809955 -0.875953 -0.175551 0.162808 0.509696 0.222856 -0.969703 0.316768 0.448557 -0.858105 0.16496 -0.87599 0.358743 -0.251521 -0.790178 0.482863 
-0.702123 -0.4158 0.52484 0.980587 0.687011 -0.906593 -0.815985 0.375472 0.409957 -0.705435 0.712108 -0.165717 -0.478503 -0.464281 -0.388138 0.831775 
-0.357617 -0.821875 0.418307 0.832588 0.162953 0.627236 -0.105745 -0.481774 -0.594687 0.636187 0.446875 0.658335 -0.623768 0.671953 0.861157 0.958166 
0.852579 0.126173 0.918744 -0.0045538 -0.39054 0.29257 -0.622798 -0.920748 -0.676089 0.906157 0.0670198 0.643096 -0.940163 0.611349 -0.47335 -0.861153 
0.449629 0.9703 -0.123108 0.0586741 0.388383 -0.969856 -0.426492 -0.791289 -0.233506 0.40817 -0.325043 -0.461962 -0.243519 -0.250389 0.419107 -0.142574 
0.563233 0.427596 -0.170644 1.00964 -0.587157 -0.875756 0.720025 0.420979 0.907085 0.786572 0.881842 -0.951027 0.172337 0.0678756 0.987997 -0.48565 
0.632426 0.193828 0.398714 0.0352441 -0.290047 -0.70602 0.973041 -0.0632336 0.0601319 -0.0287452 -0.798682 -0.998579 -0.748658 -0.0840651 -0.118895 0.146813 
-0.173892 0.791257 0.0910337 0.919097 -0.720215 0.256218 0.964714 0.305079 -0.689532 -0.103543 0.609771 -0.633853 -0.348326 -0.276957 0.740535 -0.555627 
-0.718111 0.216756 -0.537592 -0.860114 -0.0352198 -0.648986 -0.559755 0.506717 -0.702757 0.513552 -0.660399 0.435893 -0.306424 0.174057 -0.332578 0.149304 
0.664317 -0.0457646 0.906691 -0.418879 0.46733 -0.352612 0.583041 -0.0262297 -0.380182 -0.807097 -0.184598 0.535704 0.83425 0.225467 0.721568 0.535179 
-0.0403952 -0.846961 0.749969 -0.375902 0.293181 0.725845 0.115079 -0.473071 -0.600503 -0.0190821 0.447511 -0.423533 0.690239 -0.41428 -0.45704 -0.335262 
-0.89305 -0.127228 -0.645295 -0.054628 0.00246036 -0.375542 -0.149419 0.6256 0.605743 0.84082 -0.275375 0.15186 -0.866086 0.588395 -0.849986 0.326868 
0.857452 0.800307 0.742614 -0.0883905 0.380393 -0.21983 0.102264 -0.916707 -0.311951 -0.468554 0.311404 -0.898752 -0.840241 0.0460355 -0.592513 0.288335 
0.570635 0.956165 -0.370844 -0.858968 0.227946 0.580929 -0.528345 0.778044 0.437169 -0.544125 -0.852814 0.445462 -0.256252 -0.875464 0.211084 -0.303377 
0.616877 0.178344 -0.184306 -0.934779 -0.77387 0.472709 0.479462 0.592981 -0.519784 0.00497518 -0.464502 0.333847 0.104036 0.586819 -0.26772 0.637101 
0.165388 0.0633867 -0.481662 -0.600469 0.0322044 0.508361 0.896224 0.437996 0.977233 -0.362021 -0.755184 -0.940608 -0.831482 -0.256075 0.362055 -0.231399 
0.0490767 -0.482099 -0.532919 -0.441889 -0.85694 0.0611013 0.603058 0.19 -0.814136 0.226002 0.602966 0.00409191 0.299888 0.767984 -0.576983 0.346909 
0.396008 -0.434004 0.230001 0.665012 -0.847993 -0.999991 0.617006 0.173001 -0.214007 -0.332 0.596998 0.579008 -0.776007 0.727998 -0.739999 -0.842003 
0.425 0.267 0.312 -0.266 -0.548 0.169 0.562001 0.57 -0.789 0.235 -0.11 0.711 -0.936 -0.25 -0.04 0.545 
-0.232999 0.754004 -0.213 -0.782995 -0.434999 0.942003 -0.911997 -0.727004 -0.185003 0.579005 -0.163002 0.387999 0.268999 0.886 0.83 -0.190998 
-0.360003 0.32102 -0.681001 0.881029 0.626018 0.0200113 0.411015 -0.546023 0.892965 0.984035 -0.643038 -0.00100964 -0.664001 -0.171001 0.949993 0.457001 
-0.59499 -0.634824 -0.665999 -0.95084 0.0939339 -0.407969 0.269963 -0.881086 0.0168171 0.313138 0.252924 -0.883305 -0.0230471 0.159985 0.504963 -0.846944 
-0.408958 -0.437443 0.575989 -0.145498 -0.928449 0.134137 0.0158382 0.0498229 0.192358 0.945309 0.851849 -0.254024 -0.479175 -0.939064 -0.656122 -0.740704 
-0.634004 -0.114037 -0.561027 -0.281019 0.105691 0.268321 0.553553 -0.950243 0.430446 0.79938 -0.980205 -0.267155 0.0976209 -0.208225 0.915753 -0.817317 
0.0289581 0.317385 0.0588309 0.759698 -0.419702 -0.600196 0.134136 -0.643191 -0.933097 0.271183 -0.658 0.776077 0.876297 -0.594529 -0.705431 0.687364 
-0.596827 -0.746494 0.717563 0.0376681 0.280861 -0.57061 -0.323288 0.960208 -0.903875 -0.0515334 -0.635135 -0.620752 0.625005 0.155967 -0.263456 -0.157001 
-0.0608423 0.593867 0.095427 0.0368868 -0.51207 0.769923 0.871464 0.935851 0.102185 -0.905953 -0.616889 0.554286 0.737653 0.582395 0.922899 -0.498777 
-0.265682 0.848124 0.441856 -0.388716 -0.15498 -0.710659 -0.961623 -0.229273 0.2139 0.584265 -0.529855 -0.922696 0.398214 0.155861 0.606985 -0.0604919 
0.468889 -0.0838597 -0.632821 0.764807 0.681221 0.0256982 -0.772328 0.300796 0.344458 0.46404 0.178379 -0.807457 0.680784 0.985108 0.621436 -0.0536488 
-0.801722 -0.732365 -0.5281 0.527539 -0.661512 -0.799638 -0.455455 0.658253 0.145151 -0.950084 0.797187 0.789672 0.338452 -0.167094 -0.0963719 0.231784 
-0.314859 0.725946 0.442168 0.968487 -0.422715 0.0891176 0.0135915 0.289801 0.240455 -0.282461 -0.711937 -0.574577 0.667141 -0.469327 0.284403 0.371797 
-0.440166 0.337201 0.0818226 -0.788498 -0.169618 0.576955 -0.862397 -0.642157 -0.279049 0.608625 0.235315 -0.431831 0.372834 0.523027 0.732626 0.0511108 
-0.647407 -0.543643 -0.994856 0.541629 -0.0918756 -0.362998 -0.00576038 0.764658 0.232418 -0.423518 0.624354 0.934704 0.12761 0.743223 0.53854 0.311641 
0.586323 -0.910523 -0.632773 0.258251 -0.28587 -0.796431 -0.58716 -0.908975 0.380451 -0.266594 -0.974987 -0.112365 -0.258469 -0.835455 0.48253 -0.269068 
-0.596175 -0.254771 0.325207 0.783965 0.725099 -0.741832 -0.547173 -0.922672 -0.167461 -0.971345 0.758088 -0.242129 0.110646 -0.0245117 0.45936 -0.631507 
-0.865117 -0.996742 0.309682 -0.324168 0.702159 0.931773 0.575459 0.104293 -0.430331 0.867493 -0.00597482 0.406383 -1.00286 -0.940165 -0.721582 -0.908983 
0.691278 0.906118 -0.895164 0.8763 -0.367378 0.829533 -0.575477 0.369175 0.581817 -0.0153953 -0.157594 0.862357 0.20999 0.942958 0.450662 0.663635 
0.0601269 0.766169 0.256839 0.117491 -0.950754 -0.331234 -0.757071 -0.328282 0.135435 0.92178 0.151436 0.874975 0.772381 0.0393538 0.434314 0.536769 
-0.229761 -0.988408 0.860894 0.939724 0.296173 -0.936956 -0.348216 0.816176 0.165595 -0.420785 -0.859008 -0.91374 -0.978001 -0.102897 0.580385 0.334477 
0.382212 0.295718 0.427491 0.868189 -0.465617 -0.303198 -0.475495 -0.370065 -0.155966 0.786135 -0.205413 0.749053 0.703726 -0.927246 -0.924353 -0.513686 
0.888753 -0.184922 0.981892 0.198137 0.156933 -0.19151 -0.154095 0.374514 0.432505 0.155053 -0.180715 -0.563856 0.763787 0.220471 -0.0397405 -0.450635 
-0.725955 -0.0480901 0.390904 0.627494 -0.970983 0.12922 -0.959811 0.527122 -0.610422 -0.51037 0.646876 -0.943177 0.515016 -0.808673 -0.46843 -0.384621 
0.149532 -0.945885 -0.00897177 -0.716453 0.743374 -0.560069 0.301771 0.492989 0.92409 -0.731111 -0.607669 0.0344933 -0.570431 0.591849 0.135382 0.0245757 
0.842612 0.0793028 -0.383545 -0.0383488 -0.282747 0.907477 0.92034 0.244992 -0.835135 -0.879029 0.781762 -0.217401 0.00530727 -0.508983 0.870026 -0.38557 
-0.804873 0.142881 0.763111 -0.228859 0.592075 -0.0648779 0.217069 0.41201 0.88083 0.466994 -0.279041 -0.0478748 0.321852 0.828006 -0.769985 -0.571108 
0.424012 0.698994 -0.846995 -0.848985 0.794011 0.0410081 0.264004 -0.617 -0.28001 -0.856 -0.612002 -0.922991 -0.78701 0.201996 -0.341995 -0.798003 
0.753001 -0.751 0.058 -0.424999 -0.91 -0.362 -0.176997 0.395 -0.299 0.205 0.557999 0.123 -0.713 0.0410002 -0.973999 -0.470001 
-0.790999 -0.179994 -0.0649999 0.0430064 -0.46899 0.674009 0.902015 -0.900014 0.0709915 -0.224977 0.00897999 -0.569997 -0.206 -0.377994 0.735998 -0.110004 
0.0149985 -0.547914 -0.245985 0.782054 0.933057 0.188038 0.85508 0.959928 0.944913 0.923137 -0.458128 -0.340995 -0.513005 0.943041 0.34698 -0.416024 
0.389042 0.668353 0.788039 0.198259 -0.719993 0.479101 -0.29288 0.812781 -0.140397 0.447398 0.84567 0.270715 -0.818058 -0.655914 0.141928 -0.551973 
0.636116 -0.646158 0.549042 0.888684 -0.177303 0.825245 0.251086 -0.810419 0.637944 -0.953286 0.361299 0.774016 0.62381 -0.921935 -0.015198 -0.896795 
-0.218839 -0.621605 -0.649955 -0.950609 -0.830887 -0.505585 -0.783916 -0.271614 0.723618 -0.961073 0.913698 -0.329716 -0.648409 0.861938 -0.579392 0.667332 
0.128364 0.466731 -0.671111 -0.738576 -0.919641 0.389788 -0.0138725 0.418373 -0.269171 -0.859265 -0.335838 0.629306 0.484248 0.821707 -0.997577 0.161547 
0.897155 -0.857263 -0.850201 -0.564191 0.870181 -0.637796 -0.22955 -0.687401 0.158806 0.644963 -0.882074 0.807124 -0.873072 0.969437 -0.379422 0.596042 
0.00717071 -0.485254 -0.20088 0.215409 0.267592 0.553458 -0.764075 -0.528707 -0.664023 0.828433 -0.620057 0.259451 -0.606459 0.150237 -0.333765 -0.918179 
-0.283735 -0.24356 0.373096 -0.69741 0.905284 -0.984236 0.453761 -0.714556 0.894858 0.808291 -0.9815 -0.657304 -0.426924 -0.711047 0.52668 -0.392231 
-0.823732 -0.0231819 0.785818 0.397331 -0.206549 -0.947785 0.682233 -0.72885 0.262008 -0.122422 -0.37441 -0.659265 -0.542346 -0.896835 0.514367 -0.013205 
0.835429 0.541817 0.0201554 -0.927246 0.802123 -0.237828 0.314071 -0.0720183 -0.945534 0.292096 0.220622 -0.73486 0.13743 -0.955454 0.659408 0.800985 
-0.53879 -0.517713 -0.235329 -0.604152 -0.163521 -0.77745 -0.723787 0.685189 0.714297 0.511799 -0.195992 -0.28912 -0.371801 -0.680892 0.810569 -0.278638 
-0.68803 -0.723621 0.973406 -0.498473 0.162327 0.966027 -0.871023 0.53991 0.763288 -0.151841 0.991087 0.729303 0.50784 -0.937254 -0.734477 -0.157474 
0.387914 -0.0489295 -0.968334 0.673649 -0.573405 -0.770198 -0.842624 -0.856042 -0.338282 -0.759183 -0.959336 -0.153999 -0.599678 0.0456789 0.562079 -0.770356 
-0.858374 0.174031 -0.757535 -0.47497 -0.863511 0.365603 0.943418 0.680161 0.448433 0.665167 0.713475 -0.223369 -0.316008 -0.534861 -0.887603 -0.133478 
-0.810928 -0.569304 -0.465356 0.638364 -0.626236 0.84769 -0.0113296 -0.895229 0.376329 -0.074534 0.981807 0.126311 0.0482233 0.5823 0.525997 -0.625804 
0.480369 0.195727 -0.0464676 -0.811976 -0.0334493 0.991764 -0.190202 -0.600029 0.0876451 -0.404412 -0.100379 0.644551 -0.482917 -0.496794 0.472355 -0.973276 
0.940556 -0.0460647 -0.178757 0.0427098 -0.956535 0.668667 -0.276332 -0.717724 0.15794 -0.0358456 0.690928 -0.13611 0.92405 -0.172861 0.481849 -0.851602 
0.712552 0.447454 -0.165751 -0.987478 -0.0994237 0.242439 0.023519 0.611774 -0.482589 0.278596 -0.605572 0.188278 0.861146 0.958684 -0.429835 -0.401532 
0.260909 0.31499 -0.914767 0.565317 -0.902837 -0.640312 0.237435 0.17953 0.455487 0.453718 -0.427105 0.226595 -0.0805522 0.753334 -0.127106 0.255211 
0.3066 0.33937 0.238673 -0.153949 -0.983999 0.353678 -0.937074 -0.587831 -0.19625 0.790705 0.405124 -0.112056 0.64821 0.757559 0.903097 0.265096 
0.848349 0.690538 0.087749 0.538487 -0.500923 -0.0435533 0.156756 -0.676434 -0.355796 -0.313281 0.938393 -0.984269 -0.985431 -0.069754 -0.0481592 0.204782 
0.499021 -0.583764 -0.349716 -0.808428 -0.828463 0.852193 0.696747 0.223158 0.632302 -0.351546 0.799088 -0.589312 -0.86802 -0.116868 0.179088 -0.191657 
-0.356977 0.302236 -0.502848 0.163612 -0.462211 -0.448105 0.851995 -0.267972 0.561765 -0.0622208 0.444409 0.229728 -0.807452 -0.474259 -0.821515 0.743333 
-0.0712119 -0.795752 0.149505 0.257707 0.312466 0.401438 0.199356 -0.272993 -0.309337 -0.647058 0.794756 -0.457389 -0.433737 0.148979 -0.624026 -0.745597 
-0.257849 -0.252129 -0.896887 -0.184857 -0.952885 0.0731019 -0.0349502 -0.250996 -0.863207 -0.831015 -0.669038 0.970114 -0.947125 -0.232018 -0.94799 0.177893 
0.156021 -0.0190052 -0.304995 0.58602 0.929017 -0.268993 -0.721999 0.859 -0.24802 0.0889987 0.957997 -0.761995 0.0539901 0.971997 -0.791995 0.655996 
-0.829 -0.853 -0.497 0.511001 -0.825996 -0.180999 -0.892998 -0.795002 -0.401 -0.212 0.260995 0.045 -0.565 0.492001 0.732 -0.924001 
-0.333 -0.596988 -0.633 -0.100991 0.0540128 -0.832987 0.212019 -0.886024 -0.871005 0.793036 0.976972 0.854 0.0119997 -0.168989 -0.111005 0.325993 
-0.353001 0.299126 -0.510976 0.674078 0.836098 -0.387939 -0.612877 0.956883 0.502897 0.491237 -0.518201 -0.170964 0.0269907 0.361079 -0.0480334 -0.504059 
0.646043 0.183418 0.597057 0.554284 0.0321222 -0.897838 0.945244 -0.524318 -0.776434 0.0815913 -0.805499 0.622885 0.631957 -0.65681 -0.398099 0.368927 
0.282132 0.989868 -0.562908 0.599659 -0.964996 0.179314 0.65439 -0.348602 0.397851 -0.649001 -0.869087 -0.055515 0.29288 0.871245 -0.351261 -0.410045 
0.20421 -0.821575 0.705065 0.320343 -0.250298 -0.471546 -0.771428 0.721138 0.665651 -0.213713 0.772114 0.183172 -0.349246 -0.115729 0.0365554 -0.0850176 
0.189608 0.682809 0.0739762 0.761308 0.849527 -0.453361 0.260986 -0.573887 -0.770833 0.421932 0.158414 0.817137 0.545531 0.350184 0.262567 -0.539374 
0.847986 0.45977 0.594222 0.374704 0.944815 0.502807 -0.752361 -0.580557 0.248995 0.95302 0.756779 0.586473 0.418205 -0.264761 -0.383886 -0.888738 
0.339909 -0.407751 0.0188846 0.270697 0.370429 -0.663075 -0.472485 -0.253489 0.637545 0.50998 0.478003 -0.181424 0.103806 0.726318 0.202247 -0.230966 
0.314572 0.0772419 0.595192 0.998332 -0.408309 -0.784866 0.226821 0.85929 -0.307608 -0.155627 -0.682996 0.292968 -0.239519 -0.297793 0.271259 0.36731 
0.163422 0.841101 0.238842 -0.350228 -0.236662 -0.761334 -0.722161 0.796274 -0.808632 -0.663601 0.512686 0.493333 0.368368 -0.0101015 0.150373 0.975204 
-0.273653 0.0760965 -0.916392 -0.58768 -0.716027 -0.611558 0.126854 -0.344148 -0.815273 -0.821664 0.508851 -0.376704 0.886111 0.495863 -0.56884 -0.112999 
0.780147 0.323667 0.818377 0.513922 0.972146 0.539561 0.606317 0.0829316 0.391992 -0.152569 0.880417 -0.522495 0.0507626 0.50112 0.745566 0.260541 
0.669949 0.651615 -0.915581 0.704689 0.618746 -0.125768 0.0990477 0.673992 -0.464765 0.124051 0.436601 -0.470519 -0.759838 -0.636681 -0.28161 0.135035 
-0.0579935 -0.400088 0.50106 0.200253 -0.449237 0.126772 -0.974153 -0.932528 -0.572547 -0.267217 0.546051 0.812407 0.871544 0.693625 0.906182 -0.631921 
0.13674 0.732436 -0.479156 0.155658 0.267822 0.830163 0.333461 0.278054 0.774503 -0.648634 0.165142 -0.0703812 -0.878598 -0.857303 0.816078 -0.649933 
0.645061 0.972149 0.0759171 -0.845064 0.532772 0.956021 -0.110381 0.551283 0.104946 -0.433832 0.0698568 -0.00697976 -0.600053 0.580148 -0.463296 -0.967708 
-0.420314 0.460157 -0.637058 0.915025 -0.530457 0.00344934 -0.963786 0.931188 -0.434063 -0.33955 0.81231 -0.127911 -0.62903 -0.9662 -0.396804 0.79139 
0.798471 0.425815 -0.993241 -0.0021015 -0.649304 -0.428878 0.988925 -0.419079 -0.985537 0.706392 0.655671 -0.864748 0.284055 -0.522201 -0.974847 0.277949 
-0.16221 0.435423 0.550717 -0.472232 -0.000266766 0.744661 -0.133482 0.267152 0.580779 -0.113697 -0.631343 0.539231 0.602821 0.77466 -0.78249 -0.00889842 
-0.296422 0.407081 0.624963 -0.795055 -0.343269 0.128796 -0.898901 -0.239061 -0.165808 -0.564191 -0.910935 0.500445 -0.360019 0.617624 0.492616 -0.858927 
0.973142 0.483165 0.276588 -0.0521829 0.463981 0.474843 0.446949 0.7893 0.34314 0.824246 -0.0458026 0.512236 0.278651 -0.756434 0.762922 0.278005 
-0.879414 -0.65265 -0.163659 0.675955 -0.0569868 -0.687085 0.234096 -0.116341 0.234651 0.766588 -0.410791 0.689686 -0.792959 0.985048 -0.200539 0.238711 
0.916042 -0.363132 -0.0624329 -0.750062 0.48014 0.207778 0.231729 0.954238 0.597488 0.93932 -0.957048 0.721929 0.410465 -0.624154 -0.374459 0.467844 
0.984866 0.883558 0.687164 -0.278747 -0.741992 -0.297408 -0.560199 -0.393904 -0.726613 0.923651 -0.348202 0.0385256 0.0338899 0.698444 0.31667 0.88844 
0.367575 0.605371 0.221435 0.975587 0.52052 -0.207694 -0.434781 0.547024 -0.743145 0.683889 0.530835 -0.170596 0.78143 -0.295157 -0.838028 0.688595 
0.923117 -0.130107 0.342085 0.282136 -0.803894 -0.819936 0.969031 0.0720083 -0.285157 -0.949023 -0.264035 0.755079 0.173895 -0.523035 0.153994 -0.271085 
-0.117993 0.850994 0.769007 0.237017 -0.698986 0.676009 0.604003 0.0730017 -0.839013 0.197 -0.405005 -0.874991 0.484992 0.0619963 0.229002 0.55999 
0.717999 0.0730005 -0.921 -0.290999 0.662005 -0.775998 0.574002 0.681997 0.475 -0.185 0.342994 0.446 0.532 -0.431998 -0.316 -0.639001 
0.471999 0.286017 -0.734001 -0.910982 -0.848984 -0.395984 0.233016 0.593977 0.075998 -0.401968 -0.396037 0.533005 -0.532 0.184012 0.416992 -0.03601 
0.616001 0.0141276 -0.933981 -0.00391006 -0.126886 0.148067 -0.489886 -0.604117 0.940922 0.791217 -0.134174 0.589054 -0.980001 0.355082 0.947962 -0.749063 
0.0810202 -0.72861 0.825035 0.22826 0.173146 0.454172 -0.690757 -0.570304 0.237664 0.991549 0.738576 -0.147023 -0.552015 -0.432808 0.0538896 0.876873 
-0.509882 0.197711 0.0560634 -0.226483 -0.410807 -0.137704 0.536441 0.42843 -0.1129 -0.460111 0.583996 0.840896 -0.833047 0.5203 0.559756 0.0468086 
-0.418767 -0.616883 0.606051 0.989862 -0.215996 0.403353 0.960767 0.461239 -0.269535 -0.606973 -0.158564 -0.936917 -0.0770784 -0.388585 -0.260248 -0.308308 
-0.556046 -0.728541 0.919174 -0.149412 -0.888098 -0.423642 0.846321 -0.514612 0.553779 -0.396489 0.361966 -0.501065 -0.492153 -0.12159 0.338166 -0.278041 
0.00800791 -0.587805 -0.806251 0.119717 -0.057041 0.22736 -0.484014 0.290113 -0.586426 -0.199809 -0.663441 -0.452749 -0.764353 -0.987379 -0.724768 0.430178 
0.74656 -0.599605 -0.815469 0.139493 -0.172176 -0.366617 -0.560227 -0.864218 -0.42546 0.66748 -0.281304 0.270146 0.658361 -0.459347 0.370922 -0.723096 
0.858307 -0.638522 0.292875 0.234375 -0.542102 -0.928733 -0.889847 -0.691029 -0.00241517 0.428202 0.765591 0.56678 -0.493706 -0.700898 0.73564 -0.932799 
-0.184583 0.429961 -0.801733 -0.500992 -0.335487 -0.326465 0.0543289 0.363854 -0.724471 -0.519547 0.758637 0.728439 -0.987727 -0.549408 -0.822061 -0.0311339 
-0.222143 -0.306667 0.420694 -0.339364 -0.620993 -0.161613 -0.455265 0.465681 -0.572694 -0.0507228 -0.900415 -0.456976 0.935704 0.362439 0.922168 0.146335 
0.299183 -0.562246 -0.814056 0.644502 -0.904131 0.937925 0.852922 0.24367 0.45185 -0.598873 0.708558 0.61268 -0.961119 -0.0791622 -0.920142 -0.681725 
-0.650768 0.859964 0.751753 0.283394 -0.402112 -0.664034 -0.351835 -0.571529 -0.959138 0.24936 0.586169 -0.23799 0.266308 0.1739 0.139622 -0.301851 
0.48314 -0.52654 -0.731592 -0.281564 0.661285 -0.967561 -0.205545 0.108311 -0.710846 0.0724535 0.676994 -0.46926 -0.243935 0.106255 -0.398281 -0.59827 
-0.90518 0.201672 -0.420636 0.954585 0.545852 0.438658 -1.00897 -0.334995 -0.131994 -0.820466 0.896292 -0.0518043 0.788313 -0.478643 -0.856731 -0.469213 
-0.879036 -0.750712 0.381634 -0.495997 0.696153 0.0950548 0.854978 -0.437619 0.121083 0.0145025 -0.634925 0.099064 0.725024 -0.337668 -0.667743 -0.710465 
0.225771 0.582047 0.792656 -0.0702425 -0.774189 -0.385286 0.702222 -0.789687 0.628212 0.262587 0.826381 -0.49975 0.335263 0.784943 0.0307859 0.00048813 
0.346321 0.709167 -0.332973 0.952834 0.854871 -0.606197 0.725824 -0.0122332 0.528082 -0.685345 0.121058 -0.00838625 0.354143 -0.29689 0.496085 -0.429891 
0.874514 0.555346 -0.298641 -0.686345 0.704854 0.630245 -0.204814 0.0292226 -0.545727 -0.478693 0.745725 0.681172 0.350791 -0.802482 -0.991313 -0.556483 
0.289541 -0.984849 0.294544 0.105376 0.853451 0.730031 -0.445021 0.553661 0.256256 -0.561037 0.648357 -0.507462 0.0538799 -0.43039 -0.103776 -0.146338 
0.559866 -0.872592 -0.354391 -0.136778 -0.955025 -0.373135 0.0462846 -0.576284 0.933231 0.47008 0.154789 -0.657648 -0.245481 0.0485854 0.397755 -0.473308 
0.936659 -0.679623 0.0834703 -0.796939 0.176634 0.580131 0.271013 0.388934 0.427856 0.883568 -0.996582 0.617608 -0.674149 -0.727806 0.765188 -0.907945 
0.0452773 0.0536418 -0.604675 0.0653593 -0.0709569 -0.42778 0.285379 -0.273581 -0.203075 -0.477705 -0.798016 0.591178 -0.912811 0.995905 0.65501 0.17039 
0.751281 -0.322867 0.455832 -0.106601 -0.369273 0.406238 0.53148 -0.510851 0.163814 -0.479387 -0.872807 0.965398 -0.56057 0.112385 -0.610111 -0.291459 
-0.511733 0.762641 -0.679776 -0.811609 0.821387 0.26418 -0.996909 0.75405 -0.278671 0.31583 0.853922 -0.413783 -0.575291 0.523773 0.818 0.301823 
-0.879958 -0.341052 -0.511952 -0.317907 -0.658908 -0.425946 -0.499987 0.56602 -0.778114 0.753968 0.551976 -0.149946 0.51594 0.225944 0.485992 -0.39804 
0.737003 -0.0990015 0.901002 -0.25099 0.967006 -0.897994 -0.735 0.881001 0.84299 -0.289999 -0.492004 -0.510996 0.857995 -0.816005 -0.878998 -0.894004 
-0.414 0.987 0.371 -0.509998 -0.0279993 -0.481998 -0.926997 -0.647001 0.281 -0.337998 0.995999 -0.786996 0.451 0.115 -0.196001 0.784997 
-0.666998 0.564015 -0.495999 -0.162982 0.453017 0.784015 -0.66699 -0.0280166 -0.0790053 0.544024 0.369975 0.257015 -0.912 -0.870996 -0.703006 0.339986 
0.923003 0.901107 0.343011 0.876083 0.731102 0.500055 0.648072 0.612924 -0.747059 -0.688841 0.692871 -0.667948 0.451001 0.814061 0.598965 -0.784064 
0.212014 -0.165725 0.849008 -0.747795 -0.0878346 -0.858887 0.209161 0.449802 0.179808 0.569365 0.534688 -0.437955 0.364997 0.111123 -0.183075 0.0108812 
-0.236896 0.32149 -0.394006 0.345364 0.443228 0.85018 -0.406711 -0.33639 -0.558467 0.444539 0.832285 -0.263883 -0.498013 0.0251932 0.558874 0.952803 
0.00739549 0.00671652 0.543063 0.129468 -0.248959 0.0700744 0.395641 0.227582 0.540411 -0.940636 0.218954 -0.284296 -0.0559936 -0.821738 0.65814 0.383418 
0.739463 -0.616 -0.36161 0.737667 0.634766 0.0299431 0.783254 -0.685019 -0.920379 -0.979288 -0.57603 0.754159 0.204005 0.446285 0.413019 0.0021786 
-0.95093 -0.17437 0.245245 -0.449653 -0.0067983 -0.47115 -0.866163 -0.98985 -0.683627 -0.573084 0.759902 0.137976 -0.0700859 -0.253629 0.534582 0.279146 
-0.119066 -0.562421 0.882088 -0.162181 -0.0143113 -0.430434 0.591655 0.632253 0.561146 0.516107 -0.404896 -0.801741 0.162778 -0.555801 -0.37403 -0.301314 
-0.17353 -0.292873 -0.66273 0.00442842 0.135924 0.614053 -0.831854 -0.936376 0.510788 -0.623411 -0.156841 -0.0436885 -0.263153 0.830509 -0.336981 -0.757139 
-0.63653 0.279396 -0.943609 -0.696036 -0.579693 -0.939688 -0.634353 0.774014 0.269925 -0.972254 -0.869795 0.206232 0.300543 -0.623762 0.396725 0.870655 
0.511106 -0.397539 -0.286347 -0.917049 0.0636117 0.953068 -0.0242175 -0.170055 -0.942384 -0.468551 -0.952082 0.624492 -0.210737 -0.0260698 -0.548006 0.154025 
-0.170821 -0.292576 -0.698131 0.193708 -0.0640736 -0.30252 -0.287328 0.0770108 0.459448 -0.299395 -0.137702 -0.146853 0.846097 0.0447522 -0.348087 0.138979 
-0.551856 -0.849595 -0.538943 -0.223459 -0.116232 -0.696466 -0.236655 0.848176 -0.400133 0.192361 -0.466963 -0.699569 -0.639136 0.631019 0.350587 0.146638 
-0.374251 0.725641 0.344298 0.205858 -0.17076 -0.966148 0.20197 0.214959 0.621429 0.597474 -0.188349 -0.682553 -0.650508 -0.978052 -0.935994 0.38454 
-0.0803026 -0.821846 -0.518481 0.0358602 -0.669416 -0.280441 -0.981365 0.69681 0.160511 0.697172 -0.88823 0.288544 -0.499663 -0.45429 0.796965 0.595986 
-0.263576 0.4558 0.804037 -0.76123 -0.792074 -0.837144 0.964689 0.665647 0.839919 0.953019 -0.177145 -0.432098 -0.103662 0.215255 -0.632708 1.00512 
-0.332042 0.194461 0.577896 0.9201 0.402628 0.6258 0.71219 0.669153 -0.790167 0.986099 -0.0446622 0.554567 0.103639 0.278886 -0.502788 -0.118307 
0.352878 -0.893001 0.426718 -0.964985 -0.987614 0.536918 0.820853 0.837631 -0.774391 -0.721424 -0.611391 -0.175727 0.349075 -0.377226 -0.305699 0.927241 
-0.191716 0.246171 -0.569172 0.0970776 0.686485 0.509088 0.754896 0.601771 0.185404 0.112971 -0.184284 -0.0894096 0.0715503 0.0197549 -0.43348 0.993692 
-0.940753 0.251084 0.526149 -0.0299915 -0.0473877 -0.0204927 0.063419 -0.531347 0.5207 -0.705279 0.827302 0.243356 0.952621 -0.390784 0.689206 0.872272 
-0.837153 0.287901 0.296915 0.199059 0.775898 -0.539879 -0.155535 0.133366 0.661216 -0.302569 0.639577 0.0901691 -0.380667 -0.457266 -0.0637179 -0.83955 
-0.854616 -0.239209 -0.161853 0.631485 -0.728975 0.0814658 -0.998031 -0.438648 0.366245 -0.860126 -0.898669 -0.655654 0.664482 -0.168466 0.0347779 -0.180681 
0.256632 0.0271163 -0.678927 0.982881 0.110889 -0.832136 -0.581783 0.397681 -0.873454 0.405407 0.411736 -0.532305 -0.952339 -0.310833 -0.0275604 0.338903 
-0.400093 -0.35748 -0.844413 -0.536235 -0.462509 0.558075 0.206386 -0.0887814 0.414093 0.946671 0.293486 0.130463 -0.413217 -0.920453 -0.913918 -0.237562 
0.23407 0.0758563 -0.984928 -0.881836 0.384232 -0.152901 -0.351975 -0.452947 0.554703 -0.16812 -0.219033 -0.162899 0.426886 0.895834 0.859033 -0.676066 
0.799015 0.65298 0.701006 -0.158962 -0.595939 0.729032 0.215001 -0.434988 0.649895 0.531984 0.082988 0.719029 -0.704022 -0.561042 -0.221999 -0.762012 
0.241001 -0.197003 -0.994004 -0.379999 -0.329998 0.849002 0.205 -0.475997 0.0779924 0.787001 0.983999 -0.370997 -0.861001 0.898 0.973001 -0.362 
0.815 0.00200003 -0.959 -0.514999 0.0630001 -0.788998 -0.933999 -0.173 0.583 0.930002 -0.435 -0.917997 0.982 -0.169 -0.765 0.289997 
0.812001 0.256012 0.802001 0.448008 -0.486986 -0.873993 -0.502997 0.0639929 0.214994 -0.706988 0.906985 -0.562994 -0.582 -0.661999 -0.576004 -0.93001 
0.183006 -0.654935 0.328008 -0.940955 0.483073 0.221022 -0.462978 0.559961 0.348971 -0.0769174 -0.117085 0.905028 0.847001 0.313027 -0.214016 -0.0160425 
-0.590968 -0.765837 -0.500018 0.970115 -0.160855 0.157038 0.668065 0.855889 -0.515104 0.592175 0.0217769 -0.266943 -0.264999 0.383054 0.826957 -0.501074 
0.0611385 -0.909643 0.134969 -0.899811 0.479167 -0.426997 -0.0938409 -0.115196 0.244906 0.209202 0.835547 0.981219 -0.061006 0.699094 -0.898963 0.406844 
-0.804327 0.219558 0.0841466 0.427115 0.354825 0.559773 -0.866439 0.451928 -0.199527 -0.397047 0.687558 0.399104 -0.124976 0.569154 -0.695304 -0.0109374 
0.845014 0.55776 0.857635 0.318831 0.874082 -0.851492 -0.808836 0.946594 -0.200218 0.466168 -0.653981 -0.488045 -0.919912 -0.520765 0.983127 0.204284 
0.72361 -0.861336 -0.573403 0.698813 -0.232206 -0.986775 -0.488336 -0.642945 -0.764543 0.762233 -0.38186 0.725779 -0.762901 -0.735844 -0.286747 -0.301932 
-0.4479 -0.951313 -0.456765 -0.698353 -0.659114 0.425536 -0.856572 -0.0855869 0.700798 -0.181019 0.682588 0.107507 -0.359879 0.13096 0.576968 0.747308 
0.545968 -0.102464 0.448238 0.611525 0.411209 -0.970215 -0.0793075 0.636691 0.32117 -0.573865 -0.58767 -0.898132 -0.538877 -0.868524 -0.35559 0.510116 
-0.343454 0.310594 0.82245 0.811689 -0.667363 -0.280148 0.250248 -0.0223493 0.785021 -0.611657 0.00826424 0.238725 -0.165828 -0.424946 0.684748 -0.800654 
-0.939545 -0.371357 0.258687 -0.670729 0.392188 -0.274242 -0.0178864 0.371988 -0.256535 0.165201 -0.976667 0.852924 0.264311 -0.495478 -0.581916 0.868719 
-0.43969 0.861358 -0.019179 0.710272 0.371521 0.944742 -0.733463 -0.654617 -0.3981 -0.0355505 0.0666772 0.321381 -0.349014 -0.279102 -0.0815318 -0.715608 
-0.8587 -0.0747531 -0.450172 0.173256 -0.122711 -0.960919 -0.419395 0.135128 -0.0809932 -0.461568 0.520578 0.709444 0.684329 0.721293 -0.368301 0.245725 
0.603582 0.124295 -0.882213 -0.209526 -0.252143 0.0694835 0.904967 -0.73819 0.418217 0.333345 -0.515271 -0.126013 -0.364225 -0.366757 0.557201 -0.548888 
-0.635899 -0.436526 -0.628677 -0.57119 0.83537 -0.254088 0.288899 0.0754363 0.163541 0.528583 -0.904176 0.553581 -0.4701 0.241607 -0.668266 -0.419929 
-0.164278 -0.525595 -0.226467 0.756655 0.10223 -0.0948021 0.684941 -0.762864 0.597224 -0.321815 0.786734 -0.0965056 0.399312 -0.832495 -0.517683 0.655107 
0.462481 0.546369 -0.562221 -0.274046 -0.21394 0.223682 -0.485743 -0.64536 -0.0634963 0.571274 0.294787 0.440911 -0.314525 -0.88343 0.132356 0.354808 
0.895359 0.773351 0.29256 0.448179 0.129015 -0.375049 -0.454453 0.546594 -0.281315 -0.75994 0.0773179 0.246666 -0.899415 -0.952665 0.73252 -0.594561 
-0.689856 -0.666538 -0.196795 -0.940626 0.0758372 0.139791 -0.231223 -0.623888 -0.327209 -0.864791 -0.446773 0.977318 0.116787 0.953884 -0.708848 0.369247 
-0.562137 -0.156672 -0.326106 0.815167 0.296817 0.470134 -0.0606519 0.265548 -0.189237 -0.084586 0.586241 0.335364 -0.558979 0.0500659 0.330108 -0.475479 
0.495243 -0.404022 0.103068 0.878122 0.824077 0.308713 0.673678 0.581012 0.997765 0.0879257 0.655428 0.244276 -0.734224 -0.755035 -0.879319 0.414057 
-0.25148 0.972797 0.491681 0.0188307 0.378274 0.518123 -0.914904 0.967821 -0.190076 -0.206909 0.648868 -0.667214 0.440808 0.0878941 0.104203 0.788729 
-0.931705 -0.540703 -0.607105 -0.42894 0.465738 -0.395342 -0.192714 0.438956 -0.600621 0.517478 -0.735861 0.949132 0.725914 0.0144542 -0.103245 0.317457 
0.569749 0.123741 -0.781541 0.368429 -0.527755 0.669984 0.161372 -0.984642 0.826149 -0.271307 0.494709 -0.961419 -0.805006 0.829717 -0.449795 0.298234 
0.701008 -0.206028 -0.438998 0.303034 -0.0079276 0.959035 -0.052001 0.206078 -0.38706 -0.0310884 0.639001 0.455054 -0.439005 -0.349121 -0.589953 -0.323035 
-0.423996 -0.461003 0.22199 0.502015 -0.775972 0.196012 -0.151 -0.976987 0.91194 0.722979 0.714003 0.371013 -0.191999 0.619961 -0.0190003 0.155999 
0.297999 -0.851002 -0.855005 -0.502996 0.466006 0.443001 0.448 -0.607997 0.530989 -0.795999 0.694999 0.294004 0.45 0.148998 0.950999 -0.419 
0.598 0.845 0.675 -0.755 0.584 0.433 -0.900001 -0.601 0.567 -0.703 -0.991 -0.0590007 -0.769 -0.901 -0.102 -0.025999 
-0.612999 -0.240995 0.261999 -0.854998 0.729008 0.659 0.324001 -0.232999 -0.0340034 0.968005 0.926994 -0.906002 -0.151 0.795999 0.542 0.922996 
0.396005 0.417031 0.411004 0.368016 -0.951955 0.781008 0.833016 -0.426017 -0.312013 0.884041 0.667938 -0.531985 -0.575 -0.795989 0.843996 -0.0790282 
-0.0399756 0.911107 0.921964 0.951064 -0.299918 -0.657994 -0.36998 0.424942 -0.570037 0.451072 0.719856 -0.801959 -0.472996 0.480027 -0.595009 0.381969 
-0.574796 0.614314 -0.388051 -0.795976 0.192026 -0.991097 -0.0618771 0.00489162 -0.133789 -0.333936 -0.829242 0.0802367 -0.0359983 0.541086 0.0261902 0.885773 
0.936024 -0.266442 0.25125 -0.27631 0.0753968 0.29158 -0.840313 -0.0488383 0.597756 0.526744 -0.192746 -0.711523 -0.972978 0.920224 -0.193637 0.125375 
-0.160511 0.710987 -0.416255 0.801971 0.134954 0.482193 0.342309 0.636061 -0.374785 0.275845 -0.720993 -0.916545 -0.565861 -0.288644 -0.767531 -0.150895 
0.934596 0.409194 -0.268439 0.446133 0.627899 0.139617 -0.328286 0.418867 0.069984 0.815094 -0.18365 0.990095 -0.490714 0.97419 0.74711 0.879247 
0.41503 -0.0402014 0.749507 0.0831363 0.772308 -0.901568 -0.826784 -0.489471 0.410025 -0.208797 -0.826675 0.117646 -0.268471 -0.0130257 0.67862 0.519524 
-0.806981 0.798204 0.729185 0.745803 0.682463 0.349051 0.200024 -0.00309215 0.901989 -0.607521 -0.0472097 -0.97294 0.373335 -0.743579 0.728788 0.869082 
-0.0751686 0.0594468 -0.113789 0.614464 0.856087 -0.875784 0.598622 -0.152167 0.581888 0.511957 0.161841 0.525264 0.0600422 -0.835332 -0.388272 -0.83503 
0.947919 -0.786202 0.196625 0.892977 0.875176 0.762661 -0.26148 -0.435266 0.768121 -0.452922 0.0814314 -0.935804 -0.134969 -0.484039 0.679151 0.100098 
-0.234104 0.245423 0.421656 -0.640239 0.89817 -0.806343 -0.788636 0.960673 0.220861 0.719663 -0.871983 -0.47417 0.173973 -0.585079 -0.281453 0.768998 
-0.708243 -0.79992 -0.263634 0.542898 -0.404897 0.49545 0.781123 0.569732 -0.605774 0.255657 0.413264 0.631782 0.781754 -0.419368 -0.655927 -0.387012 
-0.199113 0.358315 0.600041 0.676875 0.720359 -0.775113 0.643662 -0.335997 -0.407172 -0.38465 0.84491 -1.02008 -0.0878555 0.213159 0.498794 -0.346856 
-0.668163 -0.511262 -0.687538 0.012559 0.882638 0.277613 -0.637649 -0.805301 -0.455179 -0.780228 -0.480029 -0.040596 -0.307608 0.0885656 0.681613 -0.555489 
-0.696266 -0.734551 -0.661722 0.376573 0.723053 0.751712 0.557729 -0.1967 -0.186101 0.640716 -0.783397 0.223486 -0.356211 0.903024 0.668504 -0.430109 
-0.44648 0.0395592 -0.754925 -0.9693 -0.992406 0.436195 -0.525861 -0.300923 -0.484992 -0.165787 -0.905482 -0.588193 0.775656 0.0514114 -0.322062 -0.114044 
0.741653 0.0102934 -0.109708 -0.678119 0.122805 -0.63927 0.788108 -0.248036 -1.00114 -0.0791291 -0.27622 0.64862 -0.47953 -0.135545 -0.823407 0.910364 
-0.635037 -0.743425 0.963339 -0.068157 0.309033 -0.637666 -0.219083 -0.175203 0.728366 0.282774 0.712269 -0.0553338 -0.776354 -0.207054 -0.263938 -0.156561 
-0.765763 -0.864921 0.633215 0.580241 0.382387 0.248826 -0.354097 -0.142995 0.461974 0.597699 -0.729856 0.0406903 -0.226902 0.891528 -0.573519 -0.477841 
-0.113639 -0.46792 -0.214458 0.507575 0.437827 -0.176422 0.0547833 0.815486 -0.969082 0.843366 0.299398 -0.787984 0.77289 0.756343 -0.686877 -0.331482 
0.361067 0.109906 0.28431 0.64615 0.571428 0.979077 -0.744596 -0.670843 -0.63464 0.715063 0.800101 -0.873149 0.717917 0.776179 -0.612512 -0.943642 
-0.84593 -0.287647 -0.627299 -0.826226 -0.413424 -0.126347 -0.756639 -0.757771 -0.486589 0.0963824 -0.335788 0.253294 -0.757972 0.14762 -0.404148 -0.469659 
0.620654 -0.383162 0.229328 0.623433 0.78104 -0.362026 -0.293637 0.561597 -0.648185 -0.453415 -0.541162 0.0406984 0.905076 0.980759 -0.530778 -0.58783 
0.600988 0.315985 -0.70606 0.966995 0.0449553 -0.832977 -0.961021 -0.836861 -0.399907 0.773873 -0.555972 -0.000950689 0.525039 -0.92013 0.21705 -0.176025 
-0.551007 -0.914003 0.673991 0.257004 -0.815031 0.215012 -0.942006 -0.724983 0.229986 -0.418029 -0.788982 0.0369914 -0.729985 -0.0380432 -0.409011 -0.971989 
-0.339001 0.611999 0.695997 -0.123998 -0.900001 0.958003 0.170999 -0.808993 0.247997 -0.878006 -0.301996 -0.450003 0.758001 0.727993 0.144994 0.742006 
0.438 0.859999 0.473 -0.523 0.493 -0.304999 0.404 0.212999 -0.968 0.525 -0.0960001 -0.704999 0.221 0.848 -0.832 -0.916001 
-0.38 -0.908998 -0.161999 0.232001 0.119004 -0.663 0.565999 -0.568 0.261999 -0.465997 0.830999 0.636996 -0.306 -0.898001 0.0110001 -0.486 
-0.357998 -0.730986 0.834001 0.547007 0.730025 0.503002 0.0410087 -0.394009 -0.589008 -0.702984 -0.263035 -0.897996 -0.985 0.0630041 -0.883001 -0.683013 
0.999003 -0.848897 -0.357069 0.538032 -0.217993 0.45399 0.887 -0.988026 0.912011 -0.0779652 0.836903 -0.825996 0.0910062 -0.191986 0.718016 0.851008 
-0.722715 0.623352 0.851938 0.21087 -0.770242 -0.411121 -0.998845 -0.985033 -0.512436 -0.271967 0.0290048 0.92126 0.98701 0.863093 0.32742 0.487604 
0.478373 -0.285308 -0.153661 -0.525824 0.0808184 0.830446 0.839956 -0.380649 -0.828006 0.646713 0.362934 -0.592149 -0.439957 -0.247702 -0.0928069 -0.441655 
-0.277227 -0.618596 0.441769 -0.452081 0.335764 0.736891 0.125534 -0.0474927 0.0116507 -0.0612362 -0.00911765 -0.371057 0.482224 0.104453 -0.342094 0.374788 
0.434222 0.61302 -0.392948 0.0544562 0.780929 -0.950982 -0.671263 0.433776 0.632468 -0.255986 0.409558 -0.697631 0.714579 0.205311 -0.0432933 0.400215 
-0.184544 -0.483694 0.934984 0.583912 0.776358 -0.669448 -0.0851656 0.0299007 0.488859 0.958063 -0.819907 0.73375 -0.076825 0.707018 0.538569 0.262606 
0.633555 0.423333 0.899464 0.245485 0.965746 0.527036 0.759005 0.422842 0.10684 0.00947139 -0.904202 -0.08809 0.252082 0.806122 0.739482 0.703372 
0.554636 -0.553529 -0.744911 -0.313633 -0.472714 -0.406014 -0.852857 0.800929 -0.961036 -0.961034 -0.490903 -0.388507 0.277866 -0.04513 -0.711424 0.750463 
-0.692304 -0.587086 -0.407643 -0.577668 -0.198851 -0.944853 -0.960188 0.800737 0.568107 -0.0853059 -0.339395 -0.291589 0.944379 0.952228 -0.363396 -0.729243 
0.635474 0.821308 -0.560436 -0.307716 -0.373245 0.104808 -0.371253 -0.0843518 0.735849 -0.353317 -0.458068 0.588324 -0.175141 -0.0267188 0.0475568 -0.84764 
0.842664 -0.925554 -0.107623 0.80413 0.204932 -0.297371 -0.72886 -0.183347 -0.803336 -0.0706083 -0.309084 -0.672506 -0.185491 -0.807616 -0.766238 1.01504 
-0.3217 0.966459 -0.586992 0.991526 0.665739 -0.0276668 0.0725774 -0.240056 -0.396629 -0.530672 0.662998 0.330352 -0.605656 0.18404 0.920769 0.128353 
-0.661666 0.861492 -0.55066 0.281008 0.447301 -0.0799035 0.412162 0.292372 0.352279 0.164943 -0.557951 0.100493 0.260225 0.880554 -0.832288 -0.00350424 
0.714103 -0.0573566 -0.534156 -0.273546 0.332491 0.676461 -0.185524 -0.724945 0.059191 0.368483 0.9212 0.0296615 -0.114728 0.353385 0.765907 0.996866 
-0.963367 -0.0785763 -0.817145 -0.0943992 0.0802316 0.448447 -0.192026 0.516578 -0.965722 -0.487483 -0.781858 -0.357107 -0.848274 0.220105 0.262524 0.39493 
-0.0269375 0.74146 -1.00547 -0.135878 -0.70428 0.528329 -0.713738 0.871489 -0.0223706 -0.0411903 -0.522895 0.342232 -0.789998 -0.117183 -0.09145 -0.271013 
0.645778 0.605911 -0.56071 0.363179 -0.0205002 -0.0617976 -0.182924 -0.198121 0.71165 -0.205196 -0.500943 0.796458 -0.257631 0.249629 0.372624 -0.857199 
-0.894413 -0.146021 -0.24376 0.04916 -0.143464 -0.55619 -0.736613 0.00229983 -0.344042 -0.213008 -0.930975 -0.288478 0.12705 -0.554682 -0.564798 0.498497 
0.278981 -0.735966 -0.32163 0.241159 0.782934 0.801663 0.817711 -0.733295 -0.232679 0.314822 -0.414798 0.786302 -0.467102 0.8269 -0.207639 -0.305724 
-0.553239 -0.524908 -0.623097 -0.896096 0.536398 -0.598788 0.937587 -0.556665 0.792774 -0.607949 0.323192 0.422434 -0.0560191 0.856432 -0.0816327 -0.704503 
0.49781 0.690606 -0.292602 -0.176217 -0.783653 0.582676 -0.865647 -0.487537 -0.0190922 -0.69573 0.667108 0.211093 0.0981027 -0.582295 0.622652 -0.214326 
0.0245324 -0.532998 -0.149796 0.933551 -0.505204 -0.0250859 0.075331 0.694831 0.78918 0.46446 -0.237125 0.640729 0.508111 0.459781 0.683139 -0.415705 
0.494976 0.122003 0.934859 0.947995 0.558848 0.119033 0.137966 0.46623 0.373253 -0.250174 -0.939932 0.341099 -0.906941 -0.452111 -0.593956 0.918014 
-0.732006 -0.788002 -0.935017 -0.380999 -0.873069 -0.428984 0.113987 -0.957971 0.750009 -0.25103 0.728032 0.260989 0.97702 -0.264019 -0.975012 0.60603 
-0.535 0.783 0.952999 0.405 0.625998 0.153 -0.835 -0.454999 0.127 0.779998 -0.569 -0.620001 -0.817 0.346999 -0.277001 0.081001 
0.0629999 0.544 -0.751 -0.574 -0.56 0.662 0.291 0.0289998 0.698 0.598 -0.0220002 0.727 -0.175 -0.54 -0.731 0.18 
-0.777 0.347001 -0.597997 -0.835 0.0819999 0.423 -0.945 -0.813 -0.193 -0.191 0.330002 -0.909007 -0.889001 0.544 0.344001 0.075 
0.689 0.205014 -0.243998 -0.275996 0.216998 0.856 -0.952008 -0.240004 -0.720005 0.650007 -0.912017 -0.0340101 0.066999 0.778001 0.173 0.842997 
0.0480016 0.932123 0.575921 -0.236973 0.597903 -0.665011 0.615974 0.857013 -0.0199598 -0.833996 0.660956 0.490946 0.933007 0.928992 -0.914986 0.250063 
-0.108589 -0.306665 0.287951 -0.712287 -0.214476 -0.943125 -0.440795 -0.172932 -0.0891143 -0.773965 0.290275 0.241303 -0.735989 -0.333922 -0.925298 -0.308675 
-0.850334 -0.587266 -0.10764 -0.785354 -0.843844 -0.173605 0.160049 -0.95741 -0.15694 -0.837276 0.449637 -0.601863 -0.749917 -0.103777 0.199026 0.674292 
0.110833 0.487476 0.437646 0.299992 -0.681293 -1.00018 0.0424628 0.84706 0.638427 0.0926899 -0.597046 -0.00259431 -0.945606 -0.605707 0.209933 0.53609 
-0.872345 -0.428941 -0.418796 -0.361818 0.819418 -0.801269 -0.496581 0.0276636 -0.949591 0.557665 0.837985 0.107745 -0.793961 -0.0998243 -0.259694 0.450953 
-0.359996 0.211479 0.915067 -0.412361 -0.533416 0.788715 -0.0887951 -0.00179246 0.422759 -0.230967 0.893602 -0.923234 0.392843 -0.861148 0.84439 -0.695088 
-0.956463 -0.827427 0.0649476 0.569169 0.432292 0.8248 -0.803906 0.347788 -0.592012 0.0933352 -0.679271 0.0140473 0.0240257 -0.237249 0.956563 0.0120825 
0.77766 0.00456312 0.785695 0.157694 0.0355894 -0.168208 0.0864129 0.709255 -0.0877245 0.45598 0.817838 -0.805043 0.468432 0.601385 0.51716 -0.608458 
-0.340036 0.432989 -0.178811 0.949039 0.916734 0.443481 0.524493 -0.448057 0.883481 -0.569023 0.0493272 -0.846011 -0.529249 -0.395638 0.608554 -0.27875 
-0.0222514 -0.535169 0.23432 -0.657271 -0.173878 -0.575257 0.213057 -0.109786 0.710544 -0.421041 0.35019 0.24483 0.857523 -0.139983 -0.0238968 0.449003 
0.354839 -0.901884 0.739497 0.798564 -0.272125 -0.922437 0.266885 0.226189 0.712905 0.991305 0.7546 -0.262972 -0.907413 0.691879 0.195068 0.0626768 
-0.14787 -0.129514 -0.668181 0.943961 -0.574184 -0.137626 -0.537783 -0.967873 -0.639202 -0.99891 -0.677035 0.000812482 0.145777 -0.947137 0.702616 -0.0709573 
-0.246899 -0.494735 0.309278 0.648531 0.120029 0.129279 -0.768745 -0.00976551 -0.51619 0.371877 -0.464034 -0.575483 0.0491752 -0.437452 -0.0426619 0.195176 
0.726565 0.467286 0.973579 -0.871173 0.272687 -0.655328 -0.235904 0.642894 -0.716392 -0.689444 -0.371116 -0.328001 0.996771 -0.0986777 0.461475 0.264835 
0.625721 -0.942588 -0.87538 0.578049 0.941379 -0.939931 0.420584 -0.529533 -0.500599 -0.349331 -0.0871531 0.158049 -0.260485 0.374337 0.397195 0.34579 
0.591432 0.500047 -0.535997 0.205241 -0.894447 -0.632055 0.463795 0.239907 0.87475 0.0723314 -0.66152 -0.204833 -0.151496 0.990483 0.961073 -0.234898 
0.673563 0.0565771 -0.320119 -0.382233 0.061197 -0.293446 0.819172 0.318591 -0.793137 0.599182 0.201578 -0.864502 -0.356983 0.114103 -0.0155646 -0.692397 
-0.373349 0.112481 -0.525585 -0.843206 -0.321665 -0.664729 -0.280296 -0.38667 0.19307 0.780676 -0.673487 -0.378951 -0.777154 -0.289499 0.194469 0.165048 
-0.23115 0.0402368 -0.728945 -0.54666 -0.122187 -0.338977 0.948412 -0.0152019 0.759399 -0.297015 -0.157356 -0.39467 -0.678214 0.593857 -0.080992 0.106644 
-0.610628 0.220135 -0.760652 -0.399754 0.579 -0.360586 0.866336 -0.431516 0.70011 0.929949 0.368382 -0.236592 0.184014 -0.935641 0.111789 0.257507 
-0.998594 0.983789 -0.610047 0.400156 0.410895 -0.0432416 0.808149 -0.591317 -0.7684 0.685045 0.945133 0.0394327 0.112174 -0.769321 -0.31981 0.0446028 
0.206297 -0.5989 0.435002 0.545714 0.958459 0.575946 -0.188796 0.708992 -0.907906 0.163306 -0.40211 0.726494 -0.892842 0.882756 -0.584001 -0.624262 
0.0939243 0.380021 0.354769 0.167991 -0.0662967 -0.616943 -0.389075 -0.683648 -0.59665 0.947714 -0.799873 0.0411005 0.660087 0.27287 0.723031 0.189116 
-0.96801 0.223004 0.786971 -0.821999 -0.261097 0.503016 0.136974 -0.109952 -0.536982 -0.823046 0.801046 -0.797038 0.913022 -0.170013 0.313984 -0.900955 
-0.00200088 -0.897 -0.402004 -0.882999 0.789992 -0.131999 0.373999 0.692006 -0.552 -0.894005 0.184002 -0.152009 0.926001 -0.433 -0.765003 -0.592995 
0.977 0.471 0.205 -0.97 -0.0799999 -0.155 0.458 -0.241 -0.402 0.042 -0.192001 -0.723 -0.934 0.633 0.505 -0.722001 
0.29 0.311001 0.440001 -0.983 -0.598 -0.131 0.542999 -0.152001 -0.774 -0.239999 -0.942999 -0.137004 0.646 -0.51 -0.332 0.526 
0.385995 -0.389977 0.649003 -0.660995 -0.187029 0.162003 -0.642026 -0.780005 -0.563005 0.815006 -0.12499 -0.628023 -0.124004 0.389993 0.428996 -0.444985 
-0.989999 0.0771101 -0.216066 0.275041 0.434792 0.976022 -0.1601 -0.951968 -0.470979 -0.810005 -0.366987 0.36686 -0.363 0.322955 0.444997 0.003121 
0.994504 -0.913804 0.733986 0.451652 0.274213 -0.459021 0.925143 0.201213 -0.144048 0.304 -0.621415 0.391289 -0.566998 0.259918 -0.27408 -0.174824 
-0.873147 -0.309657 -0.810637 0.705342 0.932698 0.846595 0.719864 -0.116026 -0.38161 0.427609 -0.684523 -0.949606 -0.973902 -0.360163 0.730574 0.704844 
-0.531196 -0.434512 0.965474 0.883495 -0.531743 -0.0248765 0.751044 -0.34429 0.961641 0.227345 -0.486559 0.347813 -0.399467 -0.229204 0.617273 -0.227581 
-0.233917 -0.811537 0.567663 -0.00324817 0.95276 -0.0337028 0.37378 0.671443 -0.627957 -0.586041 -0.609232 -0.991598 0.486303 0.618613 -0.0459896 -0.39119 
-0.301096 -0.611256 -0.109221 -0.201345 0.109592 -0.782961 -0.372562 -0.903002 -0.525691 0.287751 -0.341989 0.651742 -0.908011 -0.253894 0.973415 0.124205 
-0.712995 -0.47664 0.946534 0.788816 -0.90024 -0.803327 -0.502476 -0.182519 -0.877084 0.845339 0.260921 0.738879 0.233243 0.0316549 -0.491793 -0.823629 
-0.558066 -0.348053 0.257054 0.237527 -0.540993 0.926447 -0.614051 -0.0141613 -0.193267 0.638489 0.473646 0.587856 -0.0728495 -0.624712 -0.287229 0.608533 
-0.858187 0.861128 -0.281728 0.819032 0.819801 0.688396 0.288354 -0.329624 0.137825 -0.126653 0.687994 -0.918693 0.560974 -0.0474367 -0.467601 -0.356271 
-0.319462 -0.865424 -0.37458 -0.599533 0.845482 -0.718885 -0.95551 -0.895748 -0.67649 -0.572165 0.0489611 0.381447 -0.859187 -0.0777739 -0.27175 -0.783488 
0.306123 -0.634781 -0.617776 -0.0154435 -0.203654 0.188851 -0.631722 -0.843447 0.645239 -0.668544 0.550332 0.113368 0.774552 -0.399937 -0.797263 -0.475607 
-0.44587 -0.165473 -0.552505 0.662826 0.154733 -0.39874 0.700714 0.280765 -0.912859 0.468628 0.362608 0.147268 0.613229 -0.52586 0.642557 0.960273 
-0.366675 0.39492 -0.42605 0.846948 0.111573 -0.94973 -0.00676712 0.993046 0.985832 0.768241 -0.373871 0.761115 -0.205661 0.694088 -0.631698 -0.916717 
-0.0851278 -0.283405 0.29238 -0.247167 -0.187945 0.500598 0.872178 -0.412917 0.285012 0.762333 0.68557 0.654817 0.000592371 0.474707 0.36431 0.623221 
-0.352434 0.996691 0.56029 0.586917 0.841006 -0.543656 0.991709 0.610469 -0.77451 0.985454 0.0434151 0.369589 -0.450903 0.880218 -0.55504 0.891219 
0.978582 -0.330045 -0.157237 -0.677319 -0.910353 0.96906 0.592308 0.579473 -0.931719 0.132514 -0.00466026 0.784751 0.268231 -0.54227 -0.483629 -0.693465 
-0.185139 -0.569276 0.67602 0.574581 -0.386129 0.891362 -0.954635 -0.00336689 0.342363 -0.297925 -0.50878 0.642727 0.813651 -0.438186 0.507241 -0.701925 
0.684813 0.870493 -0.628403 -0.0804866 -0.501697 0.0511284 -0.135921 -0.31752 0.0266797 -0.741735 -0.22896 0.121372 0.466524 -0.232004 -0.0728081 -0.150113 
-0.700419 0.724112 -0.332632 -0.704004 0.889235 -0.0314356 0.814687 -0.59815 0.248731 -0.642412 -0.144686 -0.537215 0.604729 0.808363 -0.565086 0.906029 
-0.578233 -0.119054 0.0333915 0.26313 -0.612814 -0.369281 0.465551 0.503721 0.384738 -0.416531 -0.294313 0.0789015 0.653087 -0.407026 -0.768394 -0.617583 
0.954748 0.80182 0.86636 0.166844 0.146077 -0.629082 0.137633 -0.365084 -0.684515 0.860621 0.322351 0.104234 -0.444768 -0.315583 -0.911608 0.114113 
-0.258992 0.763016 -0.352242 0.931839 -0.334009 -0.0469726 0.146004 -0.785859 0.595604 0.706072 -0.923982 0.267011 -0.270794 -0.518371 -0.491289 0.801485 
-0.506155 -0.428998 -0.494278 -0.302009 0.954442 0.144084 -0.556123 0.224453 -0.221662 -0.899392 -0.968705 -0.260013 -0.6969 -0.0751665 -0.472032 -0.440723 
-0.411022 -0.729993 0.848958 -0.0880022 -0.212136 0.563016 -0.600027 0.541071 0.514017 0.504941 -0.955943 -0.289075 0.375027 -0.716025 -0.894028 -0.741922 
0.396998 -0.606 -0.841005 0.123 -0.585018 -0.904 0.821999 -0.741994 -0.127 -0.124005 -0.603998 -0.29401 -0.894999 -0.205 -0.613003 0.143009 
0.141 -0.861 -0.612 -0.161 -0.723 -0.628 -0.248 0.396 -0.318 -0.229 -0.415 0.529 0.584 0.447 -0.132 0.939 
0.999 0.615002 0.521999 -0.758 -0.288001 -0.292999 0.630997 -0.152002 0.454 0.971002 -0.509998 -0.791006 0.458 -0.0750002 -0.273001 0.868001 
-0.0360049 0.555031 0.905002 0.289011 0.206962 0.355003 0.395964 0.322994 -0.659011 0.0490003 -0.365975 -0.21604 0.425992 0.785988 -0.389008 -0.177973 
-0.131019 -0.741867 -0.589105 -0.199936 -0.196395 -0.0149326 -0.497239 -0.63795 -0.392018 0.92198 0.0400874 0.400687 0.936984 -0.988118 0.346975 -0.0807173 
0.0915548 0.148058 0.159908 0.404688 0.423845 -0.909866 0.329938 0.281407 0.888795 -0.205101 0.638979 0.411154 0.983973 0.646594 -0.343911 -0.629852 
0.503933 0.0995551 0.761421 0.71535 0.962377 -0.460967 0.501447 -0.575538 0.818765 0.408319 -0.943542 -0.995473 -0.568952 0.584347 0.0927444 0.803205 
0.946785 0.533745 0.264727 -0.191456 0.62278 -0.01612 -0.244572 -0.901735 -0.108008 -0.553317 0.244109 0.76029 -0.584621 0.740162 0.0619801 -0.395726 
-0.97822 0.824891 -0.137953 -0.756678 -0.226103 0.342452 -0.268911 -0.243185 -0.739894 0.0910498 -0.494438 -0.0127873 0.139036 -0.695205 0.998286 -0.702398 
-0.584547 0.777477 -0.551421 0.465101 -0.719462 0.277009 -0.858008 -0.450243 0.363495 -0.573354 -0.334963 -0.190818 0.962338 -0.622306 0.381488 -0.416066 
-0.459482 -0.892016 0.650023 -0.407694 -0.631877 -0.326721 0.03131 -0.736569 0.257963 -0.612925 -0.37235 -0.888711 -0.962762 -0.404321 -0.627587 0.195828 
0.548799 -0.842733 0.293677 -0.714851 0.94788 0.813748 0.931962 -0.265641 0.481605 -0.925096 -0.75654 0.714354 -0.129755 0.933324 0.140007 -0.926864 
0.807897 0.603928 0.659507 -0.166176 0.949568 -0.369398 0.202095 0.167184 0.383616 0.63291 -0.133914 0.620864 -0.585513 -0.211365 0.727624 0.0778247 
-0.912516 -0.825924 0.814501 0.26453 -0.820876 -0.278239 -0.179671 0.00773213 0.911436 0.491815 -0.784038 -0.26835 0.469489 0.62449 -0.857627 -0.0652003 
0.0287869 0.657677 -0.224247 -0.567442 0.729311 -0.546976 -0.674026 -0.272771 0.0823226 -0.617388 -0.521318 -0.905933 -0.59564 0.748174 0.384917 1.01672 
-0.830127 -0.454483 0.306738 0.35611 -0.845937 0.275736 0.524379 0.993051 0.926178 0.204924 0.168407 0.0817628 -0.371185 -0.744703 0.389259 0.74515 
-0.654106 -0.185076 0.539345 -0.708208 -0.986896 0.907579 -0.278719 0.693101 0.983986 0.361469 0.385318 0.860677 0.616575 -0.783299 -0.660422 -0.378271 
0.169449 -0.119204 -0.990545 0.384487 -0.170423 -0.189851 -0.782335 0.334266 -0.985934 -0.828511 -0.948916 0.867883 -0.463546 0.455654 0.699628 0.632589 
0.279606 -0.164698 -0.176192 0.922349 0.947799 0.9016 -0.573572 -0.399579 0.920904 0.331448 0.0904722 0.534812 -0.956671 0.490211 -0.850905 0.028811 
0.832037 0.0907775 -0.784141 -0.194662 -0.0628102 0.49882 0.0251359 0.224937 -0.913424 0.396441 0.679536 -0.225016 -0.31519 0.708009 0.0722145 0.257987 
0.35709 0.935587 -0.357115 0.498553 -0.852268 0.86842 0.207084 -0.458873 -0.600328 0.495735 -0.808281 0.917264 -0.315837 0.690154 0.260758 0.922687 
-0.376322 0.241633 -0.887704 0.271499 -0.957031 0.104194 0.622589 -0.878318 0.725194 -0.717872 0.21154 0.71598 0.116123 0.08149 0.476194 0.802495 
0.967961 0.100424 -0.414785 0.377959 -0.935007 -0.62779 -0.369425 -0.435929 0.0898442 -0.287373 0.951243 0.997777 -0.379396 -0.160044 0.470085 -0.755609 
-0.840992 -0.853236 0.766345 0.0682924 0.494918 -0.306914 -0.296541 0.96996 -0.31417 0.457793 0.718292 -0.552309 -0.584952 0.712481 0.927077 0.957865 
0.725094 -0.800293 0.666786 0.771502 0.247209 -0.182904 -0.782074 0.815024 0.360051 0.377206 -0.528432 0.0877545 0.475233 -0.276916 -0.752517 0.185891 
0.516726 -0.718131 -0.929418 -0.660079 0.499448 0.235121 -0.37532 0.274203 0.947919 -0.995082 0.389256 -0.0826756 0.243222 0.337517 -0.815691 -0.0427108 
-0.361197 0.0939777 0.259674 0.53099 -0.747822 -0.334905 -0.763199 0.390478 0.971266 -0.973434 -0.502498 0.459793 -0.815913 0.490813 -0.901113 -0.508599 
0.939976 -0.110007 -0.894043 0.413 -0.502164 -0.776983 -0.210033 0.562077 0.125014 -0.779062 0.9951 -0.0541033 0.578022 0.753971 0.200968 0.523076 
-0.587001 -0.902 0.545999 0.686999 -0.522009 -0.788001 -0.0820001 -0.517997 0.684 -0.286003 -0.643997 -0.981004 0.458001 -0.873001 -0.270001 0.401006 
-0.174 -0.108 0.766 -0.976 -0.456 -0.245 -0.898 -0.381 -0.711999 -0.616 -0.579 0.756 0.635 -0.332 -0.801 0.410001 
0.213 0.508003 -0.865 0.915 0.561999 0.354 -0.698002 -0.766001 0.114999 -0.589999 -0.736997 0.0739922 -0.908001 0.984 -0.119 -0.0519996 
-0.960002 -0.575953 0.301 0.781016 -0.298044 -0.707001 0.895941 -0.980012 -0.0990165 -0.544992 -0.0209565 0.977926 -0.986008 -0.993004 -0.327006 0.699039 
0.0659703 -0.931779 -0.0152022 -0.475912 -0.236588 0.587123 0.628574 0.118075 -0.889075 0.601945 -0.677773 -0.958594 -0.813046 -0.0581781 -0.503046 0.188519 
-0.627442 -0.162043 0.612762 -0.0671676 0.346479 -0.168722 -0.450432 0.596586 0.65941 0.608721 -0.969569 -0.883292 -0.676079 0.905403 0.322112 -0.811519 
0.226938 0.736833 -0.590637 -0.53229 0.878265 0.239517 -0.893216 -0.36923 0.915312 -0.847103 -0.310542 -0.947959 -0.607128 0.247951 0.797539 0.199228 
-0.989125 0.931098 -0.271693 -0.330725 0.703476 0.496702 0.941866 -0.0245362 -0.345847 0.00519435 0.826541 0.625974 0.482846 -0.274359 0.578469 0.701239 
-0.353007 -0.84669 0.376251 0.640678 -0.512342 0.934764 -0.248336 -0.0113023 -0.770991 -0.0195568 -0.528179 0.339358 0.901105 -0.249218 -0.0383449 -0.677034 
0.598973 -0.278712 -0.749283 -0.940624 -0.992199 0.481941 0.152911 -0.965041 -0.106087 0.482172 0.25966 0.819763 0.726143 -0.734862 0.141131 -0.138075 
-0.867116 0.712639 0.662871 0.0509463 0.0162098 0.669451 0.0107006 0.735151 -0.0929797 0.149984 -0.945243 0.536061 0.215143 -0.407013 0.676268 -0.542885 
-0.286641 -0.788629 0.670864 -0.957367 -0.430572 -0.186821 0.531775 0.677257 0.0877715 0.868476 -0.94982 0.117235 -0.405469 0.31645 -0.552024 -0.92307 
0.260693 -0.977164 -0.0570424 0.0997013 -0.109997 -0.971633 -0.405949 0.89785 -0.247747 -0.513056 -0.974569 -0.546497 -0.0791159 -0.709685 0.130545 -0.0145508 
0.090103 0.850857 -0.150076 -0.514922 0.466918 0.875251 -0.610086 0.826818 0.661479 -0.782462 0.81125 0.181976 -0.821785 0.81677 -0.323264 -0.529641 
0.464462 -0.156348 -0.20876 -0.169393 0.617287 -0.331236 0.973053 -0.699776 0.495299 -0.0433243 0.0192028 -0.761097 0.37611 0.425082 -0.512209 -0.687504 
-0.835865 -0.227525 0.530294 0.150223 -0.122228 -0.64112 0.354041 -0.0260177 0.639334 0.464363 -0.493578 -0.498111 0.106366 0.285392 0.743847 0.724546 
-0.355086 -0.0254493 -0.651363 0.477763 -0.966079 0.309899 0.125074 0.564298 0.296245 0.542532 0.87024 -0.20818 0.483567 -0.308146 0.191283 -0.38099 
0.0650868 -0.16123 -0.447634 0.189898 -0.714219 -0.214845 -0.270326 0.564945 -0.958846 -0.168337 0.533223 0.28053 -0.906618 -0.459575 -0.691688 -0.460041 
-0.615454 -0.41316 -0.367496 -0.112355 0.509082 0.580264 0.1723 0.0265142 -0.0209848 -0.806157 -0.313845 0.825151 -0.768404 -0.428432 -0.362108 0.144661 
0.535403 -0.621373 -0.640227 -0.601003 -0.0508901 -0.187446 -0.967032 -0.870212 -0.461402 0.735143 0.543371 -0.692323 -0.604652 -0.217372 -0.957293 -0.325809 
-0.562951 0.398278 0.803836 -0.195014 0.949473 0.629034 -0.671119 -0.423718 0.808786 -0.474615 0.742612 0.708786 0.144774 -0.324608 -0.0505167 -0.85721 
0.331978 -0.0456361 -0.95265 -0.232824 0.42425 0.388904 -0.387307 -0.30846 0.705536 0.534892 0.374755 0.523345 0.0428953 -0.500269 0.0624288 -0.882931 
-0.283041 -0.965234 0.130947 -0.61378 0.341941 -0.560003 0.534186 0.905104 0.989104 -0.112439 -0.852924 -0.765784 0.833567 0.438843 0.768157 0.353941 
-0.166811 0.784608 0.527541 -0.391633 -0.639701 -0.699415 0.0041847 0.532913 -0.867936 -0.192867 -0.290187 0.798241 0.917998 0.314296 -0.00222384 0.888326 
-0.1674 -0.382594 -0.297767 0.710852 0.457325 -0.864574 0.689174 0.421955 -0.353277 -0.14216 -0.552212 -0.409628 -0.854782 0.368968 0.0136677 0.836495 
-0.890445 -0.932283 -0.0946582 -0.293059 -0.0458912 0.701293 -0.521645 0.495028 -0.745645 -0.875218 0.11448 -0.354325 0.443181 -0.0864449 -0.485019 -0.212192 
-0.910153 -0.803059 0.56861 -0.567014 -0.852808 -0.869897 0.20373 -0.137619 0.836153 -0.540414 0.230568 -0.389326 -0.690932 -0.432114 0.0298768 -0.861652 
-0.0680141 0.00098935 0.101954 -0.809003 0.405877 0.80401 -0.421037 0.673047 -0.789992 -0.0350382 -0.962935 -0.781081 0.818006 0.0489905 -0.288021 -0.353976 
-0.282002 0.0380015 0.288996 -0.310001 0.0329949 -0.328 0.988992 0.453001 -0.455999 -0.834997 -0.496999 -0.23001 0.569 -0.260999 0.967998 0.837008 
0.224 0.456 0.388 -0.634 -0.704 0.658 0.586 0.42 0.832 -0.975 0.276 0.309 -0.909 0.842 0.721 -0.213 
0.109001 0.389005 -0.617 0.721002 -0.413002 -0.623 0.923998 0.437999 0.913996 0.662002 0.855005 -0.823007 0.705999 -0.580999 0.643 -0.697999 
-0.387998 0.521079 0.691995 -0.592971 0.217952 0.144 0.747908 0.414982 0.878961 0.521022 0.448088 0.650895 0.0869853 0.474997 -0.121002 0.858068 
-0.417021 0.94631 -0.813277 0.407111 -0.712663 0.925147 -0.605596 -0.139932 -0.680106 0.389925 -0.232555 0.65515 0.353919 -0.328147 -0.554052 0.156718 
-0.120509 -0.499987 -0.707419 0.203047 -0.692683 -0.491661 0.584116 -0.710398 0.271035 -0.420409 -0.871083 -0.451004 -0.0591781 -0.498567 0.79399 0.994038 
-0.841179 -0.3804 0.156303 0.802337 -0.536691 -0.171304 -0.712937 -0.986315 -0.2352 0.933744 0.0771164 -0.166248 -0.0804702 -0.99919 0.205176 0.0464231 
0.508979 -0.0906649 0.362673 0.208541 0.780705 -0.934856 0.584199 -0.225789 0.393263 -0.990888 -0.0536325 0.792522 0.0999751 -0.232889 -0.186061 0.585428 
0.777681 0.767492 -0.130516 -0.163442 -0.547039 -0.800262 0.227287 0.758182 -0.29033 0.858447 0.729924 0.815962 -0.876249 0.901742 0.0131838 -0.584627 
-0.0961808 0.719084 0.879458 0.827468 -0.598995 -0.0416545 0.738225 0.547128 0.017237 0.671417 0.402194 -0.733324 -0.209073 0.721112 -0.756106 -0.642435 
0.542492 -0.0296422 0.549331 0.386278 -0.558616 0.984492 -0.195264 -0.10201 0.77576 0.253901 -0.210532 0.804831 -0.537525 0.00670762 -0.0686703 0.962195 
-0.60053 -0.651051 0.476096 0.100128 0.00780491 0.162497 0.537784 -0.384361 -0.380836 -0.95574 -0.10532 -0.739141 -0.914821 -0.586688 0.435443 0.521783 
-0.21253 0.022126 0.478107 -0.348722 0.616861 -0.0464503 -0.123634 0.103273 0.293627 -0.174766 -0.77856 -0.820482 0.0487413 -0.981712 -0.706683 -0.824468 
-0.737832 -0.0279748 -0.0718014 -0.535938 0.439368 -0.7489 0.679494 -0.760199 -0.625417 0.897455 0.643664 -0.296896 -0.170983 -0.27036 -0.0591738 -0.463865 
0.94286 -0.293496 -0.620659 -0.982724 -0.218499 0.484073 -0.941275 0.229295 -0.257056 0.558108 -0.195933 0.423373 -0.999267 0.997977 -0.5922 0.0250209 
-0.0804368 -0.796789 -0.876656 0.253063 0.631752 -0.366963 -0.306743 -0.0589938 -0.397969 -0.113496 -0.934064 -0.278182 0.41282 -0.396831 0.587353 0.418884 
-0.0309419 0.696078 -0.705235 0.0523995 -0.467393 0.248469 -0.535897 -0.769579 -0.181705 -0.143705 0.982637 0.769127 -0.252064 0.295076 -0.908528 0.0344115 
0.258013 -0.681486 0.737367 0.722079 -0.17149 -0.68069 0.489937 0.805733 -0.450434 -0.3442 0.859053 -0.453718 0.0797788 0.576384 0.41245 -0.55895 
0.675622 0.655166 -0.138716 0.171206 -0.541551 0.0585616 -0.402848 0.7818 0.332539 0.85171 -0.691758 -0.503864 -0.960025 -0.354852 0.65201 -0.761103 
0.0864944 0.609393 -0.333971 -0.535847 -0.187344 -0.386439 -0.960376 -0.372699 -0.586565 -0.128272 -0.879987 0.307384 -0.154217 -0.196859 0.459945 0.695757 
0.573631 0.491464 -0.623729 -0.545307 -0.468481 0.0139525 0.584329 -0.891597 -0.917217 -0.583472 0.894927 -0.686874 0.930501 -0.922882 -0.412163 -1.0011 
0.617045 -0.647396 0.84218 0.80562 0.905313 -0.582752 -0.2374 -0.465074 -0.929329 0.311954 0.067587 0.280911 -0.729057 -0.7449 -0.239678 -0.260446 
0.106959 0.30827 -0.744004 -0.607498 -0.032835 0.588643 0.740885 -0.528412 0.801395 -0.916133 -0.695149 -0.418363 -0.748416 0.974922 0.458762 -0.614548 
0.292485 0.714394 0.62689 -0.605946 0.287414 0.772118 0.105267 -0.0855132 -0.668338 -0.494255 0.296366 0.676466 -0.772999 0.203354 0.0918538 0.692282 
0.182344 -0.119907 -0.73107 -0.367979 0.601248 0.318741 -0.887257 0.614586 0.373869 -0.153167 0.154467 -0.173535 -0.0847894 -0.663867 -0.211854 0.256425 
0.176503 -0.149401 0.967212 -0.416029 -0.624683 0.246421 -0.98072 0.406786 -0.837967 0.74387 0.746268 -0.659588 -0.567821 -0.942295 -0.506161 -0.845105 
-0.906141 0.512904 -0.46238 -0.602013 -0.495652 -0.660865 0.250754 -0.926733 0.847049 -0.781341 0.479486 0.216709 0.145071 -0.554051 -0.400097 0.498303 
-0.203014 -0.859011 0.924938 0.839997 -0.801097 0.00902081 0.65596 0.443037 -0.00799511 0.689952 -0.525929 0.457936 -0.920993 0.287994 -0.0270182 -0.699977 
0.0639999 -0.345999 0.0669969 -0.0700002 0.825998 -0.148 0.674995 -0.822999 -0.265999 -0.379998 0.893001 0.0229934 0.94 0.959001 -0.882002 0.0280048 
0.376 0.945 -0.547 0.035 0.565 -0.174 0.67 -0.288 -0.12 -0.474 -0.041 -0.54 0.977 -0.8 0.274 0.783 
0.781001 -0.493994 -0.0129997 0.501002 -0.432004 -0.808 0.713994 0.740999 0.704997 0.694001 -0.869992 0.229996 0.614 -0.402001 0.139001 0.546003 
-0.238001 -0.232899 -0.146016 -0.551976 0.827947 -0.469996 0.223884 -0.308025 0.113956 -0.112976 0.960126 0.113881 -0.755015 -0.536006 0.642999 -0.180905 
0.325982 -0.0516584 -0.456314 0.863117 0.969414 0.455122 0.359281 0.908042 -0.102138 0.0629564 -0.415333 0.924042 -0.4421 -0.0861063 0.129936 0.479783 
-0.196693 0.399274 -0.215571 0.000176478 0.649374 0.554301 -0.0213453 0.888468 0.907821 0.851599 0.662294 0.827359 0.2428 -0.718443 0.0657007 0.881776 
-0.524585 0.379081 0.570116 0.639028 0.349393 0.641664 0.642329 0.776243 0.0715658 -0.96809 0.699194 -0.859933 0.70833 -0.406084 0.828562 0.344783 
0.206909 -0.226318 0.790621 -0.750018 0.774574 -0.838689 0.569291 0.0625526 -0.897163 0.713506 -0.39462 0.189229 0.714331 0.753821 -0.967579 -0.0721698 
-0.0658492 0.339456 0.789989 0.0944739 -0.889639 -0.719703 0.566151 -0.462931 -0.783046 0.886209 0.333597 0.250008 0.77553 0.0854261 0.703809 0.614281 
-0.0956398 0.347933 -0.465552 -0.29497 0.958677 -0.0139774 0.593035 -0.235419 -0.464235 -0.246169 -0.563784 0.190138 0.412606 -0.252731 -0.469443 -0.983279 
-0.903114 -0.637181 0.567679 0.902705 0.894879 -0.19643 0.628553 0.334051 0.718509 -0.636859 0.697478 0.558796 0.555461 -0.0254427 0.497419 -0.138478 
-0.00859229 0.725938 0.252986 0.203496 0.56915 -0.582841 -0.776542 0.0350833 0.446505 -0.0628025 0.926564 0.688915 -0.364606 0.0307254 0.750579 0.928192 
0.525942 0.962906 0.331586 0.601716 -0.277213 0.935214 0.83765 -0.361328 -0.335054 0.191744 0.357432 0.247898 0.150051 -0.551013 0.153461 0.605474 
0.493883 -0.199452 -0.595398 -0.245368 -0.792923 -0.252375 0.538807 0.239143 -0.233927 -0.786514 -0.79213 0.950423 -0.475885 -0.55827 0.156923 0.225249 
-0.0575495 -0.893433 -0.821185 0.452274 0.623699 -0.532523 -0.0471964 -0.59305 -0.70685 0.00250434 -0.221934 0.438524 -0.562216 -0.781159 -0.879783 -0.0763765 
-0.099243 0.60372 -0.0565825 0.795388 0.565431 -0.659387 0.431798 -0.00156059 0.803091 -0.806706 -0.689908 0.898998 0.22909 -0.135871 -0.0480217 -0.269986 
0.302978 0.651952 0.526723 -0.717143 -0.821655 0.564461 -0.0862585 0.162104 0.827423 -0.305467 0.547755 -0.610138 -0.853552 0.353048 -0.872375 -0.0924306 
-0.675327 0.899618 -0.232722 -0.851847 -0.817812 0.158584 0.728705 -0.336774 -0.664489 -0.521981 0.604595 0.630587 0.752194 0.797087 -0.917689 0.817181 
-0.0570394 -0.477169 0.460868 -0.385072 -0.957202 0.984571 0.453514 0.681678 -0.163046 -0.420125 -0.17901 0.721561 -0.985783 0.311713 0.320123 -0.302474 
0.335494 0.934027 -0.392305 0.975675 -0.935045 -0.544748 0.0131448 -0.329657 0.85615 -0.321627 -0.437079 0.0857372 -0.12984 -0.657075 -0.030948 0.376401 
0.903391 -0.193899 -0.111737 0.632249 -0.816364 0.014588 0.535869 -0.00506132 0.653098 0.711643 0.625567 0.714957 0.857519 -0.929528 0.648424 -0.550098 
0.671668 0.163756 0.0799882 0.171085 0.60144 0.854188 0.383002 -0.0523426 0.236778 -0.474102 -0.214072 -0.123097 -0.327751 0.657281 -0.206262 0.299684 
-0.613308 0.0185655 -0.399275 0.620369 -0.888178 0.848695 0.619494 0.927626 -0.999843 0.115954 -0.0957818 -0.167897 -0.196253 0.967162 -0.716137 -0.429802 
0.53736 0.472371 0.154718 0.0173266 -0.803251 -0.419837 -0.569847 -0.550199 0.0459585 -0.958969 0.0120798 -0.455344 -0.443943 0.268666 -0.758767 -0.958821 
-0.707693 0.195069 -0.488031 0.0311013 0.118737 -0.0272893 -0.105181 -0.670904 0.287598 -0.262833 -0.58328 0.39815 0.755206 -0.816621 -0.342153 -0.514301 
-0.475469 0.97463 0.688312 -0.628989 0.792661 -0.614647 -0.0566077 0.920558 -0.225022 -0.839903 -0.675105 0.970449 -0.533814 0.234785 0.958812 0.540937 
-0.557117 0.0559249 0.653743 -0.503002 0.338577 0.709102 -0.943156 -0.69784 -0.676977 -0.963222 0.338287 0.915815 0.697064 0.49096 0.401936 -0.810759 
-0.31301 -0.00300554 0.119961 -0.433004 0.948936 -0.0739861 0.522976 0.591026 -0.151999 0.034964 0.691059 -0.256036 0.658005 0.511998 -0.902011 -0.227986 
0.355 -0.229001 0.409 0.753 0.447999 0.745 0.303999 -0.488 0.916 0.855 0.198 -0.238 -0.843001 0.196 0.418 0.164 
-0.296 0.318 -0.455 -0.187 0.695 0.154 -0.567 -0.746 -0.382 -0.2 -0.571 0.561 0.932 0.358 0.546 0.26 
-0.0569995 0.723003 0.817 -0.287998 0.905998 -0.168998 -0.961005 0.108998 -0.270001 -0.91 -0.662993 0.720996 0.975 0.273999 0.116 -0.318997 
0.256997 -0.534921 -0.357017 -0.0409806 -0.550029 0.621008 -0.0221031 -0.0440301 0.133971 0.274016 0.747133 0.294874 -0.600013 -0.139007 0.462998 0.255092 
-0.186023 -0.949706 -0.0322457 0.926095 -0.98335 -0.214918 0.931368 0.26998 0.893875 -0.988005 0.292647 0.983206 -0.464072 0.46093 -0.898051 0.499656 
-0.582916 -0.890533 -0.248529 0.490217 -0.363132 -0.0558246 0.964613 0.770177 0.602752 -0.745249 -0.561 0.920203 0.486862 -0.523246 -0.790639 0.56412 
-0.726176 -0.969083 -0.628192 -0.413522 -0.911014 -0.441532 0.389946 0.963566 0.460847 0.182182 0.419315 0.845775 -0.465547 0.39614 0.026705 0.707956 
0.186324 0.442002 0.0231847 0.0741265 0.990956 -0.125832 0.401429 -0.439595 -0.074005 0.991238 0.95426 -0.640444 -0.0736897 0.956995 -0.581439 -0.983571 
-0.981134 0.461131 -0.335301 0.293892 -0.945776 -0.599527 -0.672559 0.181291 0.182501 -0.930157 0.956116 -0.910889 0.977084 -0.522168 -0.494799 -0.120387 
0.491322 0.333807 -0.736066 -0.755827 -0.206045 0.693326 0.567173 0.910916 0.401067 0.945585 0.319847 -0.0577199 0.463661 0.420996 0.456047 -0.296515 
-0.259411 0.0577313 -0.944797 0.289371 -0.918835 -0.0736629 -0.381047 0.938738 -0.794428 0.598631 0.255296 0.05266 -0.348006 -0.985326 0.887512 0.619009 
-0.0466272 -0.355566 0.629339 -0.053648 -0.825534 0.278527 0.476769 -0.497728 0.328146 0.570973 -0.318196 -0.671102 0.46257 0.824998 -0.343012 -0.263765 
-0.00475415 -0.715005 0.879789 -0.246387 -0.582579 -0.955719 -0.577026 -0.258953 0.375871 -0.788109 -0.975886 -0.21036 0.191168 0.839815 -0.970804 -0.683271 
-0.871316 0.913119 -0.822575 0.295261 -0.732955 0.875691 -0.108577 -0.49886 -0.904453 -0.537516 -0.919976 -0.111045 -0.712585 0.41634 -0.603009 0.0205865 
0.0260585 -0.704706 0.376103 -0.326966 0.387633 -0.964153 0.100139 -0.351599 0.996983 0.260611 -0.891719 0.687573 -1.0007 0.68652 -0.480843 0.624082 
0.724404 0.664137 -0.461597 0.755618 -0.481585 0.80046 0.0700695 0.557608 -0.385554 0.257318 0.925055 -0.890511 -0.382973 -0.658926 -0.74941 -0.283726 
0.551626 -0.793877 -0.893215 -0.949758 -0.66816 -0.984627 0.0335232 0.748531 0.214595 -0.934052 0.236709 0.099773 -0.970481 0.813064 0.695538 0.200758 
-0.846432 -0.152913 0.225715 -0.51284 0.227435 -0.0347268 0.989175 0.432157 -0.881064 0.976075 -0.504402 -0.57847 0.981265 0.283157 -0.458674 0.997182 
-0.331631 -0.644369 0.537114 -0.327038 0.431697 0.158011 -0.427424 0.158206 -0.036175 0.656915 0.469545 0.759328 -0.686557 -0.908129 -0.847396 -0.480837 
0.513732 0.656944 0.113011 0.526759 -0.0709343 0.808414 -0.622014 -0.406399 -0.372745 0.409017 -0.128483 -0.423665 -0.0830263 -0.475513 0.373412 -0.148318 
-0.0535677 -0.987131 -0.284114 -0.937698 0.417326 0.00781842 -0.176929 -0.294166 0.0331587 0.804912 0.221448 -0.252262 -0.569058 0.983633 0.685653 0.303525 
-0.464185 0.498706 -0.0378262 0.564773 0.0079142 0.441479 0.70844 -0.460832 -0.225888 -0.223126 -0.66104 0.0483503 -0.960343 -0.291391 -0.461192 0.509944 
-0.651179 0.948953 0.348902 0.606492 -0.20821 0.172154 0.619055 0.0896179 0.672903 -0.278153 -0.189984 0.62607 0.264953 0.784672 -0.626735 -0.708204 
0.184511 -0.0202898 -0.346025 -0.312729 0.391743 0.506791 0.714725 -0.907888 0.650107 0.284807 -0.756278 -0.81913 -0.0288586 -0.448924 -0.905081 0.223223 
0.300448 0.386327 -0.273747 0.325076 -0.861503 -0.908575 0.829219 -0.0423411 -0.949237 -0.697302 0.673021 0.520327 0.0171828 0.854529 0.0227993 0.252487 
0.577661 -0.602235 -0.114438 -0.611989 0.320159 -0.988827 -0.900396 -0.9717 -0.490945 0.821381 -0.42149 -0.0413874 -0.0468735 -0.941135 -0.632152 0.0417496 
0.616909 -0.540049 0.252859 -0.349998 -0.414215 0.807041 0.525911 -0.250919 -0.726981 0.963851 -0.174857 0.269903 -0.104965 -0.0780237 0.945947 0.746186 
0.53099 0.569998 0.309983 0.267996 0.807982 -0.740997 -0.93001 -0.546987 -0.696 0.255984 -0.545978 0.00298542 0.00100567 0.142999 -0.881006 -0.265991 
-0.656 -0.172 0.993 0.190999 0.34 0.957 0.517001 0.465 0.372 -0.969 -0.293999 0.588 -0.045 -0.455 -0.346 -0.177 
0.018 0.687 -0.904 -0.593 0.951 0.922 -0.196 -0.81 0.381 -0.0899997 0.798 -0.883 0.444 0.012 0.914 -0.836 
0.154 -0.407 -0.941 0.657 0.386 0.479 -0.885001 -0.944 -0.46 0.282 0.339001 0.827 -0.434 0.582 -0.069 -0.909999 
0.713002 -0.768954 0.603989 0.684023 -0.842013 0.504006 0.747933 -0.842026 -0.917025 -0.447988 0.498092 0.506894 0.152995 -0.526004 0.521996 -0.314936 
-0.816011 0.541211 -0.245132 -0.0609252 -0.747139 0.676039 0.902605 -0.197059 0.433888 -0.217985 -0.668595 -0.25455 -0.130033 0.254952 -0.936032 0.410408 
-0.320046 -0.639533 0.777657 -0.772791 0.381471 0.110092 0.0859524 0.22992 0.841672 -0.297017 -0.0457772 -0.284543 -0.688082 0.16989 -0.784929 -0.327985 
0.729262 -0.793476 -0.799299 0.794559 0.0829123 0.915249 -0.334772 0.00997065 -0.364221 -0.0312918 0.486702 0.279576 -0.674297 0.157544 0.311768 -0.0946101 
0.446346 -0.548389 0.68175 -0.265549 -0.651936 -0.861271 -0.0307021 -0.162794 -0.144406 0.560263 0.760812 0.00107515 0.647875 0.568621 0.235117 -0.244718 
-0.44828 -0.19609 -0.594135 0.931544 -0.507955 0.167885 -0.0794578 0.468301 -0.88106 0.802792 -0.348747 -0.296996 -0.303208 -0.360435 -0.798437 0.252051 
0.2379 -0.441844 0.0367877 -0.153956 0.403065 0.592701 -0.410414 0.435969 0.179535 -0.457529 0.860182 -0.73903 0.96974 -0.0243131 -0.14039 -0.872228 
-0.197381 0.534174 0.728326 -0.844312 0.481202 1.00089 -0.00473258 -0.239095 -0.673939 -0.0735881 -0.67543 0.23165 0.0671546 -0.0406434 0.459638 0.388131 
0.438062 -0.74223 0.609211 -0.92711 0.897272 -0.162982 0.571021 0.738426 -0.128586 -0.719141 0.540562 0.492299 0.862871 -0.701337 0.338127 0.468544 
-0.669483 -0.722397 -0.582146 0.450931 -0.476374 0.0414725 -0.111652 -0.963767 0.859452 -0.571581 0.356955 -0.513381 -0.707096 -0.329122 -0.913788 0.271884 
-0.178368 -0.191847 -0.40571 -0.89749 -0.502774 -0.467387 -0.413327 -0.75012 -0.38017 0.859725 0.450527 -0.363049 0.991114 0.271542 -0.118286 -0.978733 
0.904693 0.674045 0.842204 -0.326808 0.243119 -0.012011 0.636597 -0.615801 0.791913 0.914665 -0.494738 0.195369 -0.921667 -0.309505 0.811629 0.896734 
0.390594 0.154014 -0.238458 -0.505769 -0.588569 0.715852 -0.733489 -0.506145 -0.968764 0.566229 0.67922 -0.71679 -0.205556 0.692083 -0.253898 -0.484826 
0.232165 -0.970793 -0.0538905 0.617279 0.968712 -0.557204 -0.768405 -0.768639 0.801109 0.130571 -0.898901 -0.728611 -0.634602 -0.533693 0.884431 0.722226 
-0.912749 -0.0328577 -0.225676 -0.791691 -0.538996 0.483517 -0.263008 0.491096 -0.296583 0.679364 -0.661615 -0.107786 -0.208201 -0.502275 0.39603 -0.770749 
-0.0535322 0.634112 -0.424672 -0.582861 0.410677 0.763851 0.939557 0.492282 0.573559 -0.412667 -0.648911 -0.977845 0.483557 0.351818 -0.255413 -0.911341 
-0.531776 0.928249 0.65336 0.626884 -0.823439 0.761165 -0.128338 -0.647477 0.339398 -0.830948 -0.0358271 0.857642 0.816658 0.152963 0.553413 0.945778 
-0.393853 -0.527044 -0.310081 -0.837624 0.289362 -0.55237 -0.993011 -0.363691 0.89007 -0.52842 0.355539 0.39694 -0.999376 -0.237951 -0.365383 -0.250031 
